SVM-light Version V6.20
1 # kernel type
3 # kernel parameter -d 
1 # kernel parameter -g 
1 # kernel parameter -s 
1 # kernel parameter -r 
empty# kernel parameter -u 
30 # highest feature index 
171 # number of training documents 
501 # number of support vectors plus 1 
0 # threshold b, each following line is a SV (starting with alpha*y)
2.455548234015165e-012 1:316.51801 2:299.591 3:298.974 4:188.608 5:184.164 6:183.786 7:220.276 8:218.60899 9:218.88 10:134.082 11:133.13499 12:133.457 13:223.8 14:222.326 15:224.62399 16:136.08299 17:135.203 18:136.367 19:231.94 20:233.791 21:234.127 22:140.748 23:141.88699 24:141.66499 25:228.99899 26:231.80299 27:229.70799 28:140.91901 29:141.99001 30:141.317 # frame 8
3.1064261225327055e-012 1:351.4454 2:338.66605 3:350.29901 4:200.3243 5:196.6447 6:200.00191 7:227.53645 8:227.49274 9:226.76787 10:137.1965 11:137.2827 12:136.8766 13:216.56721 14:216.31087 15:216.57202 16:133.3127 17:133.30721 18:133.39951 19:241.5441 20:239.84099 21:241.06403 22:144.03709 23:143.45461 24:143.77499 25:241.36153 26:242.48471 27:240.68991 28:145.39841 29:146.0806 30:145.21381 # frame 8
-7.2045534575162005e-013 1:53.019108 2:127.67429 3:80.719353 4:76.427498 5:119.2289 6:94.827301 7:231.58609 8:227.86105 9:228.51497 10:139.3745 11:137.90849 12:138.2393 13:229.36804 14:225.8002 15:229.60104 16:139.2645 17:137.9655 18:139.608 19:230.25548 20:233.28886 21:232.25819 22:140.6333 23:141.4287 24:141.19209 25:239.6048 26:240.81937 27:240.07458 28:144.8094 29:145.6626 30:145.2123 # frame 8
2.3831838275213626e-014 1:311.26508 2:296.24716 3:300.13998 4:188.2822 5:183.6506 6:184.86501 7:222.9776 8:223.17497 9:221.80896 10:134.1765 11:133.9809 12:133.6353 13:215.95972 14:216.80261 15:216.3148 16:132.6501 17:133.131 18:133.1443 19:234.35715 20:237.09972 21:235.0638 22:141.73441 23:142.60629 24:141.8011 25:229.96524 26:231.765 27:234.73795 28:141.3549 29:141.80521 30:143.1174 # frame 8
-5.3295236200695518e-012 1:342.05371 2:331.81601 3:343.22153 4:197.40109 5:194.4201 6:197.7527 7:228.4279 8:229.21124 9:229.62016 10:138.4088 11:138.59351 12:138.8923 13:219.82498 14:222.04439 15:219.73106 16:135.2628 17:136.1991 18:135.2935 19:234.61801 20:236.18994 21:234.58839 22:140.9841 23:141.63741 24:141.1122 25:239.26233 26:239.70718 27:240.33051 28:144.7191 29:145.1221 30:145.1368 # frame 8
7.4802690225118811e-013 1:121.85304 2:128.70876 3:132.67883 4:117.1251 5:120.3917 6:122.2661 7:216.36855 8:218.1871 9:215.82968 10:132.9982 11:133.6761 12:132.6286 13:208.89153 14:209.87653 15:212.1813 16:130.0177 17:130.4325 18:130.97771 19:233.49307 20:232.9437 21:233.65179 22:142.49319 23:142.5768 24:142.4182 25:233.42027 26:229.78287 27:232.87836 28:142.33 29:141.3342 30:141.8988 # frame 8
1.5025795296945012e-012 1:312.99777 2:302.41876 3:309.46506 4:188.6732 5:185.3914 6:187.59039 7:218.17441 8:214.85722 9:218.49841 10:131.8638 11:130.77251 12:131.93671 13:211.06763 14:212.61429 15:211.23758 16:131.4274 17:132.0432 18:131.2142 19:234.91502 20:234.86649 21:235.41005 22:141.2787 23:141.547 24:141.5752 25:237.41351 26:239.0392 27:236.80389 28:143.9722 29:144.5275 30:143.5928 # frame 8
-5.0274331233890358e-013 1:336.76196 2:331.08722 3:340.76154 4:196.041 5:194.3804 6:197.2084 7:235.05688 8:235.44955 9:232.09874 10:140.77879 11:140.8661 12:139.5392 13:223.46498 14:221.52191 15:221.96527 16:136.90871 17:136.3407 18:136.2941 19:237.4619 20:237.56238 21:236.15045 22:141.795 23:142.06689 24:141.5708 25:240.96104 26:239.82655 27:241.10178 28:145.5881 29:145.1993 30:145.5652 # frame 8
-4.9387005287811943e-013 1:121.60605 2:134.34694 3:137.81805 4:117.2819 5:123.3791 6:124.9721 7:223.29045 8:222.38879 9:219.92427 10:135.4942 11:135.3493 12:134.2323 13:219.57938 14:224.42674 15:219.50938 16:135.4176 17:137.0751 18:135.2422 19:240.89288 20:237.7551 21:236.19666 22:144.4926 23:143.3748 24:142.79829 25:242.2175 26:241.69408 27:241.51845 28:146.3322 29:146.2471 30:145.7719 # frame 8
4.8685513494054266e-012 1:308.33594 2:301.31146 3:309.8558 4:187.33771 5:185.13429 6:187.8605 7:213.94757 8:215.40294 9:212.57669 10:130.9178 11:131.7469 12:130.29849 13:213.55351 14:212.08284 15:213.56967 16:132.7778 17:132.4075 18:132.44679 19:238.78665 20:238.85091 21:239.02335 22:142.6434 23:142.453 24:142.29539 25:233.01878 26:234.02605 27:235.14124 28:142.28349 29:142.5983 30:142.92821 # frame 8
8.5885377936272427e-012 1:350.91653 2:346.03702 3:355.29294 4:200.1792 5:198.7876 6:201.4334 7:229.64662 8:231.37456 9:230.48732 10:138.4491 11:139.024 12:138.6768 13:227.45457 14:228.68634 15:226.25011 16:138.4222 17:138.6546 18:137.94209 19:236.27519 20:235.99643 21:235.8699 22:141.8539 23:141.64571 24:141.6459 25:240.23323 26:242.29033 27:241.52296 28:145.01421 29:145.8931 30:145.5666 # frame 8
1.6626129103776068e-012 1:83.840164 2:120.09995 3:115.97352 4:95.7117 5:115.0493 6:112.7609 7:229.43739 8:228.07425 9:227.08478 10:139.34621 11:138.689 12:138.30969 13:229.36954 14:226.53467 15:226.50259 16:139.0692 17:138.0466 18:137.9137 19:238.69426 20:235.82408 21:238.53409 22:143.7733 23:142.6333 24:143.5144 25:244.78677 26:246.04295 27:246.0925 28:147.1758 29:147.39729 30:147.4438 # frame 8
3.8301674341677842e-012 1:266.26407 2:255.65208 3:267.44275 4:172.5423 5:168.6329 6:172.89709 7:216.57927 8:215.94659 9:215.5687 10:132.5787 11:132.24741 12:132.1315 13:215.371 14:215.09499 15:215.48334 16:132.92551 17:132.6087 18:132.8035 19:232.68181 20:234.48923 21:234.11522 22:141.5791 23:142.194 24:141.9263 25:227.64252 26:231.51134 27:231.30055 28:140.3808 29:141.9446 30:141.9458 # frame 8
-4.3243168643385492e-012 1:350.63641 2:347.35526 3:356.03351 4:200.1546 5:199.22501 6:201.70061 7:221.10057 8:223.16237 9:222.14253 10:134.4646 11:135.10519 12:134.7448 13:216.50841 14:216.29614 15:218.99001 16:133.63499 17:133.4241 18:134.7682 19:237.91251 20:235.54562 21:236.11975 22:142.54829 23:141.6461 24:142.0296 25:243.44888 26:244.36172 27:241.58327 28:146.4203 29:146.8634 30:145.61349 # frame 8
1.7258863185910873e-012 1:55.680248 2:108.13048 3:81.29493 4:78.155899 5:109.6025 6:94.569298 7:231.16599 8:231.31868 9:231.21677 10:140.4339 11:140.41879 12:140.58681 13:233.39799 14:231.798 15:231.38014 16:140.98219 17:140.21091 18:140.0397 19:231.07864 20:235.12085 21:231.81252 22:140.849 23:142.24809 24:141.1256 25:241.54149 26:245.23906 27:241.1877 28:145.5528 29:146.9803 30:145.5455 # frame 8
4.7901810994502875e-012 1:311.14212 2:304.45563 3:310.51947 4:188.4519 5:186.3873 6:188.25751 7:220.61235 8:219.68466 9:219.24725 10:132.93111 11:132.8273 12:132.4756 13:217.67844 14:218.80475 15:222.74419 16:133.5451 17:133.8871 18:135.3192 19:232.82321 20:232.82411 21:232.87015 22:140.8479 23:141.1048 24:141.01801 25:238.24719 26:237.53625 27:234.61028 28:144.3028 29:144.1028 30:143.0842 # frame 8
1.6163017551526038e-012 1:239.69838 2:229.55228 3:249.70152 4:161.3347 5:157.2029 6:164.98711 7:219.22699 8:216.94382 9:216.10652 10:135.571 11:134.5708 12:134.2298 13:225.58348 14:229.29686 15:226.7507 16:136.6629 17:138.1754 18:137.21291 19:240.12125 20:246.66106 21:247.69054 22:145.00031 23:147.50841 24:148.0307 25:226.54745 26:230.7552 27:226.63472 28:140.435 29:142.0215 30:140.4548 # frame 8
-1.0641302540872339e-012 1:67.967651 2:119.6329 3:103.87023 4:85.5466 5:114.4706 6:106.3562 7:230.37148 8:230.86696 9:229.19511 10:139.7867 11:139.96539 12:139.18649 13:230.6705 14:231.04231 15:228.75357 16:139.3419 17:140.1521 18:139.12511 19:234.44406 20:234.76889 21:233.03755 22:141.71919 23:141.9111 24:141.2067 25:244.45059 26:243.82642 27:243.42825 28:146.5298 29:146.2507 30:145.94031 # frame 8
-5.199518058551588e-012 1:303.45929 2:299.32974 3:303.14331 4:186.0531 5:184.7579 6:185.9471 7:219.93813 8:221.27931 9:218.3656 10:132.7272 11:133.24409 12:131.9996 13:218.47238 14:220.01277 15:219.55577 16:134.1937 17:134.7117 18:134.8109 19:237.62997 20:237.61729 21:239.06245 22:142.8428 23:143.23441 24:143.75819 25:241.45503 26:241.3006 27:243.64317 28:145.537 29:145.7193 30:146.42059 # frame 8
3.2865664646207556e-012 1:319.88293 2:311.49683 3:322.1474 4:190.6824 5:188.1586 6:191.4402 7:225.12395 8:225.48734 9:224.7294 10:137.2605 11:137.5509 12:137.2361 13:211.31723 14:212.7966 15:210.41698 16:130.1163 17:130.6819 18:129.8011 19:232.16632 20:233.97733 21:234.31798 22:141.0379 23:141.73 24:141.3584 25:226.53297 26:227.00531 27:229.32393 28:139.8237 29:140.058 30:140.66611 # frame 8
9.8351564270943763e-013 1:125.1499 2:134.04756 3:146.23009 4:113.3517 5:119.1273 6:125.4601 7:223.77428 8:224.82164 9:222.32611 10:136.2139 11:136.5255 12:135.784 13:216.03448 14:217.47287 15:215.17081 16:133.53551 17:134.0386 18:133.0806 19:228.64996 20:233.6886 21:229.73122 22:139.8053 23:141.83459 24:140.00951 25:234.58542 26:235.33829 27:235.28548 28:143.4807 29:143.7287 30:143.76759 # frame 8
7.5521564539366212e-014 1:456.61804 2:436.84406 3:425.31104 4:227.12 5:221.9942 6:219.0556 7:156.84654 8:154.1678 9:155.93187 10:104.7685 11:103.322 12:103.9772 13:180.27197 14:178.84245 15:180.94843 16:111.4802 17:110.7624 18:111.7818 19:270.59424 20:262.42441 21:263.37619 22:152.44141 23:149.37601 24:149.1402 25:229.05487 26:232.37177 27:223.72597 28:142.5016 29:143.5863 30:139.40871 # frame 43
-2.4537891160389035e-013 1:348.85077 2:335.46768 3:324.77533 4:195.0959 5:190.98869 6:187.9769 7:197.07932 8:195.358 9:195.92784 10:127.8519 11:126.6155 12:127.2488 13:190.31589 14:191.45647 15:192.1275 16:118.2359 17:118.3557 18:118.9347 19:254.043 20:257.85168 21:252.27672 22:147.4306 23:148.6015 24:146.1787 25:223.71188 26:227.04823 27:223.56218 28:139.9005 29:141.4046 30:139.9624 # frame 43
1.7016783405347715e-014 1:463.82767 2:450.08362 3:437.36826 4:229.06841 5:225.53999 6:222.33681 7:153.03261 8:149.65271 9:153.03091 10:100.6227 11:98.996399 12:100.6818 13:168.87303 14:163.99867 15:164.79491 16:105.1875 17:102.824 18:103.2809 19:250.71736 20:252.50317 21:250.27252 22:145.4615 23:145.8367 24:144.61501 25:238.93167 26:244.91064 27:236.19312 28:146.00591 29:147.9437 30:143.9606 # frame 43
3.4055069489136497e-012 1:68.791931 2:78.305878 3:81.655678 4:85.511398 5:91.577599 6:93.210999 7:230.7939 8:231.03502 9:229.84764 10:138.7646 11:138.9855 12:138.41769 13:231.1037 14:234.9001 15:234.35387 16:140.0383 17:141.4057 18:141.1683 19:239.23653 20:235.38147 21:237.68491 22:143.8315 23:142.61729 24:143.43559 25:236.64484 26:238.45432 27:238.41422 28:143.7917 29:144.4874 30:144.38541 # frame 73
-1.5638272841031027e-012 1:44.832741 2:73.708298 3:52.318504 4:70.516403 5:89.992599 6:75.818604 7:225.64885 8:227.39896 9:225.89191 10:135.66389 11:136.5965 12:136.0016 13:230.79776 14:236.3107 15:233.46878 16:140.3772 17:142.1412 18:140.8259 19:234.44316 20:233.68344 21:233.95197 22:142.2682 23:141.89771 24:142.177 25:233.59247 26:232.7296 27:233.58815 28:142.4541 29:142.5023 30:142.75481 # frame 73
-5.2290802296494658e-012 1:318.55746 2:291.78177 3:290.89886 4:188.6877 5:180.4171 6:180.26469 7:227.87656 8:226.62534 9:224.96196 10:137.9438 11:137.34531 12:136.66811 13:218.08115 14:220.42482 15:219.39882 16:133.77209 17:134.71449 18:134.2608 19:238.46422 20:237.15469 21:237.38469 22:142.8665 23:142.5406 24:142.4115 25:235.0777 26:235.66074 27:236.61443 28:143.5567 29:143.75951 30:144.0977 # frame 101
-7.314038698154772e-012 1:262.48453 2:243.68889 3:243.31534 4:172.07961 5:165.79221 6:165.69839 7:215.53606 8:214.31972 9:215.47647 10:132.4523 11:132.0737 12:132.18919 13:226.39569 14:222.38457 15:226.5587 16:137.45 17:135.882 18:137.4097 19:241.10541 20:241.97667 21:239.10983 22:144.5687 23:144.81441 24:143.9436 25:241.43071 26:242.12518 27:241.50485 28:145.2049 29:145.5218 30:145.0905 # frame 101
-9.4111303860007807e-013 1:288.6727 2:263.52371 3:268.07239 4:180.1528 5:172.03551 6:173.6181 7:230.50407 8:230.4691 9:228.19594 10:139.7841 11:139.7048 12:138.7175 13:222.5439 14:223.62074 15:223.24535 16:136.5327 17:137.0999 18:136.91479 19:233.5936 20:233.73628 21:232.98233 22:141.2003 23:141.2374 24:140.9585 25:243.37521 26:243.37665 27:244.48743 28:146.53329 29:146.47881 30:146.8566 # frame 101
7.1930084833514043e-012 1:288.05304 2:262.18686 3:267.85843 4:179.56351 5:171.21201 6:173.1564 7:230.88972 8:231.23149 9:231.37047 10:139.7829 11:139.7085 12:139.63161 13:229.11349 14:228.1922 15:228.27556 16:138.90939 17:138.5183 18:138.7803 19:234.7244 20:233.14919 21:234.86562 22:141.6873 23:141.03909 24:141.75169 25:244.24652 26:246.51512 27:248.42526 28:146.6852 29:147.2538 30:147.9776 # frame 101
4.8271975060354533e-013 1:316.42093 2:292.23935 3:363.66098 4:174.054 5:163.5854 6:182.698 7:229.42386 8:230.50252 9:230.78821 10:137.052 11:137.3488 12:137.905 13:226.75941 14:226.12596 15:224.0407 16:138.2234 17:138.4167 18:137.3105 19:231.65353 20:227.89502 21:227.46092 22:140.49249 23:139.36481 24:138.9451 25:230.73524 26:231.91595 27:231.48337 28:141.6315 29:141.9809 30:142.1893 # frame 101
5.5904128680298525e-012 1:265.40753 2:242.22328 3:245.23111 4:173.8559 5:166.0551 6:167.0873 7:230.44016 8:228.10028 9:230.31146 10:139.3373 11:138.3999 12:139.13181 13:223.28815 14:224.13766 15:226.313 16:136.9268 17:137.241 18:138.14999 19:236.26147 20:235.48375 21:237.29608 22:141.98351 23:141.93559 24:142.4077 25:243.88361 26:245.29634 27:246.78745 28:146.4726 29:146.74049 30:147.39 # frame 101
-3.8652386373102261e-012 1:250.26486 2:226.50017 3:234.88388 4:168.5002 5:160.22839 6:163.19881 7:233.01614 8:233.55817 9:233.99974 10:140.5831 11:140.9474 12:141.09 13:229.81619 14:227.84479 15:227.80507 16:138.97951 17:138.2198 18:138.2756 19:236.38849 20:236.10242 21:238.33693 22:142.5988 23:142.5849 24:143.1413 25:243.44653 26:243.4632 27:242.95979 28:145.9879 29:146.0202 30:145.91209 # frame 101
4.733516704894159e-012 1:259.11557 2:237.00591 3:228.83502 4:167.6321 5:160.30251 6:157.4917 7:219.35071 8:219.60439 9:220.7005 10:132.52631 11:132.66789 12:133.10159 13:212.26302 14:212.9133 15:213.59612 16:129.99631 17:130.5639 18:130.74631 19:222.13724 20:220.23116 21:220.66472 22:134.39211 23:133.8434 24:134.04221 25:228.75204 26:226.16252 27:226.15802 28:138.36169 29:137.21429 30:137.34779 # frame 101
-9.426001025228729e-013 1:246.86571 2:223.84514 3:231.94885 4:167.15269 5:159.0863 6:161.9713 7:233.56842 8:232.31177 9:231.47771 10:141.1252 11:140.66631 12:140.3757 13:227.6008 14:227.44534 15:229.48351 16:138.88229 17:138.733 18:139.43871 19:237.01154 20:238.53421 21:239.46246 22:142.86349 23:143.4809 24:143.7883 25:239.71616 26:239.15927 27:239.24913 28:144.6057 29:144.5833 30:144.51401 # frame 101
2.1065459994981335e-012 1:266.34048 2:242.51372 3:235.91205 4:169.9207 5:162.1223 6:159.8851 7:218.90936 8:217.8036 9:217.69672 10:132.5249 11:131.9977 12:131.8663 13:218.96536 14:217.57581 15:218.70303 16:132.742 17:131.939 18:132.5358 19:225.244 20:222.27516 21:221.63918 22:135.4951 23:134.4724 24:134.386 25:230.6265 26:232.73146 27:232.20708 28:139.0824 29:139.94839 30:139.72099 # frame 101
4.7434770449106091e-012 1:250.27931 2:226.23172 3:231.30191 4:168.31641 5:159.9368 6:161.7384 7:231.19902 8:232.2957 9:230.41176 10:139.6954 11:140.3562 12:139.34641 13:230.36723 14:231.65059 15:231.45012 16:139.38589 17:139.82249 18:139.86771 19:236.58945 20:237.96004 21:235.93922 22:142.4062 23:143.21091 24:142.22681 25:240.39607 26:242.2532 27:241.30203 28:144.8002 29:145.3941 30:145.00259 # frame 101
-1.7354539952602526e-012 1:160.63829 2:128.45805 3:112.92739 4:133.5661 5:118.9337 6:111.2765 7:206.99191 8:206.48711 9:208.4398 10:127.1069 11:126.8946 12:127.6694 13:216.78149 14:220.72227 15:222.77538 16:134.1537 17:135.7056 18:136.7701 19:237.88664 20:238.40125 21:236.87889 22:143.71181 23:144.0497 24:143.5881 25:247.09976 26:247.07964 27:247.73326 28:147.8591 29:147.7079 30:147.94341 # frame 101
-1.6596931235600149e-013 1:145.77225 2:195.42941 3:191.24327 4:125.7818 5:144.6942 6:143.888 7:230.65858 8:228.9911 9:231.23145 10:139.05389 11:138.70599 12:139.4509 13:234.02071 14:236.58658 15:234.32159 16:141.0844 17:142.2169 18:141.302 19:238.5954 20:238.3548 21:239.67143 22:143.51401 23:143.577 24:144.0722 25:240.65723 26:242.40114 27:241.26001 28:145.19389 29:145.7272 30:145.2045 # frame 105
5.1932666613596383e-013 1:375.90237 2:347.97656 3:350.61597 4:203.4007 5:195.4931 6:196.3773 7:228.65298 8:230.08553 9:228.07964 10:138.1857 11:138.62041 12:137.739 13:220.23099 14:219.37175 15:220.72789 16:135.3279 17:134.88631 18:135.53371 19:234.99197 20:235.56091 21:234.06625 22:141.7621 23:142.45061 24:141.5191 25:235.7058 26:236.90059 27:237.84326 28:143.5712 29:144.13161 30:144.3347 # frame 105
-5.1053639637022483e-012 1:253.2995 2:230.72366 3:238.6716 4:169.60471 5:161.8217 6:164.61749 7:229.60503 8:229.41589 9:228.97235 10:138.4617 11:138.48669 12:138.48531 13:224.60228 14:221.69028 15:222.65051 16:137.4857 17:136.2032 18:136.2135 19:236.10913 20:235.71085 21:235.63216 22:141.7941 23:142.22839 24:141.5526 25:239.62131 26:241.37131 27:240.85716 28:145.14661 29:145.7368 30:145.53641 # frame 105
-1.0050884160811976e-011 1:243.4601 2:222.31734 3:230.40369 4:166.49139 5:159.0536 6:161.93781 7:226.50098 8:226.33134 9:227.47707 10:137.7701 11:137.6257 12:138.00439 13:224.67789 14:226.21184 15:224.08627 16:137.15559 17:137.56419 18:136.7632 19:234.45615 20:235.74899 21:232.87335 22:141.2854 23:141.82091 24:140.6714 25:243.97646 26:242.58905 27:246.07588 28:146.59151 29:146.0341 30:147.433 # frame 105
-6.5264325080812839e-013 1:234.27238 2:286.05576 3:322.16766 4:158.3918 5:170.56081 6:179.7476 7:230.53325 8:235.14958 9:233.45296 10:138.22121 11:140.37849 12:139.3179 13:235.85306 14:239.44229 15:237.39012 16:141.7009 17:143.0795 18:142.4304 19:228.29622 20:227.1335 21:225.40338 22:139.091 23:139.06509 24:138.4389 25:235.22803 26:232.16426 27:229.72119 28:142.8116 29:142.0527 30:140.47749 # frame 267
-2.038765112036153e-012 1:247.13103 2:281.21863 3:310.51764 4:161.3526 5:168.47079 6:176.0451 7:227.73917 8:227.47995 9:226.59077 10:137.8942 11:137.6909 12:137.1906 13:230.15158 14:227.4566 15:227.50548 16:139.4422 17:138.3493 18:138.2108 19:234.54271 20:234.17912 21:238.77332 22:141.2234 23:141.558 24:143.3336 25:237.69307 26:240.7673 27:242.98526 28:143.9147 29:145.1387 30:145.7878 # frame 267
-1.4326521710337663e-012 1:367.99261 2:381.19629 3:397.05362 4:199.43449 5:203.2601 6:207.4593 7:217.27155 8:216.49527 9:216.67311 10:131.79961 11:131.51511 12:131.6606 13:214.23735 14:215.92593 15:214.22516 16:130.62691 17:131.38029 18:130.6786 19:221.01212 20:219.15765 21:218.14232 22:133.55251 23:133.01939 24:132.5032 25:231.60847 26:231.33252 27:231.32947 28:139.28529 29:138.90421 30:138.9901 # frame 267
1.8384479333412045e-013 1:314.75235 2:354.77649 3:386.75409 4:183.14169 5:193.5143 6:201.85941 7:213.23206 8:205.80223 9:201.71709 10:131.03011 11:128.00191 12:126.6438 13:220.61429 14:216.6418 15:211.95552 16:135.88609 17:133.9079 18:132.0354 19:250.44824 20:258.32544 21:254.85909 22:149.0081 23:152.1553 24:150.3374 25:244.7189 26:252.10899 27:250.0365 28:147.07851 29:149.8721 30:149.2332 # frame 267
7.5004963990176476e-013 1:241.2274 2:323.88092 3:372.45981 4:154.959 5:176.0804 6:187.79021 7:219.39278 8:212.48633 9:211.5358 10:132.7067 11:130.0596 12:129.4644 13:227.84009 14:225.05814 15:225.01669 16:138.12219 17:136.8819 18:136.8493 19:240.06355 20:243.1909 21:245.71564 22:144.6517 23:146.0323 24:147.35361 25:222.69531 26:228.71669 27:229.47426 28:138.7289 29:141.13989 30:141.38921 # frame 267
-3.7281553072649159e-012 1:364.15295 2:372.51532 3:395.85129 4:202.90421 5:205.25819 6:211.6528 7:231.28752 8:228.25301 9:230.76401 10:139.81419 11:138.7086 12:139.57111 13:229.735 14:226.31645 15:229.13223 16:139.60291 17:137.9798 18:138.7894 19:234.49655 20:233.58661 21:235.54431 22:141.5062 23:141.20621 24:141.866 25:236.95999 26:237.37956 27:238.80943 28:143.9361 29:143.9129 30:144.2258 # frame 267
-1.4000946103735125e-012 1:196.34351 2:278.31491 3:293.29126 4:140.17821 5:167.6438 6:174.3862 7:213.16582 8:212.29259 9:211.32814 10:130.20419 11:130.4516 12:129.42731 13:224.43265 14:222.15726 15:221.82729 16:135.30119 17:134.3138 18:134.15089 19:229.39787 20:230.61975 21:227.48663 22:137.2146 23:137.4229 24:136.39011 25:233.24171 26:230.76953 27:231.56436 28:139.8634 29:139.1084 30:138.82671 # frame 284
4.6886505225686352e-012 1:234.38457 2:219.35771 3:225.90703 4:163.2338 5:157.858 6:160.2002 7:230.77399 8:231.45789 9:231.50102 10:139.1752 11:139.4805 12:139.68851 13:229.84929 14:230.6739 15:229.48637 16:139.2179 17:139.7327 18:139.07941 19:232.8022 20:232.68343 21:233.40314 22:140.81171 23:140.86349 24:140.97391 25:241.27672 26:247.61742 27:243.69006 28:145.545 29:148.1519 30:146.7534 # frame 284
1.3650431054317116e-012 1:236.34712 2:222.60011 3:228.36308 4:163.81149 5:158.93311 6:160.99271 7:231.49028 8:231.65903 9:230.08601 10:139.82091 11:139.7213 12:139.0295 13:228.6123 14:228.12665 15:228.6586 16:138.6302 17:138.7321 18:138.6723 19:234.82361 20:231.18724 21:236.16295 22:141.608 23:140.3069 24:141.92059 25:241.36383 26:242.43506 27:242.98615 28:145.7142 29:146.01781 30:146.2482 # frame 284
1.3821035900219503e-012 1:186.65344 2:216.21367 3:238.73602 4:142.2955 5:153.0927 6:161.2522 7:234.59782 8:234.93396 9:234.78938 10:140.9814 11:141.0553 12:140.84641 13:227.60359 14:230.21101 15:228.4007 16:138.1839 17:138.8663 18:138.10989 19:230.92169 20:232.44612 21:230.21207 22:140.3297 23:140.7291 24:140.032 25:237.1804 26:235.70723 27:238.01155 28:143.8555 29:143.20979 30:144.0993 # frame 330
8.1688582887937476e-013 1:363.8299 2:367.60593 3:375.83755 4:203.8549 5:204.9117 6:207.1971 7:225.94341 8:223.13039 9:222.19865 10:137.32401 11:136.27161 12:135.87151 13:216.49219 14:214.98141 15:216.38457 16:133.21581 17:132.5374 18:133.3618 19:234.43407 20:233.86572 21:234.9333 22:141.58321 23:141.3593 24:141.72881 25:235.41824 26:234.79207 27:234.59097 28:142.9525 29:142.77071 30:142.5752 # frame 330
-5.7936121669917759e-013 1:196.43883 2:326.07297 3:312.99237 4:144.1076 5:186.46899 6:183.0818 7:219.8075 8:216.02759 9:216.06303 10:133.28889 11:131.74541 12:131.4986 13:217.73486 14:215.18858 15:213.68938 16:131.94279 17:131.2527 18:130.5836 19:226.49873 20:222.679 21:223.6275 22:136.2867 23:134.50439 24:134.62939 25:235.2234 26:234.19403 27:232.66518 28:140.5589 29:139.9044 30:139.58459 # frame 330
1.6803227897453441e-012 1:157.77219 2:184.70094 3:222.43182 4:128.5732 5:138.96201 6:153.51221 7:231.50185 8:227.97699 9:227.80948 10:139.8784 11:138.7601 12:138.5706 13:233.09772 14:234.26897 15:233.31401 16:140.76511 17:141.3188 18:141.12041 19:238.48917 20:238.42334 21:237.15831 22:143.49319 23:143.539 24:142.91499 25:242.64803 26:242.40866 27:240.85329 28:145.7016 29:145.9184 30:145.0934 # frame 330
-5.2872537085190837e-012 1:330.51474 2:325.55023 3:331.16794 4:194.22569 5:192.7579 6:194.4325 7:221.28349 8:219.39861 9:220.78993 10:134.25909 11:133.3999 12:133.90891 13:223.47902 14:222.44472 15:223.9113 16:136.61971 17:136.29201 18:136.8335 19:234.73792 20:233.52568 21:236.89334 22:141.1703 23:140.9771 24:142.23289 25:238.10019 26:240.39528 27:239.85463 28:144.3815 29:144.92191 30:144.8125 # frame 330
-1.0172158203384677e-012 1:83.41584 2:139.66248 3:125.22247 4:84.656197 5:105.4142 6:102.5118 7:204.04984 8:203.50191 9:201.60112 10:125.7161 11:125.4724 12:124.6989 13:211.88805 14:216.41377 15:216.83696 16:128.7466 17:131.0029 18:130.562 19:228.56914 20:228.62448 21:227.64235 22:137.41521 23:137.30141 24:136.4709 25:218.68135 26:223.06808 27:218.77232 28:134.91879 29:136.77271 30:134.8978 # frame 385
5.1312153748261024e-013 1:292.36786 2:271.38464 3:277.8205 4:175.41811 5:168.4485 6:170.84731 7:228.44504 8:226.84813 9:229.05505 10:138.98689 11:138.5164 12:139.2018 13:225.65497 14:224.6169 15:222.6974 16:138.0535 17:137.7655 18:136.8764 19:236.91049 20:232.04391 21:234.89014 22:142.44009 23:140.56889 24:141.4949 25:244.78659 26:243.00328 27:243.61722 28:146.52499 29:145.86391 30:146.1532 # frame 385
-3.5570660328631446e-012 1:245.98344 2:230.8624 3:239.63048 4:163.61571 5:158.18539 6:161.34779 7:231.1799 8:229.37645 9:228.82941 10:140.04449 11:139.1694 12:138.867 13:227.96031 14:227.08356 15:227.65253 16:138.5089 17:138.04691 18:138.2581 19:236.89784 20:232.81541 21:232.84572 22:142.4503 23:141.03439 24:141.4072 25:243.02423 26:244.74403 27:243.66544 28:146.2589 29:146.8199 30:146.21339 # frame 385
1.0260573629597238e-011 1:214.7916 2:204.92526 3:214.08142 4:155.9989 5:152.3187 6:155.7261 7:234.56488 8:233.38603 9:232.83359 10:141.3322 11:140.6861 12:140.4187 13:226.82358 14:226.18889 15:226.04413 16:138.01469 17:138.119 18:137.752 19:233.88582 20:236.02507 21:232.51329 22:141.2002 23:142.12511 24:140.8131 25:244.21628 26:243.60809 27:244.32199 28:146.65469 29:146.4639 30:146.7756 # frame 385
-7.8625562395170359e-013 1:147.14188 2:309.69266 3:257.85834 4:127.9576 5:187.13879 6:170.53841 7:230.80653 8:229.82089 9:229.81578 10:139.149 11:139.0697 12:139.0639 13:229.18614 14:226.31847 15:227.4964 16:139.1711 17:137.6212 18:138.34081 19:236.79619 20:237.81831 21:233.80589 22:142.9593 23:142.8455 24:141.64079 25:245.84222 26:246.84563 27:246.03476 28:147.10429 29:147.6815 30:147.3618 # frame 395
2.6145534491270461e-012 1:256.09146 2:254.381 3:263.60605 4:166.90939 5:166.42841 6:169.577 7:233.82455 8:236.44649 9:235.33493 10:141.4657 11:142.5312 12:142.05389 13:235.11572 14:236.05652 15:236.30313 16:141.0451 17:141.4798 18:141.54469 19:228.90443 20:233.15768 21:229.27823 22:139.6936 23:141.0932 24:139.26019 25:241.39122 26:242.28227 27:239.16606 28:144.9552 29:145.6459 30:144.4482 # frame 395
-2.2272419997121028e-012 1:222.59386 2:222.58807 3:233.53111 4:156.5495 5:156.5844 6:160.5435 7:235.91562 8:234.79431 9:234.49112 10:142.38519 11:141.7392 12:141.8362 13:234.34355 14:233.45944 15:233.96764 16:141.06219 17:140.5448 18:140.8284 19:233.30537 20:234.55347 21:229.13441 22:141.5674 23:141.7686 24:139.4646 25:239.15607 26:238.93085 27:240.04408 28:144.34779 29:144.1338 30:144.7699 # frame 395
-1.5565178558229142e-012 1:209.76347 2:210.87648 3:219.47885 4:153.9597 5:154.3857 6:157.5509 7:230.68271 8:229.69806 9:229.47183 10:140.10699 11:139.83881 12:139.47079 13:229.70872 14:228.38087 15:228.42822 16:139.42931 17:138.867 18:138.7621 19:231.68372 20:234.32581 21:233.43549 22:140.44521 23:141.5273 24:141.11549 25:239.68599 26:240.27881 27:241.34874 28:144.9919 29:145.50999 30:145.52271 # frame 395
8.5332673291133914e-013 1:106.04776 2:195.99338 3:168.52495 4:105.3251 5:143.66949 6:133.2135 7:228.04709 8:226.8432 9:229.5995 10:138.9722 11:138.3103 12:139.7448 13:232.19656 14:230.58981 15:231.68028 16:140.3634 17:139.85561 18:140.32069 19:234.17599 20:237.35495 21:238.58464 22:141.7645 23:142.7558 24:143.3008 25:243.76274 26:247.63223 27:244.40289 28:146.347 29:147.6866 30:146.7146 # frame 395
7.3474985537859382e-014 1:401.45926 2:391.21286 3:396.30469 4:195.4966 5:191.5625 6:193.045 7:105.18124 8:104.46576 9:101.43662 10:65.477402 11:65.773102 12:64.393097 13:120.85262 14:117.92831 15:120.50951 16:72.260902 17:71.3237 18:72.072304 19:199.24582 20:208.07744 21:171.99951 22:128.67191 23:128.593 24:116.7216 25:125.90366 26:149.10895 27:135.47517 28:97.668602 29:108.6579 30:104.3377 # frame 400
-1.7192013655156396e-013 1:127.86465 2:277.34137 3:233.27475 4:118.9281 5:176.81841 6:161.8555 7:232.48555 8:231.34579 9:233.46082 10:140.3712 11:139.92261 12:140.45689 13:230.68971 14:230.31111 15:228.70888 16:139.6606 17:139.5414 18:139.1582 19:234.69203 20:237.04079 21:235.01767 22:142.29691 23:142.8231 24:142.0928 25:241.82729 26:241.09949 27:246.02293 28:145.85361 29:145.6196 30:147.43851 # frame 400
1.0683723027495471e-012 1:346.02795 2:346.81027 3:360.97543 4:189.94 5:190.4639 6:194.9205 7:224.46727 8:225.4613 9:225.7861 10:137.6396 11:138.25751 12:138.108 13:224.61923 14:225.79303 15:226.80937 16:137.5452 17:137.9214 18:138.3293 19:237.81616 20:235.5118 21:238.6293 22:143.3855 23:142.5233 24:143.38541 25:246.93755 26:247.3535 27:246.12004 28:147.56371 29:147.7597 30:147.06171 # frame 400
1.056486606337578e-013 1:303.64923 2:307.39514 3:320.16159 4:176.98599 5:178.8564 6:182.94839 7:229.29736 8:231.29892 9:229.7039 10:139.5329 11:140.2061 12:139.6393 13:231.21301 14:230.65063 15:232.96082 16:139.8334 17:139.63319 18:140.5645 19:232.78568 20:233.24306 21:233.39073 22:141.3082 23:141.4856 24:141.5937 25:242.25189 26:241.82117 27:241.64748 28:145.7148 29:145.61549 30:145.3055 # frame 400
1.5035917305043504e-012 1:228.07951 2:233.68163 3:242.06863 4:157.05119 5:159.1727 6:162.1561 7:235.23956 8:235.16277 9:235.52412 10:141.94791 11:142.2204 12:142.00951 13:236.71913 14:235.95227 15:237.66917 16:141.87959 17:141.8678 18:142.65359 19:237.40701 20:237.49165 21:235.00934 22:142.774 23:142.7016 24:141.7439 25:239.56676 26:239.31909 27:239.08304 28:144.8466 29:144.5663 30:144.4295 # frame 400
1.0782775935220307e-012 1:167.40102 2:169.39972 3:181.3784 4:136.5676 5:137.4016 6:142.2916 7:228.00322 8:225.45155 9:228.55269 10:138.88161 11:138.19679 12:139.04131 13:230.33182 14:231.21883 15:231.47734 16:139.7567 17:139.9362 18:140.1666 19:237.29282 20:237.97911 21:237.67635 22:143.0235 23:143.2002 24:142.8297 25:239.78624 26:238.69009 27:237.08275 28:144.0963 29:143.93829 30:143.1441 # frame 400
-3.5702550560871322e-012 1:399.62177 2:396.82782 3:412.11526 4:203.81911 5:203.4604 6:207.85201 7:229.46036 8:228.9751 9:227.10582 10:139.50101 11:139.4287 12:138.4481 13:228.98396 14:229.55476 15:227.67735 16:138.80901 17:139.06 18:138.2139 19:236.0067 20:237.60155 21:237.44585 22:142.33971 23:143.2827 24:142.9976 25:241.9007 26:241.61185 27:242.9166 28:145.5213 29:145.4626 30:146.0161 # frame 400
-1.0827730368679696e-014 1:677.57147 2:665.93262 3:667.7735 4:274.87979 5:271.194 6:271.4444 7:89.484138 8:84.563515 9:87.263176 10:56.396198 11:55.054298 12:56.836201 13:99.825218 14:89.440575 15:99.234825 16:61.295101 17:57.412998 18:61.410801 19:191.60152 20:212.67068 21:164.29077 22:127.2151 23:129.2057 24:113.4139 25:118.89141 26:148.3378 27:139.68488 28:95.116997 29:107.9294 30:107.0012 # frame 404
1.7005265024806999e-012 1:178.60478 2:317.35162 3:271.13165 4:138.96271 5:185.53349 6:171.43069 7:217.66188 8:217.4254 9:218.17238 10:131.63811 11:131.5993 12:131.8885 13:214.09904 14:211.55612 15:214.80542 16:130.4931 17:129.54671 18:130.7569 19:224.59044 20:225.07008 21:224.65753 22:135.5193 23:135.5349 24:135.8862 25:228.78568 26:227.29352 27:226.70454 28:138.1396 29:137.7887 30:137.5663 # frame 404
-6.2058343686960556e-015 1:501.18259 2:494.0416 3:492.33932 4:234.8734 5:232.8727 6:232.3166 7:72.29808 8:72.494217 9:71.152756 10:46.5863 11:46.997299 12:46.916302 13:70.256462 14:70.642952 15:69.804482 16:45.303398 17:45.3955 18:45.124699 19:189.04167 20:184.39793 21:129.59587 22:124.5999 23:111.9516 24:95.363297 25:97.158737 26:161.86539 27:141.46457 28:83.638603 29:115.2783 30:109.7508 # frame 404
3.0485801898810729e-012 1:378.159 2:380.87564 3:390.24622 4:196.7093 5:197.59081 6:200.40759 7:230.78725 8:228.90375 9:230.68045 10:140.44501 11:139.6955 12:140.3857 13:231.72548 14:230.08101 15:228.65074 16:139.3405 17:138.6187 18:137.9662 19:235.70647 20:236.10086 21:234.59024 22:141.87891 23:142.3262 24:141.93069 25:242.29497 26:241.82697 27:241.89294 28:145.427 29:145.1973 30:145.54221 # frame 404
1.0087842992758374e-012 1:165.1208 2:289.8674 3:231.38121 4:135.5477 5:180.5536 6:160.9845 7:232.73157 8:230.03981 9:230.44514 10:140.6059 11:139.4288 12:139.6572 13:232.76541 14:230.19849 15:231.70238 16:140.18069 17:139.3707 18:140.10229 19:237.32332 20:232.25777 21:236.44888 22:143.12489 23:140.8243 24:142.687 25:240.64015 26:245.43604 27:242.98898 28:145.076 29:147.01649 30:145.96339 # frame 442
9.7258455773277223e-013 1:168.3978 2:265.40689 3:236.23163 4:138.351 5:173.89819 6:163.9908 7:222.98883 8:220.34781 9:221.16795 10:135.21539 11:133.78481 12:134.056 13:224.38445 14:224.30132 15:224.215 16:137.02969 17:137.0816 18:137.03149 19:235.45786 20:232.60324 21:233.61749 22:142.5099 23:141.14819 24:141.89951 25:232.02406 26:236.52399 27:238.24158 28:142.2532 29:144.03841 30:144.8654 # frame 442
7.0248295332406673e-013 1:264.02441 2:281.08258 3:300.14673 4:172.93381 5:178.4872 6:184.4902 7:227.56949 8:225.8623 9:223.5379 10:138.1909 11:137.502 12:136.6526 13:220.89452 14:221.3372 15:221.11977 16:135.28571 17:135.5675 18:135.3483 19:236.51039 20:237.44122 21:237.43729 22:142.5013 23:142.7173 24:142.70869 25:235.15669 26:234.85378 27:234.39185 28:143.5139 29:143.3096 30:142.9608 # frame 442
1.4308186103950141e-012 1:142.27892 2:265.34616 3:208.28288 4:125.14 5:172.19679 6:152.058 7:230.92302 8:229.57367 9:226.78976 10:140.18961 11:139.37289 12:138.2108 13:232.33267 14:231.92206 15:229.88707 16:140.56619 17:140.1861 18:139.54849 19:236.91273 20:237.16475 21:234.69345 22:142.8208 23:142.8306 24:141.8842 25:242.51089 26:242.84731 27:241.86183 28:145.5695 29:145.755 30:145.01601 # frame 442
-2.1917211673351342e-012 1:165.54556 2:256.14529 3:232.89194 4:136.9872 5:170.67 6:162.67661 7:224.5088 8:224.80971 9:224.83594 10:135.4935 11:135.3224 12:135.3082 13:224.61761 14:227.07166 15:226.03052 16:137.43919 17:138.32091 18:137.7751 19:230.58351 20:233.06271 21:235.4706 22:140.2458 23:141.0477 24:141.90359 25:238.40517 26:240.69638 27:241.13536 28:144.5239 29:145.47951 30:145.8394 # frame 442
-1.1789838399115551e-012 1:261.99777 2:281.37369 3:301.2301 4:171.4789 5:177.87289 6:184.123 7:228.76176 8:224.92209 9:226.55086 10:138.8259 11:137.1705 12:138.145 13:224.22891 14:228.6667 15:227.86015 16:137.257 17:138.9534 18:138.4261 19:234.12862 20:233.33913 21:234.70682 22:141.48511 23:140.8562 24:141.3569 25:239.31227 26:241.59155 27:241.53581 28:145.0743 29:145.52879 30:145.78439 # frame 442
1.0760425594674733e-012 1:132.77394 2:219.16472 3:181.5799 4:120.3823 5:155.8119 6:141.2469 7:231.60751 8:230.42717 9:229.86874 10:140.0899 11:139.66789 12:139.4071 13:232.5105 14:228.96513 15:231.67625 16:140.345 17:139.5549 18:140.4276 19:239.38728 20:238.00038 21:238.14919 22:143.1875 23:142.66029 24:142.7346 25:247.03291 26:245.47043 27:244.96822 28:147.0686 29:146.5835 30:146.62469 # frame 442
3.084041874176701e-012 1:188.101 2:260.79813 3:245.91093 4:145.58189 5:172.0779 6:166.9037 7:223.57893 8:223.52301 9:225.05588 10:134.7314 11:135.203 12:135.5233 13:228.9581 14:229.90196 15:229.29128 16:138.82961 17:139.2769 18:139.0325 19:231.15956 20:232.37206 21:232.32129 22:140.7076 23:140.8401 24:140.9718 25:245.65494 26:241.76474 27:244.04016 28:147.181 29:146.0184 30:146.6795 # frame 442
1.1733731871468791e-013 1:254.39008 2:273.98792 3:292.08881 4:169.6205 5:176.11169 6:181.8784 7:231.63652 8:228.62411 9:230.23615 10:140.2756 11:138.7162 12:139.2968 13:231.39201 14:227.64824 15:233.04909 16:139.81371 17:138.28931 18:140.5502 19:238.64244 20:233.44798 21:234.55353 22:142.97501 23:141.2193 24:141.3199 25:237.20448 26:240.35023 27:239.98492 28:143.9259 29:144.8026 30:144.6179 # frame 442
3.3298576733790245e-012 1:211.79375 2:257.53192 3:262.65964 4:152.3279 5:169.5547 6:170.9319 7:235.11803 8:235.50748 9:234.79172 10:141.11771 11:141.04829 12:141.11929 13:231.39136 14:230.35892 15:233.63852 16:139.4252 17:139.2457 18:140.7614 19:235.18896 20:233.81735 21:234.32672 22:142.2587 23:141.6221 24:141.7271 25:233.47171 26:233.8914 27:233.05286 28:142.3452 29:142.40829 30:142.226 # frame 442
-2.279922281151329e-012 1:152.50357 2:289.99316 3:231.27666 4:127.3062 5:176.51221 6:157.37379 7:218.36923 8:216.99934 9:218.69687 10:132.742 11:131.9097 12:132.5712 13:217.2549 14:217.43234 15:216.48596 16:131.8492 17:132.278 18:131.882 19:226.97992 20:224.30113 21:226.1842 22:136.68919 23:135.36571 24:135.9245 25:230.42201 26:231.07828 27:231.31064 28:138.7851 29:139.04289 30:139.02769 # frame 442
-6.5640993554716615e-012 1:254.43745 2:274.74557 3:292.90118 4:168.60249 5:175.36571 6:181.16901 7:228.39023 8:227.86732 9:229.98047 10:139.0107 11:138.8243 12:139.66521 13:230.98154 14:227.77109 15:230.49786 16:139.9108 17:138.56219 18:139.67889 19:233.24431 20:231.73474 21:232.51338 22:141.20151 23:140.6438 24:140.99631 25:243.99146 26:244.40918 27:243.70142 28:146.2005 29:146.4269 30:146.1665 # frame 442
-3.6631324389715545e-012 1:202.06033 2:238.4142 3:246.63318 4:149.0728 5:162.627 6:165.2686 7:232.80925 8:233.58893 9:233.83195 10:140.4868 11:140.8877 12:140.7309 13:235.51773 14:233.09081 15:231.52321 16:141.4153 17:140.319 18:139.8997 19:233.87799 20:235.12791 21:234.61996 22:141.7527 23:141.8485 24:141.7845 25:236.99872 26:239.70772 27:235.61787 28:143.5836 29:144.4574 30:142.98531 # frame 442
5.9952652872170819e-012 1:146.58443 2:258.18411 3:216.71687 4:124.1637 5:166.1311 6:151.75751 7:218.65236 8:218.98048 9:218.94974 10:132.6042 11:132.5714 12:132.74789 13:223.33833 14:217.0406 15:216.55049 16:134.7932 17:132.31461 18:131.6895 19:224.72328 20:225.24713 21:226.88155 22:135.59489 23:136.02521 24:136.38251 25:229.65395 26:232.61487 27:229.89105 28:138.1915 29:139.2115 30:138.37601 # frame 442
5.5864020523064276e-012 1:246.42685 2:267.24203 3:285.81644 4:166.4155 5:173.42751 6:179.4304 7:227.30782 8:229.15878 9:230.25333 10:139.16949 11:139.8549 12:140.1263 13:229.83643 14:230.41556 15:232.07285 16:139.6015 17:139.627 18:140.3152 19:233.63016 20:234.3515 21:236.52548 22:141.59579 23:141.6689 24:142.4621 25:242.24634 26:241.47217 27:241.8549 28:145.64529 29:145.3047 30:145.3376 # frame 442
-3.4095622359651098e-012 1:187.52792 2:224.20935 3:231.53769 4:143.4213 5:157.7823 6:160.16991 7:229.82437 8:232.77855 9:234.00079 10:139.15849 11:140.49831 12:140.7663 13:229.53305 14:231.92812 15:234.77802 16:139.01221 17:140.1591 18:140.974 19:233.77243 20:231.34441 21:231.11337 22:141.3954 23:140.2243 24:140.15421 25:237.28145 26:234.517 27:235.2207 28:143.5206 29:142.85229 30:142.85001 # frame 442
-4.9962770861559019e-013 1:117.63382 2:226.07239 3:180.18164 4:110.6398 5:154.7422 6:137.5806 7:219.43057 8:219.06616 9:216.35243 10:132.8414 11:133.30341 12:132.01421 13:219.28963 14:218.93166 15:218.03218 16:132.58681 17:132.851 18:132.396 19:223.82535 20:224.43436 21:225.19728 22:135.0118 23:135.20351 24:135.3112 25:232.00893 26:226.36607 27:231.05658 28:138.89751 29:137.08369 30:138.5719 # frame 442
-5.828404744682465e-013 1:294.48859 2:285.32898 3:296.11832 4:181.84689 5:178.9794 6:182.3864 7:225.58287 8:225.97031 9:226.26817 10:138.1203 11:138.4509 12:138.66451 13:230.73697 14:228.77707 15:230.36319 16:139.8696 17:139.373 18:139.85069 19:236.66216 20:236.3287 21:235.03488 22:142.43919 23:142.43311 24:141.8387 25:244.08893 26:243.76291 27:242.44121 28:146.34669 29:146.2081 30:145.76331 # frame 479
3.4307696991005735e-013 1:205.25087 2:294.78867 3:252.17091 4:151.85831 5:182.27251 6:168.15131 7:230.11105 8:229.84041 9:228.69464 10:139.75909 11:139.69769 12:139.2618 13:228.32945 14:229.56078 15:228.33038 16:138.7267 17:139.2549 18:138.57091 19:238.77458 20:236.73549 21:239.31831 22:143.71429 23:142.3149 24:143.5132 25:242.7354 26:246.02261 27:244.7395 28:146.0683 29:147.2189 30:146.78281 # frame 479
-6.4201911003153296e-012 1:141.75214 2:212.47626 3:174.65813 4:126.1358 5:154.89461 6:140.13 7:231.48447 8:231.22803 9:229.98904 10:140.20351 11:139.93159 12:139.6889 13:227.93547 14:226.6241 15:229.07303 16:138.7601 17:137.9893 18:139.2336 19:233.25616 20:237.01814 21:237.55229 22:141.67931 23:143.21091 24:143.3936 25:243.25398 26:245.36075 27:244.41342 28:146.34171 29:147.08231 30:146.59979 # frame 479
3.1737725865286896e-012 1:280.20618 2:278.91367 3:294.28168 4:177.2868 5:176.95959 6:181.815 7:227.32497 8:226.45323 9:226.51624 10:138.867 11:138.5511 12:138.6602 13:229.12172 14:228.17485 15:231.41867 16:139.2054 17:138.56979 18:139.7285 19:231.79865 20:231.78017 21:235.38588 22:140.6494 23:140.7849 24:141.9521 25:241.00896 26:242.78134 27:240.62209 28:145.1461 29:145.7014 30:144.7968 # frame 479
9.3460714598712548e-013 1:181.54027 2:266.55368 3:222.89674 4:142.2997 5:173.18719 6:158.07851 7:225.84331 8:226.92091 9:226.1411 10:138.2901 11:138.5712 12:138.257 13:229.12271 14:230.75305 15:232.95621 16:139.5574 17:140.11481 18:140.8112 19:242.05869 20:240.13127 21:240.1228 22:144.5817 23:143.77631 24:143.8338 25:243.79782 26:245.97368 27:243.71127 28:146.1523 29:146.9769 30:145.9996 # frame 479
-3.6736085699683994e-012 1:151.19246 2:196.02663 3:173.1441 4:129.0264 5:147.9406 6:138.325 7:228.45792 8:229.57339 9:227.51158 10:139.14619 11:139.532 12:138.5885 13:233.0536 14:233.33609 15:233.17065 16:140.6519 17:140.4989 18:140.57629 19:235.78047 20:236.97786 21:238.73163 22:142.3378 23:142.8485 24:143.5192 25:240.75945 26:240.8064 27:243.23505 28:145.0993 29:145.42889 30:146.1208 # frame 479
6.3643155880877219e-013 1:254.91016 2:262.56775 3:279.73929 4:168.7807 5:171.3535 6:176.9595 7:231.31667 8:231.00311 9:229.49304 10:140.239 11:140.31889 12:139.5083 13:233.07535 14:228.43512 15:231.32768 16:140.83321 17:139.21741 18:140.1447 19:234.42213 20:233.34795 21:233.51752 22:141.8067 23:141.46919 24:141.1308 25:241.62479 26:241.31805 27:243.76877 28:145.3102 29:145.3495 30:146.1913 # frame 479
-1.6291449893121897e-012 1:173.78319 2:242.96223 3:208.72162 4:138.17439 5:164.3954 6:151.9382 7:226.92822 8:229.91945 9:230.24066 10:138.9579 11:139.90871 12:140.35719 13:234.43024 14:233.36124 15:231.74486 16:141.5759 17:140.9924 18:140.284 19:240.30754 20:236.58397 21:239.95229 22:143.9758 23:142.11481 24:143.68021 25:242.59164 26:242.70695 27:242.68484 28:145.43201 29:145.5428 30:145.6488 # frame 479
-1.5104544237324984e-012 1:81.837051 2:79.410973 3:61.035915 4:96.313904 5:94.9459 6:83.1101 7:224.93781 8:225.84828 9:223.90027 10:137.2856 11:137.7435 12:136.4964 13:223.47812 14:220.33815 15:218.99271 16:137.1642 17:135.4183 18:134.84731 19:231.25342 20:232.87111 21:232.27684 22:141.29849 23:141.83279 24:142.0318 25:222.41042 26:225.66916 27:225.89879 28:138.72211 29:140.08501 30:139.88609 # frame 498
-3.5381440339259881e-012 1:165.24142 2:123.70599 3:109.28289 4:137.22701 5:118.6588 6:111.4806 7:223.68431 8:225.37978 9:226.4971 10:136.2207 11:136.9169 12:137.34911 13:220.62912 14:221.24339 15:222.80438 16:135.368 17:135.5027 18:136.43539 19:229.6432 20:229.56554 21:230.70792 22:140.46989 23:140.42909 24:140.74741 25:235.41508 26:233.84612 27:235.04813 28:142.8737 29:142.5148 30:143.05589 # frame 498
-1.3156340721518928e-012 1:89.857468 2:99.702194 3:66.689285 4:101.0217 5:106.4461 6:86.929497 7:225.72209 8:222.07343 9:223.10284 10:136.39661 11:134.5144 12:135.09331 13:221.39365 14:217.75743 15:217.37352 16:135.3392 17:133.77409 18:133.631 19:232.91454 20:231.09241 21:234.53114 22:142.7191 23:142.367 24:143.6219 25:234.88527 26:236.37413 27:234.34805 28:143.37711 29:144.013 30:143.2128 # frame 498
-9.0305325042599512e-013 1:78.844421 2:78.091621 3:60.73502 4:94.366501 5:93.9897 6:82.757103 7:227.7196 8:227.12099 9:224.08313 10:137.8373 11:137.1777 12:136.00549 13:231.22609 14:228.90099 15:227.90514 16:140.3484 17:139.3007 18:138.8777 19:229.4211 20:227.36171 21:226.5853 22:140.4478 23:139.4261 24:139.5766 25:232.04858 26:232.01347 27:233.10136 28:142.0522 29:142.0322 30:142.3035 # frame 498
1.951786481194517e-012 1:153.7168 2:119.56129 3:110.08443 4:132.0946 5:116.3986 6:111.6428 7:227.12762 8:227.00125 9:228.63982 10:137.3625 11:137.2567 12:137.8933 13:224.56816 14:225.8968 15:229.61707 16:137.17239 17:137.6241 18:139.17419 19:231.60379 20:228.7587 21:231.83559 22:141.2534 23:140.1747 24:141.3089 25:240.77493 26:241.51703 27:241.23927 28:145.0676 29:145.4355 30:145.33321 # frame 498
1.7012958828377836e-012 1:93.962509 2:101.12263 3:75.112473 4:103.115 5:106.9628 6:92.0532 7:228.97031 8:227.24164 9:225.18187 10:137.50819 11:136.5795 12:135.8273 13:226.83665 14:228.52385 15:228.39584 16:138.3638 17:138.94971 18:138.5336 19:232.00198 20:233.89252 21:233.05504 22:141.618 23:142.453 24:141.91479 25:235.90479 26:239.86969 27:241.41437 28:143.54021 29:145.1575 30:145.45171 # frame 498
6.4437870835382906e-013 1:79.852692 2:83.054054 3:64.447914 4:95.056198 5:96.948402 6:85.288002 7:227.05023 8:224.69785 9:224.49567 10:136.3394 11:135.2328 12:135.37289 13:227.31894 14:227.47151 15:227.78185 16:138.6571 17:138.7885 18:138.8495 19:233.92799 20:231.375 21:233.6786 22:142.1239 23:141.28169 24:142.06239 25:231.78139 26:239.1411 27:236.27934 28:141.8788 29:144.6841 30:143.26401 # frame 498
3.4946209233188568e-013 1:151.07904 2:119.3173 3:113.65911 4:130.64101 5:115.9658 6:113.1294 7:229.60297 8:230.70279 9:230.36424 10:138.8024 11:139.24471 12:139.23891 13:228.86118 14:231.91586 15:229.86894 16:139.09779 17:140.41431 18:139.6223 19:232.69878 20:232.64085 21:230.44125 22:141.2955 23:141.2292 24:140.3069 25:239.89847 26:240.06471 27:240.41577 28:144.742 29:144.8618 30:145.02789 # frame 498
2.6329899608653765e-012 1:82.372643 2:87.743401 3:63.155594 4:96.154297 5:99.346497 6:84.032501 7:233.17763 8:234.35124 9:236.96573 10:139.4016 11:139.879 12:140.8448 13:230.61314 14:228.57809 15:230.42288 16:139.7728 17:139.104 18:139.739 19:229.34338 20:228.03914 21:228.70532 22:140.25929 23:139.59219 24:139.8055 25:237.01299 26:236.16895 27:235.07269 28:143.85181 29:143.6597 30:143.27811 # frame 498
-2.6744384599376832e-012 1:83.04554 2:86.653641 3:66.49334 4:96.768097 5:98.972099 6:86.482101 7:227.0276 8:226.7023 9:227.37135 10:136.6357 11:136.75951 12:136.98441 13:229.2178 14:227.46056 15:226.46405 16:139.6153 17:138.66631 18:138.0696 19:232.7155 20:234.6208 21:231.41669 22:141.45 23:142.07739 24:140.98 25:238.23759 26:236.547 27:237.01645 28:144.252 29:143.7175 30:143.95151 # frame 498
4.2501848515477106e-012 1:147.84537 2:118.47269 3:115.96018 4:129.0526 5:115.3564 6:114.0786 7:232.80794 8:233.41031 9:232.39246 10:139.8174 11:140.125 12:139.4709 13:229.21796 14:230.06177 15:232.80238 16:139.442 17:139.55299 18:140.46831 19:231.55363 20:231.90215 21:231.36688 22:140.6295 23:141.11929 24:140.625 25:244.67174 26:244.47075 27:246.70067 28:146.7747 29:147.00301 30:147.71201 # frame 498
5.277081914315732e-012 1:97.035492 2:100.37384 3:76.347404 4:104.2603 5:106.2915 6:92.435303 7:228.39612 8:230.52632 9:228.48151 10:138.0598 11:138.7805 12:137.8613 13:223.43794 14:225.70859 15:227.81432 16:136.8259 17:138.0643 18:138.4229 19:233.02742 20:233.49886 21:233.72699 22:141.5363 23:141.9838 24:142.1301 25:237.4496 26:237.60223 27:237.0051 28:144.30701 29:144.7482 30:144.1189 # frame 498
-8.2539429947745454e-012 1:86.119705 2:86.521034 3:70.511421 4:98.272499 5:98.666496 6:88.698502 7:230.2688 8:229.91206 9:230.71671 10:138.4917 11:138.2542 12:138.69701 13:228.1472 14:229.24974 15:229.28928 16:138.68829 17:139.4369 18:139.29401 19:236.74782 20:234.19594 21:232.81551 22:142.71049 23:141.972 24:141.26691 25:239.45551 26:240.09924 27:238.41135 28:145.1393 29:145.20441 30:144.5274 # frame 498
-1.1350427839915162e-012 1:143.35286 2:116.66918 3:116.93796 4:127.097 5:114.4838 6:114.5706 7:230.36589 8:229.74321 9:228.3029 10:138.84151 11:138.4451 12:137.9693 13:225.6315 14:226.0663 15:229.06633 16:137.595 17:137.81641 18:139.2054 19:231.79047 20:233.95158 21:233.23393 22:141.153 23:141.99631 24:141.8559 25:243.44928 26:247.28337 27:249.03464 28:146.3266 29:147.85699 30:148.4733 # frame 498
-1.474726588091814e-012 1:94.211571 2:98.89193 3:76.900467 4:102.4498 5:105.4028 6:92.669601 7:221.02351 8:228.88901 9:227.5461 10:134.9001 11:137.85941 12:137.3195 13:220.67564 14:222.26416 15:230.98383 16:135.8811 17:136.57491 18:140.1144 19:236.69986 20:234.25601 21:234.61945 22:143.2182 23:142.1629 24:142.05 25:244.0069 26:241.81525 27:242.03787 28:146.91389 29:145.7748 30:145.8911 # frame 498
-8.0548474000389778e-014 1:104.87725 2:108.03958 3:98.517151 4:108.1222 5:109.955 6:104.3246 7:230.1992 8:228.95058 9:229.22177 10:138.6131 11:138.1563 12:137.961 13:226.49661 14:226.50256 15:227.46638 16:138.62019 17:138.31821 18:138.8564 19:232.21808 20:230.09691 21:233.02596 22:141.3959 23:140.68449 24:141.66051 25:239.31409 26:235.95332 27:240.74135 28:145.16299 29:143.72031 30:145.40919 # frame 498
-9.3137265776941206e-013 1:145.09024 2:118.23522 3:120.00707 4:127.4189 5:114.7527 6:115.5987 7:232.71872 8:234.47557 9:231.91786 10:139.7899 11:140.24071 12:139.2693 13:232.80962 14:231.29218 15:231.27925 16:140.33971 17:140.12981 18:139.9599 19:232.25786 20:233.15776 21:230.37524 22:141.0481 23:141.29761 24:140.1308 25:238.68503 26:241.01219 27:242.86371 28:144.5761 29:145.5042 30:145.91451 # frame 498
2.2082004044731412e-012 1:97.014778 2:108.8126 3:88.350235 4:103.386 5:110.0118 6:98.877197 7:234.35747 8:231.84134 9:230.42192 10:140.65669 11:139.6198 12:139.2182 13:232.3177 14:234.58344 15:231.57491 16:140.5038 17:141.65269 18:140.4549 19:230.68233 20:229.26135 21:231.05072 22:140.647 23:139.87669 24:140.81619 25:239.15556 26:242.4185 27:244.79755 28:144.7415 29:145.9519 30:146.5872 # frame 498
3.2869119987503762e-012 1:155.41864 2:185.19827 3:177.38969 4:131.0386 5:143.7558 6:140.17 7:232.8553 8:231.01341 9:231.6866 10:139.6257 11:139.166 12:139.40379 13:230.08167 14:226.46733 15:225.87683 16:139.1693 17:138.0392 18:137.43269 19:235.9899 20:234.8252 21:232.79024 22:142.61459 23:141.95399 24:141.42439 25:244.73846 26:246.36191 27:246.61868 28:146.535 29:147.3797 30:147.2159 # frame 498
-3.3528418872830091e-013 1:178.67099 2:158.36357 3:168.373 4:141.0751 5:132.4843 6:136.66071 7:228.07018 8:231.39275 9:227.93877 10:138.4859 11:139.436 12:138.15199 13:228.13615 14:229.42969 15:227.52774 16:138.5618 17:139.4185 18:138.3243 19:234.79222 20:230.41313 21:233.19939 22:142.0648 23:140.36459 24:141.3844 25:242.87914 26:243.59106 27:244.5632 28:145.7798 29:146.03751 30:146.242 # frame 498
-4.3328970594985139e-012 1:139.17029 2:160.76811 3:148.68225 4:123.0519 5:133.1599 6:127.7725 7:231.53619 8:232.88519 9:234.87366 10:139.9386 11:140.49139 12:141.10361 13:226.95935 14:229.28804 15:228.59645 16:138.0769 17:139.0705 18:138.8786 19:230.06493 20:231.37111 21:229.65056 22:140.4059 23:140.75301 24:140.05589 25:241.61858 26:241.40123 27:243.39758 28:145.40691 29:145.48959 30:146.07761 # frame 498
-7.0315060742881541e-013 1:177.44954 2:204.17981 3:200.77118 4:140.3009 5:151.0631 6:149.24091 7:223.93201 8:226.0845 9:223.76489 10:136.7861 11:137.82671 12:136.37891 13:227.30963 14:228.00548 15:227.63458 16:138.19141 17:138.51311 18:137.9664 19:238.53258 20:239.88681 21:237.57941 22:143.4138 23:144.06039 24:143.07291 25:246.03282 26:244.23682 27:243.79245 28:147.0674 29:146.30679 30:146.2402 # frame 498
-2.8943019188841862e-012 1:224.63086 2:218.88835 3:236.63264 4:156.95509 5:154.7283 6:161.05009 7:228.98772 8:226.92387 9:227.70052 10:139.42709 11:138.71629 12:138.8709 13:233.25899 14:231.56062 15:229.54924 16:141.26759 17:140.5921 18:140.10471 19:232.66676 20:234.4191 21:234.72086 22:140.6189 23:141.3235 24:141.66859 25:242.91342 26:240.34236 27:241.87329 28:145.7814 29:144.88499 30:145.235 # frame 498
-1.4048753341526841e-012 1:222.82668 2:240.26596 3:243.2101 4:151.2256 5:158.9514 6:158.9471 7:232.82338 8:228.68767 9:230.33704 10:140.9229 11:139.4438 12:139.9747 13:229.56221 14:233.80157 15:226.8094 16:139.5688 17:141.3582 18:138.39999 19:237.85286 20:238.9585 21:238.61494 22:142.70821 23:143.19521 24:142.87711 25:238.19206 26:239.52548 27:235.56439 28:144.1698 29:144.61681 30:143.2901 # frame 498
4.3315632865379995e-012 1:211.9449 2:227.67079 3:235.68393 4:153.2916 5:159.246 6:161.83569 7:222.52722 8:226.54503 9:226.52058 10:135.88721 11:137.3083 12:137.48109 13:220.7744 14:226.25951 15:222.30687 16:135.68829 17:137.45869 18:136.186 19:234.72395 20:232.76274 21:231.61357 22:142.09241 23:141.548 24:140.6367 25:247.78944 26:245.96794 27:245.46448 28:147.80949 29:147.093 30:146.9509 # frame 498
-8.0646840632675956e-013 1:271.80017 2:255.81285 3:251.77219 4:170.388 5:166.16541 6:166.103 7:227.12267 8:226.93828 9:228.02249 10:138.12019 11:138.40559 12:138.52859 13:218.45242 14:220.80515 15:222.83278 16:134.17509 17:135.72211 18:136.5224 19:231.32599 20:233.23001 21:233.3367 22:140.39619 23:140.95799 24:141.1756 25:238.57774 26:239.08128 27:241.84789 28:144.2867 29:144.92461 30:145.3967 # frame 498
5.4005605210672458e-012 1:118.76927 2:107.06717 3:86.048912 4:115.1878 5:110.0674 6:98.208199 7:229.83887 8:229.8647 9:229.07838 10:138.3502 11:138.149 12:138.1192 13:224.92845 14:227.99638 15:226.51015 16:137.9476 17:138.8867 18:138.2314 19:231.22823 20:232.28943 21:231.46439 22:140.6857 23:141.4355 24:140.94209 25:232.56105 26:235.22586 27:234.49069 28:142.28259 29:143.0368 30:143.09109 # frame 504
6.8677144669973315e-012 1:166.83818 2:124.76608 3:107.96951 4:137.1308 5:118.7048 6:110.2628 7:231.46889 8:231.70853 9:231.05988 10:139.435 11:139.46449 12:139.2291 13:224.21805 14:224.71292 15:226.22104 16:136.9026 17:137.3199 18:138.0083 19:235.49406 20:232.53102 21:233.80579 22:142.2401 23:141.0955 24:141.68381 25:241.07423 26:242.40587 27:242.40076 28:145.36391 29:146.03059 30:146.0784 # frame 504
-5.6423570010702252e-013 1:118.19539 2:123.50589 3:81.173294 4:113.0904 5:115.5628 6:93.551201 7:213.19392 8:211.82263 9:216.94791 10:128.74049 11:128.4751 12:130.32961 13:206.77046 14:207.54984 15:206.9693 16:126.9298 17:127.5528 18:127.7207 19:220.79771 20:224.5421 21:221.79222 22:135.0934 23:136.55499 24:135.3242 25:227.2953 26:228.53459 27:227.83142 28:137.6403 29:137.9581 30:137.9362 # frame 504
-4.7910553587139781e-013 1:141.44415 2:116.67749 3:102.33228 4:125.4806 5:114.5406 6:106.6688 7:226.51498 8:227.14569 9:225.74762 10:137.02 11:137.37579 12:136.7021 13:224.5126 14:228.1422 15:225.73149 16:137.4691 17:139.12531 18:138.0941 19:231.49046 20:231.41701 21:232.70058 22:140.9538 23:140.9749 24:141.54311 25:239.65956 26:238.87602 27:240.33182 28:145.4433 29:144.8344 30:145.28999 # frame 504
-2.3148913262164616e-012 1:183.63673 2:136.9935 3:123.83291 4:144.3826 5:124.5534 6:118.3438 7:226.80939 8:227.84412 9:228.17857 10:137.8035 11:138.2793 12:138.3752 13:224.50653 14:224.84607 15:225.58847 16:137.0956 17:137.2076 18:137.55029 19:232.31131 20:231.05043 21:232.88377 22:141.32269 23:141.11031 24:141.5451 25:235.96306 26:239.14473 27:238.46841 28:143.55009 29:144.75751 30:144.5621 # frame 504
8.6270863104096277e-014 1:113.49119 2:117.15508 3:79.014656 4:110.5681 5:112.3897 6:92.158096 7:213.9848 8:214.53741 9:214.37877 10:129.5043 11:129.4745 12:129.1908 13:211.98616 14:213.67841 15:214.94853 16:129.4929 17:130.3624 18:131.0679 19:224.52611 20:222.55945 21:223.11646 22:136.2229 23:135.4175 24:135.9025 25:225.65729 26:222.59604 27:227.77753 28:137.0851 29:135.7926 30:137.7648 # frame 504
8.0041664824022295e-013 1:163.26257 2:128.88556 3:122.5418 4:135.56599 5:120.6218 6:117.4182 7:219.31792 8:226.08818 9:223.08261 10:134.2059 11:136.7357 12:135.82269 13:213.9277 14:223.97981 15:221.61348 16:132.71941 17:137.0974 18:136.2926 19:232.49535 20:228.48648 21:232.84979 22:141.65871 23:139.85139 24:141.8651 25:238.85126 26:236.77869 27:235.42166 28:144.567 29:143.7993 30:143.3385 # frame 504
2.2676991304773958e-012 1:181.45355 2:137.22723 3:128.01505 4:143.46111 5:124.5847 6:120.2661 7:229.81876 8:228.47263 9:228.32898 10:139.12621 11:138.4008 12:138.5815 13:226.14441 14:226.4929 15:228.06923 16:138.0096 17:138.1825 18:138.8291 19:232.2695 20:232.1725 21:236.33337 22:141.64931 23:141.63341 24:143.10699 25:237.09839 26:236.94334 27:235.74559 28:143.91389 29:143.8022 30:143.5352 # frame 504
3.4997499887813075e-012 1:105.37875 2:108.74371 3:77.127602 4:106.5017 5:108.1949 6:91.004501 7:212.22366 8:212.40359 9:212.60841 10:128.9577 11:128.6732 12:128.56689 13:212.58078 14:213.09677 15:210.73102 16:130.02161 17:129.96181 18:129.30679 19:226.19601 20:225.26227 21:219.19321 22:137.2592 23:136.7388 24:134.4942 25:227.36839 26:226.25044 27:227.28481 28:137.7464 29:137.209 30:137.145 # frame 504
-2.0146034855941673e-012 1:161.6273 2:134.33095 3:129.56161 4:134.8638 5:123.2096 6:120.9256 7:232.30969 8:232.13164 9:230.61201 10:139.8965 11:139.6613 12:139.3181 13:228.53448 14:227.46608 15:230.56351 16:138.618 17:138.58369 18:139.908 19:236.11272 20:233.80511 21:232.3721 22:142.6964 23:141.7383 24:141.0036 25:240.64406 26:243.61269 27:237.93777 28:145.3584 29:146.52361 30:144.11571 # frame 504
-1.511672270959126e-012 1:171.67693 2:133.7679 3:126.82066 4:139.58701 5:123.093 6:119.8058 7:231.05284 8:232.21736 9:230.78461 10:139.20329 11:139.67239 12:139.265 13:226.98112 14:227.82172 15:228.57857 16:137.7869 17:138.4093 18:138.7574 19:233.11389 20:232.51944 21:233.05197 22:141.47701 23:141.1041 24:141.4048 25:237.34439 26:241.28596 27:243.2845 28:143.8613 29:145.34869 30:146.132 # frame 504
5.7438215175855917e-013 1:107.47072 2:112.47808 3:87.284317 4:107.3795 5:109.8663 6:96.589897 7:216.1067 8:217.00394 9:218.03506 10:130.51331 11:130.49631 12:131.069 13:212.38507 14:207.37224 15:213.47083 16:130.0544 17:127.9282 18:130.66859 19:217.94409 20:218.08612 21:218.45749 22:133.8503 23:133.5634 24:133.66611 25:226.82925 26:226.6866 27:228.62669 28:137.54179 29:137.5201 30:138.02521 # frame 504
2.9278280260946271e-012 1:179.64735 2:139.6741 3:140.53981 4:142.5771 5:125.6075 6:125.9853 7:227.0204 8:228.87125 9:227.62257 10:138.0417 11:139.0043 12:138.5502 13:222.49435 14:226.01236 15:227.20856 16:136.5665 17:138.05679 18:138.3255 19:232.52608 20:228.67763 21:232.95648 22:141.27541 23:139.9174 24:141.14861 25:242.60078 26:244.51233 27:242.37997 28:146.0368 29:146.9068 30:145.9017 # frame 504
-4.0620818229976428e-012 1:168.18794 2:133.42802 3:127.72206 4:138.19679 5:122.9864 6:120.3068 7:228.12778 8:229.59114 9:228.36563 10:137.78371 11:138.24159 12:137.6713 13:220.37326 14:223.60736 15:222.98566 16:135.35941 17:137.01649 18:136.5648 19:232.90492 20:232.21371 21:231.93694 22:141.71359 23:140.96181 24:140.95551 25:240.0936 26:242.24962 27:242.79677 28:144.9364 29:145.703 30:145.9612 # frame 504
-3.489828725403511e-012 1:104.59772 2:104.73497 3:80.612251 4:105.7908 5:105.9388 6:92.661201 7:217.87221 8:216.17212 9:217.61246 10:131.1497 11:130.1769 12:130.8125 13:217.88925 14:213.80107 15:216.80928 16:132.60941 17:131.30479 18:132.2724 19:224.54863 20:222.32692 21:224.04199 22:135.5923 23:134.951 24:135.7933 25:225.89665 26:228.46268 27:231.91646 28:137.20551 29:138.14999 30:139.5244 # frame 504
-1.0214487227175755e-013 1:408.48209 2:381.91507 3:416.4299 4:205.6617 5:195.53751 6:205.0032 7:155.38422 8:152.56404 9:144.78761 10:97.319801 11:96.419098 12:92.562897 13:170.62233 14:176.06395 15:165.02802 16:105.9932 17:108.4248 18:102.5201 19:226.93739 20:222.57155 21:212.65793 22:139.2878 23:136.015 24:133.17039 25:193.54222 26:204.98053 27:198.19437 28:126.4036 29:131.55 30:129.03011 # frame 504
-4.5523764869000683e-012 1:155.47377 2:124.26158 3:121.26181 4:132.7294 5:118.5808 6:117.1068 7:229.00912 8:228.66887 9:229.63652 10:138.4426 11:138.158 12:138.7249 13:222.93842 14:224.59715 15:226.16841 16:136.534 17:137.2634 18:137.897 19:231.98471 20:233.27814 21:234.55582 22:141.2298 23:141.9664 24:142.20799 25:236.05531 26:236.12186 27:233.78419 28:143.5267 29:143.6512 30:142.81371 # frame 504
1.5671315044616756e-012 1:91.399773 2:94.132492 3:68.041054 4:98.787003 5:100.3606 6:85.147797 7:215.56395 8:216.00819 9:215.85324 10:130.4709 11:130.4286 12:130.3318 13:221.26361 14:216.71133 15:218.03427 16:133.8167 17:131.7634 18:132.4642 19:223.98891 20:224.60312 21:221.93471 22:135.5242 23:135.82401 24:135.0444 25:232.9319 26:235.11612 27:235.30789 28:139.82249 29:140.7599 30:140.59821 # frame 504
-1.3764418877812941e-012 1:195.31158 2:157.32932 3:180.68808 4:146.7628 5:130.7534 6:139.0584 7:220.9435 8:217.87604 9:215.51118 10:133.92239 11:132.47839 12:131.7653 13:227.77036 14:227.40749 15:228.45181 16:138.5426 17:138.84979 18:139.1051 19:237.2372 20:239.70546 21:239.47351 22:143.304 23:144.7088 24:144.517 25:240.01025 26:244.47534 27:246.21518 28:144.86031 29:146.55791 30:147.21941 # frame 504
7.512610944771797e-013 1:149.96442 2:121.31421 3:119.55717 4:129.9738 5:116.5832 6:115.7224 7:221.68071 8:215.60309 9:220.77467 10:134.66341 11:132.35181 12:134.51981 13:220.34821 14:225.67628 15:223.7699 16:135.15919 17:137.63631 18:136.716 19:237.63786 20:240.53557 21:234.62448 22:144.1013 23:145.2542 24:142.7244 25:240.32692 26:243.18437 27:239.31148 28:145.1508 29:146.4978 30:144.97771 # frame 504
1.7807247746111611e-012 1:88.05365 2:93.535149 3:70.02002 4:96.955803 5:99.8134 6:86.181801 7:223.50314 8:219.17889 9:222.41829 10:133.80769 11:132.1907 12:133.3994 13:220.252 14:218.10674 15:222.35506 16:133.4586 17:132.6895 18:134.0106 19:217.57152 20:218.27792 21:217.29124 22:133.2674 23:133.21339 24:133.0526 25:225.22839 26:228.50995 27:228.04649 28:136.821 29:138.0226 30:137.8544 # frame 504
-5.6378727496864873e-012 1:177.45386 2:142.51888 3:144.22331 4:141.62019 5:126.7746 6:127.4888 7:228.65416 8:230.55681 9:228.18588 10:138.7309 11:139.30569 12:138.5448 13:226.36188 14:230.46861 15:229.16502 16:138.01649 17:139.5298 18:138.9883 19:236.63623 20:235.79254 21:237.18022 22:142.9196 23:142.4101 24:142.7693 25:245.10704 26:247.03346 27:243.06064 28:146.9751 29:147.7458 30:146.1734 # frame 504
-3.478752846701448e-012 1:162.28821 2:130.034 3:127.68829 4:132.5061 5:118.2041 6:117.7757 7:222.13882 8:219.42017 9:215.83432 10:134.8309 11:133.237 12:132.4404 13:225.6086 14:222.69571 15:228.19012 16:137.52361 17:136.32091 18:138.6284 19:232.203 20:232.28146 21:236.24979 22:140.9946 23:140.5611 24:142.4837 25:233.62273 26:237.40028 27:236.94873 28:142.50481 29:143.64751 30:143.6004 # frame 504
-2.6647420065426002e-012 1:96.77005 2:102.32964 3:78.30986 4:101.64 5:104.4484 6:91.18 7:222.04054 8:220.05238 9:220.38203 10:133.15199 11:132.37489 12:132.36971 13:217.20477 14:217.13202 15:216.30743 16:132.0331 17:132.3712 18:131.7637 19:216.65544 20:217.90852 21:220.85667 22:132.5683 23:133.13831 24:134.3199 25:227.96884 26:231.7104 27:232.14484 28:137.9221 29:139.1505 30:139.41769 # frame 504
-8.522735562218804e-013 1:170.79701 2:141.33543 3:141.95654 4:138.9008 5:126.2382 6:126.4512 7:229.93781 8:232.77586 9:230.3307 10:138.8172 11:140.0085 12:138.9565 13:228.32741 14:228.95338 15:230.44983 16:138.79179 17:139.1476 18:139.70599 19:237.78046 20:235.09862 21:235.96732 22:143.34509 23:142.30431 24:142.31731 25:244.10912 26:242.85152 27:244.84932 28:146.47321 29:146.1757 30:146.81509 # frame 504
-3.8810175972811532e-012 1:232.06905 2:206.45763 3:180.48256 4:161.57671 5:153.3051 6:143.1371 7:211.87254 8:210.22276 9:210.22539 10:129.61459 11:128.8886 12:128.8175 13:223.60226 14:224.0103 15:223.54254 16:136.1933 17:136.31129 18:135.8929 19:244.67798 20:235.88298 21:240.22748 22:146.74899 23:143.4975 24:145.1505 25:226.08813 26:226.59427 27:227.1265 28:140.0479 29:140.2336 30:140.2348 # frame 571
-3.0894286734724247e-013 1:292.66083 2:236.51108 3:225.39525 4:182.5107 5:164.0193 6:160.1161 7:208.54297 8:207.53918 9:207.78432 10:128.7552 11:128.3741 12:128.2191 13:211.27841 14:210.81361 15:211.125 16:131.2238 17:131.2408 18:131.36951 19:225.77921 20:226.74599 21:224.15018 22:138.82111 23:139.4362 24:138.5309 25:232.36037 26:231.02347 27:232.42961 28:142.1994 29:141.8109 30:142.155 # frame 571
3.4712177694730951e-012 1:304.57956 2:244.22157 3:230.59592 4:186.33929 5:166.7977 6:162.0401 7:215.83971 8:215.40695 9:214.427 10:131.7462 11:131.4621 12:131.2867 13:207.28952 14:207.649 15:207.44612 16:129.44099 17:129.5141 18:129.5032 19:229.4657 20:228.8248 21:230.06143 22:139.8002 23:139.6395 24:140.2664 25:226.90312 26:230.31578 27:228.93794 28:140.5015 29:141.9171 30:141.52049 # frame 571
1.4802666170341012e-012 1:172.05595 2:194.10167 3:147.57253 4:136.73399 5:148.0502 6:128.40961 7:215.45854 8:218.97519 9:212.0759 10:129.5766 11:130.2498 12:126.9665 13:230.58778 14:226.46832 15:225.45242 16:138.444 17:136.4426 18:135.98489 19:232.37537 20:230.12904 21:234.70322 22:141.8605 23:140.9875 24:142.5493 25:223.05199 26:222.29228 27:225.27654 28:138.3891 29:137.8365 30:138.6545 # frame 571
-1.6752062385516066e-012 1:281.44797 2:227.21275 3:219.01738 4:178.94119 5:160.77859 6:157.84039 7:205.77835 8:204.09753 9:207.72493 10:127.4845 11:126.768 12:128.1373 13:210.2869 14:208.96156 15:210.51865 16:130.4269 17:129.9702 18:130.5379 19:246.64246 20:247.22845 21:244.64706 22:146.01241 23:147.0482 24:145.98309 25:235.50153 26:234.90358 27:234.88989 28:143.7952 29:143.2807 30:142.7234 # frame 571
6.2093058557795507e-013 1:319.104 2:256.29169 3:244.6095 4:190.8326 5:170.98621 6:167.035 7:203.10545 8:203.42746 9:202.1226 10:126.8752 11:126.9299 12:126.4361 13:210.41861 14:209.4175 15:209.01601 16:129.9014 17:129.66859 18:129.1768 19:241.33717 20:243.34756 21:241.00241 22:144.8624 23:145.5887 24:144.586 25:231.03807 26:229.45612 27:228.4231 28:142.35201 29:141.99879 30:141.7739 # frame 571
9.804145481960696e-013 1:154.45062 2:186.1931 3:141.29276 4:131.6915 5:145.52589 6:126.4187 7:206.85458 8:205.6972 9:205.71425 10:126.2435 11:125.4254 12:125.597 13:214.75703 14:213.69594 15:218.51639 16:132.5663 17:131.5052 18:133.8551 19:242.66266 20:241.67572 21:241.92331 22:145.2314 23:145.3907 24:145.0618 25:241.82014 26:238.43486 27:237.19647 28:145.5692 29:144.3058 30:143.9462 # frame 571
3.0404794592316936e-012 1:280.08087 2:225.73259 3:221.75381 4:178.43491 5:160.1593 6:158.78371 7:199.52504 8:199.63481 9:200.57977 10:124.3323 11:124.3257 12:124.8938 13:214.86017 14:216.6387 15:212.35251 16:132.5145 17:132.9855 18:131.15269 19:250.2643 20:250.12036 21:249.53311 22:148.0248 23:148.37981 24:147.9323 25:230.79228 26:230.51097 27:231.43646 28:142.1212 29:141.3732 30:141.7572 # frame 571
-7.5895028346090976e-013 1:331.08633 2:265.17068 3:254.14526 4:194.2662 5:173.81261 6:170.159 7:206.32518 8:208.27267 9:206.5676 10:127.5767 11:128.2206 12:127.6472 13:214.97458 14:214.97823 15:212.41129 16:131.86189 17:131.951 18:130.6843 19:241.75394 20:243.38995 21:242.12271 22:144.5755 23:145.42641 24:144.782 25:228.68692 26:231.53085 27:231.23875 28:140.97231 29:142.45979 30:142.4384 # frame 571
-5.6567662706523133e-013 1:150.16763 2:193.68004 3:157.99788 4:130.55679 5:148.52319 6:133.888 7:207.55846 8:204.14825 9:204.76886 10:125.9806 11:124.527 12:124.909 13:218.45134 14:217.79259 15:216.96794 16:134.6855 17:133.7935 18:133.18781 19:241.66563 20:240.48715 21:240.02817 22:145.25169 23:144.698 24:144.4924 25:235.76794 26:236.64275 27:235.02299 28:143.2093 29:143.29041 30:142.571 # frame 571
7.3042745595454768e-013 1:268.80426 2:215.05266 3:217.26877 4:174.7126 5:156.2578 6:157.0918 7:189.41238 8:193.23409 9:189.5818 10:120.1329 11:121.5503 12:120.007 13:209.323 14:207.67125 15:209.50504 16:129.69591 17:129.2034 18:129.8143 19:255.313 20:253.83089 21:250.33163 22:150.1562 23:149.6041 24:148.44321 25:230.54764 26:229.80295 27:230.16811 28:141.95219 29:141.20151 30:140.79559 # frame 571
-3.0022526870909014e-012 1:326.82745 2:261.94128 3:251.51711 4:192.9465 5:172.7041 6:169.22569 7:207.76811 8:208.9211 9:208.72646 10:127.9126 11:128.2397 12:128.01601 13:212.45087 14:212.04956 15:213.65498 16:131.21271 17:130.74451 18:131.53799 19:234.6308 20:238.69618 21:239.8806 22:142.04649 23:143.7925 24:144.2487 25:234.23419 26:234.48846 27:232.55809 28:143.13651 29:143.3611 30:142.677 # frame 571
-1.8002628498123132e-013 1:156.22224 2:197.85324 3:169.45349 4:133.2225 5:150.2099 6:138.8063 7:199.47055 8:203.23119 9:200.87447 10:122.8354 11:124.3551 12:123.2978 13:209.95555 14:214.42958 15:217.31017 16:130.8244 17:132.89349 18:133.57179 19:241.60864 20:242.02036 21:243.8631 22:145.4585 23:145.1805 24:145.78101 25:239.37532 26:237.59209 27:238.81273 28:144.6494 29:143.9762 30:144.47951 # frame 571
8.5610376065806235e-013 1:234.17035 2:190.87994 3:190.86821 4:163.02361 5:147.20779 6:147.121 7:202.93506 8:205.79764 9:205.44038 10:125.8226 11:126.9596 12:126.879 13:213.27852 14:211.61528 15:213.46593 16:131.642 17:131.1937 18:131.87151 19:242.58395 20:237.66347 21:242.60652 22:145.16879 23:143.43269 24:145.2942 25:237.50432 26:235.36615 27:233.8261 28:144.3578 29:143.23109 30:142.4417 # frame 571
3.0514700230785977e-012 1:179.8345 2:214.69841 3:176.30026 4:143.10539 5:156.58279 6:141.81779 7:220.79376 8:218.52867 9:220.09186 10:134.33231 11:133.6402 12:134.0179 13:218.02377 14:213.99203 15:217.55743 16:133.1412 17:131.16341 18:132.903 19:236.37825 20:233.7421 21:237.85309 22:143.6503 23:142.4987 24:144.15421 25:234.81654 26:235.91331 27:234.56885 28:142.907 29:143.77431 30:142.6962 # frame 585
7.6713191333986095e-012 1:274.63196 2:231.57732 3:222.14113 4:177.03281 5:162.5484 6:159.1844 7:209.34576 8:208.92047 9:210.34698 10:129.77589 11:129.7258 12:130.3022 13:213.69643 14:213.33046 15:215.51912 16:131.12379 17:131.2729 18:132.04829 19:241.36215 20:241.30458 21:238.72264 22:145.06979 23:145.6221 24:144.785 25:230.29175 26:233.10228 27:232.49249 28:142.24541 29:143.2179 30:142.7551 # frame 585
-2.2390742623277624e-012 1:228.73978 2:173.3885 3:156.44052 4:161.4547 5:140.5079 6:133.4167 7:223.08072 8:222.87692 9:221.44678 10:135.6237 11:135.38429 12:134.88029 13:213.14236 14:212.26385 15:213.45175 16:131.27921 17:130.7189 18:131.54269 19:230.31468 20:227.14449 21:230.13542 22:140.95641 23:140.1972 24:141.0489 25:232.90915 26:234.9839 27:235.40889 28:142.5867 29:142.9404 30:142.8596 # frame 585
8.8721235489960534e-014 1:154.67517 2:204.44751 3:155.08575 4:132.5441 5:152.75751 6:132.7253 7:221.19232 8:221.58237 9:221.76379 10:133.868 11:134.09151 12:134.1895 13:218.51422 14:216.1134 15:224.64613 16:134.4758 17:132.95399 18:136.4444 19:238.00946 20:239.26097 21:240.79604 22:143.89909 23:144.2955 24:145.0553 25:235.38924 26:234.20865 27:233.05266 28:143.2243 29:142.5658 30:142.21719 # frame 585
-1.9154660588527501e-012 1:304.48981 2:254.27348 3:245.75967 4:186.24741 5:170.1926 6:167.31419 7:219.72215 8:220.48289 9:217.07234 10:133.83099 11:134.42171 12:132.9071 13:216.76683 14:217.07301 15:212.84517 16:132.7798 17:133.11549 18:131.1087 19:238.09161 20:239.26895 21:238.4679 22:143.5314 23:144.2764 24:144.0224 25:229.45567 26:233.62657 27:230.94202 28:141.0519 29:143.12469 30:141.77811 # frame 585
7.4263958342002808e-013 1:231.59007 2:179.41344 3:164.86543 4:162.4409 5:142.8849 6:136.91451 7:215.72592 8:215.67209 9:217.17072 10:132.39461 11:132.29201 12:132.8754 13:206.57974 14:204.31685 15:209.36945 16:127.7647 17:126.4749 18:128.65089 19:230.08192 20:227.1264 21:230.68939 22:140.9155 23:140.3199 24:141.7383 25:226.28188 26:226.93982 27:226.65227 28:140.537 29:140.2267 30:139.96519 # frame 585
-7.2617430551062569e-012 1:163.14226 2:199.5545 3:158.98381 4:135.8775 5:150.89771 6:134.3649 7:216.84921 8:219.30406 9:216.08844 10:132.2662 11:133.4575 12:132.1301 13:219.54051 14:216.29996 15:217.43124 16:134.51669 17:133.3658 18:133.53951 19:238.74486 20:238.77499 21:234.16785 22:144.0416 23:143.9431 24:142.4236 25:231.53532 26:233.69972 27:229.58713 28:141.439 29:142.50459 30:140.6944 # frame 585
7.9788879855780178e-013 1:301.77472 2:250.18608 3:246.38583 4:185.51019 5:168.90199 6:167.6114 7:211.75023 8:213.22466 9:211.65894 10:131.2092 11:131.79401 12:131.1617 13:204.75415 14:203.28008 15:206.56046 16:127.7821 17:126.6322 18:128.31461 19:242.12988 20:239.87483 21:242.11951 22:144.36411 23:143.7261 24:144.912 25:229.64372 26:227.89011 27:228.20271 28:141.5578 29:141.00121 30:141.1917 # frame 585
-1.6116923430349305e-012 1:239.59702 2:191.91396 3:180.24184 4:165.14059 5:147.70399 6:143.095 7:219.38676 8:219.48395 9:218.25813 10:134.36771 11:134.52631 12:133.76221 13:204.08832 14:204.40065 15:202.30324 16:127.042 17:126.8853 18:126.1914 19:234.47571 20:233.23521 21:233.55011 22:142.4841 23:142.7433 24:142.756 25:228.15916 26:227.32527 27:228.09326 28:141.76891 29:140.9787 30:141.01199 # frame 585
1.020325957793179e-012 1:203.54564 2:211.72897 3:182.82291 4:152.1731 5:155.3109 6:144.35291 7:222.11946 8:225.7552 9:219.72951 10:134.19881 11:136.0407 12:133.32069 13:215.89607 14:218.44923 15:217.28848 16:132.73891 17:133.8645 18:133.0379 19:243.72505 20:245.67741 21:241.56145 22:145.2543 23:145.3893 24:144.3188 25:230.63954 26:232.25081 27:230.08011 28:141.6198 29:142.75 30:141.10249 # frame 611
-4.3388143612523974e-013 1:303.90192 2:255.99934 3:242.53416 4:186.0303 5:170.70129 6:166.12849 7:196.30351 8:196.70546 9:194.87611 10:124.3558 11:124.4417 12:123.8427 13:208.33255 14:207.95833 15:207.05437 16:129.1328 17:128.506 18:128.1801 19:248.94365 20:248.90894 21:250.63612 22:146.1866 23:146.17841 24:146.7778 25:210.446 26:210.06306 27:209.03873 28:133.99271 29:134.3611 30:133.967 # frame 611
-7.9626640651138619e-013 1:306.77325 2:264.28937 3:264.09656 4:187.1132 5:173.6572 6:173.618 7:189.08568 8:190.79001 9:193.05013 10:120.127 11:120.7801 12:121.9269 13:191.38933 14:193.63663 15:194.42873 16:120.6191 17:121.0746 18:121.4264 19:255.81271 20:257.6055 21:257.3616 22:148.6338 23:149.43401 24:149.2926 25:212.31012 26:214.8087 27:208.46313 28:134.991 29:136.55721 30:134.4458 # frame 611
2.7194949581742414e-012 1:213.25566 2:190.66817 3:171.8035 4:155.8588 5:147.49159 6:139.9724 7:219.1109 8:223.59686 9:220.70401 10:132.74091 11:134.32961 12:133.256 13:214.7336 14:221.26109 15:221.311 16:132.88921 17:135.7477 18:135.4166 19:231.53568 20:234.79523 21:236.08951 22:141.0874 23:142.5217 24:142.7928 25:235.10762 26:232.20274 27:233.21545 28:142.9895 29:141.75929 30:141.88451 # frame 611
6.9851612192540452e-013 1:300.81128 2:252.10016 3:245.11142 4:184.95911 5:169.25369 6:166.8773 7:193.01579 8:194.33908 9:192.66597 10:121.7491 11:122.4735 12:121.8448 13:208.39365 14:207.44792 15:205.7002 16:129.5128 17:128.6765 18:127.6589 19:256.76581 20:255.28906 21:259.38205 22:148.1667 23:147.8026 24:148.86259 25:215.39194 26:219.14723 27:216.24214 28:135.82111 29:137.51489 30:136.6127 # frame 611
-1.0360879301911967e-013 1:302.93301 2:263.68756 3:266.12637 4:185.964 5:173.51939 6:174.3358 7:192.67607 8:198.56245 9:198.69498 10:121.3394 11:123.4875 12:123.8004 13:200.01439 14:199.6902 15:201.1906 16:124.4448 17:124.3678 18:125.0657 19:263.43335 20:258.10037 21:259.85175 22:151.5724 23:149.8103 24:149.97881 25:216.73534 26:221.6488 27:215.66701 28:136.10609 29:138.4659 30:136.52609 # frame 611
3.8237134129274444e-012 1:194.49498 2:199.85715 3:181.04082 4:148.8824 5:151.0416 6:143.72659 7:219.16945 8:221.39461 9:218.73216 10:132.6613 11:133.38879 12:132.4086 13:218.68231 14:217.20396 15:218.64949 16:134.2606 17:133.5822 18:134.54919 19:242.54622 20:239.94461 21:237.88815 22:144.6936 23:143.5992 24:143.0853 25:232.44011 26:235.67685 27:235.65585 28:141.83141 29:143.2816 30:142.67931 # frame 611
2.1744338656926387e-012 1:294.57037 2:245.0145 3:243.47586 4:183.0264 5:166.8472 6:166.2932 7:194.73973 8:196.14807 9:196.90436 10:123.193 11:123.7782 12:124.0527 13:207.16586 14:205.45703 15:205.73383 16:129.3078 17:128.0564 18:128.1998 19:260.36832 20:257.27982 21:259.44357 22:149.3074 23:148.29379 24:149.0509 25:221.33659 26:220.10362 27:215.96246 28:138.3759 29:138.2701 30:136.942 # frame 611
-1.8801668656887799e-013 1:291.92621 2:258.02094 3:264.6423 4:182.4649 5:171.66251 6:173.85451 7:191.1898 8:191.49352 9:193.11884 10:120.9804 11:120.9254 12:121.774 13:205.32455 14:206.98547 15:206.24135 16:126.6282 17:127.712 18:127.2683 19:263.71326 20:266.16901 21:264.79428 22:152.4989 23:153.6881 24:152.69991 25:227.15712 26:227.20593 27:225.61821 28:140.6248 29:141.0226 30:140.87309 # frame 611
-2.7197359240654272e-013 1:185.81781 2:198.91127 3:178.89569 4:145.4301 5:150.60651 6:142.7487 7:214.86768 8:215.50352 9:216.06073 10:130.74159 11:130.9639 12:130.7907 13:217.88309 14:219.42665 15:218.14432 16:134.2289 17:134.69839 18:133.8586 19:239.34331 20:242.45195 21:241.76414 22:143.8338 23:144.88921 24:144.6069 25:231.81226 26:230.57669 27:234.78432 28:141.478 29:141.271 30:142.30701 # frame 611
-5.251836241658116e-012 1:285.92661 2:238.06882 3:240.76932 4:180.24001 5:164.4182 6:165.3432 7:200.16437 8:199.60045 9:198.10641 10:125.2485 11:125.0903 12:124.2093 13:210.54704 14:209.49297 15:210.91727 16:131.12781 17:130.30569 18:131.1978 19:255.76651 20:255.6521 21:255.15715 22:148.15179 23:148.2296 24:147.96761 25:228.25653 26:229.39226 27:230.04921 28:140.9642 29:141.5625 30:142.0329 # frame 611
1.5536660863304962e-013 1:276.07346 2:245.96828 3:256.4696 4:177.43201 5:167.56059 6:171.11659 7:194.24306 8:198.06454 9:189.59302 10:122.6005 11:124.2849 12:120.7558 13:201.97797 14:198.16187 15:197.03955 16:125.5928 17:124.0046 18:123.3584 19:270.8533 20:266.57529 21:267.13779 22:155.3656 23:153.62939 24:153.54449 25:224.92799 26:227.3036 27:221.5901 28:139.8186 29:140.8532 30:138.66071 # frame 611
-1.7882155349985744e-013 1:253.1767 2:222.69116 3:202.80644 4:169.40179 5:159.0112 6:151.5146 7:209.85292 8:207.72914 9:209.61426 10:128.0981 11:127.2873 12:127.8151 13:221.9722 14:219.97151 15:217.25154 16:136.43269 17:135.46539 18:134.43291 19:243.75244 20:243.0094 21:242.8978 22:144.96449 23:145.0347 24:145.00909 25:242.71719 26:242.46758 27:240.32648 28:146.1774 29:146.2014 30:145.15849 # frame 662
-7.2707832899851718e-013 1:254.03699 2:228.01811 3:236.31358 4:169.8428 5:160.8618 6:163.7588 7:201.46597 8:201.33812 9:200.65347 10:126.134 11:126.0532 12:125.7427 13:204.19809 14:209.17036 15:202.86005 16:128.4245 17:130.46291 18:127.9049 19:244.75281 20:244.8242 21:245.41599 22:144.6167 23:144.7218 24:144.9752 25:234.17377 26:232.364 27:233.00168 28:143.3658 29:142.6434 30:143.005 # frame 662
-4.7847725998073032e-012 1:266.04309 2:267.46533 3:282.01688 4:170.3474 5:170.561 6:175.6938 7:209.05635 8:210.15518 9:210.3623 10:128.6924 11:128.8304 12:129.16071 13:221.47794 14:222.12936 15:222.51393 16:134.89011 17:135.0229 18:135.0074 19:255.09218 20:256.36136 21:251.11792 22:149.64571 23:150.1048 24:148.0251 25:226.79059 26:228.97345 27:225.40021 28:140.21809 29:141.1329 30:139.7525 # frame 662
-1.2334685462181336e-012 1:258.63214 2:232.7717 3:209.09064 4:168.08971 5:161.05209 6:152.78169 7:211.37463 8:205.32533 9:204.75963 10:128.5843 11:125.9009 12:125.7466 13:222.39395 14:220.71362 15:224.27831 16:135.8757 17:135.10651 18:136.0623 19:243.24634 20:243.8651 21:251.44922 22:145.7424 23:146.3502 24:148.47929 25:232.42726 26:236.17931 27:235.48024 28:141.6485 29:143.1483 30:142.9864 # frame 662
1.2893504126472097e-012 1:195.96667 2:168.32956 3:176.08423 4:148.69569 5:137.6525 6:140.8761 7:210.6955 8:212.95573 9:212.85794 10:129.48579 11:130.20979 12:130.1727 13:228.05826 14:227.63463 15:229.36446 16:137.895 17:137.4469 18:138.5385 19:247.66553 20:252.49544 21:251.41795 22:147.0036 23:149.1563 24:148.6217 25:230.8799 26:230.86565 27:233.65425 28:141.37711 29:141.4538 30:142.10069 # frame 662
-1.2277037529231101e-012 1:71.988579 2:71.538048 3:84.467651 4:86.699699 5:85.448898 6:94.047699 7:223.58041 8:221.97882 9:223.8441 10:134.94611 11:134.47839 12:135.2278 13:229.54312 14:229.7229 15:228.32451 16:138.6467 17:138.6468 18:138.3199 19:243.07948 20:239.46381 21:242.11588 22:146.2016 23:144.18491 24:145.17439 25:220.37402 26:220.29097 27:218.35677 28:137.5804 29:137.953 30:137.0201 # frame 662
1.1873711159713972e-012 1:292.6731 2:251.51091 3:235.67274 4:178.60381 5:166.1888 6:161.02499 7:209.45319 8:209.54256 9:206.80385 10:128.0582 11:127.6098 12:126.8395 13:220.38409 14:224.70039 15:215.44283 16:135.01579 17:136.7303 18:132.8006 19:249.2312 20:246.2207 21:250.511 22:148.2751 23:147.26981 24:148.853 25:241.10684 26:237.9971 27:239.8737 28:145.35851 29:144.0607 30:144.9175 # frame 662
1.1491826100358629e-012 1:191.17912 2:163.03922 3:165.04576 4:146.6593 5:135.46609 6:136.48891 7:212.61255 8:210.01271 9:210.39996 10:129.58389 11:128.5661 12:128.83971 13:213.10559 14:214.68565 15:212.86214 16:131.6368 17:132.17799 18:131.64771 19:238.40729 20:239.55925 21:237.64175 22:143.5426 23:144.20689 24:143.3392 25:237.93152 26:237.12177 27:236.10577 28:144.0947 29:143.7547 30:143.22189 # frame 662
1.9384781165400581e-012 1:70.320213 2:64.015556 3:79.284569 4:88.7304 5:84.628403 6:94.406197 7:219.59253 8:220.57599 9:220.89055 10:133.06531 11:133.58971 12:133.75011 13:227.77837 14:226.49765 15:223.83691 16:138.0065 17:137.6326 18:136.5443 19:230.47331 20:231.54861 21:234.51929 22:141.06911 23:141.4715 24:142.97659 25:222.26427 26:226.69328 27:225.86943 28:138.57381 29:140.18201 30:139.93559 # frame 662
-1.6026813436856905e-013 1:228.78709 2:342.67197 3:276.1459 4:161.58479 5:197.8266 6:177.5594 7:223.45911 8:220.31326 9:223.61774 10:136.05341 11:134.55321 12:136.18111 13:218.52347 14:217.76735 15:218.34518 16:134.2668 17:133.8959 18:134.3799 19:233.29561 20:237.80438 21:236.17754 22:141.317 23:142.31551 24:141.81419 25:223.54961 26:227.74628 27:224.31273 28:139.16811 29:140.0889 30:139.5896 # frame 717
1.395172425778092e-012 1:194.58469 2:259.83493 3:222.87674 4:148.8436 5:172.19679 6:159.3524 7:223.35071 8:224.53729 9:224.04576 10:135.86391 11:136.08771 12:135.9034 13:214.27014 14:216.43719 15:217.12128 16:133.14059 17:133.8632 18:133.88589 19:234.5695 20:230.72876 21:232.22163 22:142.2094 23:140.0439 24:141.0072 25:231.79362 26:231.87292 27:233.65099 28:142.00841 29:142.27251 30:142.73289 # frame 717
2.3132006132581149e-012 1:127.72846 2:225.54169 3:166.6313 4:120.5141 5:160.38609 6:137.7581 7:213.16905 8:211.38184 9:213.2838 10:129.8754 11:129.03239 12:129.7655 13:217.39499 14:218.13002 15:216.41347 16:133.4173 17:133.7038 18:133.0988 19:240.96136 20:245.8035 21:242.57489 22:144.6304 23:146.31419 24:145.6508 25:231.38115 26:229.74667 27:228.66661 28:141.7058 29:141.61729 30:140.40511 # frame 741
3.0041965258773746e-012 1:409.29926 2:381.78644 3:384.23672 4:216.0139 5:208.66991 6:209.33231 7:221.98654 8:224.2336 9:223.4765 10:135.29269 11:135.9886 12:135.93851 13:219.16574 14:222.29216 15:221.45459 16:134.80569 17:136.47211 18:135.79601 19:233.77776 20:235.22591 21:233.28894 22:140.73019 23:141.2822 24:140.467 25:249.13228 26:247.30226 27:247.61217 28:148.582 29:147.8838 30:147.9248 # frame 741
-1.8095398600131232e-012 1:251.63004 2:232.33598 3:242.04846 4:169.3716 5:162.67999 6:166.07001 7:219.1763 8:217.83455 9:220.16078 10:134.1563 11:133.8765 12:134.64371 13:221.97389 14:224.07504 15:223.44725 16:135.7101 17:136.515 18:136.31329 19:231.39595 20:231.28284 21:233.27229 22:140.52209 23:140.5799 24:141.2135 25:229.55629 26:230.3262 27:228.9424 28:141.332 29:141.4225 30:141.05881 # frame 741
-3.1927300338379437e-012 1:112.22207 2:196.87944 3:146.52785 4:112.736 5:149.7574 6:129.04581 7:212.0885 8:213.05388 9:209.20454 10:128.5184 11:129.0407 12:127.5658 13:225.75598 14:221.51796 15:222.26242 16:137.70351 17:135.6192 18:136.3354 19:239.28006 20:239.04121 21:238.20061 22:144.53751 23:144.2086 24:143.8678 25:233.91171 26:230.24232 27:234.69165 28:142.7659 29:141.0488 30:142.6165 # frame 741
2.0241503896903495e-012 1:398.27975 2:370.13904 3:378.26324 4:213.06641 5:205.38139 6:207.63699 7:233.60851 8:233.12581 9:231.61891 10:140.2599 11:140.05499 12:139.47749 13:228.64983 14:226.57256 15:226.27107 16:138.94411 17:138.12309 18:138.01221 19:233.79973 20:232.25172 21:234.11115 22:140.8709 23:140.1768 24:140.8416 25:244.53261 26:245.84166 27:243.06396 28:146.75349 29:147.205 30:146.0143 # frame 741
5.4209284954774929e-012 1:233.56007 2:216.17751 3:226.96539 4:163.0726 5:156.8084 6:160.6786 7:222.0824 8:223.04662 9:222.70494 10:134.7467 11:135.03439 12:135.0887 13:222.11331 14:222.89856 15:223.37473 16:135.3997 17:135.81129 18:135.8833 19:236.59708 20:232.56735 21:228.82343 22:142.9254 23:141.3101 24:140.0453 25:230.67421 26:229.50493 27:224.30273 28:141.5097 29:141.1432 30:139.10001 # frame 741
-3.8743328867417962e-012 1:108.89331 2:179.71811 3:131.50212 4:111.0516 5:142.96539 6:122.166 7:214.6812 8:214.26143 9:212.68971 10:130.13409 11:130.0584 12:129.27901 13:224.52608 14:220.07925 15:219.27937 16:137.5464 17:135.2892 18:134.65359 19:232.87141 20:238.48071 21:235.70049 22:141.9203 23:143.83031 24:142.7594 25:238.17941 26:234.1028 27:235.20782 28:144.5957 29:142.85651 30:143.01019 # frame 741
-5.8296050508523375e-012 1:378.14731 2:351.23849 3:358.21829 4:207.3093 5:199.7413 6:201.7397 7:229.47369 8:230.00577 9:230.15955 10:138.37781 11:138.5703 12:138.6214 13:225.07272 14:226.89288 15:226.96884 16:137.2352 17:137.9222 18:137.9043 19:234.4752 20:234.5647 21:233.88812 22:141.24229 23:141.0791 24:140.82449 25:243.27592 26:244.40993 27:242.06705 28:146.50481 29:146.92059 30:146.0471 # frame 741
5.152783166240312e-012 1:250.4447 2:237.3056 3:251.36975 4:168.58569 5:164.0383 6:168.7953 7:210.11327 8:205.90532 9:209.16925 10:129.1572 11:127.6949 12:128.7718 13:205.21263 14:206.02837 15:206.09081 16:127.6081 17:127.5488 18:128.0228 19:240.61429 20:243.27834 21:246.87154 22:144.2847 23:145.5659 24:146.5459 25:222.6813 26:221.87379 27:225.31712 28:138.57069 29:138.2514 30:139.6745 # frame 741
-3.281570612353033e-013 1:102.00721 2:161.89227 3:118.11423 4:106.6341 5:135.33791 6:115.2345 7:213.26552 8:214.60757 9:213.07086 10:129.3537 11:129.80679 12:129.465 13:231.18858 14:225.55193 15:228.04439 16:140.319 17:137.7081 18:138.9335 19:234.54608 20:236.67642 21:236.5573 22:141.8759 23:142.92821 24:142.67261 25:240.21388 26:239.45973 27:234.97618 28:145.3181 29:145.0697 30:143.2182 # frame 741
4.2387944682950461e-012 1:373.90576 2:346.45517 3:352.74258 4:206.0782 5:198.35339 6:200.173 7:227.13829 8:226.01799 9:226.28612 10:137.02299 11:136.56531 12:136.55389 13:229.52618 14:229.29825 15:230.32219 16:139.4048 17:139.3737 18:139.7357 19:236.63356 20:236.57214 21:236.93068 22:141.72391 23:141.7133 24:141.7789 25:246.98965 26:246.5956 27:247.76749 28:147.74451 29:147.5808 30:147.8961 # frame 741
-2.6110174161094067e-012 1:260.474 2:248.69838 3:265.33658 4:171.5484 5:167.5692 6:173.0842 7:219.8784 8:219.35753 9:219.45221 10:133.334 11:133.14011 12:133.11481 13:216.5928 14:217.76674 15:218.24228 16:133.3528 17:133.9899 18:133.99409 19:233.20297 20:233.9856 21:234.85901 22:141.95551 23:142.1115 24:142.5464 25:235.81355 26:235.44812 27:236.71191 28:143.2196 29:142.9079 30:143.53281 # frame 741
2.1567341222842394e-012 1:103.05945 2:157.20387 3:123.44666 4:107.9395 5:133.6743 6:118.3241 7:212.22255 8:212.68625 9:212.51575 10:129.0213 11:129.039 12:128.9111 13:224.24786 14:218.71019 15:222.70735 16:137.5356 17:134.524 18:136.48911 19:238.98279 20:240.83713 21:239.2171 22:143.80389 23:144.3972 24:143.8945 25:234.093 26:235.8998 27:235.0934 28:142.95889 29:143.3239 30:142.9437 # frame 741
-6.3919070283785827e-012 1:352.26617 2:327.41034 3:336.25385 4:199.6425 5:192.4305 6:195.0437 7:227.60248 8:227.27803 9:227.44136 10:136.66769 11:136.64931 12:136.54871 13:231.61028 14:231.3582 15:230.63361 16:140.0101 17:139.8143 18:139.55099 19:234.75456 20:235.07182 21:237.20343 22:141.26109 23:141.2796 24:142.2412 25:247.98578 26:248.71611 27:247.7677 28:147.8309 29:148.0825 30:147.67529 # frame 741
4.7158008010369735e-013 1:283.65155 2:273.28525 3:289.38947 4:179.06531 5:175.7903 6:180.9521 7:227.004 8:224.32478 9:226.05096 10:136.7193 11:135.7068 12:136.4534 13:215.15768 14:216.07668 15:215.46182 16:133.2648 17:133.71719 18:133.35921 19:231.27084 20:234.14182 21:233.8331 22:140.3759 23:141.4696 24:141.2198 25:234.69009 26:235.1217 27:236.71817 28:143.27921 29:143.37 30:144.0979 # frame 741
1.7851354037361667e-013 1:100.72697 2:144.57323 3:115.30994 4:106.4248 5:128.06 6:114.1326 7:209.2706 8:208.96957 9:212.5368 10:127.1334 11:126.7703 12:128.17261 13:224.73187 14:221.74991 15:228.08063 16:137.34219 17:135.65511 18:138.7346 19:241.37761 20:241.70383 21:241.44136 22:145.0778 23:145.3112 24:145.0421 25:233.49843 26:234.43042 27:232.70586 28:142.205 29:142.7686 30:142.2446 # frame 741
4.5924986317322173e-013 1:360.04074 2:335.20926 3:344.04514 4:201.9512 5:194.8308 6:197.4012 7:226.13315 8:225.07986 9:226.27071 10:136.213 11:135.8373 12:136.16521 13:233.83072 14:234.30893 15:233.64417 16:140.91901 17:140.94521 18:140.8143 19:234.28806 20:233.49184 21:233.70834 22:141.02139 23:140.73869 24:140.8205 25:246.02477 26:244.42262 27:246.03439 28:146.9785 29:146.4127 30:147.0313 # frame 741
-1.0409679140768586e-012 1:317.21219 2:305.47174 3:317.35358 4:190.1573 5:186.60429 6:190.17731 7:229.28963 8:228.0121 9:227.95425 10:137.05569 11:136.7077 12:136.7045 13:223.11505 14:223.40611 15:221.85384 16:136.42149 17:136.3094 18:135.6989 19:236.04617 20:235.82965 21:235.92337 22:142.4355 23:142.40649 24:142.37489 25:235.07359 26:238.04773 27:238.08948 28:143.2845 29:144.3605 30:144.4261 # frame 741
-2.1115045163074366e-012 1:110.49458 2:194.54221 3:143.23199 4:112.0631 5:148.94009 6:127.6999 7:226.1703 8:223.57948 9:223.93448 10:135.74181 11:134.573 12:134.5417 13:229.34671 14:221.17059 15:220.87245 16:139.086 17:135.3181 18:135.36259 19:238.6279 20:240.19212 21:238.0424 22:143.71201 23:144.4514 24:143.7693 25:231.62259 26:233.68245 27:230.96935 28:141.8166 29:142.5219 30:141.1972 # frame 746
3.9258392827538652e-012 1:348.77954 2:321.95358 3:325.10449 4:199.4567 5:191.61031 6:192.5659 7:223.69302 8:223.17645 9:223.76297 10:136.38901 11:136.2198 12:136.46159 13:221.46671 14:219.99673 15:219.91205 16:135.75571 17:135.0096 18:135.00571 19:239.56535 20:237.66173 21:238.67078 22:143.9218 23:143.0282 24:143.44411 25:235.99193 26:236.21815 27:236.5999 28:143.0253 29:143.39211 30:143.49451 # frame 746
1.6353330052186473e-012 1:235.31863 2:215.7278 3:225.46255 4:163.85789 5:156.83549 6:160.3475 7:205.11201 8:204.99005 9:202.7482 10:127.9191 11:128.0504 12:126.9203 13:204.35629 14:204.55573 15:203.72014 16:127.8848 17:127.5602 18:127.4942 19:237.44974 20:237.85005 21:236.07092 22:144.1768 23:144.33211 24:143.8703 25:228.78601 26:227.52158 27:229.08755 28:141.50079 29:140.53889 30:141.3476 # frame 746
3.07443386787165e-012 1:114.5124 2:180.01907 3:137.64915 4:113.1353 5:143.10609 6:124.7763 7:226.2355 8:226.0004 9:225.75728 10:136.259 11:136.45959 12:136.1111 13:227.05141 14:225.50586 15:227.81166 16:138.2524 17:137.14149 18:138.30499 19:231.52528 20:236.47093 21:236.67384 22:141.0887 23:143.09039 24:143.0126 25:236.57405 26:234.73801 27:235.76662 28:144.065 29:142.8812 30:143.0762 # frame 746
-4.1044895103704822e-012 1:334.80786 2:307.01526 3:315.87561 4:195.1586 5:186.83859 6:189.54539 7:230.31805 8:231.44748 9:230.63188 10:139.51241 11:139.8239 12:139.56799 13:228.13449 14:228.30667 15:228.44955 16:138.5614 17:138.5488 18:138.66161 19:233.74722 20:232.49857 21:234.54099 22:141.6048 23:141.14281 24:141.6508 25:240.45607 26:242.15623 27:243.03467 28:145.1615 29:145.65359 30:145.9987 # frame 746
2.5325041986266616e-013 1:222.34578 2:201.20769 3:211.57466 4:159.2588 5:151.45039 6:155.31261 7:215.49777 8:215.32956 9:214.86119 10:132.4753 11:132.6777 12:132.4182 13:217.14415 14:216.464 15:216.69356 16:133.3286 17:132.9436 18:132.9225 19:243.14699 20:239.25403 21:241.86668 22:146.17751 23:144.75591 24:145.86909 25:227.63223 26:226.93182 27:227.95923 28:140.56081 29:139.9346 30:140.2068 # frame 746
1.2298960030499928e-012 1:212.63951 2:216.42303 3:207.44872 4:151.7086 5:156.26939 6:151.6662 7:225.94077 8:222.09332 9:220.69524 10:136.72411 11:135.2738 12:134.6161 13:228.91034 14:222.20313 15:223.32692 16:139.2684 17:135.9606 18:136.65961 19:233.1351 20:236.11714 21:233.43069 22:141.28419 23:142.52029 24:141.47749 25:241.60814 26:243.85921 27:243.51653 28:145.6259 29:146.66679 30:146.4767 # frame 746
-2.951319223985345e-012 1:340.57083 2:313.05493 3:322.37915 4:197.0107 5:188.85831 6:191.66789 7:230.86855 8:230.50209 9:229.8709 10:139.282 11:139.1769 12:138.9062 13:226.68665 14:226.21339 15:226.41357 16:137.9662 17:137.5515 18:137.72839 19:230.22549 20:232.62616 21:229.80099 22:139.8868 23:140.77 24:139.563 25:241.12813 26:241.2267 27:243.03241 28:145.3228 29:145.4594 30:146.0976 # frame 746
-2.984156603353957e-012 1:210.69388 2:190.47865 3:200.38582 4:154.9866 5:147.3522 6:151.1434 7:212.21634 8:209.37904 9:210.47563 10:131.039 11:129.83701 12:130.2164 13:211.98534 14:209.77144 15:211.29648 16:130.3539 17:129.5401 18:130.30881 19:239.35233 20:236.72035 21:238.18385 22:145.3118 23:144.2827 24:144.6097 25:227.3909 26:223.47104 27:225.74947 28:140.6687 29:138.8149 30:139.64011 # frame 746
-8.3899889310467142e-014 1:164.64069 2:182.37936 3:167.55107 4:132.47729 5:143.0681 6:135.39391 7:222.06108 8:230.23225 9:227.46637 10:135.6259 11:139.0849 12:137.9187 13:227.19228 14:225.46013 15:226.2164 16:138.6788 17:137.16341 18:137.9903 19:236.39899 20:234.40486 21:234.90099 22:142.4207 23:141.3951 24:141.79581 25:242.29118 26:237.26949 27:239.31256 28:146.457 29:144.3678 30:145.2916 # frame 746
-3.5510173017846816e-013 1:328.2392 2:300.73947 3:310.2088 4:193.29539 5:184.98579 6:187.89619 7:230.83475 8:229.99487 9:229.93594 10:138.836 11:138.52299 12:138.3447 13:227.91957 14:228.51723 15:227.93143 16:138.1001 17:138.47659 18:138.15041 19:234.07137 20:233.92233 21:233.55746 22:141.2058 23:141.0742 24:140.839 25:242.74152 26:243.83438 27:244.96716 28:146.0519 29:146.5042 30:146.7789 # frame 746
-7.6780153377402875e-013 1:191.28268 2:172.79819 3:181.79424 4:147.6774 5:140.326 6:143.9268 7:204.85226 8:204.01546 9:203.02058 10:127.6499 11:127.5189 12:127.0982 13:209.68471 14:209.35437 15:209.3828 16:130.20889 17:129.69141 18:129.8869 19:251.82974 20:251.80753 21:251.67995 22:149.724 23:149.47211 24:149.41209 25:226.83708 26:227.58179 27:224.59772 28:139.95979 29:140.24049 30:138.84331 # frame 746
-1.6806796468548271e-012 1:84.629745 2:133.60742 3:96.986107 4:97.337502 5:122.7881 6:104.3083 7:234.35403 8:232.73952 9:231.06337 10:140.6813 11:139.93961 12:139.4774 13:234.71632 14:234.76852 15:234.72012 16:141.4447 17:141.2748 18:141.549 19:233.201 20:232.70079 21:233.09691 22:141.604 23:141.3804 24:141.51981 25:243.14619 26:243.17957 27:243.6183 28:146.56371 29:146.31419 30:146.59039 # frame 746
2.1354333307534202e-012 1:336.19168 2:309.26257 3:316.19437 4:195.7682 5:187.7338 6:189.827 7:230.39258 8:230.66896 9:230.39732 10:138.0955 11:138.15331 12:138.03931 13:233.47801 14:232.04294 15:231.92255 16:140.8423 17:140.5374 18:140.3492 19:234.82126 20:236.60327 21:236.62936 22:141.5938 23:142.26289 24:142.33231 25:241.68243 26:242.74284 27:241.91098 28:145.7187 29:146.2005 30:145.8318 # frame 746
4.0007394333280874e-013 1:119.29555 2:213.98906 3:154.9252 4:116.5256 5:156.2428 6:132.78979 7:212.55603 8:214.14427 9:211.10669 10:130.6288 11:130.9617 12:129.8746 13:217.79073 14:218.55898 15:216.91052 16:133.5201 17:133.6852 18:132.91431 19:235.25533 20:233.02855 21:234.07382 22:143.3788 23:142.2058 24:142.591 25:226.08488 26:225.83514 27:225.54227 28:140.2227 29:139.9651 30:139.2632 # frame 748
-1.509491106075423e-012 1:314.61411 2:306.03781 3:301.40973 4:187.8154 5:185.978 6:184.3812 7:197.39053 8:205.81001 9:199.16066 10:126.0263 11:129.2433 12:126.4011 13:209.96552 14:208.63872 15:211.68694 16:131.4516 17:130.67529 18:131.41611 19:240.12683 20:244.91464 21:241.69379 22:143.3101 23:145.5901 24:144.1869 25:243.31641 26:242.08249 27:239.27525 28:147.0435 29:146.39861 30:144.9888 # frame 748
-2.4374881317284019e-012 1:184.22209 2:171.14622 3:174.71046 4:144.6825 5:139.4193 6:140.8739 7:227.16096 8:228.1447 9:227.35561 10:137.5443 11:138.08231 12:137.6675 13:230.79063 14:230.38541 15:229.83681 16:139.3853 17:139.297 18:138.8662 19:235.84985 20:232.62442 21:234.37587 22:142.196 23:140.98489 24:141.6441 25:233.01363 26:233.88721 27:232.96011 28:142.00079 29:142.4966 30:142.3078 # frame 748
6.5434678444872196e-013 1:98.314339 2:182.9727 3:127.97456 4:105.6449 5:144.3743 6:120.6115 7:213.75488 8:210.68416 9:210.36281 10:130.1754 11:128.8817 12:128.651 13:217.22104 14:214.29015 15:219.24907 16:134.104 17:132.0555 18:134.2336 19:234.61269 20:232.89566 21:231.933 22:143.0132 23:142.72749 24:142.3506 25:231.21358 26:231.98442 27:232.07068 28:141.92 29:141.73891 30:142.07539 # frame 748
4.3458101642535536e-012 1:337.94794 2:321.564 3:321.52927 4:196.01511 5:191.2653 6:191.23869 7:220.00085 8:220.83498 9:218.77478 10:135.9025 11:136.2657 12:135.4438 13:219.67099 14:220.21928 15:222.17459 16:135.5948 17:135.36659 18:136.338 19:232.55586 20:232.43593 21:230.86723 22:140.4684 23:140.46609 24:139.62621 25:241.01761 26:241.19037 27:241.89125 28:145.476 29:145.6561 30:146.04111 # frame 748
-6.2171859250953907e-013 1:179.10201 2:162.89775 3:168.66043 4:142.5851 5:135.9355 6:138.3083 7:219.12547 8:215.9075 9:217.10719 10:134.16769 11:132.9938 12:133.4615 13:225.4671 14:227.49472 15:227.85631 16:137.0535 17:137.6534 18:137.92239 19:239.44507 20:237.5058 21:237.81702 22:144.23981 23:143.29041 24:143.5508 25:240.52713 26:242.23058 27:239.96472 28:145.15109 29:145.78349 30:145.168 # frame 748
5.9315206862369495e-012 1:89.671967 2:158.33009 3:110.54153 4:100.7816 5:134.2182 6:112.0028 7:219.604 8:218.49455 9:215.82898 10:132.0499 11:131.6701 12:130.349 13:224.88474 14:223.26984 15:223.78566 16:137.6553 17:136.7261 18:137.2139 19:229.80438 20:230.58116 21:230.26904 22:140.8425 23:140.7863 24:140.6628 25:235.88336 26:232.40619 27:230.70808 28:143.5334 29:141.91859 30:141.30231 # frame 748
-4.9667888814959174e-012 1:344.00906 2:322.07697 3:321.48935 4:198.05881 5:191.6236 6:191.45399 7:225.40671 8:225.46333 9:225.67722 10:137.6481 11:137.804 12:138.0069 13:223.29886 14:224.65555 15:225.33408 16:136.74339 17:137.4525 18:137.4619 19:231.22078 20:229.46588 21:229.71776 22:140.024 23:139.2193 24:139.29601 25:243.89224 26:244.70937 27:244.75595 28:146.2484 29:146.6812 30:146.7742 # frame 748
-2.8633373896449148e-012 1:176.84476 2:160.119 3:167.69611 4:141.5963 5:134.5977 6:137.74229 7:226.12808 8:228.47676 9:226.16899 10:136.4986 11:137.3708 12:136.4028 13:226.41609 14:229.12105 15:227.97133 16:137.2764 17:138.1333 18:137.55589 19:228.1066 20:226.15771 21:225.78482 22:139.28259 23:138.62151 24:138.302 25:228.51758 26:229.71239 27:226.09303 28:140.69701 29:140.95641 30:139.6662 # frame 748
-1.0194471251666773e-012 1:95.486259 2:152.18202 3:111.83855 4:103.4652 5:131.4816 6:112.3708 7:218.05299 8:211.43517 9:214.60666 10:131.7383 11:129.06979 12:130.41209 13:220.23682 14:220.72105 15:223.91112 16:136.0023 17:135.47791 18:137.0511 19:234.92226 20:236.56659 21:233.68832 22:142.5517 23:143.55389 24:142.44971 25:237.67383 26:234.36243 27:235.14705 28:144.1479 29:142.22231 30:143.51759 # frame 748
1.3543682488685938e-012 1:336.25491 2:314.56003 3:315.99893 4:195.55859 5:189.1172 6:189.5578 7:231.41061 8:230.64568 9:231.26578 10:140.3712 11:140.07961 12:140.3667 13:227.82693 14:228.42462 15:229.04184 16:138.7899 17:138.9715 18:139.23599 19:236.49536 20:235.49358 21:236.01019 22:142.14819 23:141.45081 24:141.9752 25:242.43784 26:241.73257 27:242.58929 28:145.9064 29:145.6008 30:146.0435 # frame 748
-6.2597312746608705e-014 1:180.28047 2:166.24545 3:173.77989 4:142.507 5:136.47459 6:139.48241 7:207.38576 8:208.03598 9:208.28595 10:127.9108 11:128.09731 12:128.0692 13:218.08366 14:221.20435 15:220.87436 16:133.4505 17:134.4527 18:134.2653 19:244.38667 20:244.85513 21:245.70746 22:145.7274 23:145.79919 24:146.1813 25:233.01642 26:232.38274 27:231.96657 28:142.4922 29:142.21919 30:141.96899 # frame 748
1.6566584534033256e-012 1:116.23988 2:154.37219 3:123.92996 4:112.3508 5:132.164 6:117.3036 7:216.41054 8:214.85268 9:215.37621 10:130.5519 11:129.98351 12:130.41341 13:223.20789 14:218.43463 15:222.74992 16:136.7283 17:134.29919 18:136.75369 19:231.83119 20:236.76456 21:233.02023 22:141.53439 23:143.46519 24:141.9751 25:232.70599 26:235.90884 27:234.94289 28:142.1655 29:143.28529 30:143.1582 # frame 748
4.5408999695780993e-013 1:327.31696 2:306.80161 3:309.82581 4:192.9073 5:186.74451 6:187.6761 7:234.19106 8:233.97162 9:234.49643 10:140.1788 11:140.2493 12:140.3232 13:230.9406 14:232.86942 15:230.75768 16:139.38811 17:139.9693 18:139.41879 19:233.49379 20:233.45454 21:232.99884 22:140.744 23:140.7251 24:140.599 25:248.5699 26:246.31049 27:248.92789 28:147.7399 29:147.04919 30:147.9404 # frame 748
2.8443779086403244e-012 1:180.97093 2:169.65091 3:176.97997 4:142.5533 5:137.5979 6:140.52831 7:212.77011 8:213.4111 9:212.54799 10:130.1474 11:130.44431 12:129.9621 13:218.37323 14:218.32472 15:216.94414 16:134.3587 17:134.3694 18:133.7003 19:237.06282 20:238.36447 21:240.58629 22:143.3792 23:144.0705 24:144.75841 25:239.73804 26:240.02933 27:240.42429 28:145.0347 29:145.0444 30:145.3138 # frame 748
-9.0541811079109556e-013 1:75.296654 2:125.42268 3:84.2202 4:92.151299 5:119.2481 6:97.552101 7:224.51492 8:218.28453 9:221.40457 10:134.3593 11:131.78059 12:132.8638 13:226.4749 14:225.64915 15:229.17177 16:138.3297 17:137.7394 18:139.158 19:232.79471 20:236.88142 21:232.53647 22:141.674 23:143.3429 24:141.4704 25:234.95311 26:233.65292 27:235.5248 28:143.15179 29:142.7282 30:143.3969 # frame 748
