SVM-light Version V6.20
1 # kernel type
3 # kernel parameter -d 
1 # kernel parameter -g 
1 # kernel parameter -s 
1 # kernel parameter -r 
empty# kernel parameter -u 
30 # highest feature index 
214 # number of training documents 
494 # number of support vectors plus 1 
0 # threshold b, each following line is a SV (starting with alpha*y)
-2.0463061412407936e-012 1:526.81598 2:0.309356 3:343.96799 4:245.319 5:5.5116 6:197.978 7:232.327 8:232.129 9:231.841 10:139.726 11:139.75999 12:139.582 13:220.491 14:218.883 15:221.955 16:135.489 17:134.834 18:135.856 19:240.343 20:237.632 21:238.121 22:143.336 23:142.23599 24:142.384 25:239.259 26:240.96201 27:240.774 28:145.043 29:145.67 30:145.42999 # frame 7
-1.1356050294581202e-012 1:187.6377 2:26.812731 3:150.62199 4:114.9292 5:45.582802 6:121.2507 7:212.53572 8:216.24858 9:211.00182 10:129.80679 11:131.04671 12:129.16811 13:214.88744 14:209.39551 15:212.13239 16:130.97951 17:128.64571 18:129.91389 19:229.39709 20:222.60573 21:226.14217 22:137.9178 23:135.2303 24:136.5777 25:233.45999 26:233.10924 27:234.15312 28:140.38631 29:139.97701 30:140.6517 # frame 7
3.5611085059417913e-012 1:549.7901 2:0.328302 3:342.08887 4:246.31219 5:5.6859999 6:197.6001 7:230.80698 8:230.10262 9:230.08643 10:139.2363 11:139.01711 12:138.99471 13:222.22668 14:220.17001 15:221.98917 16:136.0833 17:135.4035 18:135.8564 19:233.10738 20:232.92244 21:235.85651 22:140.4408 23:140.21561 24:141.5715 25:236.8273 26:238.27147 27:237.77202 28:144.0927 29:144.73351 30:144.5269 # frame 7
6.5018916111062758e-013 1:55.248154 2:74.978691 3:113.40708 4:76.620003 5:85.7024 6:108.2756 7:218.13992 8:215.47797 9:216.65425 10:131.6331 11:130.23849 12:130.7986 13:219.8181 14:213.18167 15:219.61911 16:133.3363 17:130.4214 18:133.3322 19:222.24098 20:224.26242 21:223.30779 22:135.02431 23:135.742 24:135.5657 25:229.21884 26:231.89581 27:231.19923 28:138.0966 29:139.2693 30:139.0554 # frame 7
7.3693545344502074e-013 1:196.74016 2:29.360224 3:105.69577 4:127.8986 5:49.285599 6:97.231796 7:233.841 8:238.75272 9:232.38451 10:139.7932 11:141.74699 12:139.3372 13:232.063 14:235.58206 15:235.18805 16:139.8945 17:141.1864 18:140.75929 19:231.50755 20:226.52341 21:227.65939 22:140.22771 23:138.2242 24:138.4413 25:231.89186 26:226.79126 27:231.14058 28:141.64259 29:139.5694 30:141.2601 # frame 7
-1.6101841903504788e-013 1:56.023438 2:89.647293 3:124.03487 4:78.015602 5:97.938202 6:115.0361 7:220.76411 8:217.504 9:219.23206 10:133.0061 11:131.92461 12:132.56171 13:223.6507 14:216.26665 15:222.22612 16:134.91 17:131.826 18:134.56531 19:218.0835 20:219.353 21:220.19826 22:133.4361 23:133.8567 24:133.9299 25:231.1937 26:231.21457 27:229.83159 28:139.0419 29:139.2518 30:138.60201 # frame 7
-4.0728560020932325e-013 1:193.88094 2:17.652628 3:86.093933 4:126.51 5:40.514702 6:88.065598 7:241.82208 8:240.90726 9:243.53033 10:142.7692 11:142.38831 12:143.69141 13:244.69131 14:248.02736 15:246.78548 16:144.8136 17:146.17661 18:145.61839 19:226.30791 20:228.76942 21:227.17101 22:138.177 23:138.9037 24:138.5641 25:219.40817 26:216.88358 27:219.94931 28:136.51981 29:135.7372 30:136.71049 # frame 7
1.4297339884641199e-012 1:490.28177 2:0.278 3:313.71735 4:233.6292 5:5.3200002 6:189.20979 7:220.2139 8:222.62294 9:221.29398 10:133.29849 11:134.1609 12:133.8447 13:218.29308 14:217.94583 15:218.1125 16:134.36771 17:133.886 18:133.9075 19:234.67827 20:235.09349 21:233.11195 22:141.9198 23:141.68851 24:140.8399 25:238.76219 26:237.51871 27:238.4218 28:144.4547 29:144.09911 30:144.3795 # frame 7
2.9512433038388391e-014 1:31.750818 2:26.170683 3:94.364212 4:58.179001 5:51.888599 6:100.6676 7:226.9142 8:225.28999 9:227.25743 10:138.40601 11:137.93961 12:138.5862 13:230.76759 14:230.59186 15:229.96687 16:139.8904 17:139.7307 18:139.70689 19:243.37329 20:238.1082 21:239.12996 22:145.28259 23:143.3311 24:143.9399 25:242.99054 26:246.82829 27:246.31261 28:145.7114 29:147.2765 30:147.3181 # frame 7
-7.1924958011016768e-013 1:500.31 2:0.23534399 3:307.72366 4:235.35361 5:4.8931999 6:187.3531 7:217.89351 8:218.53827 9:218.09062 10:131.92101 11:132.15961 12:131.996 13:215.03329 14:215.63736 15:214.96246 16:132.55341 17:133.0976 18:132.8196 19:236.15704 20:236.36154 21:236.12666 22:142.16811 23:142.50661 24:142.3226 25:238.6709 26:242.53352 27:240.6234 28:144.37759 29:146.2639 30:145.1295 # frame 7
-1.122031544359174e-012 1:403.20261 2:4.9383488 3:240.56268 4:178.5634 5:14.9503 6:164.7424 7:217.62376 8:218.06229 9:217.83412 10:133.27319 11:133.3927 12:133.1385 13:208.80124 14:206.69034 15:207.71123 16:130.351 17:129.5484 18:129.7374 19:231.93344 20:232.60048 21:230.31696 22:140.71519 23:140.9249 24:140.14661 25:231.60777 26:231.48611 27:228.93672 28:142.0565 29:142.06889 30:140.7489 # frame 7
-3.9802977580431429e-013 1:42.359299 2:59.704994 3:109.31666 4:67.7724 5:79.383698 6:108.0504 7:223.35399 8:216.59819 9:218.53508 10:133.80119 11:130.9343 12:131.7812 13:217.83742 14:217.45393 15:215.87398 16:132.7832 17:132.2921 18:131.65601 19:221.55113 20:223.47379 21:223.9115 22:135.14951 23:135.44411 24:135.5368 25:230.68488 26:232.98837 27:231.97765 28:139.30299 29:139.90961 30:139.6089 # frame 50
3.783565651835566e-012 1:349.79581 2:1.803673 3:262.60031 4:199.85139 5:14.1593 6:173.08189 7:230.39377 8:230.92004 9:228.53998 10:139.5788 11:139.8214 12:138.72459 13:228.83173 14:226.52193 15:228.73788 16:138.5444 17:137.39909 18:138.2803 19:233.21069 20:233.13914 21:235.26927 22:141.1002 23:141.38609 24:142.36079 25:239.23206 26:239.95575 27:242.23518 28:144.98689 29:145.4873 30:146.2453 # frame 94
-2.9316385340727284e-012 1:352.78995 2:2.1468389 3:256.10556 4:200.71021 5:15.4051 6:170.7812 7:230.92705 8:231.00252 9:232.1326 10:139.56531 11:139.5939 12:139.9644 13:228.67567 14:228.24272 15:228.62222 16:138.7511 17:138.7843 18:138.7762 19:235.03809 20:234.59166 21:233.05943 22:141.91251 23:142.03481 24:140.9626 25:246.00697 26:246.44095 27:247.09119 28:147.0769 29:147.5345 30:147.8432 # frame 94
1.0536943425475437e-012 1:378.96085 2:2.179841 3:245.21335 4:208.06081 5:15.3951 6:166.8855 7:231.99409 8:231.59914 9:230.90137 10:140.11279 11:140.0034 12:139.8157 13:231.59782 14:231.61508 15:230.83124 16:140.2347 17:139.87131 18:139.76241 19:235.41177 20:234.51483 21:236.06828 22:142.07739 23:142.0677 24:142.4819 25:245.85669 26:247.53229 27:246.12216 28:147.2421 29:147.8307 30:147.1964 # frame 94
-3.1342317425240618e-012 1:334.19452 2:1.368293 3:334.77057 4:195.3868 5:12.2795 6:192.9538 7:219.13106 8:216.5117 9:217.22255 10:134.9453 11:133.95869 12:133.9733 13:212.20953 14:212.58121 15:211.68045 16:130.64619 17:130.7132 18:130.1722 19:242.87224 20:242.52136 21:244.15344 22:144.0892 23:144.31599 24:145.01041 25:230.90689 26:230.74632 27:230.39488 28:142.0618 29:142.0928 30:141.8817 # frame 105
1.561789166449559e-013 1:346.65598 2:1.132982 3:483.11356 4:198.9292 5:11.0256 6:231.83501 7:229.57224 8:228.1458 9:231.26126 10:139.67419 11:139.0032 12:140.3698 13:229.79597 14:231.21902 15:230.78387 16:139.4558 17:139.6572 18:139.6319 19:237.58138 20:238.22704 21:238.46689 22:142.76871 23:142.9241 24:142.98801 25:247.0679 26:244.24934 27:243.47153 28:147.4045 29:146.55499 30:146.345 # frame 105
2.305058556003312e-012 1:356.31873 2:1.209956 3:262.27692 4:201.5488 5:11.3618 6:173.01041 7:225.90501 8:222.57092 9:221.81982 10:136.69009 11:135.0764 12:134.9371 13:220.07053 14:221.41922 15:218.94337 16:135.1541 17:135.5153 18:134.6098 19:240.28735 20:240.11763 21:236.05659 22:143.66611 23:143.56889 24:142.252 25:237.63875 26:236.47873 27:235.72249 28:144.645 29:143.91769 30:143.6904 # frame 105
-2.7316065423726192e-012 1:368.12296 2:1.407339 3:425.38583 4:204.8188 5:12.1797 6:215.53999 7:225.81226 8:226.15291 9:227.92624 10:137.5679 11:137.7894 12:138.2968 13:227.24094 14:226.76347 15:225.51318 16:138.57381 17:138.3125 18:137.56931 19:235.95027 20:235.36868 21:234.1235 22:142.0325 23:142.02679 24:141.4129 25:245.42168 26:247.06128 27:247.0833 28:147.1888 29:147.61079 30:147.5228 # frame 105
-8.745371508498685e-013 1:13.054175 2:2.0489371 3:445.58496 4:27.704901 5:14.3251 6:225.3455 7:232.31729 8:232.42758 9:232.62532 10:140.6964 11:140.7448 12:140.8235 13:226.62952 14:224.88847 15:223.89693 16:138.1313 17:137.3739 18:136.67 19:233.19284 20:228.75053 21:233.74788 22:141.0052 23:139.44431 24:141.4191 25:239.77289 26:239.19835 27:238.55466 28:145.0253 29:144.7739 30:144.60719 # frame 263
-1.8234541520908289e-012 1:134.03575 2:0.475106 3:429.74893 4:70.772499 5:6.2754002 6:221.2467 7:231.77165 8:234.23552 9:231.04718 10:140.26311 11:141.0094 12:139.7121 13:226.20987 14:225.78961 15:225.87265 16:137.82761 17:137.69119 18:137.62199 19:230.98299 20:231.48645 21:233.71378 22:140.24921 23:140.3403 24:141.3904 25:240.22528 26:242.68538 27:242.21292 28:145.08141 29:145.9137 30:145.54559 # frame 263
1.2228233853933759e-012 1:81.009087 2:1.567277 3:421.96271 4:57.9412 5:9.4598999 6:213.8221 7:219.28302 8:220.39587 9:221.28217 10:132.2771 11:133.0024 12:133.18111 13:211.77444 14:212.80858 15:210.9138 16:129.94231 17:130.2065 18:129.3186 19:227.75435 20:224.57063 21:225.50792 22:136.46741 23:135.202 24:135.3412 25:230.96364 26:229.74643 27:230.05011 28:139.1042 29:138.8065 30:138.7957 # frame 263
-3.1087819497053872e-013 1:26.297352 2:108.09058 3:340.36356 4:47.9128 5:98.083397 6:189.6239 7:217.65472 8:218.64468 9:216.84187 10:131.74899 11:132.1796 12:131.5873 13:215.31276 14:214.25621 15:216.85268 16:131.095 17:130.0882 18:131.2137 19:225.78287 20:224.85339 21:223.89992 22:136.187 23:135.5925 24:135.30659 25:233.50594 26:230.37201 27:232.58244 28:140.1438 29:138.9417 30:139.9518 # frame 395
-8.5687559909686131e-013 1:95.377586 2:78.587219 3:215.24863 4:72.978401 5:74.0951 6:144.0887 7:210.57922 8:211.24966 9:212.82495 10:128.78729 11:129.00211 12:129.5397 13:219.04924 14:221.88608 15:220.29417 16:132.90311 17:134.10361 18:133.36681 19:222.85278 20:220.75645 21:221.99123 22:135.144 23:134.24899 24:134.5959 25:222.47491 26:217.8329 27:223.43585 28:135.83681 29:133.8963 30:136.3373 # frame 395
3.8489113477489072e-014 1:108.06254 2:176.88287 3:239.72264 4:68.253601 5:119.6206 6:150.78349 7:198.67439 8:187.48357 9:183.3781 10:122.3323 11:118.4336 12:116.8856 13:201.42659 14:201.22774 15:194.97244 16:124.6585 17:124.7395 18:121.8132 19:235.29874 20:236.63321 21:238.76732 22:139.0513 23:140.1394 24:140.8472 25:223.90833 26:221.17412 27:227.81314 28:136.9866 29:135.55769 30:138.52609 # frame 395
-1.4171516484862431e-012 1:133.52414 2:46.660213 3:169.70363 4:94.413597 5:68.724602 6:125.8422 7:231.64142 8:224.76935 9:222.5873 10:139.4938 11:136.5051 12:135.55859 13:234.11978 14:230.71313 15:231.83492 16:141.16451 17:139.8096 18:140.2413 19:230.28838 20:232.67714 21:230.1992 22:141.26711 23:142.1982 24:141.491 25:225.05528 26:228.4798 27:227.66823 28:139.6057 29:141.02541 30:140.81219 # frame 395
1.43508282379649e-012 1:216.40015 2:38.181374 3:85.403816 4:132.8452 5:62.815701 6:92.165398 7:230.86102 8:232.68312 9:232.25551 10:138.4675 11:139.31979 12:138.7468 13:233.43217 14:233.52081 15:233.92464 16:141.12669 17:140.8378 18:141.1187 19:231.61105 20:229.82477 21:231.73009 22:140.9733 23:140.4579 24:141.4382 25:235.10167 26:232.32414 27:236.10115 28:143.1749 29:142.15491 30:143.25861 # frame 395
-2.9268749019367509e-013 1:419.56497 2:28.940832 3:25.987461 4:192.6516 5:54.593601 6:48.860199 7:202.45389 8:197.29074 9:199.99226 10:125.8043 11:123.7037 12:124.6991 13:209.59976 14:209.04538 15:205.16768 16:128.5872 17:128.5629 18:126.649 19:231.17018 20:227.65169 21:229.66202 22:138.56551 23:137.0696 24:138.25349 25:206.23637 26:204.03018 27:203.67717 28:131.1411 29:130.1666 30:130.0136 # frame 395
5.0082840059160524e-015 1:83.900429 2:8.2548418 3:686.17285 4:51.142502 5:12.4352 6:278.48611 7:0.98975599 8:0.98975599 9:0.98975599 10:0.76120001 11:0.76120001 12:0.76120001 13:1.065866 14:1.065866 15:1.065866 16:0.88300002 17:0.88300002 18:0.88300002 19:137.2847 20:139.94868 21:139.86806 22:104.9808 23:106.1808 24:106.0848 25:40.521832 26:40.086231 27:40.421032 28:64.244904 29:63.884899 30:64.132896 # frame 402
1.85440392510061e-012 1:36.531647 2:66.060493 3:307.98776 4:64.5952 5:85.6315 6:186.789 7:231.18562 8:227.94041 9:228.70523 10:139.39 11:138.3063 12:138.3918 13:232.29398 14:231.75349 15:230.5896 16:140.6068 17:139.95621 18:139.4395 19:237.58833 20:236.38353 21:237.24702 22:143.2084 23:142.8745 24:142.8914 25:244.30786 26:245.60095 27:246.22412 28:146.3528 29:146.9791 30:147.125 # frame 402
1.2151285087843281e-014 1:402.6489 2:2.003933 3:458.89474 4:207.3867 5:8.6805 6:221.0224 7:140.39293 8:141.19231 9:135.39816 10:88.291199 11:89.293602 12:86.553703 13:151.51471 14:152.29883 15:153.36743 16:94.002998 17:94.556503 18:94.560402 19:215.96098 20:218.59137 21:186.73914 22:133.96561 23:130.9512 24:120.8221 25:175.69258 26:198.07825 27:185.73152 28:117.9831 29:128.3586 30:124.6136 # frame 402
8.4132085940669361e-014 1:32.636707 2:74.701752 3:249.00272 4:60.994202 5:90.401001 6:166.9977 7:227.43245 8:227.93149 9:227.82854 10:138.51289 11:138.9379 12:139.04871 13:233.24525 14:231.23886 15:229.75299 16:140.29379 17:139.47749 18:139.1617 19:238.01305 20:234.62161 21:235.76668 22:143.4445 23:141.8703 24:142.5909 25:244.02695 26:242.94563 27:242.6723 28:146.22681 29:145.741 30:145.47189 # frame 402
1.6042007214520367e-012 1:76.84137 2:1.705456 3:178.32329 4:49.981602 5:13.02 6:141.2859 7:234.32899 8:234.06868 9:232.1432 10:141.5103 11:141.258 12:140.4614 13:230.56892 14:229.99455 15:229.13007 16:139.60941 17:139.838 18:139.2444 19:235.75476 20:235.19159 21:239.17625 22:142.13319 23:142.3096 24:143.64619 25:240.55405 26:243.21944 27:243.64447 28:144.8622 29:145.85741 30:146.242 # frame 402
1.0674300253073556e-012 1:75.450333 2:0.85777599 3:178.45152 4:51.891201 5:9.2550001 6:142.1049 7:231.24573 8:234.10934 9:230.54778 10:139.4635 11:140.6041 12:139.0692 13:224.49405 14:226.6956 15:227.47925 16:137.095 17:138.0425 18:138.01691 19:234.35796 20:232.51503 21:230.74916 22:142.1748 23:141.1223 24:140.73421 25:238.7715 26:238.64514 27:238.6879 28:144.0994 29:144.3004 30:144.0735 # frame 402
-5.977013531407611e-013 1:50.201473 2:28.752033 3:222.81264 4:61.6208 5:55.763 6:159.0909 7:225.13585 8:226.70499 9:226.37238 10:136.77299 11:137.3732 12:137.46201 13:224.76622 14:223.69263 15:223.06898 16:137.2715 17:137.2412 18:136.87601 19:233.10414 20:233.46867 21:233.46141 22:141.37331 23:141.2099 24:141.8447 25:238.64166 26:238.95248 27:237.95839 28:144.299 29:145.01801 30:144.6279 # frame 418
1.4149033878428802e-012 1:311.08353 2:0.43957499 3:315.65561 4:152.4059 5:6.3874998 6:182.6676 7:236.01129 8:234.61613 9:236.76796 10:142.4258 11:141.77699 12:142.9621 13:231.30205 14:233.88458 15:233.4966 16:139.9122 17:140.85651 18:140.8376 19:231.77831 20:233.71169 21:235.14758 22:140.3524 23:141.25951 24:141.6104 25:242.32652 26:244.35333 27:243.89081 28:145.7308 29:146.39709 30:146.26891 # frame 418
-1.7120918925389154e-012 1:10.163476 2:8.013957 3:313.43094 4:30.766399 5:27.109699 6:188.87151 7:226.86075 8:231.05417 9:229.58093 10:138.62849 11:139.99831 12:139.3833 13:222.71407 14:223.87303 15:224.80099 16:136.0636 17:136.5741 18:136.78149 19:234.81506 20:235.78981 21:233.60928 22:142.09509 23:142.63789 24:141.95441 25:243.93883 26:240.5889 27:240.93997 28:146.7823 29:145.6843 30:145.567 # frame 439
3.0074640328235749e-012 1:26.156025 2:2.513083 3:330.49899 4:26.5138 5:16.393101 6:193.2439 7:228.5099 8:228.18512 9:227.50426 10:139.0699 11:138.98039 12:138.7585 13:227.3015 14:228.047 15:226.6245 16:139.1288 17:138.82091 18:138.2065 19:234.11975 20:232.53264 21:234.7052 22:141.3777 23:140.47459 24:141.6292 25:245.25014 26:243.21858 27:244.54913 28:146.6192 29:146.0444 30:146.4529 # frame 439
8.8480880166035733e-013 1:13.339454 2:3.691195 3:304.52231 4:23.736401 5:20.0875 6:185.3316 7:233.69255 8:232.24854 9:231.84818 10:141.2672 11:140.63989 12:140.5872 13:230.35957 14:229.36588 15:228.16618 16:139.25031 17:138.6817 18:138.28641 19:228.95827 20:227.66473 21:227.23494 22:139.6241 23:138.9937 24:139.05991 25:236.79796 26:238.40375 27:237.48032 28:143.67979 29:144.4043 30:143.92661 # frame 439
4.6138814770263929e-013 1:37.893543 2:11.131206 3:267.9812 4:43.246201 5:31.7132 6:173.02251 7:226.96516 8:227.68115 9:225.44867 10:137.81129 11:137.9677 12:136.9476 13:225.54988 14:224.4337 15:225.64932 16:137.30499 17:136.7982 18:137.0898 19:231.95071 20:235.45084 21:231.66422 22:141.16251 23:142.1485 24:140.9102 25:236.58102 26:236.7101 27:238.16295 28:143.4474 29:143.6982 30:144.0715 # frame 439
-2.0293014707894268e-012 1:6.5487642 2:4.0297208 3:289.65915 4:24.2216 5:21.0107 6:181.05701 7:226.13037 8:227.85361 9:226.52957 10:138.3614 11:138.98489 12:138.4863 13:228.76779 14:229.05426 15:230.19124 16:138.7291 17:139.0233 18:139.2661 19:236.38051 20:238.80258 21:234.91489 22:142.3455 23:143.34261 24:141.36 25:243.36829 26:243.29315 27:242.11647 28:145.8728 29:145.8203 30:145.3414 # frame 439
-3.2798951750737739e-013 1:410.8533 2:0.89518899 3:283.69885 4:179.6734 5:9.3801003 6:178.86571 7:226.66507 8:228.61334 9:228.11649 10:138.5788 11:139.4789 12:139.10651 13:232.03082 14:232.03171 15:230.44447 16:140.2592 17:140.1281 18:139.6011 19:233.64478 20:236.39496 21:233.02734 22:141.563 23:142.50011 24:140.99319 25:243.00085 26:243.76306 27:244.90213 28:145.85699 29:146.3141 30:146.64481 # frame 465
4.0108158519135055e-012 1:337.84869 2:13.728996 3:162.73926 4:191.5448 5:35.3298 6:133.9192 7:230.94981 8:231.41077 9:227.17671 10:139.64819 11:139.7075 12:138.0574 13:232.75731 14:233.78828 15:234.51503 16:140.439 17:141.2343 18:141.5936 19:230.62639 20:233.57347 21:232.77794 22:140.9278 23:141.75481 24:141.4565 25:234.05309 26:235.86131 27:234.4314 28:142.8257 29:143.1317 30:142.6646 # frame 465
-8.7249066739280415e-014 1:309.54034 2:7.9340229 3:272.01752 4:139.9863 5:17.2103 6:175.0477 7:223.02043 8:220.88795 9:221.40314 10:136.3483 11:135.5009 12:135.7771 13:221.66072 14:220.05859 15:222.1494 16:135.673 17:135.20081 18:136.21069 19:235.3526 20:242.20108 21:241.56464 22:142.4761 23:144.72479 24:144.73199 25:236.91551 26:243.15833 27:244.03233 28:143.731 29:146.3844 30:146.5363 # frame 465
9.3791399874654963e-013 1:288.66922 2:20.883604 3:162.57138 4:181.543 5:47.9548 6:135.81371 7:216.6422 8:218.73079 9:219.40915 10:133.1981 11:134.0992 12:134.4492 13:214.59351 14:219.7502 15:218.52766 16:133.2045 17:135.1019 18:135.1402 19:233.31306 20:230.1776 21:229.42532 22:142.2751 23:140.45621 24:140.57761 25:238.88315 26:238.20865 27:235.75909 28:144.6707 29:144.43829 30:143.22211 # frame 498
-5.9906257506019567e-012 1:162.41335 2:25.375229 3:101.02648 4:132.73241 5:52.239399 6:104.5629 7:212.14662 8:212.00179 9:213.31325 10:128.7274 11:128.54691 12:129.0961 13:212.49481 14:211.98558 15:212.51416 16:130.0408 17:129.649 18:129.75591 19:221.61086 20:221.42332 21:220.24631 22:135.2673 23:135.39191 24:134.94949 25:222.98875 26:227.02469 27:224.72321 28:136.3282 29:138.00439 30:136.9382 # frame 498
-3.1319588019326082e-012 1:296.06277 2:18.320875 3:153.7168 4:184.0098 5:45.416 6:132.0946 7:227.12762 8:227.00125 9:228.63982 10:137.3625 11:137.2567 12:137.8933 13:224.56816 14:225.8968 15:229.61707 16:137.17239 17:137.6241 18:139.17419 19:231.60379 20:228.7587 21:231.83559 22:141.2534 23:140.1747 24:141.3089 25:240.77493 26:241.51703 27:241.23927 28:145.0676 29:145.4355 30:145.33321 # frame 498
2.1702798829324656e-012 1:175.19937 2:22.49526 3:99.661591 4:137.66479 5:48.848099 6:103.5124 7:208.60858 8:211.13509 9:208.02428 10:126.341 11:127.0161 12:126.1507 13:211.53421 14:216.60298 15:212.85649 16:129.3035 17:131.30051 18:130.18851 19:227.18962 20:228.44609 21:226.68108 22:137.8663 23:138.31509 24:137.8867 25:229.33412 26:230.45007 27:229.62361 28:138.37109 29:138.8728 30:138.43581 # frame 498
-2.7031529707007881e-012 1:307.9205 2:14.121969 3:151.07904 4:187.5882 5:39.637299 6:130.64101 7:229.60297 8:230.70279 9:230.36424 10:138.8024 11:139.24471 12:139.23891 13:228.86118 14:231.91586 15:229.86894 16:139.09779 17:140.41431 18:139.6223 19:232.69878 20:232.64085 21:230.44125 22:141.2955 23:141.2292 24:140.3069 25:239.89847 26:240.06471 27:240.41577 28:144.742 29:144.8618 30:145.02789 # frame 498
8.9669756453047578e-013 1:170.3248 2:17.55201 3:89.816887 4:138.272 5:43.7523 6:100.8794 7:214.98016 8:220.44545 9:215.21263 10:130.052 11:132.347 12:130.27811 13:223.4879 14:225.4944 15:223.83 16:137.19 17:137.5515 18:137.14619 19:234.01375 20:225.88037 21:230.66461 22:142.2804 23:139.0549 24:141.40849 25:238.14362 26:233.75017 27:235.58267 28:144.15199 29:142.5432 30:143.1588 # frame 498
6.4427966853146899e-012 1:320.33734 2:11.132668 3:147.84537 4:191.3154 5:35.006001 6:129.0526 7:232.80794 8:233.41031 9:232.39246 10:139.8174 11:140.125 12:139.4709 13:229.21796 14:230.06177 15:232.80238 16:139.442 17:139.55299 18:140.46831 19:231.55363 20:231.90215 21:231.36688 22:140.6295 23:141.11929 24:140.625 25:244.67174 26:244.47075 27:246.70067 28:146.7747 29:147.00301 30:147.71201 # frame 498
-8.5238873285274376e-013 1:150.81758 2:12.217482 3:89.234367 4:129.87019 5:35.885601 6:100.4953 7:223.96953 8:224.12138 9:221.98848 10:133.88921 11:134.0061 12:133.2337 13:231.14984 14:228.62061 15:229.09601 16:140.23801 17:139.24319 18:139.1613 19:230.72012 20:230.65981 21:232.17332 22:140.70461 23:140.7099 24:141.3461 25:232.0481 26:233.61588 27:231.31213 28:141.9678 29:142.85561 30:141.7036 # frame 498
-3.1638540650824369e-012 1:320.46152 2:9.4310102 3:148.26451 4:191.32761 5:32.1068 6:129.1945 7:229.1031 8:231.8239 9:231.62569 10:138.7803 11:139.65781 12:139.5477 13:229.17871 14:231.72127 15:231.41766 16:139.2236 17:140.6134 18:140.2963 19:233.3407 20:230.17307 21:231.69971 22:141.77299 23:140.3886 24:140.6449 25:244.39941 26:243.45395 27:244.32637 28:146.76849 29:146.3822 30:146.7243 # frame 498
-3.0503586924974327e-012 1:180.62729 2:6.5648599 3:112.19033 4:129.9566 5:23.555799 6:112.0056 7:230.1992 8:228.95058 9:229.22177 10:138.6131 11:138.1563 12:137.961 13:226.49661 14:226.50256 15:227.46638 16:138.62019 17:138.31821 18:138.8564 19:232.21808 20:230.09691 21:233.02596 22:141.3959 23:140.68449 24:141.66051 25:239.31409 26:235.95332 27:240.74135 28:145.16299 29:143.72031 30:145.40919 # frame 498
-3.0511863687532954e-013 1:338.06033 2:8.5223398 3:151.09944 4:196.341 5:30.271 6:130.1411 7:228.86189 8:228.96228 9:229.15512 10:138.8752 11:138.9653 12:138.77969 13:231.18932 14:230.11757 15:231.05327 16:139.8969 17:139.81709 18:140.06531 19:236.77713 20:236.03638 21:233.92609 22:142.74181 23:142.36971 24:141.7681 25:247.85049 26:242.80997 27:244.97997 28:148.0226 29:146.1747 30:147.1555 # frame 498
8.5558391354708144e-012 1:192.83932 2:20.301125 3:147.01021 4:147.6472 5:47.109699 6:129.3759 7:225.3643 8:226.42926 9:226.68115 10:136.29781 11:136.5816 12:136.4987 13:222.62077 14:222.63766 15:224.60571 16:136.3472 17:135.97549 18:137.57021 19:233.07469 20:234.84441 21:231.35989 22:141.7157 23:142.6171 24:140.9899 25:237.04144 26:236.0838 27:235.0112 28:143.5627 29:143.3096 30:143.26579 # frame 517
-3.9228232607413982e-012 1:165.00597 2:22.014038 3:161.70253 4:135.8268 5:48.322201 6:135.32851 7:219.86543 8:224.61589 9:221.05927 10:133.7435 11:135.60651 12:133.952 13:221.61299 14:222.56213 15:223.86139 16:135.7093 17:135.8822 18:136.7412 19:238.44983 20:240.44839 21:237.2968 22:144.3472 23:145.0072 24:143.979 25:239.50813 26:238.85378 27:240.37509 28:144.6889 29:144.8233 30:145.00191 # frame 517
-6.2974782457719486e-013 1:166.22633 2:21.863565 3:135.92354 4:137.0386 5:48.638199 6:124.3788 7:230.45782 8:226.57596 9:229.88808 10:138.19591 11:136.3163 12:138.02679 13:222.6828 14:219.47939 15:224.82664 16:136.15871 17:135.0161 18:137.795 19:234.78885 20:230.7704 21:231.7032 22:142.3665 23:140.83749 24:141.1427 25:234.80676 26:235.95955 27:236.56134 28:143.07581 29:143.3876 30:143.7355 # frame 517
-4.0655429364711777e-012 1:205.11601 2:17.417116 3:154.93121 4:151.366 5:43.3922 6:132.1956 7:229.53658 8:228.26697 9:225.43008 10:137.3801 11:136.84109 12:135.7899 13:225.64854 14:225.06448 15:230.5488 16:137.1909 17:137.1044 18:139.3578 19:226.50481 20:231.17645 21:227.20628 22:139.7197 23:141.1925 24:139.8154 25:232.51839 26:233.06895 27:231.28317 28:142.0636 29:142.29289 30:141.65041 # frame 517
-1.0446793710731319e-012 1:288.89114 2:13.633828 3:204.86633 4:181.6248 5:38.055801 6:152.45309 7:224.39258 8:225.30266 9:223.22629 10:136.104 11:136.4212 12:135.5107 13:222.20262 14:226.56256 15:224.56248 16:136.2124 17:137.53081 18:137.308 19:235.12096 20:239.90425 21:235.67671 22:142.54201 23:144.2923 24:142.79961 25:237.75728 26:237.11766 27:238.65294 28:144.26939 29:144.3075 30:144.9644 # frame 517
2.2540365584082655e-013 1:238.8766 2:19.918886 3:158.89307 4:164.04359 5:45.2206 6:133.6788 7:229.9465 8:228.2686 9:226.64897 10:138.248 11:137.4705 12:136.65669 13:221.76169 14:221.92677 15:223.7825 16:136.0067 17:136.2572 18:136.9575 19:233.14528 20:232.42679 21:232.9411 22:141.6181 23:141.5761 24:141.5195 25:237.83243 26:242.27521 27:242.39867 28:144.36189 29:146.063 30:145.99339 # frame 517
-2.7559283692807475e-013 1:302.884 2:12.533411 3:212.58791 4:186.0276 5:37.024101 6:155.4183 7:220.88756 8:221.14993 9:221.64519 10:133.7778 11:134.0047 12:134.2368 13:212.14784 14:214.59326 15:213.32748 16:131.69971 17:132.6828 18:131.99001 19:235.95686 20:232.3067 21:233.61638 22:142.7231 23:141.69611 24:142.0159 25:245.19742 26:244.39391 27:242.22662 28:146.6808 29:146.3264 30:145.8343 # frame 517
4.60887288269655e-012 1:139.35809 2:12.739635 3:152.55965 4:124.7942 5:37.2481 6:131.6409 7:230.60785 8:226.35542 9:228.48639 10:137.5377 11:135.7188 12:136.55389 13:225.12346 14:221.34523 15:224.84555 16:137.00751 17:135.40131 18:137.1304 19:231.69237 20:232.72128 21:231.55667 22:141.6049 23:141.67641 24:141.3056 25:230.97821 26:237.00925 27:236.50987 28:141.58411 29:143.66611 30:143.7308 # frame 517
3.3643218804789772e-012 1:287.22672 2:18.572855 3:253.09999 4:181.2458 5:45.9053 6:169.7256 7:223.54869 8:226.93388 9:224.8687 10:135.521 11:136.9146 12:135.88631 13:219.65186 14:221.46614 15:219.26556 16:135.3299 17:136.14729 18:134.9525 19:233.30879 20:233.53757 21:233.89238 22:141.62199 23:141.9054 24:141.9348 25:237.52686 26:238.5524 27:238.45163 28:144.3033 29:144.6342 30:144.23129 # frame 522
-2.0225272696796255e-012 1:280.55054 2:21.838348 3:216.40317 4:178.7668 5:49.043301 6:156.2886 7:227.28964 8:226.64606 9:228.04326 10:137.61031 11:137.4651 12:137.8158 13:227.04697 14:225.73323 15:225.72318 16:138.0128 17:137.43919 18:137.62019 19:235.51176 20:235.05745 21:237.2298 22:142.2121 23:142.07179 24:143.11349 25:242.73242 26:242.83469 27:240.61214 28:146.2597 29:146.4162 30:145.2713 # frame 522
1.2558739806260359e-012 1:307.85089 2:11.311986 3:306.54227 4:187.64281 5:35.854198 6:186.90379 7:217.25426 8:214.06052 9:216.22218 10:134.1754 11:132.94859 12:133.94859 13:215.15445 14:214.17125 15:211.98856 16:133.11971 17:132.30099 18:131.5726 19:235.72435 20:236.23482 21:234.80571 22:141.21581 23:141.7328 24:141.7471 25:222.16949 26:224.40067 27:222.57414 28:139.0027 29:140.1104 30:139.2886 # frame 574
-3.2011485137481448e-012 1:131.76291 2:13.655541 3:182.82559 4:119.9734 5:36.3923 6:144.4108 7:210.92387 8:216.50627 9:211.61444 10:128.4314 11:130.7421 12:128.909 13:222.50841 14:220.6512 15:220.6837 16:136.2596 17:135.0074 18:135.1109 19:241.16307 20:237.9537 21:240.1678 22:145.10049 23:143.90021 24:144.6003 25:232.24048 26:230.12457 27:232.95 28:142.03281 29:140.93401 30:142.2708 # frame 574
-6.4426296966814819e-013 1:310.51492 2:10.752922 3:297.09613 4:188.4416 5:34.9744 6:183.88251 7:215.5675 8:215.39786 9:216.25348 10:132.42191 11:132.17909 12:132.5985 13:215.43248 14:217.88893 15:216.66138 16:132.7923 17:133.4897 18:133.3517 19:233.27351 20:230.72414 21:233.18655 22:141.48599 23:140.79691 24:141.9774 25:234.80984 26:233.84334 27:234.59975 28:143.4101 29:142.91901 30:143.1048 # frame 574
-1.095760347216616e-012 1:95.341667 2:22.947577 3:183.51865 4:102.5462 5:49.561699 6:144.0471 7:222.67035 8:223.37556 9:219.36595 10:133.625 11:133.5217 12:132.01601 13:222.56558 14:217.26187 15:217.62267 16:135.8158 17:133.44231 18:134.0477 19:223.52267 20:231.11203 21:229.12724 22:138.0477 23:140.84039 24:140.5771 25:223.26018 26:229.22304 27:228.36659 28:138.4626 29:140.6019 30:140.62781 # frame 574
-1.4892721210318225e-012 1:311.13333 2:10.399968 3:320.06363 4:188.62621 5:34.376999 6:190.8203 7:218.03696 8:219.66527 9:218.34576 10:133.99899 11:134.6777 12:134.2002 13:219.87778 14:222.10062 15:218.96593 16:134.4877 17:135.3671 18:134.1485 19:230.65889 20:231.44514 21:230.43945 22:141.0305 23:141.6189 24:140.9743 25:227.65308 26:226.19769 27:226.9503 28:140.2314 29:140.2962 30:140.4077 # frame 574
-1.0602182823813911e-012 1:126.04543 2:18.086901 3:196.55652 4:115.5308 5:44.112 6:148.8428 7:217.72769 8:223.03371 9:218.53481 10:132.0174 11:133.95911 12:132.29269 13:225.67055 14:218.23898 15:223.02611 16:137.3557 17:133.71429 18:135.86369 19:236.87352 20:231.86818 21:238.15004 22:143.3084 23:141.3349 24:143.61839 25:234.64713 26:232.14127 27:235.30632 28:143.0388 29:142.2227 30:143.0437 # frame 574
-6.333610567650989e-012 1:314.2984 2:9.5908775 3:309.37192 4:189.5704 5:33.000401 6:187.5472 7:221.09386 8:221.20486 9:219.08551 10:135.0087 11:135.0696 12:134.3134 13:219.15652 14:216.6814 15:216.41084 16:134.6252 17:133.3047 18:133.5029 19:229.19325 20:233.6501 21:232.45757 22:140.6985 23:142.23759 24:142.07581 25:230.38171 26:234.21675 27:233.80345 28:141.56419 29:142.97749 30:142.8998 # frame 574
3.03764245798069e-012 1:297.51791 2:7.5781178 3:356.37671 4:184.46719 5:29.284401 6:201.54469 7:213.73524 8:214.11122 9:214.04315 10:132.4323 11:132.65581 12:132.3792 13:217.01352 14:215.17586 15:217.45932 16:133.7312 17:132.8075 18:133.3683 19:240.091 20:238.5659 21:241.23062 22:142.49091 23:142.11681 24:143.18671 25:237.0701 26:236.35942 27:236.06732 28:143.799 29:143.8923 30:143.93291 # frame 603
4.2638598775721435e-012 1:351.27774 2:2.2507589 3:246.26683 4:200.258 5:15.8153 6:167.4041 7:213.84131 8:213.095 9:214.22153 10:132.6337 11:132.2838 12:132.9272 13:217.32039 14:217.02225 15:217.8298 16:133.27319 17:133.37061 18:133.8743 19:231.44041 20:232.69391 21:231.53123 22:141.3875 23:142.0815 24:141.8557 25:233.82146 26:232.96169 27:231.36795 28:143.19031 29:142.5083 30:142.1675 # frame 603
-1.5872219303909033e-012 1:306.25278 2:6.6652169 3:355.62903 4:187.129 5:27.448299 6:201.1788 7:221.78622 8:218.83675 9:220.59152 10:135.82761 11:134.6122 12:135.4874 13:215.76181 14:219.83397 15:219.38022 16:132.274 17:133.744 18:133.3999 19:242.37096 20:241.06575 21:244.57631 22:144.7151 23:144.0327 24:145.3558 25:234.93539 26:235.19063 27:231.1691 28:142.7012 29:143.1418 30:141.7774 # frame 603
-3.1230301436198605e-013 1:285.48666 2:9.4779396 3:294.689 4:175.93919 5:28.564199 6:178.27409 7:204.12918 8:203.76337 9:201.58694 10:127.0448 11:126.7463 12:125.8861 13:209.82648 14:208.86389 15:209.89226 16:128.4015 17:127.7013 18:128.1716 19:223.78758 20:224.64661 21:224.2973 22:135.9994 23:136.259 24:136.17619 25:214.65538 26:214.89624 27:214.63675 28:133.07001 29:133.334 30:133.4899 # frame 603
5.9113776063474262e-013 1:308.82767 2:6.5852962 3:337.22903 4:187.9062 5:27.2782 6:195.817 7:220.82811 8:219.3826 9:220.89285 10:135.498 11:134.7874 12:135.37601 13:222.69756 14:223.02733 15:225.58766 16:135.1855 17:135.0784 18:136.2596 19:239.87369 20:238.5013 21:237.55939 22:142.9205 23:142.4805 24:142.3844 25:235.39687 26:234.31557 27:232.58818 28:143.1647 29:143.291 30:142.5269 # frame 603
1.1905749433846637e-012 1:260.89203 2:18.68025 3:171.56656 4:168.0824 5:42.965599 6:133.77119 7:200.4269 8:200.2964 9:201.70427 10:123.4473 11:123.2043 12:123.7553 13:204.61354 14:204.78343 15:203.3252 16:125.8268 17:125.3185 18:125.2665 19:225.29333 20:223.90793 21:221.50157 22:137.1736 23:136.3183 24:135.86749 25:216.68904 26:219.09778 27:217.91153 28:133.39169 29:134.4695 30:133.9037 # frame 603
-4.5711793246778979e-013 1:300.04703 2:5.4546928 3:99.011574 4:138.5056 5:22.878099 6:99.701897 7:200.91438 8:209.26796 9:203.75586 10:128.3311 11:131.923 12:129.7838 13:212.26294 14:216.66446 15:213.43576 16:131.1098 17:132.6573 18:130.8358 19:243.87408 20:243.43781 21:239.76395 22:146.1588 23:145.8875 24:145.19679 25:216.67624 26:212.22678 27:209.25102 28:137.14529 29:134.6442 30:133.2834 # frame 653
1.9885447779882031e-012 1:257.25156 2:12.876395 3:318.80667 4:170.2765 5:36.9151 6:188.6701 7:231.82991 8:232.37434 9:233.25063 10:139.63251 11:139.8497 12:140.01691 13:231.01167 14:229.51878 15:231.48964 16:139.9547 17:139.2709 18:139.9682 19:229.44049 20:226.1982 21:228.9473 22:139.67439 23:138.53259 24:139.6162 25:243.17038 26:241.58344 27:242.61136 28:146.55161 29:145.6458 30:145.97079 # frame 653
5.5472508394564852e-013 1:552.35895 2:7.111804 3:53.08432 4:238.66679 5:27.443001 6:76.824303 7:226.33102 8:225.59906 9:223.87007 10:137.3884 11:136.93469 12:136.41051 13:222.72443 14:225.85773 15:222.83293 16:135.91589 17:137.0724 18:135.9554 19:229.18439 20:229.09395 21:229.88977 22:140.66991 23:140.8231 24:140.9243 25:213.73924 26:213.89886 27:214.49986 28:135.36771 29:135.3136 30:135.61169 # frame 653
-8.2124339435210154e-013 1:277.93365 2:18.168207 3:331.71802 4:177.95799 5:44.3251 6:192.642 7:225.00987 8:227.5804 9:226.80368 10:136.9881 11:138.38811 12:137.7982 13:224.21104 14:228.24722 15:224.12234 16:137.3568 17:139.13519 18:136.8589 19:230.1676 20:229.7348 21:230.66022 22:140.08189 23:139.9019 24:140.7565 25:247.89265 26:245.97087 27:246.35901 28:148.10049 29:147.3916 30:147.38361 # frame 653
-2.2826512595186447e-013 1:448.27527 2:5.9038172 3:68.445839 4:225.974 5:25.0357 6:85.894798 7:222.06676 8:222.55197 9:221.70825 10:135.17709 11:135.3877 12:135.0988 13:218.24498 14:220.76085 15:216.79677 16:134.9696 17:135.63989 18:133.7861 19:228.47772 20:229.31383 21:227.74654 22:140.1319 23:140.7933 24:139.6389 25:225.92998 26:228.01181 27:228.40067 28:140.01981 29:140.8837 30:141.0847 # frame 653
-7.4173182361845571e-014 1:298.61554 2:14.801612 3:323.453 4:184.68359 5:39.376598 6:191.07561 7:230.40578 8:227.83682 9:225.84027 10:138.9662 11:137.8968 12:136.91769 13:229.3085 14:226.61699 15:228.93683 16:138.6189 17:138.1062 18:138.5435 19:236.63405 20:233.0421 21:232.32381 22:141.9382 23:140.8969 24:140.42039 25:239.13461 26:240.61642 27:239.54555 28:144.6924 29:145.2108 30:144.7952 # frame 653
9.4150277719241269e-013 1:351.61502 2:6.6384921 3:140.85788 4:200.4044 5:27.0322 6:126.3005 7:216.58163 8:216.98395 9:216.15926 10:133.35249 11:133.6385 12:133.123 13:211.15436 14:214.69714 15:216.82948 16:130.30721 17:131.71851 18:132.4695 19:231.27696 20:233.8548 21:234.36728 22:141.78819 23:142.6803 24:142.8562 25:226.82329 26:223.2989 27:224.04295 28:140.3696 29:139.5688 30:139.49229 # frame 653
2.295012163900149e-012 1:44.154037 2:17.516129 3:220.70662 4:68.637604 5:42.6786 6:158.54671 7:223.85913 8:224.60617 9:224.5847 10:135.66789 11:136.00079 12:135.8768 13:218.60809 14:221.95949 15:217.99541 16:135.00259 17:136.00459 18:134.62959 19:230.04727 20:230.43294 21:232.13066 22:140.31219 23:140.79761 24:141.474 25:238.65495 26:234.5683 27:240.61922 28:144.16 29:142.9583 30:144.6685 # frame 706
-1.6398650647186224e-013 1:385.87881 2:27.360317 3:355.69589 4:199.856 5:53.062599 6:182.72791 7:196.71785 8:199.09901 9:195.82271 10:121.5747 11:122.1328 12:121.4346 13:205.98105 14:207.46121 15:208.98247 16:125.5106 17:125.8809 18:127.0378 19:233.31233 20:231.64264 21:231.05373 22:138.71629 23:137.8844 24:137.6907 25:207.10181 26:206.29643 27:204.32887 28:130.3539 29:129.8522 30:129.6673 # frame 706
1.6343408812018432e-012 1:33.637863 2:10.348665 3:217.86159 4:57.266998 5:31.849701 6:157.5838 7:218.26094 8:219.72816 9:216.6579 10:133.4248 11:134.0321 12:132.7468 13:217.87669 14:220.75946 15:217.93111 16:133.9503 17:135.3101 18:133.89349 19:237.62415 20:235.03128 21:233.41153 22:143.9758 23:142.5775 24:142.0928 25:233.47261 26:237.33246 27:236.49722 28:142.3775 29:143.9826 30:143.46761 # frame 706
-2.1530640856008757e-013 1:49.980907 2:37.249855 3:237.84891 4:75.444397 5:64.266899 6:164.5573 7:219.80229 8:219.17348 9:217.80466 10:132.23779 11:131.73441 12:131.35609 13:225.78342 14:227.12978 15:222.74445 16:137.2332 17:137.8564 18:136.0843 19:240.33409 20:235.92831 21:240.00674 22:144.6722 23:142.1563 24:144.3821 25:234.54788 26:235.44359 27:238.22415 28:142.83521 29:143.2285 30:144.47321 # frame 706
-1.3863302630916629e-012 1:33.247143 2:11.595506 3:215.83856 4:56.189999 5:33.644199 6:156.8344 7:219.21892 8:221.57538 9:219.20047 10:133.62579 11:134.5101 12:133.6149 13:218.97134 14:216.54561 15:218.92738 16:134.45911 17:133.5507 18:134.6248 19:237.27547 20:237.76411 21:239.37065 22:143.7762 23:144.2068 24:144.1221 25:236.60262 26:240.15269 27:238.8136 28:143.56979 29:145.0141 30:144.30009 # frame 706
1.1788248911580348e-012 1:336.56863 2:1.043799 3:410.22534 4:193.05099 5:10.6555 6:216.3011 7:221.98654 8:224.2336 9:223.4765 10:135.29269 11:135.9886 12:135.93851 13:219.16574 14:222.29216 15:221.45459 16:134.80569 17:136.47211 18:135.79601 19:233.77776 20:235.22591 21:233.28894 22:140.73019 23:141.2822 24:140.467 25:249.13228 26:247.30226 27:247.61217 28:148.582 29:147.8838 30:147.9248 # frame 741
-7.4360415508819227e-013 1:425.79767 2:1.373994 3:294.55615 4:214.86079 5:11.7276 6:178.66611 7:203.69186 8:202.96901 9:203.22327 10:126.0951 11:125.84 12:125.8634 13:202.76897 14:205.78201 15:205.5943 16:125.1662 17:126.4866 18:126.2067 19:227.75925 20:227.65897 21:229.9153 22:136.0813 23:136.683 24:136.9631 25:209.66016 26:210.42104 27:210.38777 28:131.758 29:131.8465 30:132.06799 # frame 741
-1.3067611005950458e-012 1:385.41586 2:1.0074379 3:398.27975 4:209.82339 5:10.5404 6:213.06641 7:233.60851 8:233.12581 9:231.61891 10:140.2599 11:140.05499 12:139.47749 13:228.64983 14:226.57256 15:226.27107 16:138.94411 17:138.12309 18:138.01221 19:233.79973 20:232.25172 21:234.11115 22:140.8709 23:140.1768 24:140.8416 25:244.53261 26:245.84166 27:243.06396 28:146.75349 29:147.205 30:146.0143 # frame 741
-1.647594481404501e-012 1:482.25937 2:1.394872 3:331.38074 4:228.716 5:12.1036 6:189.5218 7:189.36414 8:191.46968 9:189.7325 10:120.0463 11:120.9988 12:120.2985 13:195.8533 14:198.05293 15:195.64185 16:122.4678 17:123.3773 18:122.3054 19:236.55302 20:234.89929 21:236.16968 22:139.41499 23:138.90669 24:139.15401 25:216.05295 26:212.97749 27:214.33881 28:134.0815 29:133.34911 30:133.6494 # frame 741
3.4884744103439357e-012 1:382.94339 2:1.201251 3:371.47089 4:209.1972 5:11.6341 6:205.6922 7:232.54633 8:231.82277 9:230.46021 10:139.2417 11:138.911 12:138.3282 13:225.28603 14:225.68791 15:227.09903 16:137.6721 17:137.65469 18:138.17821 19:237.16872 20:233.08224 21:235.14078 22:142.2124 23:140.8158 24:141.50929 25:244.20653 26:245.59203 27:246.15804 28:146.6846 29:147.2198 30:147.58549 # frame 741
1.2057191766622663e-012 1:63.954739 2:36.797169 3:162.28796 4:84.661598 5:63.050301 6:135.4393 7:213.26552 8:214.60757 9:213.07086 10:129.3537 11:129.80679 12:129.465 13:231.18858 14:225.55193 15:228.04439 16:140.319 17:137.7081 18:138.9335 19:234.54608 20:236.67642 21:236.5573 22:141.8759 23:142.92821 24:142.67261 25:240.21388 26:239.45973 27:234.97618 28:145.3181 29:145.0697 30:143.2182 # frame 741
1.6017141935869911e-012 1:391.11063 2:1.181129 3:364.90311 4:211.2876 5:11.4559 6:204.0006 7:229.41042 8:228.9968 9:229.1479 10:138.0439 11:137.9313 12:138.022 13:227.63361 14:231.2845 15:227.58632 16:138.30161 17:139.7735 18:138.3226 19:237.1167 20:237.69907 21:239.04419 22:142.1824 23:142.27541 24:142.52299 25:248.50104 26:247.25232 27:247.53702 28:148.2571 29:147.7979 30:147.9348 # frame 741
4.3333900576940859e-012 1:327.08066 2:0.96499997 3:342.49155 4:193.28439 5:10.316 6:197.6255 7:214.80786 8:213.05382 9:212.36726 10:131.3251 11:130.5209 12:130.2757 13:216.89296 14:216.41411 15:214.37874 16:133.2282 17:133.03371 18:132.15669 19:246.18977 20:250.65181 21:246.77095 22:145.6447 23:147.55161 24:145.8174 25:232.81717 26:235.16899 27:233.65686 28:141.922 29:142.90131 30:142.29269 # frame 745
-1.5423312031432337e-012 1:357.99319 2:0.80741602 3:330.384 4:202.16319 5:9.3484001 6:193.89841 7:211.82451 8:213.93513 9:214.09023 10:129.5112 11:130.2972 12:130.31441 13:221.03224 14:220.65283 15:221.65836 16:135.6241 17:135.467 18:135.78059 19:244.16559 20:242.75282 21:242.67319 22:145.38251 23:144.92101 24:144.60789 25:234.86345 26:234.70982 27:235.16122 28:143.1586 29:143.2905 30:143.3889 # frame 745
-3.1534096206808794e-012 1:362.34479 2:0.82927603 3:361.12436 4:203.15401 5:9.3682003 6:202.91 7:215.05368 8:215.67647 9:214.79436 10:131.0121 11:131.1758 12:130.8452 13:226.90813 14:226.18254 15:227.50693 16:137.63721 17:137.4841 18:137.77589 19:243.94093 20:241.27452 21:242.38503 22:144.5132 23:143.1931 24:143.6291 25:245.4108 26:246.1001 27:247.2868 28:146.9093 29:147.16071 30:147.4545 # frame 745
-2.9715751368133696e-012 1:390.76703 2:0.787691 3:234.74384 4:205.57159 5:8.7468996 6:159.7234 7:186.2955 8:189.05911 9:185.41946 10:119.5832 11:120.2933 12:119.0202 13:193.42148 14:193.5518 15:192.28036 16:120.3007 17:120.3122 18:119.8229 19:241.38684 20:241.41406 21:241.62489 22:142.8022 23:142.81371 24:142.80389 25:210.30141 26:209.69658 27:209.15839 28:132.4371 29:132.0399 30:132.00191 # frame 745
9.1449559730505594e-013 1:416.72562 2:1.183363 3:194.10986 4:215.4968 5:10.4971 6:148.71111 7:207.49818 8:206.15504 9:204.24284 10:128.9046 11:128.1973 12:127.5336 13:209.56447 14:207.82855 15:210.3645 16:129.5423 17:129.12131 18:130.1991 19:241.54277 20:244.13284 21:245.07448 22:145.47169 23:146.4106 24:146.56351 25:228.66251 26:227.65108 27:227.59644 28:140.3376 29:140.2634 30:140.0719 # frame 745
-2.1090242706654539e-012 1:348.79333 2:0.90889603 3:325.26047 4:199.422 5:9.8590002 6:192.6002 7:216.16312 8:215.521 9:216.33827 10:131.3084 11:131.19189 12:131.3703 13:227.36502 14:228.75929 15:226.37794 16:138.24989 17:138.7251 18:137.826 19:244.96696 20:244.8308 21:244.42503 22:145.18961 23:145.00571 24:144.88429 25:241.15999 26:242.60226 27:240.21056 28:145.77319 29:146.4113 30:145.3172 # frame 745
-5.5542819145083315e-014 1:366.05539 2:44.7635 3:23.551826 4:204.35539 5:69.177002 6:47.961102 7:207.44574 8:207.1459 9:203.9577 10:127.5995 11:127.2011 12:125.9422 13:229.11052 14:234.49826 15:231.85046 16:138.8261 17:140.9045 18:140.1703 19:246.53415 20:247.50342 21:244.23212 22:147.81979 23:148.1739 24:146.73869 25:215.47356 26:215.13358 27:212.81909 28:136.2226 29:136.39931 30:135.2598 # frame 745
-2.3091488368093945e-012 1:393.96729 2:0.41235501 3:221.36241 4:185.82359 5:6.2905002 6:157.2589 7:214.30348 8:212.96107 9:212.20753 10:130.4389 11:129.9547 12:129.5768 13:219.94167 14:217.11276 15:218.54608 16:134.8558 17:134.0625 18:134.3737 19:241.19736 20:238.28152 21:241.02315 22:144.2766 23:143.1375 24:144.1553 25:233.68057 26:234.98111 27:235.93315 28:142.6246 29:143.11189 30:143.43201 # frame 745
1.2855838143484698e-012 1:372.16779 2:2.08795 3:287.21619 4:203.2554 5:10.5718 6:176.0041 7:189.54012 8:189.69586 9:190.52292 10:121.6966 11:121.6918 12:122.0484 13:198.43001 14:203.5943 15:200.20775 16:125.9462 17:127.9681 18:126.5503 19:245.67297 20:247.55653 21:247.19313 22:144.7124 23:145.911 24:145.1519 25:241.65077 26:240.51129 27:238.11545 28:146.63139 29:146.3221 30:145.2249 # frame 745
1.505754460117303e-013 1:272.94492 2:2.6229191 3:320.0191 4:170.7036 5:11.9945 6:190.09641 7:197.39053 8:205.81001 9:199.16066 10:126.0263 11:129.2433 12:126.4011 13:209.96552 14:208.63872 15:211.68694 16:131.4516 17:130.67529 18:131.41611 19:240.12683 20:244.91464 21:241.69379 22:143.3101 23:145.5901 24:144.1869 25:243.31641 26:242.08249 27:239.27525 28:147.0435 29:146.39861 30:144.9888 # frame 748
4.0899042006343265e-012 1:328.76111 2:0.71570897 3:338.47388 4:191.6246 5:8.5256996 6:196.20711 7:220.00085 8:220.83498 9:218.77478 10:135.9025 11:136.2657 12:135.4438 13:219.67099 14:220.21928 15:222.17459 16:135.5948 17:135.36659 18:136.338 19:232.55586 20:232.43593 21:230.86723 22:140.4684 23:140.46609 24:139.62621 25:241.01761 26:241.19037 27:241.89125 28:145.476 29:145.6561 30:146.04111 # frame 748
-1.5431821409134033e-012 1:329.11258 2:0.97906899 3:344.00906 4:193.7704 5:10.3539 6:198.05881 7:225.40671 8:225.46333 9:225.67722 10:137.6481 11:137.804 12:138.0069 13:223.29886 14:224.65555 15:225.33408 16:136.74339 17:137.4525 18:137.4619 19:231.22078 20:229.46588 21:229.71776 22:140.024 23:139.2193 24:139.29601 25:243.89224 26:244.70937 27:244.75595 28:146.2484 29:146.6812 30:146.7742 # frame 748
-3.034510669957825e-012 1:356.1821 2:3.750608 3:249.55032 4:199.7814 5:18.5896 6:168.44749 7:219.05025 8:226.63589 9:223.0854 10:134.12219 11:137.31129 12:135.8322 13:215.94504 14:220.0834 15:219.71292 16:133.73109 17:135.4431 18:135.1263 19:236.85065 20:243.79022 21:238.1823 22:142.0278 23:145.03709 24:142.6232 25:244.39667 26:241.13795 27:243.28679 28:147.5584 29:146.2036 30:146.9554 # frame 748
-5.6324499127237332e-013 1:262.01929 2:14.63782 3:194.41234 4:156.89439 5:29.028799 6:147.84579 7:220.68814 8:220.78482 9:218.35828 10:134.5519 11:134.9406 12:133.733 13:225.48901 14:222.6546 15:223.35075 16:137.44611 17:136.05119 18:136.35609 19:243.8821 20:237.23228 21:242.84882 22:145.92 23:143.27071 24:145.53081 25:232.6107 26:229.45804 27:230.41798 28:142.7726 29:141.31149 30:141.46671 # frame 748
-5.1724379850444519e-012 1:380.07141 2:0.58440602 3:309.5354 4:203.7198 5:7.2705998 6:187.4222 7:212.27309 8:211.05957 9:209.85054 10:130.7157 11:129.85091 12:129.3961 13:218.77783 14:219.87682 15:216.23911 16:134.57719 17:135.14999 18:133.9395 19:247.69513 20:252.04327 21:245.73198 22:146.00661 23:147.9296 24:145.3517 25:246.813 26:250.13615 27:249.07164 28:147.8055 29:149.0356 30:148.67101 # frame 748
-3.8887220300682022e-012 1:397.75284 2:0.66279399 3:311.9234 4:212.0024 5:7.9517999 6:188.16521 7:227.02679 8:225.60837 9:225.8766 10:137.25079 11:136.5941 12:136.791 13:223.25803 14:224.56149 15:225.87938 16:136.79829 17:137.2467 18:137.59731 19:237.30957 20:238.49529 21:238.36951 22:141.8239 23:142.3775 24:142.2066 25:247.07045 26:246.92827 27:247.32491 28:147.86591 29:147.62869 30:148.07159 # frame 748
-5.5833866249484012e-014 1:447.54413 2:0.29359901 3:308.64462 4:225.608 5:5.4949002 6:187.48849 7:218.88557 8:218.32928 9:219.42114 10:132.1524 11:131.957 12:132.431 13:223.89465 14:222.07297 15:222.49228 16:136.63341 17:135.6913 18:135.92509 19:242.23906 20:242.69699 21:243.34186 22:144.57899 23:144.8564 24:144.6785 25:236.58125 26:237.31911 27:238.25543 28:143.7885 29:144.086 30:144.44679 # frame 770
1.4532955172996892e-012 1:448.52023 2:0.313959 3:304.22507 4:225.8788 5:5.6833 6:186.1227 7:214.76057 8:215.04636 9:214.03441 10:130.75639 11:130.90109 12:130.45329 13:223.08081 14:222.93335 15:224.09724 16:136.9025 17:136.6969 18:137.132 19:249.54584 20:249.31641 21:250.15018 22:146.8674 23:146.7394 24:146.9315 25:240.00116 26:240.17972 27:241.3692 28:145.3575 29:145.3322 30:146.0199 # frame 770
-2.5156418656027551e-012 1:486.30963 2:0.29042399 3:287.73889 4:234.5016 5:5.546 6:180.8463 7:216.83546 8:218.21246 9:216.69507 10:131.7081 11:132.3163 12:131.6593 13:219.29778 14:221.64899 15:219.06244 16:135.2243 17:136.0639 18:134.9886 19:237.21309 20:239.44629 21:239.07025 22:142.14391 23:143.1514 24:142.8224 25:236.00447 26:236.03926 27:237.78629 28:143.7997 29:143.729 30:144.4021 # frame 770
1.6824203123279565e-012 1:444.14285 2:0.358033 3:290.32788 4:219.8732 5:5.7768998 6:181.6171 7:219.55316 8:220.32779 9:219.32857 10:132.6378 11:132.7717 12:132.39571 13:229.88483 14:228.59926 15:228.26007 16:139.6842 17:138.7227 18:138.8275 19:248.43423 20:247.82727 21:248.25107 22:146.315 23:146.0462 24:146.2166 25:241.32037 26:242.30324 27:243.05368 28:145.6062 29:146.1519 30:146.2959 # frame 770
2.3524006624265492e-013 1:554.28754 2:1.821715 3:223.44461 4:233.26019 5:13.9841 6:159.5764 7:209.45084 8:204.4958 9:205.47334 10:130.4612 11:128.4819 12:129.1723 13:210.13538 14:210.39835 15:212.82289 16:129.41611 17:129.84039 18:130.52879 19:236.56386 20:239.07898 21:240.00009 22:143.9189 23:145.16789 24:145.1097 25:222.88351 26:224.21432 27:224.28316 28:138.6501 29:139.1174 30:139.3035 # frame 772
-2.5893060222800328e-012 1:448.44873 2:0.52113998 3:286.57016 4:221.94659 5:7.0028 6:180.20959 7:229.69479 8:229.17537 9:229.44725 10:138.97231 11:138.7117 12:138.7807 13:227.77208 14:225.87701 15:229.45424 16:138.7146 17:137.6913 18:139.067 19:238.14926 20:237.26169 21:238.37024 22:142.6114 23:142.43021 24:142.8383 25:239.39923 26:244.33794 27:241.04701 28:144.80099 29:146.5686 30:145.42371 # frame 772
-2.7646935155755068e-012 1:436.6091 2:0.44321901 3:304.2048 4:216.8102 5:6.4871001 6:185.84309 7:234.08961 8:235.5723 9:234.51613 10:139.78239 11:140.5015 12:140.21471 13:231.22467 14:231.64743 15:229.48036 16:140.02811 17:139.9873 18:139.174 19:234.75456 20:237.44414 21:239.28076 22:141.289 23:142.2449 24:142.89011 25:245.9913 26:246.91595 27:248.03674 28:147.17751 29:147.6274 30:148.25011 # frame 772
-1.0794113971136481e-012 1:345.44666 2:1.562243 3:250.09084 4:179.31641 5:9.7252998 6:167.31731 7:202.40526 8:202.15221 9:198.28732 10:127.2119 11:126.6677 12:125.2598 13:210.37013 14:210.62228 15:211.3627 16:130.8315 17:130.491 18:130.6734 19:247.27856 20:246.46504 21:248.83032 22:146.46111 23:146.5791 24:147.06979 25:232.85487 26:233.40996 27:231.52972 28:142.4252 29:142.5199 30:141.56709 # frame 772
3.8442288160341003e-012 1:360.29584 2:1.1470309 3:252.48111 4:198.02921 5:10.6231 6:168.9193 7:225.93004 8:225.67574 9:223.77832 10:136.0069 11:135.81281 12:135.2141 13:228.1824 14:228.92468 15:230.98422 16:138.4353 17:139.0352 18:139.7802 19:235.9113 20:236.88823 21:235.67506 22:142.69231 23:143.0558 24:142.42439 25:239.00156 26:240.78111 27:239.93546 28:144.6443 29:145.0493 30:144.80499 # frame 772
-5.5200209833943055e-012 1:504.34711 2:0.379439 3:266.83899 4:237.34399 5:6.1971002 6:174.2435 7:225.64201 8:224.25847 9:225.92274 10:136.2321 11:135.64571 12:136.4614 13:225.53464 14:224.10693 15:226.04982 16:137.6161 17:136.9415 18:137.7393 19:237.32304 20:236.70235 21:237.56909 22:142.4216 23:142.4632 24:142.7616 25:246.48042 26:249.17886 27:246.46524 28:147.412 29:148.54919 30:147.51759 # frame 772
-3.7897019873781559e-012 1:441.29672 2:0.71431899 3:271.98947 4:223.4102 5:8.3491001 6:175.6702 7:233.82518 8:232.65375 9:231.78883 10:139.64799 11:139.00391 12:138.68269 13:231.71645 14:230.02557 15:231.89536 16:139.92081 17:139.28529 18:139.97639 19:233.52264 20:233.6505 21:234.61974 22:141.2583 23:141.0388 24:141.34911 25:238.90228 26:241.51268 27:239.19557 28:144.63029 29:145.5161 30:144.7356 # frame 772
-3.1556218750365982e-014 1:60.036648 2:18.415388 3:94.810127 4:82.267403 5:43.342098 6:103.4964 7:209.40115 8:210.28343 9:210.17894 10:127.2072 11:127.7299 12:127.5221 13:227.48227 14:228.27269 15:231.0554 16:138.39729 17:138.0899 18:139.3268 19:239.48941 20:241.67249 21:240.27141 22:144.4422 23:145.5648 24:144.7406 25:231.91232 26:231.19331 27:232.57263 28:141.89661 29:141.7025 30:142.4223 # frame 772
1.7768554649935365e-012 1:448.6586 2:0.58956701 3:252.34576 4:225.43941 5:7.6215 6:169.0146 7:230.14264 8:231.06133 9:227.80185 10:137.70599 11:138.12399 12:136.9348 13:230.42427 14:230.85706 15:229.63264 16:139.0451 17:139.56619 18:139.1606 19:231.72482 20:235.2662 21:233.01497 22:140.8298 23:141.9742 24:141.0329 25:244.32249 26:246.34613 27:242.30301 28:146.43961 29:147.3819 30:145.88139 # frame 772
2.2952888437048754e-012 1:294.80331 2:16.625042 3:151.77107 4:178.362 5:37.84 6:127.6634 7:183.1282 8:184.67113 9:187.73972 10:115.76 11:115.9787 12:117.6186 13:198.75516 14:204.47021 15:206.0099 16:123.261 17:126.1995 18:126.9297 19:238.17574 20:235.18732 21:235.91055 22:139.9062 23:138.87151 24:139.1498 25:228.65025 26:223.37686 27:221.43904 28:137.7294 29:135.68089 30:134.9817 # frame 787
-5.761811408320146e-013 1:438.78458 2:0.28211701 3:288.77155 4:212.78999 5:5.1602998 6:180.83411 7:195.94427 8:193.97981 9:192.0751 10:125.2405 11:124.3898 12:123.4543 13:192.7142 14:191.55347 15:192.08078 16:122.5435 17:122.1458 18:122.0745 19:271.55472 20:270.3782 21:268.53305 22:153.2238 23:152.4754 24:151.36909 25:217.47176 26:213.52971 27:218.12444 28:137.50439 29:135.9579 30:137.3806 # frame 787
-1.4115431483525099e-012 1:465.06454 2:0.28718799 3:292.25055 4:223.69521 5:5.3045998 6:182.54359 7:231.01511 8:230.28928 9:229.86218 10:139.9514 11:139.83141 12:139.3248 13:227.0006 14:227.59729 15:227.84795 16:137.6906 17:138.22951 18:138.3149 19:233.75813 20:233.48776 21:233.30296 22:141.25011 23:141.06889 24:140.87399 25:242.96262 26:240.98286 27:243.74083 28:146.33521 29:145.85539 30:146.4071 # frame 798
-4.6347182371745186e-012 1:327.52728 2:1.020677 3:263.04642 4:192.92821 5:10.3313 6:172.8846 7:227.67993 8:225.0515 9:227.28659 10:137.5929 11:136.6369 12:137.3372 13:220.62444 14:224.82803 15:222.58754 16:135.09579 17:136.5997 18:135.88251 19:232.30049 20:233.77592 21:230.911 22:140.923 23:141.4238 24:140.58369 25:241.2933 26:239.28409 27:238.90234 28:145.5905 29:144.7948 30:144.5208 # frame 798
5.5644125489553442e-015 1:403.75192 2:0.28146601 3:267.93903 4:201.17619 5:4.9338002 6:174.5827 7:232.26353 8:234.03291 9:233.28975 10:139.7187 11:140.5499 12:140.0974 13:230.20355 14:229.35561 15:230.49898 16:139.0824 17:138.61259 18:139.26669 19:235.82803 20:232.13574 21:235.20815 22:142.37781 23:141.10361 24:142.062 25:244.86743 26:245.27449 27:245.01219 28:146.9278 29:147.19189 30:146.9487 # frame 798
4.5759890885866411e-012 1:404.12442 2:0.461761 3:296.19788 4:208.711 5:6.4299002 6:183.2193 7:231.20471 8:232.31525 9:231.05815 10:139.79201 11:140.34399 12:139.7402 13:228.52737 14:229.60249 15:229.83299 16:138.67439 17:138.98531 18:138.993 19:238.12207 20:234.64819 21:235.1698 22:142.7025 23:140.9866 24:141.321 25:242.29926 26:243.54243 27:243.29614 28:145.7278 29:146.3054 30:146.2749 # frame 798
-5.3078529794076963e-013 1:413.75616 2:0.33410901 3:249.79689 4:208.2254 5:5.4383001 6:167.1433 7:233.75008 8:232.16629 9:231.93237 10:140.045 11:139.2607 12:139.3252 13:232.53134 14:231.88042 15:233.8412 16:140.2052 17:140.0312 18:140.9108 19:233.47661 20:236.57382 21:235.19189 22:140.5984 23:141.9303 24:141.1777 25:247.1357 26:248.60504 27:247.1915 28:147.3027 29:147.9688 30:147.60471 # frame 798
-5.7446578657013264e-013 1:344.26013 2:5.4428229 3:218.27589 4:197.07561 5:20.4937 6:156.85809 7:199.50804 8:199.58905 9:200.04976 10:126.9564 11:127.0846 12:126.8822 13:200.04263 14:199.14565 15:199.2744 16:125.7558 17:125.1359 18:124.6656 19:260.16083 20:257.19629 21:261.61636 22:149.4259 23:149.3709 24:150.5018 25:211.39 26:210.82118 27:209.69873 28:135.5675 29:135.4395 30:134.674 # frame 851
-3.5999428605697705e-012 1:339.3002 2:2.233366 3:258.37292 4:196.5228 5:15.2416 6:170.9213 7:225.95543 8:225.97408 9:226.49594 10:136.6006 11:136.59489 12:136.8644 13:215.49275 14:215.0135 15:213.23018 16:132.1093 17:131.9619 18:131.1306 19:232.58733 20:234.06554 21:232.22667 22:140.8147 23:141.44521 24:140.9241 25:230.85645 26:231.72755 27:230.16817 28:141.89281 29:142.2673 30:141.60609 # frame 851
3.3773503039973306e-012 1:411.55692 2:1.914034 3:231.98785 4:212.01401 5:14.337 6:161.79311 7:218.34346 8:221.25258 9:217.96266 10:133.63499 11:134.7834 12:133.4649 13:220.17293 14:220.06212 15:219.56473 16:134.5209 17:134.34869 18:134.0598 19:245.72318 20:245.88162 21:246.88106 22:145.9623 23:146.1537 24:146.48911 25:236.25452 26:237.60501 27:232.81207 28:143.7182 29:144.3441 30:142.02789 # frame 851
-1.103254649605013e-012 1:487.64032 2:0.36003399 3:283.69171 4:234.7364 5:6.0394001 6:179.93291 7:230.07416 8:227.47282 9:229.4884 10:137.5835 11:136.778 12:137.4706 13:225.67517 14:224.16852 15:223.59853 16:137.45 17:136.82069 18:136.7114 19:240.6349 20:240.86816 21:240.58688 22:142.92551 23:143.3736 24:142.9863 25:242.99174 26:242.03941 27:241.88792 28:146.18311 29:145.9296 30:145.7926 # frame 851
-4.9950707191353986e-012 1:451.00665 2:0.445463 3:295.11752 4:222.31979 5:6.6451001 6:182.77921 7:230.22496 8:230.28502 9:229.41899 10:137.8716 11:137.8443 12:137.57001 13:231.24805 14:232.67256 15:232.9328 16:140.16479 17:140.6443 18:140.60699 19:239 20:240.90538 21:240.75385 22:142.3949 23:143.2809 24:143.1619 25:241.41565 26:242.19669 27:241.24004 28:146.0172 29:146.27029 30:145.901 # frame 851
2.3363487310612179e-012 1:329.05844 2:2.548213 3:248.70244 4:193.2556 5:16.6989 6:167.61571 7:223.95453 8:220.63097 9:220.58998 10:135.29449 11:133.83749 12:134.0047 13:218.18864 14:221.49345 15:219.94203 16:133.7184 17:135.0733 18:134.46989 19:243.63744 20:242.46439 21:245.41449 22:145.03419 23:144.6599 24:145.77769 25:233.72853 26:233.37685 27:234.3387 28:142.9597 29:142.72121 30:143.27071 # frame 851
1.1184101900714367e-012 1:435.19699 2:0.64021999 3:268.1889 4:217.4514 5:7.2175999 6:173.9841 7:226.42537 8:228.27444 9:226.73402 10:137.44321 11:138.20641 12:137.57581 13:222.2451 14:221.06168 15:220.0363 16:135.9386 17:135.5925 18:135.1035 19:237.85475 20:237.8997 21:236.94786 22:142.7637 23:142.9245 24:142.66229 25:235.77776 26:235.94896 27:234.83018 28:143.40269 29:143.5502 30:143.0699 # frame 868
2.090258620342796e-013 1:498.88931 2:0.428451 3:286.69006 4:238.51401 5:6.5461001 6:180.27209 7:229.42049 8:229.32315 9:228.60707 10:139.3262 11:139.27789 12:139.05029 13:225.30304 14:224.56134 15:225.23669 16:137.47459 17:137.39709 18:137.5495 19:231.06053 20:231.80489 21:231.25891 22:140.0282 23:140.5063 24:139.93491 25:238.2509 26:240.67056 27:238.90375 28:144.32069 29:145.2738 30:144.6747 # frame 868
-1.4033053272696012e-012 1:492.90976 2:0.503721 3:290.8468 4:236.4426 5:7.1039 6:181.26109 7:228.12393 8:227.19518 9:227.01936 10:139.1692 11:138.922 12:138.6727 13:226.79759 14:226.85255 15:227.92317 16:138.2917 17:138.31911 18:138.6311 19:231.49203 20:232.4834 21:233.43491 22:140.2845 23:140.4621 24:140.82491 25:243.3694 26:244.71593 27:244.80145 28:146.3119 29:146.88271 30:146.79179 # frame 868
-1.3869222348941424e-012 1:478.18854 2:0.91262901 3:254.47929 4:231.1508 5:8.9490995 6:168.5114 7:229.08437 8:230.3463 9:228.42221 10:139.3244 11:139.9716 12:139.0331 13:229.02985 14:230.02586 15:230.66605 16:138.95461 17:139.26669 18:139.325 19:231.72205 20:231.28796 21:232.89287 22:140.58121 23:140.2822 24:140.9127 25:248.20802 26:248.93936 27:246.14906 28:147.8053 29:148.07001 30:147.0697 # frame 868
2.9818548112064614e-012 1:489.36954 2:0.93693799 3:251.62701 4:232.80299 5:9.0326004 6:167.4646 7:229.29782 8:227.62305 9:229.56558 10:139.20309 11:138.77921 12:139.408 13:227.85089 14:226.88416 15:228.2262 16:138.209 17:137.8428 18:138.5354 19:234.39194 20:232.29755 21:235.10355 22:141.4834 23:140.7933 24:141.8051 25:246.09543 26:245.92009 27:245.78046 28:147.10809 29:147.0191 30:147.0098 # frame 868
3.2455522615556334e-013 1:336.78296 2:2.6928871 3:223.38696 4:196.1756 5:17.1175 6:159.18559 7:220.75882 8:221.20917 9:220.11946 10:133.9711 11:134.0289 12:133.67349 13:223.21648 14:222.69138 15:222.56371 16:135.83279 17:135.4169 18:135.4312 19:240.99693 20:239.33583 21:238.44371 22:145.06261 23:144.2668 24:143.9313 25:235.75821 26:234.2466 27:235.07149 28:143.465 29:142.60851 30:142.9187 # frame 868
6.9094637304619988e-012 1:308.67282 2:4.1668768 3:201.00356 4:185.4778 5:20.824699 6:150.9843 7:214.14081 8:220.63037 9:216.73094 10:131.0269 11:133.4035 12:131.74049 13:215.48177 14:219.54123 15:217.30066 16:132.99519 17:134.36279 18:133.58189 19:236.45244 20:234.34209 21:234.93918 22:142.9054 23:141.77901 24:142.04041 25:235.76472 26:235.80846 27:236.12143 28:143.45419 29:143.53799 30:143.3994 # frame 880
-2.5442588560053212e-012 1:440.94168 2:0.208969 3:304.0166 4:223.9156 5:4.5890999 6:185.92709 7:226.89336 8:225.93571 9:224.39636 10:136.3147 11:136.10471 12:135.3127 13:218.08676 14:219.09077 15:217.73503 16:133.78799 17:134.0795 18:133.36459 19:244.97466 20:240.65927 21:242.0687 22:145.5838 23:144.05479 24:144.46359 25:238.73445 26:236.36911 27:236.80255 28:144.3228 29:143.56039 30:143.5441 # frame 997
9.4902156980061513e-013 1:477.93555 2:1.367403 3:257.19757 4:221.4888 5:10.1291 6:170.1266 7:208.43729 8:210.54929 9:207.60616 10:128.54491 11:129.2681 12:128.3898 13:225.36671 14:226.89537 15:226.58391 16:137.16901 17:137.85271 18:137.54289 19:240.94078 20:243.81169 21:242.6638 22:145.01151 23:146.2269 24:145.4035 25:233.77896 26:235.01337 27:235.13719 28:143.0222 29:143.65359 30:143.7683 # frame 997
-4.2122644833591494e-013 1:180.18352 2:4.3258219 3:258.93735 4:82.466797 5:21.320601 6:171.89999 7:206.1804 8:203.62773 9:199.83432 10:128.68539 11:127.7107 12:126.3505 13:223.38133 14:222.89246 15:228.80023 16:135.80479 17:135.23309 18:138.11349 19:248.28056 20:248.52663 21:251.13419 22:147.3958 23:147.4158 24:147.8855 25:211.93848 26:213.36357 27:209.59308 28:135.181 29:135.62421 30:134.59151 # frame 997
-7.220272885080515e-013 1:310.3967 2:3.642405 3:198.82016 4:160.468 5:17.5317 6:149.0415 7:223.15974 8:222.5986 9:222.43871 10:135.0703 11:134.8622 12:134.6338 13:225.56105 14:225.55191 15:224.05376 16:137.6787 17:137.5885 18:137.0482 19:242.46138 20:243.11356 21:243.11438 22:144.3208 23:144.6255 24:144.4821 25:246.9651 26:247.61072 27:246.29671 28:147.7204 29:148.22771 30:147.5598 # frame 1073
1.4886558347381028e-012 1:307.31494 2:3.01509 3:188.62642 4:153.7132 5:16.191999 6:145.7086 7:210.96634 8:211.27235 9:208.5256 10:129.5155 11:129.6889 12:128.58681 13:220.05034 14:219.5863 15:215.68233 16:135.02721 17:135.0358 18:133.3884 19:240.49744 20:242.6779 21:243.14787 22:144.3121 23:144.9342 24:145.16991 25:243.4917 26:245.22978 27:246.34579 28:146.1346 29:146.88651 30:147.4875 # frame 1073
-1.1049201646604796e-012 1:506.78293 2:1.012924 3:166.28059 4:227.31261 5:10.039 6:137.6785 7:197.68071 8:199.21138 9:200.68225 10:125.3397 11:126.24 12:126.637 13:209.67612 14:208.6378 15:210.07443 16:129.6749 17:129.2594 18:129.79781 19:250.98674 20:254.85986 21:252.18625 22:148.5105 23:149.4924 24:149.07561 25:210.56406 26:208.47339 27:209.74382 28:133.6915 29:132.9926 30:133.38721 # frame 1073
-1.4827257628243043e-012 1:134.37355 2:1.2806391 3:171.01808 4:72.637802 5:10.8779 6:138.6552 7:208.07437 8:209.38428 9:212.66603 10:127.7582 11:128.0468 12:129.34129 13:216.42001 14:215.02415 15:214.75891 16:133.64259 17:132.82179 18:132.6073 19:236.14168 20:234.32587 21:237.52057 22:142.8432 23:142.2585 24:143.1201 25:237.65529 26:240.77107 27:238.59872 28:143.9348 29:144.9178 30:143.9931 # frame 1073
-1.0728317861897841e-012 1:598.27814 2:2.803324 3:252.35005 4:261.14481 5:16.8444 6:169.4043 7:205.33307 8:202.70291 9:200.76033 10:127.3487 11:126.2648 12:125.356 13:201.80914 14:201.18065 15:202.14404 16:126.5074 17:126.5076 18:126.945 19:249.37047 20:251.47171 21:252.23477 22:148.28169 23:148.87489 24:149.04131 25:238.93077 26:238.68579 27:243.22487 28:144.9491 29:144.85561 30:146.85271 # frame 1180
3.19437657115994e-012 1:325.20755 2:16.060663 3:205.27301 4:190.7858 5:39.251598 6:152.0815 7:214.51431 8:216.16254 9:215.53497 10:132.0621 11:132.69749 12:132.3299 13:217.00273 14:220.28052 15:219.17813 16:132.9514 17:134.3669 18:133.7585 19:236.96924 20:234.89172 21:234.43559 22:142.9556 23:142.36121 24:142.15021 25:211.10403 26:207.97667 27:207.90627 28:133.856 29:132.7579 30:132.5432 # frame 1180
-2.2638921717449231e-012 1:399.88391 2:9.8928261 3:192.72069 4:205.08659 5:27.8736 6:146.78191 7:220.59172 8:220.6591 9:221.39122 10:133.0784 11:133.1489 12:133.55521 13:219.3734 14:221.3362 15:222.15482 16:134.9762 17:135.87309 18:136.0641 19:234.4281 20:235.27176 21:229.76906 22:141.2139 23:141.569 24:139.53799 25:239.88966 26:238.25482 27:238.41594 28:145.0004 29:144.3306 30:144.394 # frame 1180
1.5678749202563e-012 1:420.57214 2:0.496519 3:343.95822 4:216.8342 5:6.9761 6:198.1752 7:211.80605 8:211.96268 9:213.19315 10:132.8047 11:132.90781 12:133.401 13:214.71829 14:215.40059 15:217.67572 16:132.8708 17:133.06841 18:133.9198 19:234.92447 20:233.46623 21:231.60414 22:140.506 23:140.1571 24:139.3933 25:228.10939 26:226.17494 27:228.2019 28:140.63651 29:140.5827 30:140.99339 # frame 1219
2.9459403769488376e-012 1:372.71332 2:1.324188 3:290.41727 4:206.254 5:11.8548 6:182.0587 7:202.67253 8:201.06537 9:200.88438 10:128.6256 11:127.9485 12:127.9979 13:204.18028 14:202.98409 15:204.49777 16:126.7238 17:126.3093 18:126.6495 19:245.3683 20:247.66437 21:248.27974 22:144.99899 23:145.98801 24:146.1843 25:218.22319 26:215.71001 27:215.73073 28:137.82809 29:136.90491 30:137.0345 # frame 1219
4.2764645081322662e-012 1:432.00894 2:0.67492402 3:314.57803 4:221.0816 5:8.1695995 6:189.5284 7:209.56212 8:210.66304 9:209.83029 10:132.01871 11:132.7543 12:132.2973 13:213.39597 14:214.74979 15:214.06993 16:131.0157 17:131.83299 18:131.4968 19:246.41849 20:244.54398 21:244.47289 22:145.2177 23:144.8486 24:144.46181 25:216.41838 26:216.97992 27:217.02943 28:136.78239 29:137.4675 30:137.13361 # frame 1219
1.3358650321599532e-012 1:374.25974 2:1.904044 3:258.82452 4:206.4758 5:14.2736 6:171.94679 7:196.39056 8:195.12407 9:194.47359 10:126.1185 11:125.5013 12:125.3166 13:195.78334 14:197.57503 15:197.18524 16:123.2282 17:124.1121 18:123.712 19:253.36089 20:251.23624 21:252.6971 22:148.453 23:148.6044 24:148.5273 25:224.34784 26:222.25499 27:219.86943 28:140.56129 29:139.32111 30:138.56371 # frame 1219
-1.87453786859627e-012 1:464.93109 2:0.403685 3:278.68723 4:223.0708 5:6.1715002 6:178.3855 7:217.72232 8:217.90143 9:216.99174 10:135.2498 11:134.9263 12:134.7766 13:217.03673 14:217.21111 15:217.49876 16:133.0775 17:132.8208 18:133.19231 19:244.76982 20:244.64314 21:246.14348 22:144.46201 23:144.9783 24:145.45641 25:224.69246 26:226.25214 27:225.15865 28:140.1458 29:140.5829 30:140.3549 # frame 1219
-1.3172029893691945e-012 1:395.26041 2:1.366848 3:268.68042 4:212.39861 5:12.1128 6:175.164 7:190.57054 8:189.9791 9:192.66434 10:122.1944 11:122.1139 12:123.4466 13:197.53531 14:198.92241 15:196.73662 16:124.074 17:125.2428 18:124.0145 19:258.64337 20:257.10013 21:260.76282 22:150.2198 23:149.87621 24:151.05659 25:233.28101 26:232.97716 27:227.6273 28:143.13989 29:143.1196 30:141.14549 # frame 1219
-2.6326270480612827e-012 1:509.38074 2:0.32315499 3:262.1698 4:236.3636 5:5.7381001 6:173.01109 7:220.369 8:219.27808 9:219.72652 10:135.5459 11:135.0527 12:135.4035 13:219.79234 14:218.62224 15:217.37567 16:134.1006 17:133.5647 18:133.1161 19:237.07693 20:236.90173 21:234.49529 22:142.625 23:143.1028 24:141.5451 25:228.78329 26:228.64546 27:228.41264 28:141.69479 29:141.36501 30:141.4151 # frame 1219
-4.5856796680837992e-012 1:319.04453 2:0.73896497 3:330.75638 4:190.6698 5:8.7358999 6:194.42439 7:203.82822 8:202.99574 9:203.85973 10:129.5817 11:129.2146 12:129.4973 13:208.1423 14:207.62125 15:208.66881 16:129.0802 17:129.09061 18:129.3327 19:245.22102 20:241.60429 21:241.39897 22:144.69881 23:143.1855 24:142.9689 25:210.50951 26:210.12956 27:209.36708 28:134.4283 29:134.55431 30:134.0799 # frame 1231
-8.7558213979181033e-013 1:483.54263 2:0.309697 3:307.19238 4:233.79359 5:5.6399002 6:187.3358 7:213.32358 8:214.84213 9:216.12064 10:133.22099 11:133.92281 12:134.57629 13:213.41866 14:213.07555 15:215.91345 16:131.7276 17:131.4772 18:132.5153 19:239.48413 20:241.46742 21:241.15625 22:142.91071 23:143.8448 24:143.80231 25:220.79938 26:220.08594 27:220.0396 28:138.5251 29:138.4556 30:138.62939 # frame 1231
-2.5415040077748434e-012 1:402.57196 2:17.673206 3:249.39301 4:211.1086 5:21.9179 6:168.1609 7:211.25665 8:207.77403 9:210.10735 10:131.72881 11:130.0811 12:130.8344 13:213.74458 14:214.91322 15:214.30254 16:131.9523 17:132.5058 18:132.27209 19:244.87651 20:244.70203 21:244.80615 22:144.698 23:145.0928 24:144.3719 25:224.60573 26:223.93008 27:226.17717 28:140.31059 29:139.7531 30:140.83771 # frame 1231
1.5981630191862568e-012 1:440.68433 2:7.7076349 3:223.21928 4:211.0472 5:16.2097 6:158.66721 7:214.19215 8:215.35292 9:214.7986 10:132.73869 11:133.5397 12:133.0782 13:203.02998 14:207.46101 15:206.58124 16:127.4734 17:128.77209 18:128.71831 19:241.27609 20:240.93968 21:244.15843 22:143.5114 23:143.974 24:144.7321 25:226.09111 26:225.60616 27:225.69278 28:141.0406 29:140.7813 30:140.819 # frame 1231
1.475389813054341e-012 1:136.49927 2:6.8496261 3:324.18188 4:106.9126 5:25.2682 6:191.3302 7:203.64854 8:206.03937 9:200.61421 10:127.892 11:128.4424 12:126.3362 13:205.00568 14:213.35745 15:207.82568 16:127.6078 17:131.0063 18:128.79179 19:251.33281 20:256.81604 21:255.02284 22:147.8979 23:148.9695 24:147.88029 25:227.95979 26:222.99683 27:222.40065 28:141.4321 29:139.343 30:139.3761 # frame 1284
2.5526141693556922e-012 1:245.16573 2:2.511354 3:233.17349 4:139.52679 5:12.5972 6:162.74831 7:195.95543 8:193.99887 9:193.97784 10:126.1239 11:125.54 12:125.5033 13:196.96562 14:196.73277 15:195.63503 16:124.1089 17:123.8809 18:123.4556 19:248.7408 20:251.27347 21:248.5175 22:145.7511 23:146.36211 24:145.5209 25:205.61739 26:207.59973 27:206.8972 28:133.2411 29:134.2719 30:133.89281 # frame 1284
-3.1330669966046449e-012 1:266.34827 2:10.524192 3:186.39613 4:174.4738 5:34.34 6:145.82111 7:219.31137 8:214.04091 9:216.12166 10:132.70531 11:130.4762 12:131.5442 13:218.07813 14:219.55013 15:220.12035 16:133.6972 17:134.33881 18:134.72231 19:241.02106 20:242.22925 21:239.04289 22:145.48151 23:145.94009 24:144.92059 25:237.67845 26:237.28113 27:237.51666 28:143.8134 29:143.4702 30:143.9512 # frame 1284
-2.3710718344422479e-012 1:314.31439 2:6.9541478 3:144.24898 4:188.4874 5:27.374399 6:126.0722 7:220.95633 8:218.82973 9:219.46512 10:135.53329 11:134.5396 12:134.81171 13:210.0558 14:209.66608 15:214.85516 16:130.2838 17:130.323 18:132.5477 19:223.51918 20:224.49026 21:226.24254 22:138.10741 23:138.71381 24:139.33771 25:223.8333 26:223.68835 27:221.95515 28:138.1606 29:138.4218 30:137.8945 # frame 1291
-8.4440944038793623e-013 1:359.81097 2:14.843626 3:118.43793 4:195.908 5:31.736401 6:110.9369 7:215.55013 8:217.65392 9:214.89572 10:129.4548 11:130.28481 12:129.2605 13:209.36768 14:211.8998 15:215.92409 16:128.7043 17:129.5226 18:131.384 19:216.30424 20:217.89665 21:217.65735 22:132.4754 23:132.854 24:132.9646 25:224.73241 26:221.08855 27:221.94547 28:136.7411 29:135.541 30:135.84399 # frame 1291
3.9253398501532064e-012 1:270.5777 2:9.3645945 3:188.45151 4:175.8708 5:32.337399 6:146.5323 7:217.94341 8:217.71689 9:215.29225 10:132.0806 11:131.9666 12:131.2545 13:219.90637 14:217.10899 15:217.65437 16:134.7513 17:133.6528 18:133.65089 19:236.63519 20:235.67802 21:236.37276 22:143.34599 23:143.1001 24:143.01801 25:238.29002 26:238.87001 27:238.89085 28:144.2706 29:144.2576 30:144.4493 # frame 1291
-4.8020772492262161e-014 1:331.64828 2:1.540707 3:287.11691 4:194.6734 5:13.1077 6:181.13029 7:216.57204 8:217.33868 9:215.31596 10:134.1382 11:134.66631 12:133.7209 13:209.9109 14:211.84428 15:207.74609 16:129.7679 17:130.4716 18:128.59509 19:261.14984 20:259.92599 21:261.52036 22:149.1277 23:148.5385 24:149.1282 25:208.2182 26:207.51926 27:210.36858 28:133.7778 29:133.8125 30:134.98241 # frame 1291
4.3717047337365164e-012 1:271.14053 2:10.903187 3:176.70891 4:176.0314 5:34.689701 6:141.7937 7:221.52199 8:220.83008 9:219.45627 10:133.4167 11:133.0894 12:132.3587 13:223.35695 14:223.25739 15:222.52525 16:136.43311 17:136.67931 18:136.0161 19:235.77342 20:237.57639 21:236.22807 22:142.3187 23:143.04269 24:142.52361 25:242.657 26:241.2812 27:244.29784 28:146.1507 29:145.5096 30:146.61189 # frame 1291
-2.2088702213350509e-012 1:310.24988 2:10.129834 3:201.57524 4:182.7016 5:31.1574 6:144.43069 7:220.59201 8:219.87064 9:219.94112 10:132.76041 11:132.1225 12:132.6467 13:224.07645 14:223.68591 15:224.70535 16:135.0898 17:134.94 18:135.14529 19:230.17578 20:228.29305 21:230.32202 22:137.16721 23:136.7227 24:137.3223 25:225.04982 26:228.47797 27:225.55013 28:136.6545 29:137.60139 30:136.8237 # frame 1311
-1.8501016686086514e-012 1:346.91891 2:4.9635062 3:144.43481 4:195.7014 5:18.9296 6:125.7221 7:227.20232 8:226.36681 9:226.09709 10:138.30099 11:137.9077 12:137.7717 13:213.04399 14:211.32503 15:213.45862 16:131.7459 17:131.045 18:132.1546 19:226.86659 20:227.87653 21:227.53049 22:140.1225 23:140.7926 24:140.285 25:223.18266 26:226.26395 27:227.90442 28:138.6909 29:140.13901 30:140.69279 # frame 1311
2.7694189936903418e-012 1:374.86719 2:0.27419999 3:259.69763 4:199.95461 5:4.829 6:171.94949 7:221.18968 8:221.70395 9:221.70261 10:136.1087 11:136.4053 12:136.20869 13:212.86066 14:216.1606 15:213.94635 16:131.29289 17:132.48289 18:131.4772 19:235.099 20:235.2816 21:234.13049 22:141.29359 23:141.3782 24:141.08859 25:225.74525 26:227.14349 27:224.90541 28:140.3732 29:140.9631 30:140.0827 # frame 1311
2.8904374563258763e-012 1:373.88269 2:0.68549502 3:282.59952 4:205.63319 5:8.2711 6:179.6689 7:218.08238 8:217.8423 9:215.95808 10:135.81219 11:135.5468 12:134.9399 13:216.27507 14:217.9465 15:216.18085 16:132.6855 17:133.0237 18:132.53281 19:244.49783 20:245.60211 21:241.62569 22:144.64 23:144.97301 24:143.24541 25:221.52505 26:220.756 27:220.71469 28:139.1134 29:139.01511 30:138.98061 # frame 1311
2.5825727844285935e-012 1:308.88135 2:10.492921 3:149.19649 4:187.7314 5:33.650501 6:129.1826 7:231.03233 8:230.82719 9:231.46176 10:139.4606 11:139.0648 12:139.59821 13:225.25885 14:227.21021 15:228.98792 16:137.69659 17:138.25259 18:138.638 19:228.61055 20:229.13478 21:228.31859 22:139.60789 23:139.70799 24:139.2251 25:239.45265 26:243.7151 27:238.01543 28:145.0293 29:146.48421 30:144.43449 # frame 1359
5.4508176765137848e-013 1:373.60077 2:3.3366439 3:321.14734 4:184.6338 5:10.1454 6:187.161 7:218.11099 8:212.90285 9:214.52219 10:133.9288 11:131.69341 12:132.39059 13:222.06119 14:225.12395 15:221.14981 16:135.7495 17:137.0737 18:135.4554 19:240.70563 20:241.34982 21:246.54709 22:143.9243 23:144.4339 24:146.1951 25:237.22482 26:243.55954 27:246.89957 28:143.7776 29:146.28481 30:147.4017 # frame 1359
1.5863613790392603e-013 1:305.70673 2:14.087532 3:164.83426 4:186.8744 5:39.291 6:136.67999 7:230.97586 8:232.81648 9:230.78311 10:139.0788 11:139.9736 12:139.0538 13:227.95747 14:229.13252 15:231.01997 16:138.6801 17:139.57091 18:140.0065 19:226.82591 20:225.84329 21:226.00987 22:139.3479 23:139.0153 24:139.2317 25:236.82567 26:237.21214 27:234.91307 28:143.76939 29:144.3831 30:143.43941 # frame 1359
8.9366882493158644e-013 1:103.48606 2:29.749256 3:290.20578 4:79.792397 5:52.6492 6:181.79761 7:221.49927 8:223.57906 9:223.00737 10:133.36 11:134.1461 12:133.9651 13:224.59647 14:227.37761 15:227.29022 16:137.29289 17:138.4158 18:138.21001 19:234.82259 20:233.65714 21:233.06914 22:142.2655 23:141.10519 24:141.3094 25:236.9637 26:233.08772 27:233.04364 28:143.30611 29:142.22639 30:142.27969 # frame 1393
-1.179855025923395e-013 1:9.6192198 2:11.960712 3:265.75693 4:30.151199 5:35.518002 6:174.0031 7:227.24657 8:227.50902 9:225.2558 10:136.4256 11:136.5108 12:135.90491 13:221.60156 14:224.48393 15:220.71083 16:136.23869 17:137.3885 18:135.44791 19:230.62566 20:234.75842 21:229.15121 22:140.5954 23:142.1248 24:139.862 25:240.16824 26:241.43689 27:241.2112 28:144.9705 29:145.8223 30:145.6414 # frame 1393
1.7673304969846837e-013 1:183.49303 2:7.0024819 3:205.6832 4:98.258003 5:25.055401 6:152.83791 7:224.37978 8:222.05347 9:223.48927 10:135.05659 11:133.68069 12:134.3732 13:217.60855 14:214.00885 15:218.71118 16:134.0383 17:132.6199 18:134.49989 19:236.95192 20:235.03532 21:236.7459 22:143.31171 23:142.3438 24:143.1884 25:240.57654 26:240.87102 27:241.16049 28:145.27631 29:145.2428 30:145.7269 # frame 1393
-1.7704753026522638e-012 1:85.865166 2:14.98082 3:180.2851 4:66.398399 5:35.061798 6:139.7 7:205.92204 8:203.34445 9:207.65202 10:125.6404 11:123.9594 12:126.0111 13:204.70886 14:206.87457 15:205.86847 16:126.0693 17:126.7342 18:126.5201 19:225.03647 20:226.30257 21:225.87323 22:136.8851 23:137.1311 24:137.1104 25:221.42584 26:222.4691 27:221.89233 28:135.37849 29:135.14529 30:135.57021 # frame 1393
2.6250035307374679e-012 1:294.16315 2:7.7593641 3:201.08273 4:159.8578 5:25.507401 6:143.1143 7:217.71989 8:214.66505 9:212.16391 10:132.4144 11:130.9017 12:130.31149 13:218.28275 14:221.46329 15:223.93643 16:134.6089 17:135.7699 18:136.6691 19:235.68622 20:236.31142 21:235.08813 22:143.0766 23:143.46181 24:143.0396 25:236.54123 26:237.1344 27:237.12408 28:143.8335 29:144.2189 30:143.9301 # frame 1393
-1.6064644072702979e-012 1:286.27136 2:5.2975259 3:296.43103 4:139.9164 5:22.3556 6:182.22459 7:222.92468 8:222.2682 9:220.83853 10:135.5896 11:134.9254 12:134.6853 13:219.60049 14:224.72902 15:221.43666 16:133.86481 17:135.6808 18:134.3517 19:241.46576 20:236.60567 21:234.90778 22:144.8037 23:143.0174 24:142.27609 25:227.05632 26:228.20128 27:224.96956 28:140.44141 29:140.4507 30:139.80431 # frame 1470
-2.3854966449825772e-012 1:11.674596 2:28.352491 3:223.23529 4:35.5508 5:53.571602 6:158.81931 7:232.51433 8:230.83078 9:231.02713 10:139.7121 11:139.2525 12:139.16051 13:227.99026 14:228.42801 15:224.05049 16:138.8629 17:138.94209 18:136.955 19:232.80879 20:232.18733 21:230.83588 22:141.31329 23:140.86549 24:140.4886 25:238.38254 26:236.71126 27:239.0397 28:144.47701 29:143.89709 30:144.60651 # frame 1470
4.2580881953586324e-013 1:191.66849 2:10.509801 3:293.82373 4:96.566299 5:31.722099 6:180.51221 7:231.09259 8:230.13698 9:232.45058 10:139.5455 11:139.4415 12:140.2558 13:221.23589 14:227.24416 15:225.88828 16:135.23441 17:137.94591 18:136.92979 19:228.98061 20:231.24065 21:231.70547 22:140.22549 23:140.59419 24:141.0038 25:233.17529 26:229.09883 27:228.74779 28:142.3134 29:141.0119 30:140.8495 # frame 1470
3.0046554697852837e-013 1:8.4110603 2:17.7187 3:256.28333 4:30.014 5:39.9053 6:170.3895 7:232.15669 8:235.71846 9:232.62411 10:140.68781 11:141.78951 12:140.8392 13:232.52122 14:232.21901 15:232.00412 16:140.3683 17:140.08569 18:139.6842 19:235.3956 20:231.22705 21:235.16406 22:142.4209 23:140.81551 24:142.2086 25:238.86349 26:238.59058 27:238.74782 28:145.1906 29:145.0329 30:144.9469 # frame 1470
-1.1468100751779566e-012 1:9.3992395 2:25.268713 3:315.66638 4:32.554798 5:52.701302 6:188.4286 7:230.19295 8:230.09819 9:231.28384 10:139.84399 11:139.5274 12:140.12939 13:227.76855 14:230.47543 15:228.67886 16:138.38341 17:139.1342 18:138.50191 19:233.95711 20:235.76207 21:238.63791 22:141.6386 23:142.7457 24:143.662 25:246.82315 26:245.79716 27:245.45236 28:147.6962 29:147.25549 30:147.14391 # frame 1470
1.379979868993293e-012 1:12.515874 2:8.5833883 3:268.09979 4:28.459 5:27.8204 6:174.6301 7:219.73123 8:225.78978 9:224.55026 10:134.3576 11:136.5993 12:136.3676 13:214.92986 14:223.87161 15:219.35194 16:133.1445 17:136.4738 18:134.6803 19:234.86945 20:235.78873 21:235.86665 22:142.1871 23:142.092 24:141.8894 25:245.91127 26:243.05988 27:241.38762 28:147.41789 29:146.18381 30:145.6506 # frame 1470
9.0018958844185376e-013 1:20.399126 2:33.328018 3:238.99281 4:37.637001 5:59.281601 6:162.06979 7:231.02676 8:227.78587 9:226.74045 10:140.10539 11:138.729 12:138.65829 13:227.77646 14:227.4709 15:229.22716 16:138.6754 17:138.6804 18:139.20261 19:237.82857 20:234.15402 21:238.84822 22:142.99229 23:141.47301 24:143.2375 25:238.87369 26:243.293 27:241.0773 28:144.5181 29:146.036 30:145.3924 # frame 1470
1.3978932210394785e-013 1:302.23965 2:62.557182 3:91.918251 4:185.51019 5:82.550903 6:99.774597 7:217.96822 8:219.99605 9:221.47592 10:134.3683 11:135.6438 12:136.21249 13:209.23804 14:218.4212 15:219.12674 16:129.8866 17:133.7608 18:134.2148 19:234.99146 20:233.18785 21:235.7587 22:143.321 23:142.5797 24:143.3994 25:223.1933 26:221.04236 27:221.40137 28:139.1086 29:138.6304 30:138.7274 # frame 1579
1.269989045270568e-012 1:278.90152 2:46.630619 3:152.96468 4:178.6178 5:72.940804 6:132.1602 7:215.05992 8:215.60655 9:220.29213 10:133.51421 11:133.7224 12:135.864 13:204.73691 14:216.48058 15:215.57982 16:127.6265 17:133.2608 18:132.97501 19:243.38609 20:236.88377 21:237.55089 22:146.18469 23:143.6467 24:143.8083 25:227.16431 26:223.22823 27:222.85947 28:140.59711 29:139.66319 30:139.45911 # frame 1579
1.9874789857756366e-014 1:183.9081 2:12.806996 3:478.3786 4:131.9393 5:26.5336 6:228.3316 7:185.95459 8:185.64537 9:182.41269 10:113.8331 11:114.2171 12:112.8476 13:196.21178 14:194.21606 15:198.65901 16:119.3273 17:118.5727 18:120.772 19:223.80142 20:226.07837 21:217.38568 22:138.6393 23:137.5574 24:135.17281 25:214.63371 26:221.63599 27:229.9731 28:134.1447 29:137.67979 30:141.5056 # frame 1579
-4.5135138845043954e-013 1:280.05521 2:43.113419 3:152.89098 4:178.9848 5:70.065399 6:132.08009 7:212.36078 8:214.64455 9:219.20894 10:131.4617 11:132.7003 12:134.54581 13:211.34126 14:221.36182 15:220.48694 16:130.79649 17:135.6963 18:135.60831 19:243.90089 20:238.36699 21:237.79901 22:145.4604 23:143.4778 24:143.2448 25:225.34471 26:222.59042 27:224.01186 28:139.5611 29:139.075 30:139.5251 # frame 1579
-4.9787083501467997e-012 1:126.15349 2:14.652939 3:325.05197 4:98.726799 5:37.169498 6:187.9381 7:236.28847 8:232.44794 9:233.42044 10:142.1115 11:141.0676 12:141.362 13:228.65912 14:230.21906 15:227.03549 16:139.27609 17:139.68649 18:138.28149 19:237.28429 20:233.03304 21:236.32013 22:142.4308 23:141.09891 24:141.88879 25:243.66995 26:241.75465 27:243.99432 28:146.2541 29:145.5701 30:146.321 # frame 1579
2.3159420948713743e-012 1:280.95151 2:39.258549 3:155.35855 4:179.26939 5:66.836998 6:133.0414 7:213.22729 8:209.87987 9:216.76424 10:132.2213 11:130.88409 12:133.6429 13:211.28575 14:216.62436 15:220.37718 16:130.2093 17:133.3692 18:134.99181 19:235.57651 20:233.44481 21:231.88841 22:142.90269 23:142.022 24:141.3203 25:224.40987 26:224.75262 27:222.63983 28:138.9467 29:139.87691 30:139.0453 # frame 1579
1.3238612194457258e-012 1:384.31985 2:14.808909 3:184.14149 4:207.1956 5:36.6991 6:140.24741 7:214.72447 8:217.35733 9:215.62886 10:131.0416 11:132.088 12:131.42 13:236.32634 14:232.2991 15:234.29753 16:141.59801 17:140.0338 18:140.84081 19:242.14975 20:242.4146 21:243.6665 22:145.85629 23:146.1734 24:146.31351 25:244.10464 26:241.55128 27:238.2002 28:146.0424 29:145.40649 30:143.9662 # frame 1579
2.1223710930150372e-013 1:277.53137 2:44.465675 3:152.07556 4:178.177 5:71.176598 6:131.6906 7:219.96352 8:220.1086 9:221.71864 10:134.8866 11:134.8867 12:135.70979 13:216.70851 14:222.48463 15:224.82448 16:132.0314 17:135.2361 18:136.30499 19:243.62231 20:238.80995 21:238.22908 22:146.0202 23:144.06419 24:143.9881 25:217.85956 26:223.4731 27:221.28394 28:136.6169 29:139.42 30:138.2484 # frame 1579
3.3954846851034888e-012 1:352.94241 2:13.547546 3:195.77972 4:200.5108 5:32.117199 6:141.2569 7:226.34193 8:223.60014 9:224.58813 10:136.55721 11:135.6445 12:135.81129 13:218.09111 14:217.67006 15:216.13573 16:133.93871 17:134.02229 18:133.4901 19:224.3327 20:225.3959 21:226.6143 22:138.7686 23:139.0818 24:139.6617 25:235.72929 26:234.70316 27:237.08012 28:143.23351 29:142.8983 30:143.5807 # frame 1579
-1.6724784737351743e-012 1:276.45465 2:45.012856 3:145.46434 4:177.82961 5:71.631798 6:128.81219 7:216.52905 8:216.14058 9:219.73245 10:132.83569 11:132.4241 12:134.3354 13:213.02565 14:221.71472 15:221.32545 16:131.07581 17:135.53439 18:135.37131 19:242.28288 20:240.80695 21:238.62114 22:145.4547 23:144.77139 24:144.2749 25:224.38507 26:226.71103 27:224.67932 28:139.47321 29:140.5034 30:140.039 # frame 1579
7.6254717038031291e-013 1:223.11418 2:38.282337 3:146.3053 4:147.85921 5:53.057499 6:120.3401 7:214.02673 8:209.69031 9:219.55615 10:132.0497 11:130.52859 12:134.2831 13:228.97229 14:227.4646 15:230.38641 16:138.9998 17:138.9308 18:140.10091 19:248.07721 20:247.56863 21:242.74031 22:147.3549 23:146.8681 24:145.248 25:242.62146 26:242.84488 27:242.11182 28:146.0929 29:145.8553 30:146.0419 # frame 1579
1.6476235816108158e-012 1:276.48792 2:44.929501 3:141.25356 4:177.8414 5:71.5839 6:127.0058 7:204.7726 8:203.48235 9:210.81009 10:127.9115 11:127.6196 12:130.9747 13:203.93069 14:215.78537 15:213.82774 16:126.9367 17:133.10809 18:131.8501 19:243.39943 20:242.12337 21:242.53053 22:146.02631 23:145.5739 24:145.35789 25:222.74496 26:221.707 27:219.81831 28:138.8143 29:138.85291 30:138.1429 # frame 1579
-3.1695776450584371e-014 1:216.92249 2:15.176413 3:65.26255 4:147.91319 5:36.185699 6:83.685204 7:229.9207 8:226.94058 9:227.80072 10:137.8248 11:136.5387 12:136.93919 13:235.24628 14:234.8083 15:230.94919 16:141.8833 17:141.5883 18:140.3183 19:233.06702 20:236.52354 21:235.52106 22:141.5018 23:142.74631 24:142.3875 25:237.34036 26:238.87064 27:240.80513 28:144.1097 29:144.6824 30:145.1734 # frame 1579
-2.2588197448549444e-012 1:273.7464 2:54.363571 3:144.20767 4:176.95219 5:78.708603 6:128.1181 7:209.31438 8:211.84331 9:216.60577 10:130.64059 11:131.9054 12:133.99249 13:207.61388 14:217.99561 15:217.53142 16:128.8096 17:133.9538 18:133.6326 19:245.51003 20:241.00635 21:239.99084 22:146.17841 23:144.3577 24:143.9328 25:221.26726 26:217.25452 27:217.24721 28:138.49631 29:137.4633 30:137.5087 # frame 1579
-2.4423979177977031e-012 1:335.24353 2:20.375187 3:145.17345 4:195.24921 5:46.603901 6:127.0958 7:206.61679 8:207.18353 9:204.12411 10:128.5666 11:128.71539 12:127.6364 13:215.31549 14:218.0872 15:213.55806 16:132.08411 17:133.0883 18:131.664 19:249.09903 20:247.59695 21:250.43974 22:147.81779 23:147.5175 24:148.32291 25:232.78322 26:232.69038 27:230.8876 28:142.7066 29:142.08929 30:141.505 # frame 1618
4.9415985460587443e-013 1:25.847759 2:31.372345 3:625.01831 4:54.214802 5:58.107101 6:266.76129 7:223.45741 8:219.89229 9:215.46931 10:135.3192 11:133.4447 12:131.79939 13:224.82202 14:222.23888 15:215.69948 16:137.1703 17:135.3251 18:132.96449 19:235.75928 20:233.42102 21:238.45407 22:141.6947 23:140.8669 24:142.7191 25:239.1992 26:244.59114 27:239.35551 28:144.3494 29:146.41631 30:144.0741 # frame 1618
1.052055069908908e-012 1:342.5199 2:22.732079 3:112.12342 4:197.4014 5:49.609501 6:110.3116 7:207.52644 8:211.42851 9:205.88448 10:129.5153 11:131.1749 12:128.75349 13:216.54962 14:217.78264 15:212.65976 16:133.11729 17:133.3587 18:131.54601 19:247.27695 20:246.27985 21:245.28275 22:147.36819 23:146.7681 24:146.43291 25:228.3407 26:222.52428 27:226.36658 28:140.56551 29:138.4893 30:140.3829 # frame 1618
5.6289320191826472e-013 1:65.943581 2:17.487646 3:534.28351 4:59.7789 5:40.798302 6:244.3129 7:226.74304 8:226.38307 9:220.32988 10:138.19659 11:138.1517 12:134.80099 13:226.41809 14:226.15498 15:219.433 16:137.2677 17:136.9725 18:133.3378 19:244.24358 20:234.41849 21:234.05748 22:145.105 23:141.36349 24:141.3671 25:237.72774 26:238.19041 27:238.9063 28:144.07491 29:144.3638 30:144.1631 # frame 1618
-8.2198666529864717e-013 1:334.00275 2:23.792912 3:102.9371 4:195.01559 5:50.631302 6:105.387 7:215.14191 8:215.66727 9:215.9213 10:132.30029 11:132.53149 12:132.6134 13:221.58566 14:218.72679 15:220.60558 16:135.39709 17:134.20959 18:134.97591 19:242.23657 20:241.85959 21:241.37885 22:145.4783 23:145.28 24:145.10069 25:233.99535 26:236.41234 27:233.79297 28:142.7289 29:143.88541 30:143.0778 # frame 1618
4.8257345979375497e-012 1:170.38503 2:12.585303 3:415.29745 4:110.6426 5:33.5373 6:214.0634 7:226.26849 8:226.42352 9:223.99706 10:138.0914 11:138.11031 12:136.8123 13:225.86214 14:228.58247 15:222.39023 16:137.70081 17:138.83299 18:135.6228 19:236.61198 20:235.36687 21:239.74358 22:141.80859 23:141.6461 24:143.4097 25:235.8997 26:237.92696 27:236.6768 28:143.1738 29:143.7755 30:143.2562 # frame 1618
5.3503041705820848e-013 1:336.27609 2:35.098091 3:83.937325 4:181.5764 5:61.0844 6:95.293098 7:219.68781 8:219.22847 9:219.61026 10:134.5789 11:134.7146 12:134.84039 13:219.81792 14:219.41614 15:220.2836 16:134.826 17:134.6133 18:134.9272 19:234.42325 20:235.04889 21:234.05301 22:142.8264 23:143.0905 24:142.82651 25:228.93929 26:226.42255 27:227.42519 28:141.27431 29:140.3242 30:140.6696 # frame 1618
-1.2954073393829376e-012 1:209.37408 2:8.6099339 3:337.54556 4:132.2016 5:30.091 6:193.843 7:225.42259 8:227.95076 9:227.7655 10:136.4343 11:137.3432 12:137.13699 13:219.42461 14:221.2108 15:213.90636 16:134.60609 17:135.3213 18:131.0545 19:236.86353 20:237.49643 21:241.67924 22:142.1924 23:142.4257 24:143.8708 25:240.51495 26:240.12807 27:241.2041 28:144.9938 29:145.07291 30:145.32359 # frame 1618
1.9004872546348272e-012 1:378.95764 2:29.349752 3:75.636925 4:205.9664 5:55.626499 6:91.0495 7:221.72876 8:222.78206 9:223.2643 10:134.5668 11:135.0024 12:135.2505 13:223.6387 14:225.21455 15:224.52908 16:136.67149 17:137.153 18:136.5907 19:233.42992 20:234.0177 21:231.827 22:142.69679 23:142.8587 24:142.12061 25:227.46124 26:228.3243 27:228.15411 28:140.44769 29:140.62379 30:140.79179 # frame 1618
2.1880881257402148e-014 1:318.87784 2:6.790647 3:338.40378 4:178.0985 5:24.6479 6:189.8094 7:156.1452 8:144.25682 9:136.53304 10:95.752403 11:90.735603 12:86.662102 13:156.11105 14:154.19447 15:149.22018 16:98.014702 17:96.026802 18:92.639503 19:221.19371 20:213.22704 21:182.46678 22:137.33521 23:130.4189 24:122.0835 25:172.12 26:190.84772 27:173.04675 28:117.3509 29:126.465 30:118.6005 # frame 1618
-2.1726670435412173e-012 1:364.2782 2:35.368092 3:85.90226 4:203.5844 5:61.116402 6:97.856201 7:214.83206 8:222.29436 9:219.63628 10:131.5047 11:134.2941 12:133.2467 13:223.45177 14:222.2869 15:224.94351 16:136.5114 17:135.76311 18:137.0426 19:238.25092 20:235.25197 21:234.53876 22:144.2542 23:142.92931 24:143.08971 25:236.79773 26:232.90797 27:235.56126 28:143.88989 29:142.4538 30:143.35181 # frame 1618
-2.0728688227923458e-013 1:288.8183 2:9.6130323 3:337.90656 4:168.2084 5:29.6376 6:188.12511 7:153.22118 8:142.71013 9:139.17999 10:95.639 11:91.9617 12:89.514801 13:158.56041 14:158.53438 15:158.21132 16:98.711998 17:97.099899 18:96.716499 19:249.60629 20:243.1701 21:221.82117 22:147.6572 23:142.16879 24:136.4272 25:185.55264 26:192.59782 27:167.61234 28:122.7856 29:126.4981 30:116.5091 # frame 1618
-1.5151278499121343e-013 1:234.31406 2:49.660946 3:138.6356 4:118.6668 5:69.079597 6:124.3536 7:202.68832 8:196.73274 9:197.82417 10:126.8653 11:124.4798 12:125.1884 13:211.0204 14:212.57574 15:207.40985 16:130.5618 17:131.35851 18:128.9883 19:253.28284 20:260.37213 21:258.20972 22:149.4446 23:152.65021 24:151.8092 25:209.09734 26:223.11832 27:222.64723 28:134.16631 29:139.18781 30:139.4695 # frame 1618
-8.0955938271630707e-013 1:309.04678 2:12.626416 3:217.21207 4:184.6356 5:36.1418 6:156.923 7:213.05878 8:213.55109 9:209.4559 10:131.1523 11:131.39259 12:129.40179 13:215.40115 14:213.40981 15:216.37556 16:132.1489 17:131.5809 18:132.8658 19:239.7583 20:238.75674 21:242.36694 22:144.0706 23:143.9071 24:145.51019 25:230.48743 26:231.20837 27:227.72368 28:141.9903 29:141.6293 30:140.36951 # frame 1618
-1.6424395848776205e-012 1:309.84531 2:8.1375828 3:232.14645 4:181.0032 5:28.806299 6:161.8188 7:214.60622 8:216.19316 9:217.8549 10:133.6274 11:134.1066 12:134.5302 13:212.19818 14:212.43987 15:210.15729 16:131.15331 17:131.32449 18:130.22659 19:240.40544 20:236.89188 21:234.49643 22:144.11301 23:142.88361 24:141.94659 25:221.19174 26:215.63719 27:212.77414 28:138.8259 29:136.0271 30:134.54761 # frame 1737
1.2980788138804651e-012 1:9.7462978 2:59.466522 3:343.63635 4:19.763399 5:72.338799 6:187.1851 7:210.53656 8:211.46056 9:209.81384 10:129.5685 11:129.879 12:129.0865 13:217.4482 14:214.77747 15:207.99315 16:131.63361 17:130.01289 18:127.4968 19:223.51378 20:226.01752 21:220.90871 22:134.9514 23:136.20351 24:134.0099 25:223.08322 26:225.74292 27:227.12497 28:135.8475 29:136.7959 30:137.3591 # frame 1737
-2.6128081813523285e-012 1:305.31369 2:5.9896822 3:226.31107 4:160.93761 5:24.4098 6:158.11771 7:227.45804 8:225.96426 9:224.86949 10:137.7514 11:137.13271 12:136.5889 13:228.00145 14:226.71892 15:225.26329 16:138.33971 17:137.8862 18:137.35941 19:237.49286 20:235.06137 21:236.80876 22:143.5731 23:143.1107 24:143.3577 25:226.65974 26:226.9144 27:225.26657 28:139.71899 29:139.62109 30:139.00169 # frame 1737
-2.5765672703102064e-013 1:2.503052 2:100.67196 3:244.48727 4:11.8936 5:100.8938 6:158.16051 7:214.36485 8:211.21877 9:211.37079 10:130.52209 11:128.783 12:129.07111 13:221.37152 14:220.25777 15:217.49843 16:133.85451 17:133.425 18:131.78349 19:226.32365 20:224.41049 21:228.09467 22:136.6089 23:135.7515 24:136.72099 25:226.2775 26:226.6371 27:227.27995 28:137.4272 29:137.24609 30:137.1839 # frame 1737
7.8860700639714273e-013 1:348.71942 2:7.4072552 3:180.31639 4:194.1664 5:28.0165 6:142.4969 7:214.29045 8:211.58914 9:215.07661 10:132.49809 11:131.5215 12:132.7287 13:214.82184 14:216.30408 15:217.36757 16:132.58411 17:132.7937 18:133.6971 19:240.28249 20:237.36963 21:238.26567 22:144.8443 23:143.9196 24:144.1792 25:225.49632 26:225.28925 27:225.90788 28:139.2796 29:139.8019 30:139.70509 # frame 1737
-1.9587089631246474e-012 1:21.106915 2:42.794735 3:528.96808 4:48.938301 5:68.207298 6:244.7719 7:219.03036 8:221.42929 9:219.21408 10:134.4276 11:135.371 12:134.7506 13:228.00887 14:222.93437 15:222.36238 16:139.0128 17:136.6619 18:136.3407 19:237.27847 20:238.86737 21:242.00424 22:142.98019 23:143.20531 24:144.37511 25:237.71678 26:241.31688 27:241.14125 28:144.0679 29:145.67371 30:145.4827 # frame 1737
-1.6345797481292266e-012 1:338.82617 2:7.9248462 3:179.10315 4:189.96741 5:28.395599 6:141.7683 7:222.85771 8:224.96098 9:223.33136 10:135.4377 11:136.274 12:135.6503 13:220.293 14:224.12006 15:226.91774 16:135.04089 17:136.3893 18:137.2959 19:236.29475 20:234.55988 21:228.46986 22:143.5336 23:142.60381 24:140.54469 25:231.38602 26:230.12617 27:230.85745 28:141.57111 29:141.5009 30:141.8192 # frame 1737
-1.5830266625392697e-012 1:18.628016 2:42.396904 3:549.09088 4:45.780499 5:67.888496 6:249.29539 7:220.75073 8:222.36082 9:220.21487 10:135.4731 11:136.01311 12:135.0148 13:225.72876 14:222.18274 15:223.91309 16:138.16 17:136.2923 18:136.73849 19:242.54611 20:238.24516 21:236.021 22:144.8221 23:143.22549 24:142.0562 25:239.35623 26:237.73032 27:243.51575 28:144.9572 29:144.1759 30:146.2009 # frame 1737
-2.7394933459922098e-012 1:348.3714 2:11.641158 3:137.96461 4:194.75 5:34.422199 6:124.3816 7:219.33173 8:219.77757 9:217.83203 10:134.0713 11:134.29359 12:133.7025 13:215.78064 14:222.85194 15:224.48549 16:133.09621 17:136.1917 18:136.80051 19:232.85281 20:232.83981 21:232.01488 22:142.2412 23:142.1635 24:141.7919 25:231.93852 26:230.4567 27:229.90526 28:142.435 29:141.93311 30:141.5977 # frame 1737
3.5163114691810869e-012 1:17.169865 2:40.879208 3:549.49872 4:43.508999 5:66.700798 6:249.13429 7:218.05763 8:220.13757 9:222.26018 10:134.2653 11:134.7283 12:136.1158 13:226.66759 14:224.52402 15:222.96574 16:138.39349 17:137.10539 18:136.3936 19:238.10022 20:240.05365 21:239.01472 22:142.8831 23:143.5363 24:143.0435 25:237.66296 26:241.8631 27:244.19012 28:143.9649 29:145.47141 30:146.71291 # frame 1737
-5.0059306789456574e-013 1:18.08264 2:39.115253 3:586.59058 4:45.401798 5:66.627403 6:258.64169 7:222.3302 8:218.17085 9:219.97559 10:135.056 11:133.68359 12:134.2099 13:225.7038 14:220.17792 15:215.88513 16:137.9017 17:135.0081 18:133.2157 19:233.12007 20:235.23744 21:237.11072 22:141.29491 23:142.0168 24:142.8038 25:244.59676 26:243.37279 27:246.51059 28:146.5101 29:146.4948 30:147.6993 # frame 1820
5.6009762904849621e-013 1:245.01419 2:22.100767 3:197.04762 4:119.363 5:47.2495 6:140.38741 7:230.61964 8:228.21263 9:227.71573 10:139.3463 11:138.2153 12:137.9158 13:223.26637 14:224.5824 15:222.2487 16:136.08549 17:137.27901 18:135.8586 19:235.44391 20:237.55063 21:235.37579 22:142.2762 23:143.0359 24:142.0293 25:238.18527 26:239.90961 27:239.87723 28:144.4742 29:145.175 30:145.14951 # frame 1820
-1.6690070959317148e-012 1:328.61771 2:3.91274 3:248.98566 4:173.4734 5:20.3804 6:167.3114 7:214.03226 8:210.5889 9:210.78491 10:131.60719 11:130.0692 12:129.7583 13:222.87613 14:223.82214 15:225.38615 16:135.99561 17:136.0694 18:137.33411 19:237.56758 20:240.48735 21:238.96425 22:143.6575 23:145.269 24:144.0432 25:229.10994 26:227.79951 27:229.87195 28:141.3717 29:140.47479 30:141.0752 # frame 1820
7.4296322366513561e-013 1:27.277376 2:12.599843 3:429.8132 4:35.295601 5:37.667702 6:219.77271 7:225.53996 8:224.53656 9:224.84743 10:136.293 11:136.202 12:136.2309 13:221.67064 14:219.97916 15:216.24753 16:135.5266 17:134.8661 18:132.7825 19:239.10168 20:243.28671 21:246.12064 22:143.66969 23:144.9012 24:146.1003 25:239.91951 26:239.05861 27:235.37897 28:144.86639 29:144.62289 30:143.49519 # frame 2063
2.0574198304849408e-012 1:6.1904411 2:13.367545 3:432.8075 4:26.4419 5:38.7561 6:222.0285 7:212.87479 8:214.19234 9:213.31813 10:131.68089 11:132.28481 12:132.00191 13:212.6226 14:212.77495 15:214.35925 16:131.1619 17:131.401 18:131.84891 19:246.67204 20:246.92091 21:244.6219 22:146.2234 23:146.4552 24:145.63429 25:233.61772 26:231.34761 27:230.1465 28:142.9539 29:141.7448 30:140.8651 # frame 2063
-1.515833919020078e-012 1:280.18591 2:15.552876 3:127.27876 4:178.3308 5:41.585999 6:120.4042 7:197.73688 8:197.54065 9:199.0038 10:125.4083 11:125.17 12:126.203 13:210.05588 14:216.17688 15:218.43213 16:130.2531 17:133.0963 18:133.6259 19:249.31038 20:248.48311 21:247.72154 22:147.96091 23:147.5007 24:147.0728 25:216.0737 26:216.7254 27:209.06487 28:136.95129 29:137.3642 30:134.2608 # frame 2063
4.9211549507109386e-014 1:6.7717242 2:13.067492 3:408.49438 4:27.6548 5:38.382 6:215.74609 7:218.39908 8:217.1769 9:216.25853 10:133.74271 11:133.1924 12:132.97729 13:214.95471 14:216.13406 15:216.52956 16:131.5266 17:131.8578 18:132.1757 19:239.23474 20:238.01915 21:237.84987 22:143.5843 23:143.1795 24:142.8815 25:226.76648 26:228.10422 27:227.25647 28:140.4113 29:140.3463 30:139.86681 # frame 2063
-2.3517495731289799e-013 1:275.21805 2:19.427416 3:126.15214 4:175.1046 5:46.0368 6:119.457 7:196.88828 8:202.5052 9:207.925 10:126.4196 11:129.20599 12:131.9187 13:204.0023 14:213.09418 15:210.44012 16:127.6385 17:131.6609 18:130.6001 19:257.21402 20:252.22836 21:246.80496 22:150.3764 23:148.53481 24:145.6852 25:212.1084 26:208.84988 27:205.78244 28:135.98579 29:134.2876 30:133.5448 # frame 2063
5.6887207256283467e-013 1:5.5098081 2:16.775055 3:411.02292 4:24.993999 5:43.5919 6:216.4579 7:228.03334 8:224.97583 9:224.89789 10:137.02769 11:135.5446 12:135.63229 13:223.28363 14:223.89439 15:224.08047 16:136.2861 17:136.47569 18:136.6357 19:232.51161 20:237.9987 21:236.83057 22:140.8414 23:142.75639 24:142.4294 25:235.85468 26:239.32652 27:242.55664 28:143.3461 29:144.3322 30:145.87959 # frame 2063
5.9061924169938789e-013 1:217.12614 2:13.194179 3:157.05145 4:142.203 5:35.931499 6:131.9922 7:210.14955 8:203.70383 9:205.67599 10:128.6978 11:125.9676 12:126.9757 13:210.33351 14:216.83876 15:215.84427 16:130.26421 17:133.2179 18:131.8837 19:240.36598 20:237.72713 21:239.50652 22:144.3967 23:143.3316 24:143.9655 25:234.94998 26:230.69284 27:230.67838 28:143.1329 29:141.4221 30:141.4295 # frame 2063
-5.3406481852357983e-012 1:50.474937 2:15.877673 3:382.03983 4:43.137501 5:41.868301 6:207.9696 7:220.18291 8:218.31328 9:213.485 10:134.08749 11:133.8734 12:131.6649 13:216.04256 14:216.07584 15:215.56512 16:133.224 17:132.672 18:132.81039 19:240.7937 20:235.90825 21:240.82402 22:143.6488 23:141.9623 24:143.9572 25:233.54262 26:233.6667 27:237.66019 28:142.5386 29:142.6674 30:144.399 # frame 2063
2.2256272071211778e-012 1:390.599 2:22.213638 3:201.26486 4:205.9624 5:36.91 6:149.0659 7:207.80333 8:209.34921 9:206.38382 10:130.16341 11:131.01961 12:130.04289 13:212.71982 14:219.24846 15:216.05154 16:132.28081 17:134.7863 18:133.6306 19:246.21024 20:239.67596 21:239.25955 22:145.9382 23:143.3586 24:143.3799 25:220.79059 26:222.94661 27:217.39862 28:138.8679 29:139.53149 30:137.3649 # frame 2106
8.9419170440592172e-013 1:265.04935 2:3.8563001 3:182.96947 4:173.8474 5:20.694599 6:144.0686 7:208.02095 8:208.81137 9:210.68307 10:129.87331 11:130.2518 12:131.3098 13:211.09583 14:213.45479 15:212.56813 16:129.8714 17:130.965 18:130.58279 19:243.88382 20:244.06985 21:243.23604 22:146.0168 23:146.0713 24:145.778 25:217.90128 26:218.58305 27:218.69492 28:137.3597 29:137.34309 30:137.08369 # frame 2106
-9.0611114122812343e-013 1:253.15512 2:3.1062291 3:237.19838 4:169.994 5:18.6427 6:163.99899 7:199.90804 8:198.62878 9:197.93195 10:125.8961 11:125.5521 12:125.2893 13:210.63557 14:210.24423 15:209.78027 16:129.8837 17:129.4814 18:129.2811 19:253.32463 20:253.65898 21:255.05505 22:147.9494 23:148.90041 24:149.35831 25:222.00479 26:221.88902 27:222.88358 28:139.4886 29:139.40359 30:139.26131 # frame 2115
