SVM-light Version V6.20
0 # kernel type
3 # kernel parameter -d 
1 # kernel parameter -g 
1 # kernel parameter -s 
1 # kernel parameter -r 
empty# kernel parameter -u 
32 # highest feature index 
55 # number of training documents 
2 # number of support vectors plus 1 
0.00048018528 # threshold b, each following line is a SV (starting with alpha*y)
1 1:-0.074331917 2:-0.049135692 3:-0.016722396 4:0.13238221 5:0.064196341 6:0.061620336 7:0.015826371 8:0.039821442 9:-0.0024349142 10:-0.036573566 11:-0.026952479 12:-0.044563886 13:0.020860728 14:-0.010458229 15:-0.00051934994 16:0.0066970382 17:-0.0090100979 18:-0.0010945179 19:-0.037367269 20:0.0019260636 21:-0.016283 22:-0.0054725851 23:0.0081286673 24:0.0045223595 25:0.010979936 26:-0.0082596745 27:0.019866168 28:-0.01013855 29:-0.017674761 30:-0.008140902 #
