SVM-light Version V6.20
0 # kernel type
3 # kernel parameter -d 
1 # kernel parameter -g 
1 # kernel parameter -s 
1 # kernel parameter -r 
empty# kernel parameter -u 
32 # highest feature index 
53 # number of training documents 
2 # number of support vectors plus 1 
0.00063948086 # threshold b, each following line is a SV (starting with alpha*y)
1 1:-0.071465939 2:-0.049500898 3:-0.015670734 4:0.1259988 5:0.068628557 6:0.061905418 7:-0.0014783479 8:0.050618816 9:0.0035193842 10:-0.014850296 11:0.0063290023 12:-0.012644441 13:0.0040875352 14:-0.032316513 15:0.018451225 16:-0.0043060957 17:-0.01953754 18:0.0016167274 19:-0.024539955 20:-0.0060691959 21:-0.021305233 22:-0.014419358 23:-0.0069087879 24:-0.012099817 25:0.02425959 26:-0.020517576 27:0.020895882 28:-0.0078485254 29:-0.021467317 30:-0.0062748683 #
