SVM-light Version V6.20
0 # kernel type
3 # kernel parameter -d 
1 # kernel parameter -g 
1 # kernel parameter -s 
1 # kernel parameter -r 
empty# kernel parameter -u 
35 # highest feature index 
62 # number of training documents 
2 # number of support vectors plus 1 
0.22836002 # threshold b, each following line is a SV (starting with alpha*y)
1 1:-0.0047591631 2:-0.028060714 3:0.026471928 4:-0.00047454718 5:0.11372617 6:-0.036161952 7:-0.04013427 8:-0.0063048508 9:-0.030215271 10:-0.024969622 11:0.026379328 12:0.01767648 13:0.013072228 14:0.030802319 15:0.032582015 16:0.039495971 17:0.04782768 18:0.036220402 19:0.037884161 20:-0.029884692 21:-0.018164944 22:-0.054621655 23:-0.01864207 24:-0.014736836 25:-0.03174182 26:0.019106638 27:-0.022566879 28:0.010047149 29:-0.022356611 30:-0.025949886 31:-0.012594115 32:-0.078910924 33:0.029192267 #
