SVM-light Version V6.20
0 # kernel type
3 # kernel parameter -d 
1 # kernel parameter -g 
1 # kernel parameter -s 
1 # kernel parameter -r 
empty# kernel parameter -u 
35 # highest feature index 
33 # number of training documents 
2 # number of support vectors plus 1 
0.081450413 # threshold b, each following line is a SV (starting with alpha*y)
1 1:0.0024170813 2:0.059698466 3:0.060534537 4:-0.055442393 5:-0.021650065 6:0.0023559371 7:-0.020561617 8:0.041165128 9:0.056537494 10:0.029688392 11:0.03684479 12:0.040725965 13:0.025977898 14:-0.019759389 15:0.0073503577 16:-0.015401383 17:-0.0055175265 18:0.0082042022 19:-0.00078007119 20:0.021153774 21:-0.062207982 22:-0.0056404877 23:0.0074435053 24:-0.023577649 25:-0.0019666315 26:-0.048382971 27:-0.039550319 28:-0.020352121 29:-0.025532182 30:-0.022755515 31:-0.021717262 32:-0.025266223 33:-0.0035383494 #
