SVM-light Version V6.20
1 # kernel type
3 # kernel parameter -d 
1 # kernel parameter -g 
1 # kernel parameter -s 
1 # kernel parameter -r 
empty# kernel parameter -u 
30 # highest feature index 
341 # number of training documents 
501 # number of support vectors plus 1 
0 # threshold b, each following line is a SV (starting with alpha*y)
1.3991949954364994e-012 1:302.237 2:14.4285 3:367.44699 4:180.12601 5:36.027599 6:198.545 7:217.731 8:216.371 9:217.44299 10:132.153 11:131.634 12:131.90601 13:223.854 14:228.74001 15:225.965 16:136.965 17:138.438 18:137.936 19:238.55299 20:237.584 21:243.96001 22:143.59 23:143.211 24:145.384 25:236.188 26:236.274 27:236.636 28:143.29401 29:143.276 30:143.293 # frame 20
-7.4797410088512823e-013 1:504.328 2:0.34787899 3:326.97601 4:240.024 5:6.0243001 6:193.194 7:228.953 8:227.70599 9:227.412 10:138.23801 11:137.521 12:137.425 13:217.64301 14:216.11 15:215.06 16:133.979 17:133.302 18:133.10699 19:237.96001 20:239.239 21:237.72501 22:142.617 23:143.192 24:142.383 25:242.771 26:240.29601 27:241.67599 28:146.28999 29:145.285 30:145.61 # frame 20
-2.3574798359970085e-012 1:507.18799 2:0.19686501 3:346.159 4:229.48801 5:4.5569 6:198.812 7:226.68401 8:227.26199 9:225.373 10:136.707 11:136.985 12:136.162 13:218.92799 14:217.76801 15:216.414 16:134.58299 17:133.983 18:133.724 19:234.127 20:233.009 21:234.76801 22:141.48399 23:141.07001 24:141.57201 25:238.51801 26:240.77901 27:238.851 28:144.23 29:145.13699 30:144.24899 # frame 20
-5.1259651059531153e-012 1:88.955299 2:2.02475 3:195.45 4:61.578602 5:12.8901 6:148.946 7:218.27499 8:219.886 9:221.05499 10:133.705 11:134.41901 12:134.979 13:219.38901 14:219.55701 15:219.513 16:134.207 17:134.317 18:134.354 19:235.65199 20:232.631 21:232.60899 22:142.886 23:141.621 24:141.547 25:235.944 26:234.661 27:232.28799 28:142.942 29:142.793 30:141.994 # frame 70
4.8424448785270324e-012 1:187.496 2:33.9711 3:189.33701 4:120.576 5:47.993099 6:142.27499 7:216.159 8:220.062 9:217.842 10:133.42 11:134.662 12:133.87 13:213.901 14:215.77 15:215.99699 16:132.338 17:132.875 18:133.048 19:230.302 20:230.931 21:232.98 22:140.922 23:141.118 24:141.60899 25:231.605 26:231.47 27:234.92101 28:141.664 29:141.27299 30:142.571 # frame 70
2.0523674548176548e-012 1:162.229 2:10.6332 3:174.812 4:79.364197 5:28.5602 6:134.841 7:213.625 8:211.66499 9:211.159 10:133.826 11:132.849 12:132.67999 13:210.754 14:211.75999 15:210.213 16:131.246 17:131.326 18:130.90401 19:245.317 20:243.037 21:244.52901 22:146.16701 23:145.222 24:145.70799 25:220.457 26:220.563 27:220.005 28:138.94299 29:138.772 30:138.81599 # frame 70
-2.3449648110119256e-012 1:476.73599 2:0.619021 3:252.651 4:232.158 5:7.8877001 6:169.401 7:233.13 8:234.06 9:233.672 10:140.668 11:140.94 12:140.744 13:226.479 14:226.522 15:224.76601 16:137.87 17:137.897 18:137.131 19:232.813 20:229.70599 21:231.638 22:141.216 23:139.73 24:140.89301 25:238.37 26:239.689 27:239.71201 28:145.002 29:145.487 30:145.45399 # frame 70
4.057334220760403e-012 1:298.586 2:2.0118699 3:272.453 4:184.69901 5:15.0936 6:176.49001 7:220.159 8:219.464 9:219.257 10:136.21899 11:136.004 12:135.86099 13:211.507 14:211.19 15:210.632 16:130.37399 17:130.213 18:130.009 19:237.03799 20:236.43401 21:236.576 22:142.545 23:142.82001 24:143.25301 25:230.28799 26:228.772 27:229.901 28:142.09599 29:141.349 30:141.584 # frame 92
-1.0833459801161538e-011 1:343.58401 2:2.77634 3:264.83401 4:198.186 5:17.705999 6:173.83 7:229.96201 8:231.035 9:229.52901 10:139.57401 11:139.847 12:139.416 13:223.853 14:224.72501 15:226.017 16:137.058 17:137.185 18:137.685 19:233.959 20:233.791 21:234.138 22:141.412 23:141.636 24:141.55499 25:244.502 26:243.821 27:243.71001 28:147.036 29:146.681 30:146.72301 # frame 92
-3.804628888394849e-012 1:278.36401 2:5.5307899 3:212.763 4:123.625 5:22.089001 6:153.276 7:223.93201 8:225.795 9:226.935 10:135.674 11:136.72501 12:136.92599 13:230.81 14:229.99899 15:229.269 16:139.841 17:139.44901 18:139.334 19:232.276 20:233.50999 21:231.7 22:141.00301 23:141.25101 24:140.683 25:241.804 26:236.91499 27:238.745 28:145.41299 29:143.573 30:144.306 # frame 92
-2.1503459599147619e-013 1:409.65601 2:2.5654199 3:227.476 4:216.37601 5:16.783199 6:160.508 7:229.927 8:227.856 9:227.132 10:139.578 11:138.459 12:138.58501 13:229.51199 14:229.582 15:228.787 16:139.22301 17:139.40199 18:139.144 19:238.543 20:236.842 21:237.52 22:143.524 23:142.92 24:143.105 25:247.858 26:248.08 27:245.328 28:147.603 29:147.521 30:146.827 # frame 92
3.5309948645155008e-012 1:340.63599 2:3.0336599 3:261.89999 4:197.30901 5:18.419201 6:172.33099 7:231.10001 8:230.144 9:230.786 10:139.87199 11:139.666 12:139.758 13:229.041 14:229.42 15:228.73599 16:138.905 17:139.10201 18:138.774 19:237.222 20:236.22301 21:237.03999 22:142.75101 23:142.548 24:142.798 25:243.84 26:243.868 27:245.644 28:146.435 29:146.302 30:146.974 # frame 92
-4.5390166604899578e-012 1:230.448 2:10.8704 3:315.05801 4:112.1 5:29.7316 6:184.868 7:216.069 8:214.52299 9:209.00101 10:132.47701 11:131.90601 12:129.424 13:221.17599 14:221.33701 15:215.062 16:135.61 17:135.72099 18:132.608 19:249.62199 20:243.854 21:241.67 22:147.942 23:145.64101 24:144.58501 25:238.254 26:243.03999 27:243.76199 28:144.647 29:146.31599 30:146.662 # frame 92
-4.4155707454441549e-012 1:354.896 2:3.91292 3:223.993 4:201.27499 5:20.777399 6:158.60001 7:228.68201 8:226.72501 9:228.198 10:139.37601 11:138.82899 12:139.351 13:227.131 14:227.841 15:228.85001 16:138.60699 17:138.57899 18:139.019 19:236.556 20:236.047 21:236.714 22:142.33299 23:142.16701 24:142.34599 25:240.664 26:242.284 27:239.42799 28:144.961 29:145.39999 30:144.466 # frame 92
-3.248636218209762e-012 1:235.077 2:0.13056201 3:410.63501 4:146.674 5:3.4454 6:216.562 7:218.522 8:218.675 9:221.297 10:134.867 11:134.918 12:135.76601 13:210.32401 14:211.16901 15:212.92599 16:130.207 17:130.569 18:131.24899 19:241.75 20:241.047 21:241.108 22:143.673 23:143.50301 24:143.33099 25:233.616 26:233.07899 27:231.799 28:142.901 29:142.474 30:141.787 # frame 181
5.4982843791957795e-012 1:157.51199 2:26.673401 3:255.94 4:95.201202 5:45.215801 6:163.284 7:227.97 8:230.588 9:228.048 10:137.145 11:137.991 12:136.82201 13:229.591 14:228.255 15:228.75999 16:138.869 17:138.302 18:138.64301 19:234.47 20:235.224 21:236.437 22:142.33701 23:142.978 24:143.368 25:230.879 26:234.228 27:232.463 28:141.03799 29:142.52 30:141.49699 # frame 181
1.178303558920656e-012 1:13.1594 2:64.146599 3:223.23801 4:34.928101 5:81.306297 6:152.51401 7:217.724 8:218.47 9:218.29601 10:131.952 11:132.37199 12:132.467 13:223.03799 14:220.772 15:219.045 16:134.841 17:134.16701 18:132.897 19:223.175 20:223.67 21:219.134 22:134.657 23:134.953 24:133.67101 25:224.20399 26:223.98 27:223.701 28:135.996 29:135.92101 30:136.00101 # frame 181
4.6575910572133263e-012 1:478.56799 2:1.30733 3:241.064 4:233.351 5:9.5186996 6:165.12 7:229.24699 8:229.383 9:228.78799 10:138.40401 11:138.55499 12:138.32001 13:229.51199 14:229.33099 15:229.825 16:139.618 17:139.877 18:139.76801 19:238.942 20:239.134 21:237.601 22:143.411 23:143.42101 24:142.79401 25:248.513 26:247.27499 27:248.72 28:148.383 29:148.088 30:148.40199 # frame 181
1.0402294028671067e-012 1:20.1724 2:74.035896 3:146.79201 4:44.873798 5:80.178299 6:122.701 7:227.605 8:223.27 9:224.424 10:137.26601 11:135.573 12:135.92101 13:233.944 14:227.321 15:225.05901 16:140.923 17:138.086 18:137.27499 19:237.573 20:234.97 21:233.651 22:143.19299 23:141.95399 24:141.47701 25:244.578 26:248.04601 27:248.73199 28:146.375 29:147.873 30:148.082 # frame 181
1.1774810861367433e-012 1:70.780403 2:0.173942 3:431.74301 4:46.2616 5:4.3815999 6:222.132 7:208.325 8:207.28799 9:207.05499 10:129.767 11:129.506 12:129.289 13:213.047 14:211.187 15:211.823 16:131.157 17:130.28799 18:130.43201 19:252.632 20:252.132 21:253.776 22:146.8 23:146.743 24:147.15199 25:226.88 26:227.74899 27:226.993 28:140.605 29:140.74699 30:140.547 # frame 347
1.4189859903312723e-012 1:103.149 2:12.0013 3:230.36501 4:71.323997 5:32.751801 6:155.94701 7:195.871 8:194.09399 9:191.978 10:123.203 11:122.286 12:121.523 13:215.85201 14:212.19701 15:213.84599 16:132.95799 17:131.45799 18:132.222 19:263.746 20:267.19699 21:262.84 22:154.086 23:155.601 24:153.754 25:239.164 26:242.842 27:245.681 28:145.119 29:146.455 30:147.76401 # frame 347
-4.0529240344617484e-013 1:324.65601 2:16.176201 3:253.299 4:187.995 5:38.356899 6:168.42599 7:219.283 8:217.44099 9:219.36 10:133.705 11:132.619 12:133.976 13:215.08299 14:215.509 15:216.11099 16:131.677 17:132.151 18:132.09801 19:235.989 20:232.87 21:231.21001 22:142.45599 23:141.036 24:140.235 25:219.418 26:214.466 27:209.16299 28:137.558 29:134.964 30:133.134 # frame 347
4.1702321773829976e-012 1:327.98199 2:4.2810602 3:184.381 4:171.207 5:19.350901 6:141.79401 7:224.99899 8:223.23199 9:222.85699 10:135.511 11:134.64799 12:134.905 13:228.87199 14:230.28 15:232.159 16:139.099 17:139.76601 18:140.106 19:236.782 20:236.713 21:236.017 22:143.286 23:143.36301 24:142.849 25:244.28101 26:246.03999 27:242.664 28:146.821 29:147.237 30:146.05299 # frame 347
-1.8765894142143975e-012 1:266.33701 2:16.873301 3:117.021 4:123.438 5:36.2136 6:106.165 7:212.87399 8:211.345 9:213.34 10:129.27299 11:128.618 12:129.472 13:216.55499 14:220.37199 15:217.91499 16:131.923 17:133.367 18:132.203 19:229.17799 20:227.285 21:226.957 22:137.228 23:136.745 24:136.66499 25:229.888 26:230.59 27:228.44299 28:138.526 29:138.54201 30:137.98599 # frame 347
-1.0466438969098789e-012 1:555.664 2:0.60895199 3:265.61401 4:249.17101 5:6.8536 6:173.718 7:223.196 8:222.34599 9:222 10:134.709 11:134.43401 12:134.22099 13:230.513 14:231.936 15:231.968 16:139.573 17:140.021 18:139.97 19:241.06599 20:242.69 21:240.136 22:144.16299 23:144.86 24:143.442 25:243.939 26:244.67999 27:245.603 28:146.42599 29:146.586 30:146.935 # frame 347
-5.6004731056956438e-012 1:260.64801 2:1.95762 3:285.39001 4:154.243 5:12.4921 6:176.151 7:203.272 8:206.825 9:206.328 10:128.14999 11:129.661 12:129.52699 13:208.879 14:213.314 15:212.439 16:130.347 17:132.08 18:131.716 19:249.382 20:251.205 21:253.832 22:146.603 23:147.16701 24:147.819 25:236.34 26:236.98599 27:239.041 28:143.657 29:144.019 30:145.00301 # frame 396
2.9430762592346652e-012 1:68.760803 2:36.738098 3:226.08501 4:66.710403 5:56.370899 6:156.388 7:210.897 8:207.22301 9:210.39101 10:130.75101 11:128.963 12:130.328 13:217.459 14:216.08 15:218.802 16:133.694 17:133.42799 18:134.515 19:251.83299 20:256.995 21:257.03699 22:149.522 23:151.144 24:151.118 25:243.021 26:246.293 27:244.92799 28:146.3 29:147.53999 30:147.133 # frame 396
2.8163740954932397e-012 1:273.95901 2:0.38680401 3:351.117 4:132.621 5:5.9320002 6:195.37399 7:230.22301 8:232.60201 9:230.84399 10:138.664 11:139.228 12:139.05701 13:224.185 14:224.811 15:225.062 16:137.243 17:137.369 18:137.382 19:230.907 20:231.57001 21:230.96899 22:140.299 23:140.22 24:140.172 25:241.407 26:242.02499 27:241.61099 28:145.541 29:145.776 30:145.845 # frame 396
-3.6821034499948494e-013 1:310.526 2:18.584499 3:73.301903 4:185.114 5:43.821201 6:89.528297 7:225.40401 8:225.991 9:227.276 10:135.976 11:136.019 12:136.54201 13:229.97 14:230.179 15:231.37801 16:139.78999 17:139.901 18:140.188 19:242.17799 20:242.37801 21:240.666 22:145.153 23:145.205 24:144.60201 25:240.095 26:240.61099 27:241.125 28:144.814 29:144.83501 30:145.062 # frame 396
-7.2430660858497954e-013 1:407.40201 2:29.8517 3:68.901802 4:183.547 5:52.7673 6:75.589996 7:219.34399 8:215.552 9:217.603 10:131.709 11:130.218 12:130.746 13:229.12 14:223.006 15:220.677 16:137.034 17:134.758 18:133.483 19:235.679 20:237.845 21:234.692 22:139.864 23:140.70599 24:139.40401 25:220.858 26:216.575 27:215.73199 28:134.86501 29:132.965 30:133.071 # frame 396
1.2981388671096018e-012 1:281.57999 2:15.1313 3:345.98499 4:173.76401 5:36.448601 6:192.13699 7:220.43201 8:219.799 9:222 10:135.36301 11:135.168 12:135.978 13:224.00301 14:223.28 15:223.468 16:137.00101 17:136.707 18:136.80099 19:236.536 20:231.72099 21:234.30499 22:142.367 23:140.23199 24:141.401 25:238.60899 26:238.036 27:240.90601 28:144.478 29:144.039 30:145.186 # frame 396
-3.6766807813813992e-012 1:85.763199 2:40.263302 3:193.577 4:95.187401 5:66.006599 6:142.506 7:218.489 8:218.174 9:218.132 10:133.062 11:133.062 12:132.929 13:222.911 14:222.642 15:223.302 16:136.30901 17:136.185 18:136.271 19:236.44 20:232.76199 21:232.76199 22:143.30701 23:142.013 24:142.17999 25:237.42599 26:237.677 27:238.20399 28:144.15401 29:144.187 30:144.397 # frame 451
2.3447579650995656e-012 1:15.9749 2:4.8835001 3:278.763 4:33.4608 5:20.954 6:177.98801 7:232.024 8:234.119 9:232.938 10:139.022 11:139.97501 12:139.27499 13:226.52901 14:229.40199 15:229.29201 16:137.91 17:139.03799 18:139.12 19:232.535 20:232.132 21:231.502 22:141.047 23:140.879 24:140.189 25:241.939 26:242.295 27:242.274 28:145.614 29:145.58501 30:145.681 # frame 451
-3.5084637759870118e-012 1:43.6633 2:44.045898 3:222.918 4:63.412601 5:59.152401 6:156.508 7:233.108 8:230.00101 9:228.696 10:140.388 11:139.13901 12:138.653 13:229.73 14:227.57001 15:230.77299 16:139.228 17:138.71201 18:139.802 19:238.616 20:237.24899 21:237.30099 22:143.397 23:143.024 24:142.99699 25:241.586 26:244.972 27:242.821 28:145.334 29:146.575 30:145.806 # frame 451
9.1356397081656744e-013 1:12.9244 2:6.2374902 3:248.505 4:36.562 5:21.8606 6:168.084 7:227.793 8:227.36301 9:227.752 10:137.429 11:137.166 12:137.35699 13:228.104 14:228.77699 15:227.80901 16:138.567 17:138.99899 18:138.12801 19:239.241 20:236.80901 21:235.46001 22:143.24001 23:142.35899 24:142.203 25:247.783 26:247.209 27:247.99001 28:148.358 29:147.86501 30:148.168 # frame 451
8.4501207039759622e-014 1:80.491997 2:1.71157 3:279.914 4:44.321602 5:13.4493 6:177.94099 7:229.12199 8:228.642 9:228.597 10:138.39999 11:138.101 12:137.974 13:229.30901 14:228.814 15:228.198 16:138.87199 17:138.687 18:138.524 19:237.217 20:237.008 21:237.369 22:142.806 23:142.87399 24:142.759 25:237.83501 26:238.901 27:239.158 28:143.88901 29:144.364 30:144.394 # frame 451
1.2048994845292661e-013 1:48.787601 2:61.186401 3:173.91 4:72.421204 5:77.740898 6:135.16499 7:219.76401 8:218.345 9:217.91499 10:132.77299 11:131.87601 12:131.91499 13:221.961 14:218.92 15:221.38 16:134.175 17:133.11301 18:133.94701 19:226.45 20:229.355 21:225.075 22:136.39999 23:137.778 24:135.662 25:232.377 26:235.311 27:235.67599 28:139.356 29:140.14101 30:140.57899 # frame 451
-8.1813891579012793e-012 1:170.33501 2:20.9807 3:102.726 4:137.923 5:47.562401 6:107.805 7:224.11301 8:222.09 9:226.00999 10:136.304 11:135.46899 12:136.851 13:226.526 14:225.424 15:225.36301 16:137.62801 17:137.52299 18:137.67 19:237.446 20:237.353 21:234.89 22:144.19701 23:143.955 24:142.91701 25:236.356 26:239.888 27:238.265 28:143.748 29:145.28999 30:144.49001 # frame 499
4.5926646369977174e-012 1:205.084 2:11.5014 3:88.431801 4:151.998 5:34.601101 6:99.928398 7:226.78101 8:225.97099 9:226.771 10:136.97501 11:136.662 12:136.96899 13:231.306 14:226.26401 15:227.804 16:140.30901 17:138.48 18:138.765 19:233.131 20:230.321 21:232.10201 22:141.888 23:140.681 24:141.686 25:237.242 26:236.597 27:237.96899 28:143.547 29:143.42999 30:144.215 # frame 499
-2.9179799675742668e-012 1:317.55399 2:11.8109 3:158.185 4:190.50301 5:36.1577 6:133.80299 7:232.509 8:231.504 9:230.82401 10:139.782 11:139.733 12:139.39101 13:226.06599 14:230.756 15:228.241 16:137.67101 17:139.713 18:138.806 19:234.35201 20:229.55299 21:232.563 22:142.02699 23:140.17101 24:141.05 25:240.347 26:241.46201 27:241.519 28:145.33299 29:145.67999 30:145.784 # frame 499
-3.423131588699289e-012 1:158.51601 2:9.2287502 3:85.360603 4:132.33099 5:30.8319 6:98.223396 7:223.95599 8:221.963 9:218.967 10:134.19299 11:133.41 12:132.468 13:226.17799 14:227.774 15:227.938 16:137.953 17:138.78 18:138.617 19:229.83099 20:232.91499 21:233.312 22:140.08299 23:141.147 24:141.411 25:237.73399 26:235.702 27:237.50301 28:143.99899 29:143.20799 30:143.782 # frame 499
9.6417366022797115e-013 1:384.38699 2:22.162399 3:153.326 4:208.729 5:41.116402 6:128.89999 7:205.093 8:206.991 9:203.286 10:127.302 11:128.08299 12:127.067 13:222.134 14:223.659 15:220.897 16:136.455 17:137.12601 18:135.79201 19:241.88499 20:240.45599 21:240.36501 22:144.896 23:144.19299 24:144.18401 25:248.047 26:251.229 27:249.886 28:148.161 29:149.53999 30:149.30499 # frame 499
-2.895987750743682e-013 1:379.56699 2:46.618301 3:82.115997 4:198.592 5:65.9785 6:87.060799 7:230.045 8:237.36501 9:229.39 10:139.12601 11:141.60001 12:138.414 13:220.08099 14:223.248 15:219.554 16:134.666 17:136.23 18:133.995 19:226.379 20:225.673 21:230.69299 22:139.933 23:139.783 24:141.707 25:226.532 26:222.392 27:230.715 28:139.58099 29:138.244 30:141.35699 # frame 499
4.133639130308245e-012 1:310.04001 2:10.9898 3:286.59 4:188.28 5:35.256199 6:180.53999 7:221.87801 8:223.76401 9:222.866 10:134.62 11:135.522 12:135.08299 13:213.662 14:218.455 15:215.603 16:132.048 17:133.82001 18:132.616 19:237.351 20:237.888 21:236.196 22:143.377 23:143.799 24:143.427 25:234.092 26:234.562 27:233.11501 28:143.397 29:143.245 30:142.505 # frame 569
-1.293971909081909e-012 1:292.776 2:14.9812 3:312.76901 4:182.98801 5:41.2742 6:188.774 7:223.276 8:225.157 9:223.32001 10:135.33099 11:135.967 12:135.082 13:217.65601 14:218.522 15:217.242 16:133.78 17:134.19501 18:133.601 19:228.741 20:230.45 21:230.55901 22:140.31 23:141.03 24:141.075 25:230.127 26:230.521 27:235.196 28:141.07201 29:141.765 30:143.354 # frame 569
-1.7593550710726695e-013 1:307.32901 2:3.4087601 3:232.50101 4:178.536 5:18.1842 6:162.40401 7:224.16 8:225.798 9:223.73599 10:136.078 11:136.666 12:135.76801 13:219.526 14:223.618 15:218.91299 16:134.93201 17:136.87601 18:134.978 19:237.73801 20:233.694 21:235.705 22:143.35201 23:141.935 24:142.519 25:242.01401 26:241.127 27:238.505 28:145.793 29:145.04401 30:144.40401 # frame 569
3.0385106640429791e-012 1:326.79599 2:6.4492002 3:248.492 4:192.83099 5:26.500601 6:167.69501 7:225.106 8:226.826 9:225.431 10:136.52901 11:136.77 12:136.59399 13:219.26801 14:222.117 15:223.362 16:135.314 17:135.929 18:136.843 19:234.007 20:232.882 21:233.867 22:141.313 23:141.207 24:141.711 25:244.112 26:244.047 27:244.679 28:146.73399 29:146.47 30:146.927 # frame 569
7.140942725827258e-013 1:177.442 2:3.88276 3:195.24899 4:122.568 5:17.5516 6:149.009 7:223.248 8:223.696 9:226.513 10:135.267 11:135.567 12:136.649 13:222.455 14:224.216 15:221.438 16:136.53799 17:136.70399 18:135.52 19:228.444 20:228.76199 21:229.75 22:139.47701 23:139.802 24:140.27499 25:238.998 26:237.179 27:240.313 28:144.64101 29:143.916 30:144.97 # frame 569
-3.1569142182631858e-013 1:310.77499 2:114.125 3:226.552 4:187.72701 5:93.856796 6:160.314 7:201.77499 8:199.95599 9:203.771 10:126.486 11:125.636 12:127.575 13:202.84 14:209.683 15:211.67599 16:127.551 17:130.306 18:131.483 19:237.04401 20:234.495 21:239.33 22:143.144 23:142.80701 24:144.51601 25:231.939 26:234.33 27:232.48199 28:142.194 29:143.19701 30:142.45399 # frame 569
-1.761497168566349e-013 1:310.84601 2:74.115402 3:36.946201 4:183.815 5:85.374298 6:53.821899 7:201.78799 8:199.627 9:202.075 10:123.265 11:122.283 12:123.258 13:202.39301 14:202.311 15:203.886 16:123.649 17:123.581 18:124.444 19:228.24699 20:224.541 21:225.744 22:137.157 23:135.55099 24:135.37601 25:195.491 26:192.62801 27:193.103 28:126.165 29:125.021 30:125.461 # frame 569
-7.8690009877794528e-012 1:231.855 2:10.7285 3:218.42101 4:160.83701 5:33.129299 6:157.634 7:225.758 8:228.82201 9:228.32401 10:135.804 11:136.631 12:136.614 13:219.93401 14:222.864 15:221.464 16:135.022 17:136.28999 18:135.83299 19:236.91 20:235.507 21:233.10899 22:142.979 23:142.73399 24:141.73 25:234.923 26:235.60699 27:235.63 28:143.16701 29:143.26401 30:143.112 # frame 612
-7.5614838320156639e-013 1:360.89001 2:3.25247 3:302.952 4:202.237 5:18.797199 6:185.96201 7:206.377 8:209.313 9:207.98599 10:127.762 11:129.138 12:128.547 13:211.058 14:209.494 15:210.976 16:129.767 17:129.401 18:129.94501 19:247.651 20:246.909 21:249.246 22:147.237 23:147.11501 24:147.698 25:236.561 26:230.959 27:230.472 28:143.655 29:142.091 30:141.782 # frame 612
-1.9074681043174994e-013 1:142.311 2:2.4395101 3:178.789 4:123.435 5:15.1201 6:142.742 7:208.224 8:206.339 9:205.729 10:127.197 11:126.137 12:126.054 13:218.40601 14:217.006 15:216.44701 16:133.89999 17:133.339 18:133.446 19:237.64 20:242.78799 21:242.38 22:143.64101 23:146.159 24:145.345 25:236.158 26:237.90199 27:236.528 28:143.319 29:144.086 30:143.616 # frame 612
-5.0377682733928257e-012 1:309.474 2:6.0427799 3:272.58499 4:187.716 5:25.2369 6:175.093 7:205.995 8:204.72 9:204.495 10:127.659 11:126.916 12:127.173 13:214.367 14:215.308 15:215.597 16:131.248 17:131.82899 18:131.674 19:241.597 20:241.571 21:240.882 22:145.91 23:146.162 24:145.653 25:226.105 26:228.25999 27:228.099 28:139.617 29:139.99001 30:139.808 # frame 620
-4.1166340653549294e-012 1:320.01401 2:3.7871399 3:318.98599 4:186.492 5:20.0371 6:186.226 7:196.077 8:194.838 9:194.245 10:122.689 11:122.075 12:121.811 13:195.054 14:193.69701 15:190.767 16:120.675 17:120.065 18:118.546 19:242.673 20:245.297 21:244.701 22:141.86301 23:142.952 24:142.91901 25:201.034 26:203.339 27:204.228 28:128.168 29:129.265 30:129.493 # frame 620
7.1395865068230367e-012 1:330.67599 2:6.4569101 3:228.424 4:194.383 5:26.693899 6:161.082 7:218.88699 8:216.729 9:217.974 10:134.62 11:133.52499 12:134.263 13:223.967 14:223.54401 15:226.028 16:135.821 17:135.67999 18:136.679 19:242.35699 20:241.077 21:241.431 22:145.01601 23:145.339 24:145.33501 25:226.08701 26:227.14799 27:227.52 28:140.033 29:140.26401 30:140.492 # frame 632
2.5639921974315476e-012 1:148.373 2:4.1004601 3:195.617 4:124.347 5:20.059299 6:149.311 7:205.40401 8:208.33501 9:207.22501 10:125.273 11:126.269 12:125.843 13:213.61099 14:220.189 15:221.556 16:132.157 17:134.858 18:135.31799 19:239.521 20:240.35699 21:241.558 22:143.867 23:144.29401 24:144.76601 25:237.83099 26:235.62199 27:235.914 28:143.91701 29:142.998 30:142.774 # frame 632
-8.8442398900661201e-012 1:343.07401 2:5.02565 3:258.51199 4:198.02901 5:23.600401 6:170.92799 7:205.88699 8:198.82201 9:203.149 10:128.386 11:125.493 12:127.311 13:214.12399 14:215.487 15:216.45799 16:132.12199 17:132.77499 18:132.98599 19:245.938 20:248.77699 21:246.584 22:145.202 23:146.67101 24:145.399 25:224.565 26:226.692 27:226.255 28:139.466 29:140.05299 30:140.153 # frame 632
-1.5174608237519599e-012 1:369.776 2:2.0541799 3:302.13501 4:199.78999 5:14.1864 6:180.599 7:197.239 8:196.58299 9:195.897 10:121.978 11:121.413 12:121.496 13:203.754 14:202.47301 15:201.241 16:125.711 17:125.054 18:124.587 19:230.899 20:233.19501 21:236.129 22:138.74899 23:139.735 24:141.19701 25:236.741 26:237.604 27:239.155 28:141.22 29:141.50999 30:142.373 # frame 632
-8.4554054703433593e-013 1:351.04001 2:2.3147399 3:310.263 4:200.28 5:15.9135 6:188.03799 7:223.158 8:223.556 9:222.92101 10:136.425 11:136.533 12:136.14 13:224.508 14:226.353 15:225.91299 16:136.651 17:137.681 18:137.403 19:234.771 20:234.69 21:234.745 22:141.98801 23:142.06599 24:141.731 25:226.528 26:227.2 27:229.60899 28:139.965 29:140.72099 30:141.597 # frame 659
3.0496183742104864e-012 1:378.94299 2:3.7334599 3:187.759 4:192.265 5:15.4188 6:141.811 7:177.562 8:177.619 9:177.15199 10:115.386 11:115.366 12:115.118 13:184.507 14:183.548 15:184.218 16:115.093 17:114.238 18:114.824 19:233.939 20:235.52901 21:234.149 22:140.04401 23:140.87 24:139.79601 25:200.612 26:199.048 27:198.964 28:129.349 29:128.79401 30:128.791 # frame 659
1.7537585623474619e-012 1:328.91501 2:5.52244 3:310.88 4:193.86 5:23.1063 6:188.024 7:224.095 8:220.698 9:215.88901 10:136.953 11:135.481 12:133.536 13:220.205 14:220.40601 15:219.612 16:135.04401 17:134.978 18:134.75 19:237.71001 20:238.858 21:238.37399 22:142.196 23:143.076 24:142.644 25:236.015 26:239.97099 27:240.85001 28:143.733 29:145.506 30:145.681 # frame 659
-8.0747855677364944e-013 1:223.24699 2:8.1266098 3:169.66901 4:114.403 5:27.932699 6:135.058 7:220.02499 8:216.72 9:213.45799 10:133.494 11:132.125 12:131.08299 13:225.668 14:219.688 15:221.332 16:137.272 17:134.731 18:135.47701 19:243.339 20:249.55901 21:247.69 22:146.39999 23:148.83 24:147.933 25:228.618 26:235.73399 27:238.995 28:140.662 29:143.52499 30:144.836 # frame 659
-2.3840744715987897e-012 1:264.16599 2:14.3423 3:263.43399 4:172.183 5:38.8624 6:171.36099 7:218.36301 8:222.25 9:223.257 10:133.189 11:134.936 12:135.285 13:219.067 14:224.97099 15:219.94299 16:135.07401 17:137.38901 18:135.36099 19:233.03799 20:230.033 21:229.86501 22:141.17799 23:140.071 24:139.998 25:242.43201 26:240.789 27:242.66901 28:145.884 29:145.254 30:146.25 # frame 659
1.7233186877840334e-013 1:506.81601 2:3.9442501 3:116.798 4:238.356 5:20.5791 6:115.016 7:218.34801 8:218.21899 9:216.769 10:132.168 11:132.118 12:131.57401 13:225.756 14:228.56799 15:225.91299 16:137.545 17:139.23599 18:137.855 19:239.696 20:238.881 21:238.261 22:144.604 23:144.013 24:143.755 25:234.95599 26:237.77299 27:235.588 28:143.521 29:144.519 30:143.69501 # frame 659
2.0264804404665253e-012 1:46.520199 2:34.908798 3:278.76999 4:72.801003 5:62.967499 6:178.28799 7:215.92599 8:219.06599 9:214.27901 10:131.131 11:132.289 12:130.47099 13:220.453 14:221.33299 15:219.37601 16:133.994 17:134.778 18:133.918 19:248.179 20:253.084 21:253.45399 22:146.57401 23:147.466 24:147.94299 25:226.34 26:224.338 27:221.619 28:139.87399 29:139.181 30:138.49899 # frame 686
-3.7572465040739872e-013 1:410.56299 2:2.45524 3:294.75201 4:216.392 5:16.329901 6:183.25301 7:207.45399 8:204.687 9:205.42799 10:130.49699 11:129.12801 12:129.414 13:225.69 14:221.58701 15:222.83099 16:137.089 17:135.35899 18:136.022 19:235.737 20:232.448 21:234.168 22:141.94501 23:141.125 24:141.491 25:216.321 26:215.367 27:215.972 28:136.91701 29:136.687 30:137.13699 # frame 686
-5.2165467089612718e-012 1:409.81201 2:4.01017 3:255.88901 4:216.46001 5:21.073099 6:170.394 7:211.134 8:210.21201 9:209.508 10:130.662 11:130.11301 12:129.968 13:209.228 14:208.19501 15:209.784 16:129.659 17:128.782 18:129.644 19:241.71201 20:239.317 21:242.427 22:144.959 23:145.091 24:146.092 25:230.23801 26:231.69299 27:231.181 28:142.076 29:142.431 30:142.151 # frame 686
-2.3017652292714604e-012 1:247.48801 2:8.01406 3:227.672 4:146.319 5:23.422899 6:160.05099 7:227.297 8:228.459 9:227.599 10:137.12601 11:137.62601 12:137.448 13:229.034 14:223.55299 15:225.44901 16:138.98 17:136.65601 18:137.155 19:235.558 20:233.375 21:238.16299 22:142.533 23:141.576 24:143.384 25:238.632 26:240.058 27:240.758 28:144.28799 29:145.32899 30:145.282 # frame 686
3.2341982698605579e-012 1:386.34698 2:1.24547 3:243.713 4:202.64999 5:11.013 6:165.733 7:209.812 8:210.692 9:211.51601 10:129.681 11:129.993 12:130.341 13:217.095 14:213.33 15:218.045 16:133.229 17:131.467 18:133.54601 19:238.66299 20:239.65401 21:241.67101 22:143.283 23:144.153 24:144.435 25:226.004 26:229.21001 27:224.64799 28:140.03799 29:141.205 30:139.461 # frame 686
-1.0744905524622771e-012 1:53.521801 2:41.422699 3:209.354 4:78.133598 5:68.046898 6:154.495 7:220.185 8:222.433 9:221.261 10:132.864 11:133.30099 12:133.127 13:221.87399 14:222.883 15:223.509 16:136.373 17:136.118 18:136.83099 19:237.52499 20:238.252 21:244.235 22:143.62 23:143.897 24:145.74001 25:236.664 26:238.96201 27:234.73801 28:143.62 29:144.494 30:142.468 # frame 702
1.4148240152217046e-012 1:425.40601 2:1.56265 3:261.254 4:220.50999 5:12.9824 6:172.49699 7:205.396 8:206.045 9:204.222 10:128.49001 11:128.517 12:127.838 13:207.533 14:210.53 15:208.01801 16:129.276 17:130.509 18:129.239 19:242.931 20:243.765 21:242.623 22:143.71001 23:144.017 24:143.334 25:227.528 26:224.81799 27:227.49899 28:141.05901 29:139.92 30:140.86301 # frame 702
-1.6772969844203498e-012 1:48.349499 2:41.8895 3:189.02699 4:74.127403 5:66.929703 6:146.718 7:210.213 8:208.754 9:208.495 10:127.233 11:126.466 12:126.454 13:226.936 14:225.42999 15:225.715 16:138.69299 17:137.55499 18:137.681 19:242.332 20:243.258 21:242.18401 22:144.8 23:145.063 24:144.82401 25:237.21201 26:237.658 27:235.44901 28:144.19 29:144.00101 30:143.01801 # frame 702
-2.2725836363213533e-012 1:42.303699 2:24.714899 3:179.48 4:58.702 5:48.348499 6:142.94 7:209.097 8:207.31599 9:205.758 10:128.409 11:127.534 12:127.068 13:223.23199 14:217.616 15:215.814 16:136.351 17:133.70399 18:133.298 19:243.117 20:244.30499 21:244.62 22:145.686 23:146.23399 24:146.145 25:238.233 26:244.04401 27:237.92599 28:144.661 29:146.55701 30:144.054 # frame 702
4.7964536639402821e-012 1:410.62799 2:2.4326501 3:236.674 4:214.595 5:15.7417 6:163.519 7:210.162 8:211.685 9:211.593 10:130.168 11:130.646 12:130.608 13:215.18401 14:214.394 15:216.61301 16:132.58501 17:131.92599 18:133.108 19:244.11099 20:240.047 21:241.323 22:145.528 23:144.64301 24:144.883 25:230.01401 26:230.105 27:231.38 28:141.96001 29:141.914 30:142.353 # frame 702
-9.7195033147260943e-013 1:59.1367 2:35.078899 3:190.022 4:81.887199 5:61.7939 6:147.04201 7:219.993 8:221.823 9:217.995 10:133.924 11:134.618 12:133.409 13:221.754 14:219.96899 15:220.19299 16:136.255 17:135.282 18:135.25101 19:232.66 20:235.131 21:233.547 22:141.433 23:142.446 24:141.924 25:238.108 26:238.52901 27:237.312 28:144.106 29:144.172 30:143.709 # frame 739
3.8464758119506309e-012 1:426.431 2:0.79301298 3:337.56 4:219.53 5:8.9825001 6:195.36099 7:226.81599 8:226.76801 9:227.51199 10:138.187 11:138.088 12:138.381 13:224.088 14:226.783 15:223.90199 16:137.47 17:138.231 18:137.408 19:235.08501 20:236.59599 21:235.18401 22:141.604 23:142.14101 24:141.435 25:246.931 26:245.957 27:246.384 28:147.362 29:147.039 30:147.09399 # frame 739
-2.6744765012475173e-012 1:57.2057 2:28.2742 3:156.474 4:80.282799 5:54.6492 6:133.239 7:217.205 8:216.215 9:215.37601 10:131.84801 11:131.396 12:131.078 13:227.873 14:228.203 15:228.189 16:138.995 17:138.757 18:138.515 19:232.785 20:235.87801 21:234.552 22:141.065 23:142.286 24:141.659 25:234.7 26:239.52 27:243.875 28:142.868 29:144.786 30:146.465 # frame 739
3.9625097971749267e-012 1:355.00101 2:1.14656 3:249.28 4:199.17 5:10.8225 6:167.681 7:204.468 8:206.075 9:206.105 10:128.25101 11:128.72701 12:128.855 13:213.297 14:215.832 15:216.12601 16:131.51401 17:132.55099 18:132.589 19:245.479 20:244.188 21:242.2 22:145.256 23:144.623 24:143.758 25:227.61301 26:230.388 27:233.16499 28:140.927 29:141.907 30:143.201 # frame 739
1.5437965050823386e-012 1:447.289 2:6.2753301 3:240.549 4:218.72099 5:24.0114 6:161.22301 7:197.843 8:198.04401 9:195.502 10:122.76 11:122.9 12:121.739 13:195.875 14:194.70399 15:195.929 16:121.747 17:121.41 18:122.205 19:235.187 20:233.444 21:234.42999 22:140.37 23:139.804 24:139.877 25:217.37801 26:217.92101 27:215.577 28:134.73199 29:134.272 30:134.158 # frame 739
-3.4302156040622268e-012 1:55.9417 2:51.723301 3:189.713 4:79.8936 5:76.4067 6:147.034 7:225.918 8:221.65401 9:219.948 10:136.561 11:134.717 12:134.33701 13:222.995 14:218.701 15:218.59599 16:136.07899 17:133.952 18:133.994 19:237.39301 20:240.61099 21:239.158 22:143.636 23:144.892 24:144.508 25:231.53799 26:234.019 27:228.77299 28:142.077 29:142.86099 30:140.744 # frame 757
-4.3776727663560905e-012 1:431.90399 2:1.17105 3:278.89301 4:219.955 5:10.4518 6:177.017 7:217.694 8:218.718 9:221.877 10:132.46899 11:132.845 12:134.01801 13:216.70399 14:217.12801 15:219.48199 16:133.526 17:133.94901 18:134.832 19:241.02299 20:242.812 21:241.37 22:144.336 23:144.916 24:144.41499 25:237.338 26:236.849 27:235.717 28:143.98599 29:143.983 30:143.772 # frame 757
7.6837068954338923e-012 1:53.460999 2:42.8997 3:149.375 4:77.976997 5:68.3508 6:130.364 7:217.15601 8:214.16901 9:212.96899 10:130.79401 11:129.558 12:129.278 13:226.11501 14:221.423 15:220.453 16:138.022 17:135.632 18:135.756 19:235.754 20:234.377 21:235.92999 22:142.711 23:142.524 24:142.783 25:235.742 26:239.377 27:232.439 28:143.274 29:144.763 30:142.08501 # frame 757
1.5787813455948632e-012 1:379.866 2:0.91566497 3:300.45099 4:208.283 5:9.8254995 6:184.858 7:224.881 8:226.408 9:226.74001 10:135.407 11:135.83099 12:135.95399 13:229.521 14:230.285 15:229.13 16:138.93401 17:139.287 18:138.93401 19:240.86301 20:241.888 21:243.54201 22:143.515 23:143.90199 24:144.282 25:242.465 26:242.616 27:242.64301 28:146.183 29:146.03999 30:146.23399 # frame 757
-6.2592461141600055e-012 1:380.74301 2:2.22405 3:141.911 4:201.778 5:14.6718 6:123.838 7:195.97099 8:196.119 9:200.11301 10:121.755 11:121.392 12:123.311 13:207.673 14:207.373 15:208.666 16:127.08 17:127.194 18:127.713 19:232.88901 20:230.92101 21:231.01601 22:139.632 23:138.85001 24:138.521 25:216.666 26:217.226 27:218.46201 28:133.77299 29:134.3 30:134.619 # frame 757
2.774072734525276e-012 1:428.43399 2:0.611027 3:320.633 4:217.12399 5:7.6522999 6:190.83099 7:222.54401 8:224.88699 9:222.786 10:135.62601 11:136.17 12:135.638 13:216.354 14:217.51801 15:217.101 16:133.916 17:134.298 18:134.522 19:232.586 20:232.35899 21:234.392 22:140.00101 23:140.263 24:141.043 25:243.826 26:244.22301 27:245.32401 28:146.562 29:146.798 30:147.26801 # frame 771
2.8353504073190042e-012 1:415.52301 2:1.1592799 3:240.69701 4:212.774 5:10.645 6:164.92799 7:219.62399 8:221.319 9:220.58501 10:134.036 11:134.68401 12:134.284 13:218.597 14:221.29201 15:220.965 16:134.157 17:135.36 18:135.317 19:237.011 20:237.80499 21:238.47701 22:142.811 23:142.96899 24:143.38901 25:235.42999 26:232.923 27:236.10201 28:143.481 29:142.44099 30:143.38499 # frame 771
3.8572762863495624e-012 1:58.287701 2:21.1714 3:124.154 4:78.110397 5:46.752998 6:118.545 7:218.903 8:215.38699 9:216.7 10:132.425 11:131.10001 12:131.261 13:231.317 14:227.838 15:230.83701 16:140.56799 17:138.916 18:140.513 19:240.015 20:241.73599 21:239.086 22:144.283 23:144.679 24:143.673 25:237.52499 26:235.992 27:240.647 28:144.36099 29:143.84399 30:145.619 # frame 771
-1.4494887755399947e-012 1:504.82501 2:0.40517101 3:266.54401 4:239.48599 5:6.3975 6:173.737 7:216.834 8:218.32401 9:216.98599 10:132.65601 11:133.29201 12:132.658 13:224.11 14:224.894 15:223.84 16:137.10699 17:137.649 18:137.05901 19:240.577 20:243.396 21:243.377 22:143.576 23:144.797 24:144.547 25:243.881 26:243.03101 27:244.532 28:146.532 29:146.354 30:146.795 # frame 771
3.3472675538982146e-012 1:55.118401 2:16.4307 3:96.224297 4:78.546204 5:41.533401 6:104.414 7:201.319 8:201.97 9:201.088 10:123.798 11:123.816 12:123.164 13:223.035 14:220.03101 15:220.702 16:137.03 17:135.599 18:135.873 19:244.87199 20:249.526 21:248.185 22:146.358 23:147.994 24:147.561 25:240.327 26:238.565 27:239.511 28:145.384 29:144.709 30:145.02299 # frame 771
3.1435346597921632e-012 1:261.21301 2:4.8737998 3:261.25101 4:159.508 5:16.4041 6:169.85699 7:213.937 8:218.02901 9:214.836 10:131.48399 11:133.033 12:131.495 13:224.493 14:225.30299 15:222.59801 16:137.588 17:137.70799 18:136.55701 19:232.53799 20:236.138 21:232.75101 22:141.588 23:142.70799 24:141.23801 25:247.23801 26:241.867 27:245.392 28:147.86 29:145.793 30:147.14 # frame 788
6.0090169968957172e-012 1:377.28201 2:0.81900603 3:212.924 4:201.58299 5:8.8437996 6:155.79201 7:207.98399 8:208.16 9:208.282 10:129.65401 11:129.819 12:129.705 13:206.782 14:206.40199 15:208.601 16:128.575 17:128.336 18:129.44901 19:239.97301 20:239.168 21:238.71899 22:144.698 23:144.315 24:143.933 25:228.145 26:226.42999 27:226.22099 28:141.009 29:140.192 30:140.327 # frame 788
-3.8899510470870922e-012 1:79.921303 2:14.1412 3:97.290199 4:91.952797 5:37.320202 6:104.83 7:227.548 8:230.36099 9:226.06599 10:136.83299 11:137.485 12:136.15401 13:231.95399 14:230.856 15:230.907 16:140.26601 17:140.129 18:140.17599 19:229.88699 20:231.90601 21:233.261 22:140.815 23:141.43201 24:141.657 25:238.73 26:237.437 27:237.283 28:144.761 29:143.968 30:143.75101 # frame 788
-5.0942824674258777e-012 1:387.815 2:0.22622 3:241.004 4:187.653 5:4.5994 6:165.439 7:233.80099 8:232.944 9:232.52499 10:139.98599 11:139.507 12:139.37199 13:226.41901 14:227.437 15:228.595 16:137.90601 17:138.286 18:138.7 19:234.218 20:234.132 21:234.202 22:141.091 23:141.17599 24:141.172 25:243.30701 26:244.326 27:243.39999 28:146.323 29:146.58099 30:146.27299 # frame 788
-5.6647907582961168e-012 1:96.9664 2:11.0011 3:83.195503 4:95.063004 5:31.77 6:96.922897 7:217.90601 8:220.23599 9:217.382 10:131.183 11:131.944 12:130.91499 13:225.086 14:226.27499 15:227.01401 16:138.159 17:138.438 18:138.69701 19:234.996 20:232.97501 21:234.632 22:142.24001 23:141.395 24:142.35899 25:239.78 26:238.386 27:238.146 28:145.19901 29:144.481 30:144.34599 # frame 788
1.7220290271601766e-012 1:372.05399 2:0.98027599 3:222.842 4:203.18401 5:9.7508001 6:157.87601 7:231.10899 8:232.491 9:232.312 10:138.571 11:139.043 12:138.797 13:230.698 14:229.358 15:227.407 16:139.70799 17:139.34599 18:138.717 19:241.173 20:240.22501 21:239.175 22:143.937 23:143.789 24:143.08 25:239.797 26:240.696 27:239.823 28:145.02699 29:145.414 30:145.032 # frame 788
2.3613090819964584e-012 1:369.31699 2:6.84092 3:209.047 4:203.70399 5:21.1318 6:153.345 7:175.97 8:175.85201 9:179.838 10:114.882 11:114.808 12:116.453 13:184.66299 14:184.80299 15:184.631 16:117.617 17:117.215 18:117.5 19:258.50201 20:255.925 21:260.10699 22:150.558 23:150.146 24:151.30901 25:222.07001 26:222.509 27:220.103 28:139.66901 29:140.18201 30:138.769 # frame 854
1.7605657406677407e-012 1:67.576202 2:22.7981 3:112.601 4:87.455002 5:49.327801 6:112.794 7:230.647 8:229.38901 9:226.228 10:139.205 11:138.41 12:137.311 13:231.74699 14:229.55299 15:232.424 16:140.442 17:139.789 18:140.666 19:229.172 20:229.21899 21:230.086 22:140.02499 23:139.549 24:140.349 25:241.493 26:237.758 27:240.98599 28:145.733 29:144.22701 30:145.252 # frame 854
-3.1869608482079545e-012 1:456.11899 2:0.70461297 3:258.38 4:225.49001 5:8.0577002 6:169.84801 7:231.258 8:234.278 9:231.405 10:140.30299 11:141.575 12:140.138 13:235.40199 14:236.43201 15:235.12 16:141.694 17:142.267 18:141.629 19:236.7 20:236.08299 21:235.33701 22:141.925 23:142.078 24:141.59801 25:244.11099 26:244.05901 27:245.89301 28:146.298 29:146.567 30:146.856 # frame 854
-5.3079278934796519e-012 1:359.798 2:2.3597801 3:210.455 4:196.078 5:15.6117 6:150.189 7:214.119 8:214.375 9:213.194 10:129.519 11:129.77499 12:129.149 13:210.606 14:213.07899 15:210.49001 16:128.20399 17:129.293 18:128.106 19:223.842 20:220.89999 21:220.366 22:135.998 23:135.157 24:134.94701 25:220.424 26:222.02 27:223.84599 28:134.97701 29:135.601 30:136.07899 # frame 854
3.1932309972205099e-012 1:228.492 2:10.8014 3:297.642 4:155.334 5:32.555099 6:181.19501 7:191.084 8:196.396 9:189.64301 10:121.375 11:123.133 12:120.729 13:206.533 14:209.14799 15:206.54201 16:129.284 17:129.868 18:128.96201 19:238.59801 20:239.186 21:240.797 22:143.95399 23:144.347 24:144.563 25:234.77299 26:232.323 27:231.51801 28:143.701 29:141.92101 30:141.83299 # frame 875
-2.3817674987099517e-012 1:274.09698 2:1.4637001 3:273.90799 4:164.95799 5:8.6127996 6:175.674 7:219.82001 8:215.29601 9:217.06799 10:133.936 11:131.959 12:132.76601 13:223.674 14:218.776 15:220.909 16:135.66299 17:133.48 18:134.513 19:236.07899 20:236.308 21:239.442 22:143.19701 23:143.29201 24:144.27499 25:224.924 26:233.384 27:228.16499 28:139.386 29:142.63901 30:140.437 # frame 875
-6.2757073015962837e-013 1:7.71487 2:9.9020996 3:182.911 4:25.0802 5:32.793098 6:144.509 7:204.381 8:203.686 9:203.522 10:128.38699 11:127.872 12:128.12 13:211.78 14:206.66901 15:207.23399 16:130.576 17:128.16701 18:128.62399 19:240.936 20:239.339 21:238.242 22:145.342 23:144.853 24:144.479 25:226.01199 26:226.99899 27:223.912 28:140.2 29:140.008 30:138.651 # frame 892
5.0706299271216126e-012 1:63.097099 2:22.5693 3:123.242 4:79.841797 5:47.426899 6:118.313 7:220.83701 8:220.418 9:219.228 10:133.10699 11:132.746 12:132.157 13:224.899 14:226.948 15:226.69299 16:137.317 17:137.869 18:138.007 19:240.388 20:239.11501 21:236.313 22:144.767 23:144.278 24:143.38699 25:237.02299 26:235.674 27:236.733 28:143.91701 29:143.534 30:144.10001 # frame 892
-1.566230699439518e-012 1:430.72299 2:0.68683898 3:261.98001 4:212.185 5:7.0746999 6:171.78799 7:229.54201 8:228.668 9:227.81799 10:137.71899 11:137.37199 12:137.13901 13:221.839 14:221.508 15:221.845 16:136.222 17:135.828 18:136.166 19:235.72 20:233.453 21:234.381 22:142.43201 23:141.65401 24:141.661 25:233.88499 26:236.507 27:234.93401 28:142.92 29:143.845 30:143.446 # frame 892
-2.2717452425595798e-012 1:545.03003 2:2.2824399 3:279.07199 4:233.19901 5:14.422 6:177.761 7:195.34801 8:191.883 9:191.37801 10:125.269 11:123.772 12:123.844 13:194.651 14:194.972 15:194.933 16:122.219 17:122.114 18:122.133 19:245.246 20:244.976 21:245.28101 22:146.149 23:146.407 24:144.87601 25:210.103 26:216.144 27:213.255 28:135.30099 29:136.77901 30:135.931 # frame 1042
-3.8598890948976696e-012 1:39.9907 2:28.3412 3:126.8 4:66.940002 5:54.5144 6:119.829 7:218.035 8:216.82899 9:217.614 10:132.69099 11:132.02901 12:132.53 13:222.543 14:223.84801 15:226.929 16:136.547 17:136.72701 18:138.019 19:234.007 20:239.842 21:234.901 22:142.11301 23:144.703 24:142.774 25:238.28101 26:234.547 27:235.299 28:144.56599 29:142.99899 30:143.451 # frame 1042
8.0554461944954109e-012 1:490.918 2:0.503555 3:291.422 4:235.868 5:7.0798998 6:182.196 7:224.662 8:223.18401 9:222.968 10:135.168 11:134.657 12:134.42 13:220.216 14:219.07401 15:220.015 16:135.189 17:134.77901 18:135.164 19:243.342 20:240.759 21:242.83701 22:145.179 23:144.015 24:144.94299 25:243.07201 26:242.492 27:241.98 28:146.388 29:146.33299 30:145.97 # frame 1042
-3.2812830106433314e-012 1:43.468498 2:27.1131 3:106.817 4:68.641998 5:52.486301 6:109.958 7:208.36 8:204.509 9:204.65401 10:126.487 11:124.815 12:125.017 13:226.134 14:226.911 15:228.048 16:137.48199 17:137.996 18:138.461 19:243.75301 20:243.918 21:241.51801 22:145.93201 23:145.908 24:144.62801 25:234.47301 26:233.052 27:233.591 28:143.099 29:142.40601 30:142.593 # frame 1042
-8.6153986672848613e-012 1:412.246 2:0.49877501 3:249.77699 4:213.49699 5:6.8752999 6:167.78101 7:228.174 8:227.931 9:228.332 10:137.355 11:137.07401 12:137.198 13:229.20799 14:231.078 15:229.53999 16:138.972 17:139.965 18:138.94099 19:233.88 20:234.14301 21:235.32899 22:141.30499 23:141.604 24:141.85001 25:242.08 26:242.728 27:243.06 28:145.87601 29:146.16 30:146.03999 # frame 1042
-3.4043025051952837e-012 1:441.82901 2:0.76327199 3:127.748 4:208.11 5:8.3850002 6:117.635 7:191.243 8:192.356 9:190.328 10:119.854 11:119.99 12:119.27 13:200.576 14:201.44 15:202.08 16:124.082 17:124.752 18:124.742 19:231.81599 20:230.27699 21:230.53999 22:139.44701 23:138.625 24:138.83501 25:224.245 26:219.438 27:221.981 28:137.166 29:135.27499 30:136.27699 # frame 1042
-3.0972491917226269e-012 1:327.082 2:7.1044898 3:218.18401 4:181.07899 5:18.8957 6:154.842 7:209.382 8:217.42799 9:211.46899 10:128.86501 11:132.396 12:130.19701 13:214.71001 14:222.696 15:223.519 16:133.629 17:136.49699 18:136.909 19:236.912 20:237.866 21:236.979 22:143.03999 23:143.42999 24:143.091 25:249.27699 26:241.89 27:242.12199 28:148.853 29:145.87 30:146.14799 # frame 1062
-2.6323703052510468e-013 1:478.233 2:2.0907099 3:143.97501 4:232.996 5:14.5587 6:127.721 7:221.918 8:223.211 9:221.87601 10:134.45399 11:135.026 12:134.084 13:226.909 14:229.746 15:231.631 16:137.756 17:138.71001 18:139.485 19:238.741 20:235.33701 21:235.394 22:143.97301 23:142.886 24:142.98599 25:224.55 26:222.925 27:221.789 28:139.468 29:138.91299 30:138.27499 # frame 1062
2.0257644144530362e-012 1:280.60101 2:3.3080299 3:189.68401 4:166.774 5:15.3631 6:145.28101 7:193.763 8:197.841 9:192.70799 10:121.813 11:123.377 12:121.385 13:205.08701 14:211.841 15:210.519 16:129.414 17:131.452 18:131.075 19:250.009 20:248.899 21:250.634 22:148.045 23:147.502 24:148.161 25:247.752 26:242.763 27:240.063 28:148.20399 29:146.354 30:145.343 # frame 1062
-1.308146714042397e-012 1:469.423 2:0.35627699 3:321.50299 4:230.798 5:6.0538998 6:191.334 7:224.58701 8:225.633 9:223.57401 10:135.627 11:136.123 12:135.254 13:221.811 14:220.843 15:222.21001 16:136.045 17:135.86301 18:136.256 19:235.22 20:235.005 21:234.336 22:141.61099 23:141.347 24:141.00301 25:240.42599 26:241.37399 27:242.431 28:144.923 29:145.47 30:145.755 # frame 1117
-7.753827084014459e-013 1:519.474 2:1.19453 3:172.03799 4:227.57899 5:11.0527 6:140.11301 7:208.869 8:207.83099 9:209.834 10:129.757 11:129.55499 12:130.342 13:210.784 14:211.254 15:211.91299 16:129.696 17:129.724 18:130.15601 19:240.356 20:243.616 21:244.93201 22:145.261 23:146.33701 24:146.94501 25:223.429 26:223.02299 27:220.94 28:138.425 29:138.354 30:137.589 # frame 1117
1.0273293345241209e-012 1:473.94901 2:0.52339 3:294.07599 4:232.439 5:7.2993999 6:182.189 7:215.24699 8:214.12399 9:214.961 10:132.565 11:132.067 12:132.174 13:218.74001 14:220.328 15:220.524 16:134.87801 17:135.677 18:135.60201 19:237.937 20:238.17799 21:237.31799 22:142.129 23:142.326 24:141.955 25:241.98599 26:244.245 27:245.28 28:146.32899 29:147.214 30:147.507 # frame 1117
6.6197919993030962e-012 1:353.823 2:4.0124898 3:190.48599 4:196.15401 5:16.9636 6:146.56 7:219.924 8:221.299 9:218.052 10:134.657 11:135.41499 12:134.03101 13:217.595 14:219.871 15:218.14 16:133.683 17:134.65199 18:133.73199 19:240.979 20:236.95799 21:236.592 22:144.595 23:142.93201 24:142.946 25:226.89 26:223.386 27:223.931 28:139.75301 29:138.519 30:138.825 # frame 1145
7.4153448792116805e-013 1:44.3498 2:39.5513 3:179.306 4:66.854401 5:60.202801 6:142.54401 7:212.32201 8:224.13499 9:221.239 10:129.34 11:133.841 12:132.963 13:222.19901 14:223.20799 15:223.80299 16:136.584 17:136.431 18:136.808 19:238.64 20:234.41499 21:238.233 22:143.97701 23:141.93401 24:143.32001 25:241.74699 26:239.642 27:237.62801 28:145.375 29:144.873 30:143.909 # frame 1145
2.8210878523804614e-012 1:234.77 2:3.3117001 3:211.188 4:123.233 5:15.7854 6:152.894 7:231.509 8:228.62601 9:229.814 10:139.86099 11:138.702 12:139.263 13:224.83099 14:223.06599 15:220.189 16:137.09 17:136.255 18:135.201 19:231.39101 20:230.07401 21:232.353 22:140.80499 23:140.392 24:141.05499 25:239.541 26:238.92799 27:238.592 28:144.638 29:144.269 30:144.414 # frame 1145
6.4544481207129199e-012 1:447.078 2:1.39856 3:214.677 4:209.72701 5:11.6893 6:151.998 7:211.187 8:214.938 9:210.80099 10:128.675 11:130.01401 12:128.625 13:213.334 14:212.04601 15:210.60201 16:129.61301 17:128.87 18:128.377 19:218.798 20:217.005 21:220.73399 22:133.741 23:133.355 24:134.71899 25:220.408 26:221.08501 27:219.66701 28:134.83701 29:134.952 30:134.448 # frame 1145
2.2740868332261406e-015 1:43.134399 2:67.093498 3:147.09399 4:69.5308 5:83.622803 6:128.689 7:225.88 8:218.567 9:218.843 10:135.245 11:132.642 12:132.345 13:230.463 14:222.74001 15:225.356 16:139.911 17:136.64101 18:137.424 19:239.043 20:238.787 21:240.026 22:144.246 23:144.033 24:144.25 25:237.664 26:234.742 27:240.185 28:144.252 29:142.494 30:144.918 # frame 1192
-6.8638174824346891e-012 1:481.992 2:0.39752901 3:268.061 4:227.314 5:6.1869001 6:174.17999 7:227.58099 8:226.54201 9:228.21899 10:138.42799 11:137.946 12:138.554 13:223.57401 14:223.03999 15:223.396 16:136.918 17:136.59801 18:136.69299 19:236.16 20:236.55299 21:235.185 22:142.42101 23:142.60699 24:141.763 25:245.33701 26:248.09599 27:247.34399 28:147.146 29:147.98599 30:147.784 # frame 1192
-1.0222876327970987e-012 1:40.742699 2:48.628799 3:127.989 4:67.326401 5:70.760101 6:120.403 7:224.36501 8:223.674 9:221.065 10:133.879 11:133.451 12:132.298 13:227.362 14:221.132 15:226.558 16:138.601 17:135.52299 18:138.091 19:231.83299 20:232.50301 21:233.194 22:141.28 23:141.726 24:141.806 25:238.207 26:236.59599 27:233.819 28:144.27699 29:143.30099 30:142.29601 # frame 1192
3.536569279995675e-012 1:472.98999 2:0.57521302 3:294.716 4:229.364 5:7.4621 6:182.61 7:227.659 8:228.504 9:229.228 10:138.317 11:138.647 12:138.916 13:228.741 14:230.451 15:228.254 16:138.86501 17:139.681 18:138.60001 19:232.778 20:231.89799 21:233.487 22:140.58299 23:140.509 24:140.88499 25:242.41 26:241.86501 27:242.80701 28:145.198 29:145.117 30:145.465 # frame 1192
-1.3345128973830166e-012 1:21.521099 2:6.27106 3:222.231 4:29.58 5:25.532801 6:158.948 7:196.728 8:197.246 9:195.15601 10:124.056 11:124.107 12:123.345 13:212.97501 14:208.19299 15:209.14799 16:130.386 17:128.13 18:128.73399 19:262.78201 20:257.31201 21:260.29599 22:153.72501 23:151.34599 24:151.79401 25:225.73599 26:227.617 27:225.35001 28:140.04201 29:140.93201 30:140.28999 # frame 1192
3.1534536502069064e-012 1:410.75699 2:0.684995 3:294.44699 4:215.104 5:8.2545004 6:182.907 7:233.29401 8:233.56599 9:233.224 10:140.02901 11:140.14101 12:139.70599 13:230.99001 14:231.674 15:232.674 16:139.85201 17:140.03799 18:140.354 19:235.651 20:235.92 21:234.653 22:141.66499 23:141.851 24:141.38499 25:241.224 26:241.21899 27:242.88699 28:145.24001 29:145.174 30:145.78101 # frame 1192
-4.4473787861001377e-013 1:366.78601 2:0.12693501 3:347.77301 4:193.386 5:3.5615001 6:199.24899 7:211.08501 8:208.94501 9:210.256 10:129.61301 11:128.78799 12:129.5 13:220.83 14:218.91 15:218.548 16:135.88901 17:134.752 18:134.71001 19:237.75301 20:236.23 21:235.76199 22:143.32401 23:142.82899 24:142.39301 25:216.789 26:218.052 27:215.923 28:135.95 29:136.513 30:135.993 # frame 1229
2.9130017395442975e-013 1:366.10001 2:35.324299 3:203.533 4:198.657 5:38.9016 6:149.79601 7:193.73399 8:189.244 9:194.569 10:122.47 11:120.425 12:123.056 13:218.496 14:222.22099 15:213.713 16:134.396 17:136.255 18:132.703 19:246.38499 20:245.291 21:237.864 22:147.722 23:147.064 24:144.371 25:228.097 26:231.80701 27:224.12 28:141.15601 29:142.681 30:139.722 # frame 1229
-1.6957433184781521e-012 1:456.39301 2:0.18128701 3:313.573 4:221.151 5:4.2283001 6:189.144 7:198.62 8:198.841 9:196.668 10:125.412 11:125.467 12:124.548 13:204.005 14:201.05701 15:203.25301 16:128.06599 17:126.737 18:127.441 19:244.662 20:250.73399 21:248.317 22:143.73399 23:146.10899 24:145.257 25:227.11 26:226.694 27:224.83299 28:140.59 29:140.534 30:139.80701 # frame 1229
4.2605946849281004e-013 1:459.95499 2:0.371681 3:245.272 4:211.201 5:5.3860998 6:167.31 7:196.61 8:198.94 9:197.064 10:123.797 11:124.678 12:124.03 13:209.72301 14:208.09801 15:208.85899 16:129.84801 17:129.161 18:129.55 19:254.504 20:256.11499 21:258.151 22:148.617 23:149.629 24:149.883 25:230.129 26:232.118 27:231.174 28:141.784 29:142.53 30:142.076 # frame 1229
-1.037880642755722e-012 1:320.642 2:1.08749 3:223.629 4:186.517 5:10.5894 6:155.79401 7:184.808 8:184.23399 9:186.716 10:117.669 11:117.385 12:118.375 13:195.091 14:194.3 15:195.16299 16:120.995 17:120.437 18:120.984 19:242.299 20:241.231 21:240.157 22:142.99001 23:142.649 24:142.41 25:216.96899 26:216.961 27:216.123 28:134.69099 29:134.73199 30:134.304 # frame 1229
9.5684450459570801e-013 1:484.362 2:0.65548599 3:231.62 4:223.02699 5:6.6166 6:162.584 7:206.341 8:205.603 9:205.196 10:127.875 11:127.808 12:127.476 13:207.16901 14:207.436 15:206.43201 16:129.105 17:129.00999 18:128.271 19:264.423 20:258.66199 21:260.91 22:152.795 23:150.69099 24:151.394 25:227.974 26:230.045 27:228.326 28:141.48801 29:142.06 30:141.578 # frame 1229
-7.5581206467302323e-013 1:63.3713 2:15.8032 3:344.056 4:75.497597 5:40.710602 6:197.76199 7:222.06599 8:226.619 9:226.02901 10:134.01601 11:135.944 12:135.44099 13:220.28799 14:229.78999 15:225.239 16:135.09399 17:138.62 18:136.561 19:239.62399 20:243.45599 21:243.549 22:143.614 23:144.416 24:144.509 25:228.952 26:225.933 27:225.078 28:141.131 29:139.67599 30:139.547 # frame 1270
-4.9987716852581995e-012 1:366.034 2:0.202719 3:257.94299 4:187.625 5:4.3558998 6:171.599 7:202.78101 8:205.353 9:202.992 10:128.539 11:129.8 12:128.664 13:201.01199 14:203.09 15:202.409 16:125.412 17:126.244 18:126.117 19:251.47099 20:253.54601 21:254.395 22:146.709 23:147.75 24:148.054 25:216.403 26:215.028 27:216.694 28:137.069 29:136.841 30:137.63699 # frame 1270
4.4758156255844549e-012 1:315.37299 2:15.6152 3:146.601 4:184.425 5:38.3106 6:120.068 7:206.992 8:207.123 9:210.73199 10:125.847 11:125.979 12:127.439 13:219.52499 14:223.136 15:221.08501 16:132.437 17:134.033 18:133.338 19:221.755 20:217.23599 21:219.481 22:133.772 23:132.59399 24:133.145 25:225.32401 26:224.70599 27:222.974 28:136.209 29:136.196 30:135.472 # frame 1270
6.7417992051793813e-013 1:409.35501 2:0.43073699 3:268.72 4:215.647 5:6.4900999 6:175.11301 7:205.711 8:201.685 9:204.03999 10:128.83 11:127.345 12:128.46001 13:203.286 14:204.03101 15:207.007 16:127.556 17:127.98 18:129.313 19:254.841 20:253.50999 21:256.474 22:147.854 23:147.549 24:148.993 25:220.879 26:225.533 27:221.972 28:138.552 29:140.319 30:139.22501 # frame 1270
-3.4771149987689787e-012 1:196.88499 2:0.40171501 3:186.039 4:140.248 5:6.2747002 6:145.433 7:198.02299 8:199.269 9:198.047 10:124.514 11:124.816 12:124.36 13:202.976 14:202.966 15:204.534 16:127.887 17:127.61 18:128.04401 19:260.30801 20:257.50299 21:258.776 22:150.92599 23:149.845 24:150.30499 25:228.448 26:230.582 27:225.427 28:141.23801 29:141.839 30:139.742 # frame 1270
3.9177731012701495e-012 1:346.03 2:2.5748701 3:290.547 4:198.703 5:16.936399 6:182.17799 7:205.558 8:201.78799 9:204.467 10:129.595 11:127.51 12:128.69299 13:201.769 14:200.877 15:201.627 16:126.69 17:126.274 18:126.634 19:258.28699 20:258.17999 21:257.42899 22:148.72701 23:149.226 24:148.92799 25:222.02 26:226.97501 27:225.24001 28:139.15401 29:141.26601 30:140.502 # frame 1270
-5.3100555596147568e-012 1:289.26099 2:7.4109602 3:231.271 4:180.049 5:20.195 6:159.815 7:214.867 8:218.422 9:216.194 10:133.817 11:135.233 12:134.466 13:219.265 14:218.35899 15:219.097 16:134.338 17:133.951 18:134.132 19:236.32401 20:235.10001 21:233.864 22:142.034 23:141.144 24:140.735 25:218.032 26:215.188 27:214.106 28:137.037 29:136.39301 30:136.022 # frame 1316
-3.2240598250168104e-012 1:180.457 2:3.7404301 3:277.362 4:101.08 5:18.750999 6:177.8 7:209.22 8:215.93401 9:212.69299 10:127.186 11:129.84 12:128.478 13:210.66499 14:216.388 15:216.916 16:131.306 17:133.634 18:133.74001 19:238.282 20:237.229 21:237.183 22:142.459 23:141.35699 24:141.209 25:241.879 26:234.52299 27:234.306 28:145.74699 29:143.38499 30:142.935 # frame 1316
-6.8086535456291891e-012 1:440.97501 2:0.20933101 3:270.034 4:222.498 5:4.5932999 6:175.66299 7:207.44501 8:205.62199 9:205.86501 10:129.645 11:128.979 12:128.992 13:205.97701 14:204.67999 15:205.94 16:127.947 17:127.414 18:128.035 19:254.12199 20:255.205 21:254.43401 22:147.73 23:148.332 24:147.86501 25:216.866 26:216.196 27:218.36099 28:137.216 29:136.998 30:137.769 # frame 1316
5.2345211473618424e-012 1:304.01199 2:5.6312399 3:117.593 4:181.136 5:23.7423 6:112.067 7:215.256 8:215.576 9:214.75301 10:129.81 11:129.69701 12:129.601 13:205.98599 14:209.01601 15:210.12601 16:126.699 17:127.733 18:128.312 19:218.702 20:221.25 21:220.32001 22:134.336 23:135.347 24:134.981 25:220.44901 26:220.68401 27:224.85699 28:134.55499 29:134.772 30:136.709 # frame 1316
2.4738531221225292e-012 1:338.47 2:0.73814398 3:279.15201 4:196.27699 5:8.8870001 6:178.631 7:197.929 8:195.88499 9:197.832 10:126.02 11:125.181 12:126.044 13:195.55299 14:196.26199 15:195.065 16:123.549 17:123.89 18:123.222 19:268.547 20:271.26901 21:268.20499 22:152.207 23:153.158 24:151.892 25:212.043 26:214.827 27:212.41701 28:135.48599 29:136.763 30:136.024 # frame 1316
-3.250711296165374e-012 1:160.68201 2:32.248501 3:302.164 4:104.515 5:49.176201 6:184.593 7:226.132 8:231.241 9:227.286 10:137.276 11:139.211 12:137.746 13:225.42101 14:226.16499 15:224.368 16:137.12399 17:137.59399 18:137.036 19:232.382 20:235.14 21:237.30099 22:141.789 23:141.933 24:143.162 25:230.44701 26:230.205 27:232.099 28:141.255 29:141.42799 30:141.85699 # frame 1352
7.3091552211486357e-014 1:393.40201 2:3.11257 3:227.095 4:205.328 5:17.528601 6:159.858 7:224.614 8:225.401 9:223.745 10:137.46001 11:137.511 12:137.002 13:228.118 14:228.487 15:232.375 16:137.895 17:138.166 18:139.446 19:233.70799 20:238.095 21:235.84599 22:141.246 23:143.11301 24:142.17999 25:231.616 26:231.77499 27:231.66901 28:142.153 29:142.078 30:141.798 # frame 1352
3.7659085793440533e-012 1:358.71301 2:2.51192 3:272.633 4:173.541 5:13.9625 6:175.55499 7:217.85001 8:219.265 9:220.041 10:131.94901 11:132.30701 12:132.62399 13:225.632 14:224.70799 15:225.799 16:137.849 17:137.56599 18:137.52901 19:237.627 20:237.522 21:238.383 22:142.88499 23:142.688 24:142.687 25:246.151 26:245.06799 27:244.632 28:147.47501 29:146.875 30:146.728 # frame 1352
-4.3342860453400072e-012 1:5.3843598 2:1.44788 3:253.38699 4:19.756399 5:12.6251 6:170.159 7:210.54401 8:206.86501 9:206.937 10:131.12199 11:129.36501 12:129.582 13:205.62199 14:207.166 15:207.97701 16:128.077 17:128.783 18:129.153 19:245.42 20:250.78999 21:249.51801 22:145.698 23:147.052 24:145.619 25:225.877 26:225.66901 27:224.099 28:140.397 29:140.287 30:139.72701 # frame 1352
1.8659816471238339e-013 1:304.82101 2:148.871 3:211.136 4:179.17599 5:97.502403 6:146.033 7:204.11 8:205.881 9:205.62601 10:124.816 11:125.525 12:125.664 13:209.132 14:211.83099 15:211.94099 16:128.808 17:129.853 18:129.90601 19:218.521 20:218.89 21:217.37199 22:133.19 23:133.38 24:132.813 25:228.88499 26:227.15601 27:226.627 28:137.881 29:137.254 30:137.313 # frame 1352
-2.7075434887612909e-012 1:289.155 2:12.6859 3:249.96001 4:176.287 5:34.266499 6:160.362 7:204.38499 8:204.20599 9:207.62199 10:124.967 11:124.738 12:125.994 13:226.72501 14:224.263 15:223.944 16:135.45 17:134.27 18:134.717 19:227.14101 20:226.31799 21:225.26199 22:137.056 23:136.901 24:136.145 25:222.737 26:219.85001 27:220.783 28:135.95399 29:134.689 30:135.20399 # frame 1368
2.779277465790915e-013 1:4.8058901 2:0.62899297 3:324.409 4:19.3808 5:8.2693005 6:192.576 7:215.37399 8:214.283 9:215.54201 10:134.39999 11:133.853 12:134.487 13:208.47301 14:207.18401 15:208.108 16:128.89999 17:128.35201 18:128.808 19:240.259 20:242.737 21:240.769 22:143.563 23:144.433 24:143.373 25:220.485 26:220.48399 27:222.394 28:138.533 29:138.56599 30:139.076 # frame 1368
-9.1817807618417683e-013 1:477.80801 2:17.210699 3:124.901 4:232 5:41.983501 6:117.51 7:209.90601 8:214.258 9:204.73801 10:128.80099 11:129.92999 12:126.999 13:222.213 14:229.091 15:220.341 16:136.138 17:139.25301 18:136.06 19:243.04201 20:242.284 21:243.74699 22:145.616 23:145.511 24:145.619 25:241.274 26:245.936 27:242.97301 28:146.022 29:147.767 30:146.528 # frame 1368
3.1471685945537223e-013 1:129.69901 2:21.5378 3:438.91599 4:60.999001 5:45.223099 6:214.776 7:181.45599 8:178.787 9:173.429 10:116.133 11:115.029 12:113.175 13:215.82899 14:220.633 15:212.959 16:131.924 17:133.75301 18:130.72501 19:250.84399 20:243.793 21:244.586 22:147.66901 23:145.733 24:144.87801 25:224.377 26:228.745 27:232.571 28:140.05 29:141.638 30:142.825 # frame 1368
3.4273570869367776e-012 1:312.30099 2:14.8276 3:149.429 4:188.495 5:39.701199 6:127.618 7:225.80499 8:229.075 9:228.08501 10:135.98199 11:137.396 12:137.009 13:218.32401 14:222.095 15:225.591 16:134.88499 17:136.474 18:137.888 19:228.76801 20:229.19501 21:226.431 22:140.464 23:140.53799 24:139.423 25:235.7 26:236.379 27:235.326 28:143.549 29:143.92 30:143.183 # frame 1368
-3.8986405146744395e-014 1:17.1075 2:47.567799 3:625.11499 4:44.084499 5:72.623001 6:264.73599 7:207.90401 8:211.502 9:181.561 10:126.165 11:127.431 12:112.583 13:201.72501 14:201.39301 15:182.804 16:125.303 17:124.394 18:113.344 19:249.575 20:236.144 21:219.23599 22:146.256 23:141.21001 24:134.63901 25:220.19299 26:229.586 27:214.65401 28:136.661 29:141.41701 30:134.877 # frame 1381
-1.2327612620377832e-012 1:13.4207 2:2.17647 3:318.03601 4:26.691601 5:15.6238 6:190.698 7:199.46001 8:198.39999 9:193.895 10:126.641 11:126.179 12:124.247 13:197.619 14:196.56599 15:197.495 16:124.386 17:123.59 18:124.03 19:277.50699 20:279.633 21:273.383 22:154.797 23:155.47501 24:153.46201 25:213.40401 26:213.735 27:210.98801 28:136.411 29:136.68401 30:134.834 # frame 1381
-7.2666995342058496e-012 1:451.189 2:6.7407598 3:233.98599 4:223.662 5:19.6614 6:159.437 7:227.886 8:229.24001 9:228.22301 10:137.145 11:137.552 12:137.254 13:225.51801 14:227.87601 15:227.381 16:137.55701 17:138.358 18:138.09399 19:235.149 20:231.612 21:232.26199 22:141.548 23:140.12199 24:140.19701 25:237.084 26:237.989 27:237.582 28:144.05099 29:144.306 30:144.308 # frame 1381
9.0256171104169201e-013 1:67.062897 2:23.683599 3:429.33701 4:53.272301 5:46.3419 6:215.108 7:214.791 8:220.30701 9:209.388 10:132.034 11:134.34399 12:128.888 13:220.845 14:218.69701 15:208.964 16:134.313 17:133.465 18:128.31799 19:248.886 20:233.90199 21:228.054 22:147.02299 23:140.976 24:139.114 25:235.075 26:235.103 27:229.16499 28:142.578 29:143.45399 30:140.12601 # frame 1418
8.4816573580183685e-013 1:22.5182 2:11.9785 3:241.42999 4:36.3162 5:35.253601 6:165.60899 7:229.01801 8:226.41901 9:225.423 10:137.522 11:136.453 12:136.29601 13:227.916 14:223.871 15:228.73801 16:138.16901 17:136.198 18:138.558 19:227.63499 20:232.08 21:228.45 22:139.642 23:140.97701 24:139.79201 25:231.082 26:238.159 27:235.78999 28:141.55 29:144.144 30:143.606 # frame 1418
3.5100156632130757e-013 1:7.8745599 2:24.8535 3:487.45401 4:29.655199 5:52.647701 6:235.03101 7:229.7 8:232.508 9:230.56599 10:139.495 11:140.578 12:139.78101 13:227.155 14:227.33299 15:222.819 16:137.939 17:138.101 18:136.396 19:235.806 20:235.01801 21:236.026 22:141.86099 23:141.81 24:142.14301 25:242.806 26:244.664 27:243.46001 28:145.922 29:146.733 30:146.063 # frame 1454
1.3976837055262302e-012 1:7.36619 2:11.5985 3:410.923 4:28.898399 5:36.202999 6:216.536 7:217.353 8:214.15401 9:214.711 10:133.95399 11:132.577 12:133.13499 13:216.966 14:217.172 15:214.19501 16:133.911 17:133.909 18:132.271 19:241.494 20:239.868 21:242.77499 22:143.436 23:142.633 24:143.73801 25:239.24001 26:241.521 27:239.617 28:144.909 29:145.239 30:144.948 # frame 1454
-7.6598755435266184e-014 1:281.957 2:67.970703 3:107.537 4:179.59399 5:88.072403 6:110.881 7:195.498 8:199.884 9:206.226 10:126.493 11:128.707 12:131.424 13:205.41 14:203.112 15:201.51199 16:128.32899 17:126.963 18:126.604 19:255.104 20:252.08501 21:252.30901 22:149.34 23:148.39101 24:148.50999 25:204.345 26:201.88901 27:205.60899 28:133.52499 29:131.961 30:133.54401 # frame 1564
-5.6399435916227679e-012 1:321.94101 2:16.826401 3:74.249199 4:166.87601 5:35.5625 6:83.052002 7:210.864 8:212.968 9:212.972 10:128.439 11:129.017 12:129.073 13:215.5 14:216.85899 15:217.355 16:131.368 17:131.67 18:132.24899 19:224.612 20:224.548 21:226.66701 22:136.33701 23:136.326 24:137.46899 25:220.814 26:223.168 27:221.922 28:135.48199 29:136.23399 30:136.033 # frame 1564
2.3283552361546049e-012 1:513.71802 2:0.51367903 3:241.42799 4:238.40601 5:6.5725002 6:165.88699 7:223.46001 8:221.386 9:222.55099 10:136.528 11:135.58701 12:136.142 13:209.696 14:212.30099 15:210.75 16:129.57201 17:130.817 18:129.94099 19:232.336 20:233.21899 21:232.35001 22:141.23 23:141.53101 24:141.18201 25:229.51199 26:228.93401 27:228.12 28:141.82201 29:141.552 30:141.229 # frame 1564
1.6861434029206779e-012 1:304.08401 2:51.6828 3:78.219597 4:186.338 5:76.160103 6:91.699799 7:203.161 8:207.091 9:208.69901 10:128.718 11:130.487 12:131.047 13:197.46899 14:197.666 15:198.77699 16:124.317 17:124.229 18:124.791 19:237.593 20:238.63 21:242.327 22:143.05 23:143.31 24:145.213 25:195.951 26:194.888 27:198.638 28:129.909 29:129.092 30:130.739 # frame 1582
1.8762597276890628e-013 1:37.446999 2:27.641199 3:398.263 4:65.060402 5:53.514301 6:211.52 7:217.429 8:221.201 9:220.23599 10:133.62199 11:134.856 12:134.39301 13:227.326 14:223.931 15:227.763 16:138.776 17:137.332 18:138.66 19:235.48399 20:240.045 21:237.368 22:142.00999 23:143.76401 24:142.22501 25:242.084 26:243.397 27:243.235 28:145.903 29:146.444 30:146.34599 # frame 1582
-3.8983803808151512e-012 1:285.46799 2:32.9142 3:170.64 4:180.70599 5:61.226898 6:139.543 7:205.914 8:203.759 9:207.985 10:129.92799 11:129.20399 12:131.00101 13:208.981 14:211.19501 15:216.298 16:129.345 17:130.40601 18:132.868 19:243.42799 20:242.86301 21:243.896 22:146.237 23:146.002 24:146.35699 25:220.14799 26:222.858 27:222.42 28:137.638 29:139.864 30:139.853 # frame 1582
-2.0969960069063391e-012 1:269.815 2:55.988998 3:116.881 4:171.25301 5:76.839104 6:109.933 7:208 8:209.59 9:209.257 10:126.764 11:127.252 12:127.002 13:214.28 14:214.95599 15:216.173 16:130.25301 17:130.875 18:131.186 19:219.058 20:218.315 21:221.79601 22:134.009 23:133.92999 24:135.692 25:221.089 26:222.19901 27:221.953 28:135.879 29:136.11 30:135.884 # frame 1582
1.388848133685704e-012 1:26.1842 2:29.855 3:612.01001 4:54.367599 5:57.624401 6:263.879 7:224.35201 8:223.45599 9:224.649 10:137.423 11:137.153 12:137.633 13:229.668 14:223.272 15:221.534 16:138.927 17:136.23199 18:135.48599 19:234.612 20:234.42999 21:237.81799 22:141.23399 23:141.30701 24:142.356 25:241.467 26:240.412 27:239.22099 28:144.808 29:144.68401 30:144.24899 # frame 1610
3.7088027490588073e-013 1:317.345 2:29.4081 3:128.297 4:190.283 5:56.698101 6:119.671 7:202.991 8:200.45599 9:202.327 10:127.812 11:126.688 12:127.36 13:214.802 14:213.868 15:213.045 16:131.61099 17:131.36 18:130.843 19:255.26601 20:256.22299 21:257.86401 22:150.049 23:150.226 24:150.899 25:216.67 26:216.069 27:220.19701 28:136.756 29:136.55901 30:138.524 # frame 1610
-1.941946151961199e-013 1:32.504002 2:23.377899 3:637.75299 4:57.334801 5:49.7094 6:268.93399 7:222.50999 8:222.679 9:219.366 10:135.114 11:135.367 12:134.01801 13:225.83501 14:219.67599 15:222.90401 16:137.13901 17:133.91 18:136.149 19:231.11301 20:237.66299 21:237.286 22:140.343 23:142.51199 24:143.015 25:239.172 26:241.452 27:241.13499 28:144.407 29:145.192 30:145.08 # frame 1610
-3.2775206377747345e-012 1:276.431 2:18.4058 3:202.267 4:177.813 5:45.696301 6:151.93401 7:197.166 8:198.09599 9:196.519 10:124.629 11:125.048 12:124.432 13:207.536 14:206.744 15:203.83299 16:128.97 17:128.87601 18:127.49 19:248.358 20:248.85699 21:250.714 22:147.974 23:147.563 24:148.405 25:217.063 26:216.21201 27:216.892 28:136.558 29:136.095 30:137.186 # frame 1610
1.0654994583193348e-012 1:81.412201 2:60.329601 3:167.498 4:39.804401 5:78.616501 6:133.84599 7:200.21001 8:202.38699 9:204.17999 10:122.858 11:123.886 12:124.488 13:214.308 14:218.68401 15:210.784 16:130.286 17:132.481 18:128.88 19:223.759 20:223.52499 21:224.52 22:135.353 23:135.49899 24:135.57401 25:231.33 26:227.063 27:226.448 28:139.237 29:137.38901 30:137.16701 # frame 1610
5.0432394409390728e-013 1:22.1623 2:60.9743 3:525.97302 4:49.7393 5:81.402802 6:243.908 7:228.155 8:224.004 9:226.662 10:139.008 11:137.508 12:138.58 13:227.019 14:222.974 15:227.005 16:138.77699 17:136.681 18:138.573 19:240.55 20:237.689 21:242.16901 22:143.85699 23:142.84599 24:144.495 25:241.217 26:243.33701 27:243.082 28:145.10899 29:146.272 30:146.38699 # frame 1662
-1.5094628815288879e-012 1:389.72299 2:10.4458 3:139.47301 4:198.132 5:31.977699 6:120.642 7:216.463 8:215.47501 9:214.129 10:134.229 11:133.892 12:133.39799 13:216.09599 14:219.536 15:214.689 16:133.258 17:134.41901 18:132.37 19:239.683 20:235.755 21:236.60201 22:144.179 23:142.772 24:142.444 25:221.20799 26:219.88901 27:219.12601 28:137.554 29:137.43401 30:137.093 # frame 1662
3.9325198036643966e-014 1:2.9929299 2:130.493 3:170.144 4:11.3963 5:115.366 6:132.70799 7:203.813 8:205.339 9:204.567 10:125.462 11:125.806 12:125.407 13:215.79201 14:213.311 15:209.33099 16:131.77299 17:130.683 18:128.11 19:226.786 20:228.814 21:223.26601 22:136.711 23:137.58701 24:135.5 25:221.47 26:219.491 27:222.838 28:135.42599 29:134.938 30:135.68401 # frame 1662
1.8915961259824065e-012 1:198.974 2:12.9164 3:315.561 4:120.367 5:32.452702 6:186.38699 7:218.99001 8:225.104 9:225.556 10:134.65601 11:137.036 12:137.254 13:222.759 14:225.75301 15:223.821 16:136.425 17:137.407 18:136.233 19:242.45599 20:241.315 21:233.39799 22:144.873 23:144.369 24:141.11099 25:241.19901 26:235.812 27:237.377 28:145.59599 29:143.342 30:143.867 # frame 1715
3.0850499501878068e-012 1:230.145 2:40.711601 3:162.186 4:106.313 5:63.246799 6:125.474 7:225.117 8:225.558 9:222.446 10:136.73199 11:137.07401 12:136.03101 13:231.701 14:232.38901 15:232.495 16:140.586 17:140.79201 18:140.79601 19:234.36 20:233.282 21:236.147 22:142.41701 23:142.092 24:143.19 25:240.049 26:240.62399 27:240.995 28:144.724 29:145.08701 30:145.422 # frame 1715
-5.8331809901695491e-013 1:11.0829 2:41.73 3:454.638 4:33.4538 5:64.672897 6:225.586 7:233.748 8:231.04201 9:233.118 10:141.26601 11:139.798 12:140.666 13:231.44099 14:231.17799 15:227.554 16:139.942 17:139.97 18:138.14799 19:238.09399 20:235.168 21:239.798 22:143.332 23:141.463 24:143.405 25:239.758 26:241.509 27:239.711 28:144.564 29:145.082 30:144.621 # frame 1715
3.2130234749287165e-013 1:2.5360301 2:102.344 3:347.96201 4:16.350901 5:105.129 6:195.851 7:228.99699 8:228.147 9:225.71899 10:139.244 11:139.299 12:138.065 13:233.01199 14:236.82899 15:234.644 16:141.106 17:142.42599 18:141.50301 19:238.42101 20:237.53101 21:236.364 22:143.21201 23:142.41499 24:142.168 25:243.703 26:241.007 27:246.03 28:146.047 29:145.082 30:146.90401 # frame 1793
-5.6702304438843821e-013 1:10.5988 2:25.531099 3:578.82501 4:34.403702 5:51.946499 6:256.31 7:220.043 8:223.049 9:214.604 10:134.44701 11:136.112 12:131.297 13:223.32001 14:222.27699 15:215.27 16:135.855 17:134.908 18:130.489 19:245.033 20:237.339 21:232.92999 22:145.158 23:142.39301 24:140.709 25:244.409 26:241.81 27:240.838 28:146.258 29:145.677 30:144.744 # frame 1793
-6.2645567165478288e-012 1:305.90302 2:8.1018696 3:193.25 4:175.59 5:28.7505 6:146.92999 7:215.05499 8:211.591 9:209.87 10:132.843 11:131.629 12:130.82201 13:215.08701 14:214.47701 15:214.216 16:132.45 17:131.858 18:131.50301 19:242.96201 20:240.071 21:238.48399 22:145.933 23:145.149 24:144.384 25:226.7 26:225.257 27:222.91901 28:139.60899 29:139.61 30:138.972 # frame 1793
-4.0761502964047298e-013 1:3.18907 2:133.851 3:323.12701 4:15.5306 5:115.638 6:183.455 7:214.561 8:215.478 9:213.927 10:130.463 11:130.321 12:129.81599 13:225.507 14:224.674 15:220.528 16:135.77499 17:134.882 18:133.181 19:231.509 20:228.80299 21:226.442 22:138.17599 23:137.3 24:136.149 25:226.23 26:226.091 27:227.03 28:137.444 29:136.90401 30:137.52901 # frame 1793
-5.1697200549612984e-012 1:44.562599 2:38.323101 3:206.05099 4:32.2244 5:62.606602 6:144.133 7:226.39999 8:227.84801 9:227.509 10:138.308 11:139.01199 12:138.681 13:231.938 14:230.474 15:226.593 16:140.59399 17:140.30901 18:138.53 19:236.53 20:238.849 21:238.183 22:142.502 23:143.26401 24:143.30701 25:243.23599 26:244.36301 27:243.854 28:145.923 29:146.823 30:146.692 # frame 1870
-7.7403996218542255e-013 1:17.086599 2:27.882299 3:442.45001 4:42.872501 5:54.523602 6:222.377 7:229.215 8:228.978 9:225.71001 10:138.095 11:138.086 12:136.948 13:233.15401 14:233.362 15:232.541 16:140.74001 17:140.55099 18:140.246 19:235.62399 20:238.269 21:240.039 22:141.87399 23:143.20599 24:143.51401 25:242.25301 26:242.634 27:244.144 28:145.756 29:146.086 30:146.66 # frame 1870
4.3879089266003855e-012 1:324.79401 2:18.3421 3:112.833 4:168.967 5:40.598701 6:105.831 7:219.923 8:219.714 9:215.88901 10:133.81 11:133.66299 12:132.10201 13:222.994 14:219.952 15:215.855 16:136.181 17:134.95399 18:133.336 19:242.263 20:237.481 21:239.10001 22:145.241 23:143.37 24:144.112 25:231.194 26:231.90199 27:236.214 28:142.10899 29:142.595 30:143.702 # frame 1870
-1.4809595667028584e-012 1:45.040901 2:29.6416 3:338.96899 4:57.076401 5:54.528801 6:190.826 7:218.33501 8:223.179 9:221.537 10:133.095 11:134.929 12:133.94501 13:221.808 14:221.87801 15:225.242 16:136.60201 17:136.12399 18:137.29401 19:234.955 20:229.742 21:229.52901 22:141.95599 23:139.808 24:139.63699 25:241.353 26:239.065 27:241.908 28:145.399 29:144.341 30:145.38 # frame 1870
2.8900711462459929e-012 1:333.099 2:10.2944 3:186.289 4:177.909 5:30.6462 6:144.388 7:207.571 8:207.134 9:209.621 10:128.853 11:128.881 12:130.06 13:214.17 14:221.207 15:221.742 16:131.80499 17:135.336 18:135.595 19:244.621 20:239.94099 21:241.429 22:146.21899 23:144.597 24:144.832 25:226.131 26:227.588 27:228.444 28:140.22301 29:141.23801 30:141.17999 # frame 1870
-7.56205764825884e-013 1:33.604301 2:33.154301 3:526.284 4:58.480801 5:60.5368 6:243.776 7:219.021 8:218.321 9:217.625 10:133.073 11:132.733 12:132.909 13:227.33299 14:221.315 15:224.60001 16:138.13 17:135.54401 18:137.229 19:239.739 20:239.59599 21:238.89301 22:143.311 23:143.59599 24:143.338 25:245.858 26:246.733 27:244.634 28:147.162 29:147.60699 30:146.759 # frame 2013
-1.5728092304306827e-012 1:317.048 2:15.466 3:171.85001 4:186.714 5:39.459202 6:139.26199 7:202.463 8:202.584 9:203.34801 10:127.14 11:126.916 12:127.507 13:210.33099 14:211.638 15:212.87399 16:130.66 17:130.856 18:131.85899 19:250.035 20:250.007 21:249.44 22:148.14999 23:148.256 24:148.118 25:226.013 26:226.68401 27:227.29401 28:139.616 29:140.38901 30:140.825 # frame 2013
1.4230335338030836e-013 1:2.0124199 2:101.687 3:244.159 4:14.1653 5:100.894 6:158.217 7:216.78799 8:216.45799 9:218.106 10:131.828 11:131.44 12:132.291 13:223.255 14:219.97301 15:224.422 16:134.666 17:133.817 18:134.77299 19:225.351 20:220.231 21:218.808 22:136.05701 23:134.39 24:133.74001 25:226.342 26:227.134 27:223.27901 28:136.985 29:137.26801 30:136.05499 # frame 2013
-8.8405311621007492e-013 1:31.120399 2:56.608299 3:559.38 4:55.689602 5:78.022003 6:251.895 7:231.963 8:226.399 9:229.27699 10:140.246 11:137.869 12:139.192 13:233.37601 14:225.47 15:221.897 16:140.64999 17:137.312 18:135.608 19:236.5 20:237.18201 21:237.368 22:142.52299 23:142.54601 24:142.593 25:238.94299 26:239.612 27:239.75 28:144.089 29:144.327 30:144.673 # frame 2048
4.0505217690058081e-013 1:66.464897 2:21.6626 3:341.57501 4:49.441799 5:44.927101 6:192.485 7:227.304 8:219.08099 9:216.713 10:137.651 11:134.15601 12:133.355 13:224.23599 14:222.446 15:218.237 16:135.649 17:135.175 18:132.789 19:233.85001 20:232.711 21:238.567 22:141.28999 23:141.39999 24:143.367 25:223.252 26:228.51199 27:228.741 28:138.93401 29:140.63699 30:140.916 # frame 2048
2.23682812686787e-012 1:151.336 2:14.6553 3:411.11899 4:112.104 5:34.493099 6:209.028 7:218.356 8:218.776 9:221.17799 10:133.489 11:133.55099 12:134.472 13:225.40601 14:224.672 15:227.44501 16:137.33 17:136.701 18:137.332 19:234.368 20:232.17 21:230.703 22:141.73599 23:140.739 24:140.004 25:232.918 26:234.27699 27:233.74699 28:142.03101 29:142.39101 30:142.276 # frame 2048
-2.0842425821448936e-012 1:408.94299 2:2.7179899 3:215.339 4:212.623 5:16.8902 6:156.394 7:208.558 8:206.411 9:205.963 10:129.18401 11:128.18401 12:128.15401 13:220.944 14:222.972 15:224.19901 16:134.79601 17:135.606 18:135.94501 19:251.26401 20:254.112 21:257.36301 22:148.847 23:150.043 24:151.11501 25:230.646 26:234.339 27:229.993 28:141.791 29:142.804 30:141.26199 # frame 2048
-1.1987516670089777e-012 1:274.70901 2:2.08567 3:232.371 4:176.908 5:14.9723 6:161.52499 7:214.09599 8:212.463 9:213.77299 10:133.879 11:133.09399 12:133.832 13:212.77 14:212.77 15:208.80901 16:130.293 17:130.31599 18:128.373 19:245.192 20:244.866 21:246.01801 22:146.476 23:146.45399 24:146.75101 25:216.502 26:216.99699 27:217.535 28:137.532 29:137.448 30:137.326 # frame 2110
1.1537156870785654e-012 1:505.104 2:3.4339299 3:277.38101 4:239.515 5:10.6794 6:177.024 7:199.88901 8:200.076 9:198.437 10:127.178 11:127.515 12:127.025 13:201.26801 14:205.185 15:200.42799 16:126.162 17:128.175 18:125.9 19:240.668 20:241.29401 21:238.278 22:143.457 23:143.427 24:142.554 25:229.855 26:229.592 27:230.203 28:142.172 29:141.98599 30:142.258 # frame 2110
1.1965849234642238e-012 1:353.01599 2:3.6549699 3:166.463 4:197.745 5:18.6551 6:137.28799 7:220.51601 8:221.564 9:219.315 10:134.237 11:134.674 12:133.73801 13:221.916 14:224.13901 15:224.436 16:134.87399 17:135.871 18:135.925 19:240.39301 20:238.73199 21:239.08501 22:145.127 23:144.565 24:144.623 25:226.573 26:221.22701 27:221.74001 28:139.69701 29:137.59599 30:138.19501 # frame 2110
2.8782231943864325e-012 1:395.91 2:0.40602499 3:235.964 4:173.95 5:6.3515 6:163.91499 7:213.914 8:215.77901 9:214.403 10:131.597 11:132.435 12:131.923 13:213.203 14:211.127 15:212.778 16:131.328 17:130.446 18:131.034 19:240.616 20:238.914 21:238.328 22:144.666 23:143.85001 24:143.759 25:237.24899 26:237.686 27:235.565 28:143.983 29:144.245 30:143.37601 # frame 2110
-7.1387766099525481e-013 1:350.952 2:0.117217 3:260.772 4:175.27 5:3.0729001 6:168.173 7:194.509 8:195.515 9:196.063 10:122.723 11:123.001 12:123.252 13:197.931 14:200.82401 15:200.38499 16:122.473 17:123.814 18:123.414 19:243.10001 20:243.246 21:240.07001 22:142.353 23:142.217 24:141.181 25:222.06799 26:223.74001 27:222.698 28:136.37601 29:137.02499 30:136.76601 # frame 2110
1.9667621398340331e-013 1:277.884 2:72.231102 3:138.09399 4:178.269 5:89.334503 6:123.184 7:212.2 8:209.97 9:214.217 10:130.84801 11:130.422 12:132.425 13:229.88499 14:235.45399 15:227.026 16:138.134 17:140.894 18:137.79201 19:260.854 20:257.04099 21:253.856 22:151.836 23:150.478 24:149.418 25:203.826 26:208.187 27:207.881 28:131.508 29:133.989 30:133.85899 # frame 2160
2.4071211258479732e-013 1:296.13501 2:0.81978399 3:320.95901 4:145.04401 5:8.4533997 6:189.27 7:216.487 8:214.88699 9:216.478 10:132.50301 11:131.888 12:133.064 13:215.408 14:218.735 15:215.37199 16:134.33701 17:135.701 18:133.80099 19:244.466 20:246.992 21:241.261 22:144.097 23:145.343 24:143.23801 25:241.239 26:243.526 27:241.617 28:144.97301 29:145.755 30:145.19501 # frame 2160
2.2127396117375369e-012 1:54.634701 2:46.146099 3:314.771 4:64.2752 5:68.471001 6:182.787 7:220.80299 8:215.82401 9:215.68401 10:133.571 11:131.722 12:131.498 13:215.884 14:214.36301 15:215.51199 16:131.71899 17:130.995 18:131.315 19:223.90199 20:224.04201 21:223.51401 22:135.10001 23:134.91 24:134.90601 25:227.65401 26:226.786 27:231.698 28:137.358 29:137.09 30:138.871 # frame 2160
-1.4566010644049549e-013 1:271.86499 2:13.1875 3:234.433 4:176.32001 5:38.717499 6:163.67999 7:173.938 8:172.52699 9:174.55499 10:114.688 11:113.932 12:115.038 13:187.552 14:185.588 15:185.974 16:118.21 17:116.626 18:117.428 19:261.99701 20:254.209 21:258.63199 22:152.505 23:150.435 24:151.983 25:207.44901 26:211.621 27:211.78 28:134.48199 29:135.407 30:134.56799 # frame 2208
4.3087215320272897e-013 1:257.61401 2:62.5966 3:165.862 4:167.405 5:81.974602 6:133.33501 7:211.386 8:213.382 9:214.97501 10:128.112 11:128.968 12:129.63901 13:216.80499 14:221.94 15:222.884 16:131.786 17:134.02699 18:134.61301 19:226.46899 20:227.216 21:226.054 22:136.17999 23:136.74899 24:136.326 25:237.47701 26:237.459 27:235.849 28:141.54401 29:141.66701 30:141.183 # frame 2208
1.2320717896260644e-012 1:283.14499 2:9.9285002 3:207.679 4:179.944 5:33.363499 6:153.908 7:197.644 8:196.02699 9:194.24001 10:126.111 11:124.991 12:124.371 13:198.61 14:197.942 15:200.754 16:124.296 17:124.432 18:125.457 19:256.026 20:254.873 21:256.84 22:149.563 23:148.97 24:149.22301 25:211.129 26:212.302 27:211.235 28:135.325 29:134.75 30:134.095 # frame 2208
1.9036261766797822e-013 1:255.834 2:68.965103 3:179.356 4:171.058 5:88.3293 6:142.772 7:231.507 8:231.133 9:230.65199 10:139.174 11:138.931 12:138.944 13:222.80299 14:225.438 15:230.80901 16:136.653 17:137.925 18:140.299 19:231.116 20:231.27901 21:231.19 22:141.14 23:140.92799 24:140.907 25:239.021 26:239.08701 27:239.231 28:144.795 29:144.72501 30:145.091 # frame 2243
4.8465496741176261e-012 1:283.08899 2:3.43275 3:327.05899 4:179.86099 5:19.6768 6:193.258 7:199.91701 8:200.8 9:199.22501 10:127.515 11:127.679 12:127.156 13:209.882 14:212.444 15:210.495 16:130.37601 17:131.14 18:130.01601 19:252.91 20:251.589 21:256.83701 22:146.338 23:145.795 24:147.772 25:210.08501 26:207.828 27:209.08 28:134.87199 29:133.96201 30:134.799 # frame 2243
1.5871963645134597e-012 1:460.92999 2:15.6833 3:118.294 4:222.216 5:38.5527 6:111.44 7:223.23599 8:222.562 9:222.983 10:135.87 11:135.617 12:135.548 13:229.388 14:227.586 15:228.771 16:138.30299 17:137.492 18:138.183 19:234.397 20:231.897 21:234.745 22:141.27901 23:140.59 24:141.795 25:226.62801 26:226.91 27:227.123 28:139.952 29:139.89799 30:140.01601 # frame 2243
-1.982951815870055e-012 1:275.38501 2:3.5794699 3:376.51099 4:167.992 5:19.4489 6:205.552 7:207.8 8:205.297 9:206.342 10:128.938 11:127.825 12:128.37601 13:216.118 14:222.57899 15:224.62801 16:132.10201 17:134.877 18:135.571 19:262.50601 20:263.05099 21:264.22699 22:150.688 23:150.864 24:151.18401 25:211.996 26:215.536 27:215.49001 28:135.123 29:135.99001 30:135.963 # frame 2273
2.2403806608265377e-013 1:328.078 2:1.13045 3:320.556 4:193.59 5:11.2426 6:191.44501 7:185.467 8:182.645 9:183.46899 10:119.18 11:118.117 12:118.472 13:194.416 14:189.772 15:191.79601 16:122.488 17:119.695 18:120.802 19:263.88101 20:262.08899 21:267.55801 22:149.83099 23:149.8 24:152.474 25:201.90401 26:209.944 27:199.175 28:131.63 29:134.552 30:130.554 # frame 2273
4.7087990440307579e-013 1:257.448 2:21.5201 3:215.067 4:167.356 5:48.2999 6:152.883 7:173.14 8:178.37199 9:177.709 10:113.498 11:115.805 12:115.496 13:172.95399 14:175.09399 15:174.802 16:111.04 17:112.415 18:112.169 19:250.233 20:241.903 21:244.08299 22:145.153 23:142.44299 24:142.757 25:202.511 26:191.45799 27:189.755 28:129.472 29:123.917 30:124.272 # frame 2273
-5.3879081046759724e-012 1:324.75 2:0.99096602 3:313.51599 4:192.464 5:10.286 6:189.214 7:193.125 8:192.716 9:193.78101 10:123.97 11:123.693 12:124.349 13:210.12 14:210.05 15:212.26401 16:129.80499 17:129.685 18:130.30299 19:253.50101 20:252.28101 21:254.201 22:147.42599 23:147.02699 24:147.79401 25:214.705 26:215.008 27:211.034 28:136.33099 29:136.599 30:135.11501 # frame 2297
3.7157509021084712e-012 1:332.60901 2:2.2781501 3:260.21701 4:195.049 5:15.9024 6:172.302 7:199.06799 8:198.315 9:198.355 10:126.775 11:126.515 12:126.619 13:207.24899 14:209.47301 15:209.077 16:127.966 17:129.067 18:128.80099 19:258.01801 20:254.821 21:255.048 22:149.651 23:149.04401 24:149.078 25:210.10201 26:214.416 27:213.74001 28:135.01199 29:136.597 30:136.355 # frame 2297
-1.5650890472647672e-012 1:344.92499 2:1.92216 3:264.853 4:198.556 5:14.7134 6:173.961 7:192.327 8:191.892 9:193.34399 10:122.989 11:122.804 12:123.522 13:202.16701 14:202.522 15:204.028 16:126.794 17:126.574 18:127.198 19:267.15302 20:264.91501 21:268.25299 22:151.32201 23:152.40199 24:153.541 25:217.159 26:219.536 27:216.23599 28:137.91901 29:138.571 30:136.772 # frame 2297
3.5675296630229963e-013 1:407.64999 2:1.67846 3:218.481 4:215.767 5:13.2765 6:157.94 7:203.131 8:201.814 9:205.04201 10:128.569 11:128.037 12:129.14799 13:208.894 14:209.108 15:209.442 16:129.89 17:129.953 18:129.799 19:254.78101 20:254.438 21:255.054 22:149.173 23:149.201 24:149.35699 25:214.481 26:214.121 27:216.789 28:136.36301 29:136.015 30:137.347 # frame 2297
4.5892702460460824e-012 1:260.698 2:24.3792 3:185.597 4:168.39999 5:50.9711 6:141.091 7:215.508 8:214.634 9:219.037 10:130.883 11:130.328 12:132.38 13:212.448 14:212.05299 15:215.466 16:128.812 17:129.229 18:130.83099 19:219.974 20:216.84399 21:216.94501 22:134.373 23:132.967 24:132.95 25:215.45399 26:215.32899 27:214.30299 28:132.588 29:132.89101 30:132.569 # frame 2297
4.7225206560012845e-012 1:471.58401 2:0.190718 3:316.72601 4:214.517 5:4.0609999 6:190.189 7:191.817 8:190.61501 9:192.37 10:122.73 11:122.35 12:123.065 13:206.54401 14:207.509 15:209.054 16:128.077 17:128.29401 18:128.933 19:264.32101 20:267.29999 21:264.48801 22:151.354 23:152.778 24:151.54601 25:209.849 26:207.36 27:207.79201 28:134.67799 29:133.563 30:133.813 # frame 2310
-1.4474580742157474e-012 1:144.85899 2:17.9606 3:227.30901 4:112.707 5:39.340401 6:156.617 7:208.605 8:215.07201 9:205.45399 10:129.229 11:131.513 12:128.157 13:234.035 14:229.23599 15:227.52499 16:140.757 17:137.715 18:136.914 19:262.02701 20:252.521 21:262.164 22:152.742 23:148.98801 24:153.103 25:216.231 26:223.395 27:221.241 28:136.34399 29:139.05499 30:137.87801 # frame 2310
-2.980331894800314e-012 1:489.625 2:0.26706901 3:232.37801 4:236.35899 5:5.4390998 6:162.957 7:204.006 8:202.162 9:203.056 10:128.563 11:127.672 12:128.181 13:207.547 14:208.145 15:207.811 16:128.726 17:129.229 18:128.84399 19:257.15399 20:259.14499 21:258.06601 22:149.89 23:150.621 24:150.187 25:213.295 26:214.52901 27:214.489 28:136.10699 29:136.272 30:136.235 # frame 2310
2.1177681082908683e-012 1:356.186 2:1.39871 3:200.601 4:201.061 5:11.6334 6:150.89 7:191.82401 8:194.814 9:194.16901 10:123.211 11:124.648 12:124.299 13:203.246 14:203.92101 15:203.922 16:126.441 17:125.973 18:126.284 19:259.83401 20:258.05701 21:260.18301 22:150.64799 23:151.20399 24:151.743 25:210.666 26:208.869 27:209.13699 28:135.952 29:135.008 30:134.752 # frame 2310
1.0773492817816909e-013 1:351.771 2:1.36049 3:270.41699 4:200.36 5:12.0967 6:175.37 7:200.89301 8:197.037 9:196.60001 10:125.049 11:123.535 12:123.443 13:205.507 14:207.157 15:206.56799 16:127.997 17:128.16 18:127.986 19:252.32001 20:256.173 21:256.198 22:146.97099 23:148.24899 24:147.905 25:213.21899 26:217.959 27:213.25301 28:135.683 29:137.153 30:136.086 # frame 2310
3.5260319188625432e-012 1:385.00601 2:0.136452 3:296.25 4:185.692 5:3.4219999 6:184.052 7:193.164 8:195.8 9:193.429 10:124.903 11:125.77 12:124.948 13:196.351 14:197.59 15:195.97301 16:123.603 17:123.798 18:123.086 19:267.92999 20:265.97299 21:265.97299 22:152.66299 23:151.873 24:151.467 25:208.134 26:205.597 27:205.049 28:134.371 29:133.57401 30:133.3 # frame 2323
6.5410919122548555e-012 1:206.181 2:11.0877 3:188.27 4:146.649 5:29.3367 6:141.763 7:207.50301 8:207.34399 9:208.97099 10:126.491 11:126.238 12:127.018 13:196.362 14:198.922 15:196.728 16:122.574 17:123.852 18:122.873 19:223.24001 20:223.48801 21:218.077 22:135.56799 23:135.744 24:133.91701 25:222.985 26:225.386 27:222.57001 28:136.04601 29:136.79201 30:135.84399 # frame 2323
4.3372065618093307e-012 1:390.70099 2:0.217021 3:242.647 4:173.293 5:4.7711 6:166.552 7:198.44501 8:194.998 9:196.00301 10:127.596 11:125.827 12:126.546 13:197.342 14:197.168 15:198.548 16:123.943 17:123.903 18:124.449 19:267.565 20:266.13101 21:270.95599 22:153.91499 23:153.347 24:154.04201 25:212.892 26:216.894 27:212.131 28:136.47301 29:137.922 30:136.138 # frame 2323
-4.3282257286203526e-012 1:151.97701 2:0.96797299 3:247.258 4:96.123398 5:7.1125002 6:166.51601 7:203.34399 8:199.033 9:200.991 10:128.69 11:126.792 12:127.53 13:200.037 14:200.04601 15:200.987 16:125.666 17:125.267 18:125.821 19:244.04201 20:247.787 21:245.79201 22:146.351 23:147.88699 24:146.951 25:218.789 26:221.896 27:219.819 28:137.79201 29:139.192 30:138.285 # frame 2323
-4.4286028691874349e-012 1:469.23199 2:0.260405 3:231.683 4:212.564 5:4.9933 6:162.714 7:198.675 8:194.32001 9:197.295 10:127.483 11:125.932 12:127.238 13:200.37199 14:196 15:198.605 16:125.512 17:123.603 18:124.757 19:269.504 20:270.07199 21:271.94901 22:154.614 23:155.036 24:155.621 25:209.21001 26:211.18401 27:208.789 28:135.45599 29:135.882 30:135.095 # frame 2323
1.4866235010323972e-013 1:6.7175498 2:14.6963 3:692.22101 4:27.664 5:40.897499 6:281.28201 7:218.89301 8:219.45 9:216.87801 10:135.004 11:135.186 12:134.312 13:205.564 14:203.399 15:204.866 16:126.902 17:125.805 18:126.383 19:239.84 20:242.58701 21:239.285 22:143.743 23:144.746 24:143.427 25:228.78 26:232.94099 27:232.28101 28:141.10699 29:142.612 30:141.806 # frame 2343
2.6422772856063065e-012 1:255.48801 2:19.1738 3:121.568 4:170.722 5:46.194901 6:117.298 7:233.422 8:232.058 9:233.077 10:140.586 11:139.772 12:140.25999 13:230.989 14:229.617 15:231.39301 16:139.62399 17:139.41299 18:140.173 19:233.043 20:234.28101 21:232.39799 22:141.59399 23:142.17999 24:141.157 25:242.63699 26:245.065 27:244.927 28:146.09399 29:146.918 30:146.903 # frame 2343
1.4384745155273343e-014 1:391.03201 2:63.415798 3:25.2188 4:210.32401 5:83.111198 6:50.809601 7:213.08501 8:211.80299 9:203.908 10:130.578 11:129.76401 12:126.729 13:218.133 14:218.17101 15:215.97099 16:133.92101 17:133.901 18:132.883 19:233.834 20:236.459 21:237.63901 22:141.655 23:143.22301 24:143.32201 25:213.01601 26:219.009 27:217.12399 28:135.90199 29:138.201 30:137.33299 # frame 2376
-4.4916426997549925e-013 1:83.3815 2:6.7434502 3:298.02499 4:56.5938 5:27.1964 6:182.46201 7:230.907 8:229.519 9:228.125 10:138.98199 11:138.561 12:137.858 13:230.633 14:227.66 15:231.883 16:139.79601 17:138.39799 18:139.965 19:235.93401 20:233.29601 21:237.908 22:141.995 23:140.948 24:142.554 25:239.207 26:237.383 27:239.35899 28:144.916 29:144.065 30:144.819 # frame 2376
1.1401251771289872e-012 1:78.165298 2:6.3344202 3:125.41 4:48.653198 5:24.4575 6:113.84 7:215.94299 8:213.315 9:214.659 10:129.56599 11:128.588 12:129.2 13:221.576 14:224.186 15:223.009 16:133.774 17:134.83501 18:134.248 19:223.92999 20:221.492 21:222.36501 22:135.666 23:134.57401 24:135.02901 25:232.121 26:232.142 27:232.347 28:139.05901 29:138.82001 30:139.20599 # frame 2376
-2.2437124306514192e-012 1:142.13699 2:7.88377 3:246.228 4:80.575996 5:29.2264 6:164.741 7:223.728 8:220.715 9:219.80901 10:135.274 11:134.158 12:134.474 13:221.84 14:220.048 15:225.57201 16:135.905 17:134.92101 18:137.547 19:236.547 20:234.93201 21:238.24899 22:142.38699 23:141.358 24:142.63 25:245.91901 26:246.946 27:241.27 28:147.427 29:147.69701 30:145.745 # frame 2376
2.5278130734421686e-012 1:6.6068101 2:13.8751 3:273.57101 4:27.3384 5:39.532299 6:176.12 7:230.11301 8:229.146 9:228.57201 10:139.726 11:139.252 12:139.07899 13:230.95399 14:231.05901 15:229.457 16:139.739 17:139.636 18:139.089 19:232.972 20:233.36 21:233.315 22:141.48599 23:141.62601 24:141.491 25:241.284 26:239.98 27:239.252 28:145.278 29:144.58099 30:144.269 # frame 2376
8.4144304257292051e-013 1:219.911 2:10.3853 3:145.22 4:131.53799 5:27.3561 6:125.862 7:229.498 8:230.463 9:229.336 10:138.83099 11:139.31799 12:138.728 13:234.964 14:233.08 15:233.619 16:141.231 17:140.84 18:140.995 19:236.93201 20:235.33 21:237.468 22:142.659 23:142.392 24:142.864 25:247.28999 26:248.382 27:248.138 28:147.38 29:148.05299 30:147.955 # frame 2405
8.7901190518345561e-012 1:281.267 2:11.9464 3:214.569 4:179.358 5:36.752602 6:156.448 7:201.035 8:196.47701 9:198.86099 10:126.989 11:125.269 12:126.213 13:212.289 14:212.799 15:212.284 16:131.20399 17:131.446 18:131.327 19:246.72301 20:245.002 21:248.175 22:146.073 23:145.67999 24:146.98399 25:218.243 26:219.56799 27:219.46001 28:137.172 29:137.146 30:137.158 # frame 2405
2.3883831371317286e-013 1:286.74701 2:2.2158999 3:184.27299 4:180.69299 5:14.6248 6:144.73199 7:204.952 8:201.582 9:202.47 10:129.27499 11:127.96 12:128.16901 13:210.093 14:208.46899 15:209.04601 16:129.481 17:128.98199 18:128.882 19:248.38499 20:248.032 21:249.101 22:147.91499 23:147.52499 24:147.83701 25:217.011 26:215.21899 27:213.63699 28:136.424 29:135.54401 30:135.217 # frame 2405
3.0681725113711134e-012 1:283.534 2:16.184299 3:190.299 4:180.08 5:42.810001 6:147.255 7:193.30299 8:190.873 9:193.181 10:122.453 11:121.161 12:122.3 13:207.813 14:209.49899 15:211.08099 16:129.567 17:130.49001 18:131.231 19:251.737 20:250.157 21:252.21899 22:148.27699 23:147.912 24:148.716 25:218.23199 26:220.617 27:219.194 28:136.862 29:137.77299 30:137.549 # frame 2405
-3.46340105391044e-012 1:302.53699 2:6.2104602 3:164.69099 4:185.952 5:26.434 6:136.783 7:211.145 8:207.17101 9:207.217 10:130.67999 11:129.19 12:129.032 13:213.867 14:214.019 15:214.564 16:131.795 17:131.817 18:131.82201 19:250.26601 20:248.67999 21:251.51801 22:148.052 23:147.24699 24:148.23599 25:217.08099 26:218.116 27:218.41 28:136.24699 29:136.57899 30:137.07201 # frame 2405
3.0195543359630549e-012 1:57.867901 2:35.7616 3:231.631 4:78.777603 5:60.113602 6:158.024 7:203.81599 8:208.72701 9:206.61501 10:125.366 11:127.006 12:126.579 13:206.558 14:206.412 15:204.453 16:127.31 17:126.729 18:126.025 19:221.92799 20:220.961 21:220.838 22:135.50101 23:133.97701 24:134.715 25:226.54401 26:221.535 27:220.839 28:137.119 29:135.487 30:134.64999 # frame 2438
-4.9548108321261509e-012 1:326.228 2:1.34352 3:291.81699 4:193.088 5:12.203 6:182.481 7:218.17799 8:219.332 9:218.83 10:134.651 11:135.067 12:134.783 13:218.153 14:220.011 15:220.08701 16:133.927 17:134.55901 18:134.48399 19:244.036 20:242.188 21:241.784 22:144.495 23:144.00101 24:143.856 25:225.241 26:223.576 27:222.42 28:140.105 29:139.57201 30:139.134 # frame 2438
1.0213939750334035e-012 1:74.039703 2:59.126701 3:201.285 4:86.787598 5:76.769203 6:149.412 7:226.67999 8:221.64799 9:222.42599 10:136.974 11:134.87399 12:135.623 13:228.722 14:221.95599 15:224.418 16:139.02499 17:136.08 18:137.32001 19:234.814 20:235.201 21:232.978 22:142.47 23:141.964 24:141.836 25:243.564 26:248.64 27:245.847 28:146.37801 29:148.70799 30:147.23599 # frame 2438
1.1608100810819574e-013 1:538.82898 2:9.8948097 3:386.784 4:244.838 5:30.3433 6:204.714 7:189.909 8:187.386 9:181.48399 10:121.848 11:120.624 12:118.228 13:219.29401 14:224.882 15:217.597 16:134.597 17:136.53 18:133.55901 19:249.114 20:244.72701 21:245.561 22:148.08701 23:147.17799 24:146.909 25:221.578 26:226.119 27:227.342 28:138.83299 29:140.536 30:141.22 # frame 2438
2.2665535995162952e-012 1:333.03 2:1.27312 3:328.46701 4:194.407 5:11.748 6:193.52 7:228.715 8:229.465 9:226.226 10:138.394 11:138.58299 12:137.336 13:224.856 14:222.924 15:225.173 16:136.438 17:135.76801 18:136.493 19:233.998 20:239.30499 21:238.62199 22:140.911 23:143.13901 24:142.806 25:231.272 26:235.687 27:233.414 28:141.767 29:143.439 30:142.14101 # frame 2469
-5.4001264646550934e-012 1:287.55499 2:3.71666 3:247.326 4:181.18201 5:20.1178 6:168.01401 7:203.638 8:201.97301 9:203.718 10:129.005 11:128.311 12:129.02299 13:206.058 14:205.289 15:203.752 16:128.77 17:128.032 18:127.913 19:239.07201 20:235.30499 21:239.05099 22:143.879 23:142.61099 24:144.16499 25:223.062 26:225.64301 27:226.823 28:139.487 29:140.01801 30:140.343 # frame 2489
6.4653321333421988e-012 1:254.78799 2:2.9375801 3:262.48599 4:159.64 5:16.139 6:171.94 7:204.994 8:207.76401 9:203.438 10:128.461 11:129.521 12:127.839 13:204.047 14:205.61301 15:203.58299 16:126.572 17:127.041 18:126.352 19:248 20:248.547 21:249.89101 22:148.07899 23:148.696 24:148.839 25:225.356 26:226.957 27:228.33299 28:139.291 29:140.33701 30:140.683 # frame 2489
5.2118817441646079e-012 1:283.49899 2:5.8449202 3:264.617 4:176.442 5:16.810699 6:172.399 7:224.097 8:222.909 9:221.495 10:136.771 11:136.373 12:135.724 13:219.12 14:217.804 15:218.231 16:134.733 17:133.97 18:134.304 19:242.69 20:236.87399 21:238.427 22:145.177 23:142.866 24:143.561 25:221.317 26:221.978 27:219.97501 28:138.34399 29:138.576 30:137.39999 # frame 2499
-2.7296268109176691e-012 1:245.254 2:3.1672499 3:309.603 4:158.674 5:17.4116 6:186.366 7:204.312 8:203.59 9:203.21899 10:127.54 11:127.351 12:127.298 13:206.754 14:209.685 15:207.51601 16:129.174 17:129.92101 18:129.09801 19:245.724 20:244.83501 21:242.625 22:147.089 23:146.703 24:146.047 25:242.213 26:243.894 27:242.66901 28:146.424 29:146.93401 30:146.47701 # frame 2499
-2.6300980524887982e-012 1:309.85501 2:1.66711 3:232.286 4:188.08299 5:13.3496 6:162.771 7:221.937 8:224.81799 9:221.689 10:136.078 11:137.13901 12:135.85001 13:217.30099 14:219.157 15:219.355 16:133.43201 17:134.158 18:134.112 19:241.99001 20:244.89999 21:241.989 22:144.912 23:146.466 24:145.265 25:222.412 26:222.261 27:221.28101 28:138.951 29:138.666 30:138.002 # frame 2499
-1.9884883467392589e-012 1:465.93301 2:4.3972101 3:272.62299 4:227.742 5:21.6922 6:174.38699 7:214.44901 8:215.942 9:215.881 10:132.433 11:133.045 12:133.105 13:207.467 14:209.92599 15:209.259 16:128.76801 17:129.728 18:129.27699 19:245.78 20:245.552 21:246.08099 22:144.965 23:145.10899 24:145.065 25:220.608 26:221.392 27:218.319 28:137.597 29:138.42799 30:137.595 # frame 2504
1.6630883790704482e-012 1:306.80499 2:10.0944 3:259.95401 4:181.797 5:19.377199 6:169.278 7:220.88499 8:221.286 9:220.034 10:135.869 11:135.77699 12:135.541 13:221.687 14:220.908 15:219.261 16:135.04601 17:134.808 18:134.063 19:238.16901 20:240.744 21:240.89301 22:142.98599 23:144.323 24:144.343 25:217.495 26:219.59599 27:219.543 28:137.20599 29:137.95799 30:137.925 # frame 2504
1.3134753737542243e-012 1:338.51599 2:1.65299 3:253.37199 4:196.57899 5:13.5791 6:170.05499 7:213.48 8:211.634 9:213.461 10:132.7 11:131.95399 12:132.51199 13:211.577 14:213.605 15:214.565 16:130.55099 17:131.38699 18:131.718 19:245.52699 20:245.90199 21:243.832 22:144.843 23:146.17 24:145.149 25:220.31 26:217.252 27:218.655 28:138.442 29:137.131 30:137.724 # frame 2504
5.3819853302499553e-013 1:551.52002 2:8.2755404 3:210.867 4:242.58501 5:27.9104 6:151.272 7:196.117 8:195.399 9:194.5 10:121.158 11:121.093 12:120.788 13:193.248 14:195.70399 15:196.743 16:119.978 17:120.556 18:120.988 19:239.367 20:238.707 21:236.05901 22:142.573 23:142.606 24:141.129 25:224.18201 26:223.412 27:223.94099 28:136.741 29:135.965 30:137.08299 # frame 2504
1.754986085572511e-012 1:338.06601 2:2.3625 3:323.94699 4:196.218 5:16.0042 6:191.992 7:212.957 8:210.21001 9:212.064 10:133.14799 11:131.81799 12:132.8 13:213.871 14:215.196 15:218.87 16:131.76601 17:132.756 18:134.19299 19:256.46799 20:250.358 21:252.35001 22:149.147 23:147.06799 24:147.619 25:226.45599 26:227.145 27:225.95599 28:140.40601 29:140.73599 30:140.27499 # frame 2511
8.8258071972129974e-013 1:512.41199 2:7.5065298 3:232.591 4:221.98399 5:27.799299 6:162.722 7:216.832 8:213.786 9:208.91299 10:132.367 11:131.228 12:129.424 13:209.744 14:205.674 15:210.47501 16:129.466 17:127.669 18:130.088 19:241.26801 20:238.435 21:245.698 22:145.798 23:144.625 24:146.70599 25:235.522 26:241.246 27:232.185 28:143.742 29:145.89301 30:142.94299 # frame 2511
1.6859913432720139e-012 1:388.508 2:2.09582 3:267.85999 4:210.60699 5:15.3368 6:174.823 7:207.78101 8:205.83099 9:203.25101 10:130.209 11:129.272 12:128.226 13:216.30499 14:215.34 15:215.02699 16:132.92799 17:132.11 18:132.138 19:248.84399 20:247.34801 21:247.65401 22:146.33299 23:147.088 24:146.339 25:224.166 26:227.257 27:227.716 28:140.40601 29:141.46001 30:141.517 # frame 2511
2.6490664259400739e-012 1:248.636 2:0.96766299 3:223.927 4:153.577 5:9.0073004 6:158.08701 7:200.265 8:196.69099 9:198.57201 10:126.486 11:125.023 12:125.99 13:201.487 14:200.457 15:202.468 16:126.456 17:126.022 18:126.766 19:258.03799 20:256.23499 21:258.65701 22:151.879 23:151.179 24:151.832 25:225.04401 26:223.82201 27:223.005 28:139.569 29:138.90601 30:138.524 # frame 2511
-3.368414527024325e-012 1:305.625 2:8.2300196 3:257.09601 4:183.666 5:23.262899 6:166.241 7:214.515 8:211.994 9:212.06 10:131.49899 11:130.36501 12:130.427 13:219.319 14:217.612 15:217.565 16:134.26601 17:133.754 18:133.72501 19:245.604 20:242.244 21:243.869 22:144.666 23:144.87199 24:145.172 25:221.327 26:225.127 27:225.446 28:138.634 29:139.97 30:139.972 # frame 2511
-2.5789547907181829e-012 1:393.293 2:1.75617 3:218.42799 4:210.942 5:12.5626 6:157.72 7:204.314 8:207.42 9:206.209 10:128.761 11:129.91 12:129.45799 13:206.215 14:206.15601 15:208.089 16:128.13699 17:127.82 18:128.771 19:257.39801 20:254.256 21:256.69 22:149.44299 23:148.84399 24:149.62601 25:216.31 26:217.631 27:219.991 28:137.15601 29:137.49899 30:138.259 # frame 2511
-1.3140324938589138e-012 1:429.021 2:10.2126 3:229.3 4:183.34599 5:31.247801 6:157.29401 7:199.009 8:202.12199 9:197.34 10:123.577 11:124.711 12:123.331 13:192.74899 14:191.02 15:193.63699 16:120.399 17:119.063 18:120.691 19:221.063 20:221.13901 21:219.45599 22:135.062 23:135.17101 24:133.56599 25:218.015 26:221.36099 27:206.748 28:134.34399 29:135.62 30:130.495 # frame 2518
1.0775229453989911e-012 1:373.41699 2:1.63357 3:284.189 4:206.16499 5:13.2466 6:179.948 7:211.177 8:209.20399 9:212.03 10:132.47701 11:131.808 12:132.791 13:211.896 14:212.015 15:211.964 16:130.521 17:130.34399 18:129.978 19:251.27499 20:255.416 21:254.263 22:146.90601 23:148.28999 24:147.589 25:221.728 26:222.62399 27:221.338 28:139.062 29:139.65199 30:139.181 # frame 2518
-4.8578604068159263e-013 1:543.55798 2:10.0925 3:240.62 4:234.745 5:31.7048 6:164.649 7:223.093 8:216.67599 9:213.77299 10:134.847 11:132.42 12:131.226 13:218.634 14:219.388 15:213.056 16:133.642 17:134.121 18:131.664 19:230.043 20:231.506 21:234.85699 22:140.267 23:140.914 24:142.08299 25:229.30901 26:228.05 27:231.60001 28:141.04401 29:140.59599 30:142.17999 # frame 2518
6.1267806354883701e-012 1:386.36499 2:1.5542099 3:294.38 4:209.89799 5:13.1904 6:183.28999 7:210.095 8:209.907 9:208.586 10:130.627 11:130.384 12:129.929 13:218.142 14:215.495 15:217.116 16:133.285 17:132.02299 18:132.617 19:253.14799 20:253.448 21:254.37801 22:147.439 23:147.879 24:147.8 25:221.136 26:223.076 27:222.207 28:139.036 29:139.478 30:139.29601 # frame 2518
