SVM-light Version V6.20
1 # kernel type
3 # kernel parameter -d 
1 # kernel parameter -g 
1 # kernel parameter -s 
1 # kernel parameter -r 
empty# kernel parameter -u 
30 # highest feature index 
366 # number of training documents 
501 # number of support vectors plus 1 
0 # threshold b, each following line is a SV (starting with alpha*y)
-1.1827446648655323e-012 1:293.28201 2:12.9958 3:385.83301 4:177.89101 5:34.324402 6:203.702 7:214.30901 8:213.57201 9:217.72301 10:130.33099 11:129.94 12:131.601 13:226.97701 14:227.174 15:227.002 16:137.862 17:137.845 18:137.899 19:240.561 20:244.08099 21:240.104 22:144.30499 23:145.248 24:143.755 25:237.19701 26:237.213 27:237.214 28:143.80499 29:143.575 30:143.841 # frame 18
2.0159289449235159e-012 1:428.888 2:0.99927402 3:344.34399 4:216.34 5:6.8168001 6:197.675 7:226.088 8:228.11501 9:227.13499 10:137.493 11:138.347 12:137.85699 13:217.69 14:220.147 15:218.618 16:133.70799 17:134.63499 18:134.23801 19:229.62601 20:226.123 21:229.758 22:139.989 23:138.888 24:140.388 25:237.64799 26:235.354 27:235.282 28:143.89101 29:143.32899 30:143.09599 # frame 18
-4.613574670890055e-012 1:505.543 2:0.26327899 3:328.41199 4:239.69 5:5.3242998 6:193.60201 7:228.92101 8:231.082 9:229.187 10:138.052 11:139.272 12:138.466 13:217.89101 14:218.987 15:216.187 16:133.84599 17:134.409 18:133.34599 19:237.371 20:239.04401 21:237.888 22:142.62199 23:143.261 24:142.967 25:241.54601 26:237.049 27:240.401 28:145.59599 29:144.153 30:145.258 # frame 18
1.8079665550736163e-012 1:535.29999 2:0.220658 3:330.98199 4:246.07899 5:4.9066 6:194.377 7:232.601 8:231.688 9:232.45399 10:139.91701 11:139.52901 12:139.78799 13:218.673 14:218.774 15:218.646 16:134.877 17:135.032 18:134.834 19:238.38499 20:236.88901 21:237.23801 22:142.317 23:141.972 24:141.83299 25:242.20399 26:242.12801 27:241.91901 28:146.10001 29:146.14999 30:146.105 # frame 18
-1.7065864471572414e-012 1:479.96201 2:0.169807 3:343.573 4:213.444 5:4.2477002 6:198.05299 7:230.16299 8:228.757 9:229.625 10:138.463 11:137.84599 12:138.16299 13:216.98801 14:218.75101 15:218.98199 16:133.548 17:134.42101 18:134.644 19:228.375 20:231.153 21:230.407 22:138.802 23:139.95799 24:139.73599 25:236.966 26:237.22 27:238.06799 28:143.843 29:144.136 30:144.40601 # frame 18
1.5111290176361568e-012 1:333.724 2:0.191018 3:349.29001 4:152.209 5:4.4938002 6:199.713 7:223.446 8:226.039 9:225.69901 10:135.317 11:136.313 12:136.14301 13:216.119 14:214.98199 15:215.674 16:133.29201 17:132.8 18:132.903 19:236.297 20:234.772 21:237.623 22:141.856 23:141.20799 24:142.36 25:233.46201 26:235.621 27:234.071 28:142.49899 29:143.21899 30:142.425 # frame 18
-3.3824419416493708e-012 1:234.40199 2:0.52125001 3:329.98401 4:107.703 5:6.5724001 6:194.019 7:222.63699 8:221.492 9:222.49699 10:135.02299 11:134.517 12:135.03101 13:220.24899 14:223.01801 15:222.89101 16:134.76601 17:135.88499 18:135.59599 19:240.494 20:239.83 21:239.06 22:144.237 23:143.91499 24:143.48801 25:238.47 26:240.67 27:237.517 28:144.575 29:145.192 30:144.03799 # frame 18
-2.1128674134002934e-013 1:259.10101 2:7.1573601 3:427.121 4:166.576 5:26.9816 6:210.101 7:198.33099 8:198.22701 9:199.244 10:124.177 11:124.027 12:124.413 13:202.539 14:203.371 15:204.586 16:125.359 17:125.828 18:126.443 19:238.924 20:237.60201 21:234.93401 22:141.408 23:140.834 24:140.047 25:237.341 26:237.024 27:238.95399 28:141.877 29:141.48199 30:142.21201 # frame 62
-1.5474404046814527e-012 1:267.008 2:8.2669697 3:312.13 4:170.407 5:29.815399 6:183.15401 7:217.761 8:219.51801 9:219.68401 10:131.651 11:132.024 12:132.198 13:209.625 14:207.689 15:210.035 16:128.70799 17:128.179 18:128.87 19:211.82401 20:213.43401 21:213.08099 22:130.679 23:131.186 24:130.83501 25:228.733 26:231.37199 27:228.196 28:138.21899 29:138.83099 30:137.978 # frame 62
-8.4157061838570046e-012 1:275.96799 2:9.3152905 3:246.16299 4:171.625 5:30.609501 6:160.397 7:203.38 8:205.591 9:205.23399 10:126.41 11:127.158 12:126.878 13:222.73599 14:221.054 15:219.24001 16:134.386 17:133.36501 18:132.806 19:232.57899 20:232.925 21:233.786 22:139.02699 23:138.965 24:139.224 25:235.302 26:235.418 27:234.758 28:140.53 29:140.728 30:140.276 # frame 62
-1.7097867661536403e-012 1:516.229 2:0.27934301 3:258.86899 4:230.452 5:5.2708998 6:171.843 7:228.01601 8:229.905 9:228.539 10:138.448 11:139.013 12:138.38901 13:225.19501 14:224.763 15:224.203 16:137.575 17:137.536 18:136.995 19:229.34599 20:229.68201 21:230.27499 22:139.65199 23:139.75999 24:139.89799 25:237.45599 26:234.18201 27:237.994 28:144.382 29:142.996 30:144.403 # frame 62
1.4542691901937821e-012 1:85.028 2:13.0545 3:235.83299 4:77.615196 5:32.676201 6:156.515 7:212.854 8:206.866 9:210.63499 10:130.186 11:127.811 12:129.18401 13:217.28799 14:216.925 15:216.81 16:131.509 17:131.492 18:131.28999 19:226.668 20:230.409 21:231.80499 22:136.948 23:138.267 24:138.99899 25:226.19701 26:230.75101 27:228.601 28:137.084 29:138.593 30:137.974 # frame 93
7.6252665451404156e-012 1:335.668 2:2.4958799 3:262.91699 4:195.879 5:16.6889 6:173.02699 7:227.89301 8:229.255 9:228.118 10:138.63499 11:139.061 12:138.564 13:224.65199 14:229.153 15:228.02901 16:137.35899 17:139.12601 18:138.493 19:237.425 20:235.64101 21:236.15199 22:142.95 23:142.308 24:142.28999 25:245.57899 26:248.59399 27:247.29401 28:147.034 29:148.42599 30:147.715 # frame 93
-1.6268790404587093e-014 1:348.76001 2:2.43946 3:256.80899 4:199.603 5:16.427401 6:170.714 7:231.28101 8:230.672 9:231.035 10:139.97099 11:139.698 12:139.589 13:227.38499 14:228.882 15:228.59399 16:138.224 17:138.804 18:138.937 19:237.127 20:239.871 21:234.653 22:143.02699 23:144.037 24:142.04401 25:246.366 26:245.711 27:247.142 28:147.125 29:147.069 30:147.595 # frame 93
1.0710681185414371e-012 1:155.927 2:2.3387401 3:216.127 4:86.465599 5:14.8885 6:153.62 7:226.55901 8:224.63 9:225.925 10:137.543 11:136.806 12:137.32201 13:223.10899 14:223.72301 15:222.00301 16:136.403 17:136.696 18:135.987 19:237.871 20:240.86099 21:239.552 22:143.06799 23:144.35899 24:143.629 25:244.952 26:246.63699 27:247.01801 28:146.88499 29:147.72701 30:147.782 # frame 93
1.8174598498834844e-012 1:375.01599 2:2.49033 3:225.235 4:206.952 5:16.4356 6:159.299 7:230.528 8:229.94501 9:230.44701 10:140.11501 11:139.83501 12:140.045 13:229.836 14:228.58701 15:228.786 16:139.55499 17:138.83 18:139.08099 19:236.33501 20:235.078 21:236.19099 22:142.35201 23:142.21201 24:142.37601 25:239.714 26:238.94099 27:239.946 28:144.62399 29:144.293 30:144.58501 # frame 93
6.384437616683304e-012 1:313.00601 2:5.0933199 3:206.91901 4:171.354 5:17.555799 6:149.903 7:227.142 8:224.53799 9:225.36 10:137.367 11:136.15601 12:136.737 13:221.14101 14:220.073 15:222.021 16:135.23199 17:135.024 18:135.645 19:233.386 20:233.274 21:234.565 22:141.392 23:141.476 24:142.27299 25:238.95399 26:241.91901 27:241.02299 28:144.80099 29:145.73 30:145.78101 # frame 139
-7.7568136194064488e-012 1:320.57901 2:13.4159 3:165.573 4:187.06599 5:35.500301 6:135.30701 7:228.00101 8:227.76401 9:230.748 10:137.70399 11:137.599 12:138.632 13:228.366 14:228.78799 15:231.146 16:138.32401 17:138.655 18:139.819 19:236.979 20:237.866 21:237.103 22:143.83 23:144.099 24:143.841 25:237.401 26:238.922 27:239.26199 28:143.873 29:144.726 30:144.784 # frame 139
-3.6427127578236733e-012 1:321.384 2:14.8218 3:127.964 4:191.28101 5:38.799801 6:119.481 7:233.728 8:234.84399 9:233.50101 10:140.644 11:141.207 12:140.589 13:223.76601 14:225.882 15:221.533 16:136.83701 17:137.715 18:135.84801 19:228.31799 20:226.004 21:226.173 22:139.80701 23:138.98801 24:139.017 25:233.101 26:230.72099 27:230.853 28:142.599 29:141.59399 30:141.50301 # frame 139
7.2317995957112898e-013 1:101.078 2:9.47931 3:417.918 4:81.2798 5:26.891399 6:216.97301 7:212.5 8:217.77299 9:214.173 10:130.48599 11:132.244 12:131.12 13:224.05 14:222.813 15:222.214 16:136.323 17:135.245 18:135.25101 19:246.68401 20:244.645 21:243.522 22:146.39101 23:145.388 24:144.76601 25:245.838 26:242.744 27:241.33501 28:147.55901 29:146.17999 30:145.94099 # frame 161
-2.9674884006455101e-012 1:23.8901 2:20.5527 3:160.42101 4:39.484001 5:45.335098 6:131.495 7:231.509 8:235.422 9:235.21899 10:139.976 11:141.237 12:141.201 13:228.327 14:231.45 15:232.276 16:139.08299 17:140.55499 18:140.32899 19:234.953 20:232.786 21:234.19299 22:141.96001 23:141.65601 24:141.567 25:234.84 26:237.61099 27:235.198 28:142.74001 29:144.008 30:143.103 # frame 161
4.1387358865686785e-012 1:340.82001 2:9.6085501 3:161.73 4:196.31599 5:30.396999 6:134.744 7:227.897 8:230.12399 9:228.065 10:137.077 11:137.909 12:137.345 13:226.38699 14:225.47701 15:225.34599 16:137.927 17:137.459 18:137.73199 19:234.604 20:231.40401 21:233.92999 22:141.59599 23:140.386 24:141.504 25:243.778 26:245.386 27:242.483 28:146.10899 29:146.76601 30:145.718 # frame 161
-1.5686375692738282e-012 1:279.741 2:7.2868199 3:112.379 4:151.481 5:23.0399 6:109.01 7:219.98199 8:216.90199 9:216.761 10:133.72 11:132.513 12:132.33099 13:222.896 14:225.117 15:222.342 16:136.655 17:137.63901 18:136.48801 19:240.68401 20:242.536 21:240.966 22:144.554 23:145.916 24:144.64101 25:248.864 26:251.771 27:253.625 28:148.519 29:149.73801 30:150.17799 # frame 161
-6.7390177537992349e-012 1:12.0327 2:28.573 3:258.73999 4:36.2467 5:54.216801 6:167.289 7:230.23399 8:231.37199 9:233.83501 10:139.278 11:139.78999 12:140.67999 13:230.694 14:232.52299 15:229.16701 16:139.353 17:140.476 18:138.802 19:237.841 20:237.25301 21:236.351 22:143.22701 23:143.34801 24:142.927 25:239.522 26:238.05499 27:240.61099 28:144.86301 29:144.26199 30:145.283 # frame 195
5.7514557656563243e-012 1:10.8604 2:20.9853 3:194.88901 4:33.5895 5:46.7043 6:144.851 7:238.61099 8:238.452 9:238.552 10:142.467 11:142.467 12:142.53999 13:233.011 14:232.215 15:233.897 16:140.147 17:140.32001 18:140.806 19:232.495 20:232.408 21:230.17799 22:141.351 23:141.189 24:140.17799 25:236.85201 26:237.855 27:234.35899 28:143.632 29:144.10699 30:142.838 # frame 195
4.2984571754951001e-012 1:46.315399 2:19.565001 3:179.50301 4:45.7542 5:43.571701 6:137.75101 7:230.642 8:227.593 9:229.217 10:139.134 11:137.87 12:138.78101 13:226.741 14:225.961 15:225.272 16:138.11099 17:137.78 18:137.287 19:233.121 20:234.283 21:233.694 22:141.509 23:141.57001 24:141.70399 25:239.658 26:242.92101 27:241.36301 28:144.88699 29:146.14301 30:145.696 # frame 195
-2.2692887424663197e-012 1:24.0126 2:25.0432 3:237.371 4:38.375599 5:49.487202 6:155.241 7:232.248 8:234.02499 9:236.285 10:140.40601 11:140.832 12:141.662 13:223.58 14:229.494 15:225.07201 16:136.67 17:138.73399 18:136.77499 19:233.632 20:230.37601 21:230.386 22:141.131 23:139.677 24:140.03 25:235.69701 26:233.705 27:232.31799 28:143.62601 29:142.567 30:141.853 # frame 195
-1.2117787841970662e-012 1:202.411 2:19.2512 3:242.50301 4:121.585 5:40.1208 6:159.59801 7:231.92 8:227.61099 9:231.869 10:139.72301 11:137.797 12:139.834 13:228.379 14:229.338 15:233.821 16:138.12 17:138.342 18:140.489 19:235.408 20:231.241 21:232.2 22:142.536 23:140.746 24:141.332 25:231.573 26:229.356 27:226.791 28:141.674 29:141.002 30:139.937 # frame 248
3.1390846529677518e-012 1:210.758 2:25.4154 3:245.188 4:129.144 5:48.1129 6:157.98199 7:227.224 8:226.25301 9:225.79601 10:137.103 11:136.541 12:136.50301 13:226.823 14:227.369 15:225.51801 16:137.282 17:137.39799 18:137.228 19:236.203 20:235.233 21:236.438 22:142.881 23:142.39799 24:143.12601 25:236.92999 26:235.317 27:235.30701 28:143.80701 29:143.032 30:143.07201 # frame 248
-1.1780437101362918e-012 1:250.367 2:13.5272 3:209.069 4:137.91901 5:31.889601 6:147.446 7:222.117 8:219.42999 9:222.785 10:136.159 11:135.328 12:136.29201 13:224.284 14:228.09 15:226.02499 16:137.03 17:138.758 18:138.088 19:232.668 20:231.466 21:232.834 22:141.035 23:140.60201 24:140.936 25:245.366 26:245.75101 27:244.584 28:146.91901 29:147.271 30:146.78 # frame 248
3.9998647485331666e-012 1:320.91299 2:8.7947302 3:140.71899 4:179.269 5:29.1803 6:122.69 7:227.97301 8:227.395 9:229.74699 10:138.54201 11:138.45399 12:139.248 13:222.98599 14:227.561 15:231.119 16:136.341 17:138.377 18:139.701 19:236.825 20:235.242 21:236.325 22:143.022 23:142.267 24:142.49699 25:239.52299 26:237.315 27:240.047 28:144.79601 29:143.827 30:144.99001 # frame 248
-5.8391577947238651e-012 1:15.2563 2:56.193699 3:309.203 4:38.563999 5:75.427002 6:178.82899 7:216.642 8:213.882 9:211.642 10:132.41299 11:131.38499 12:130.584 13:219.116 14:214.88699 15:215.83099 16:133.036 17:131.44701 18:131.838 19:226.80099 20:225.998 21:226.577 22:136.431 23:135.7 24:136.354 25:228.98801 26:228.80901 27:230.12399 28:137.869 29:137.92101 30:138.403 # frame 248
-7.1599544307245363e-013 1:18.277399 2:122.081 3:224.399 4:45.173599 5:110.74 6:156.599 7:229.44299 8:224.953 9:226.89301 10:138.827 11:136.924 12:137.631 13:227.85699 14:226.605 15:228 16:138.74899 17:138.06799 18:138.617 19:235.368 20:239.10001 21:237.41 22:142.293 23:143.06599 24:142.62399 25:240.576 26:247.80901 27:246.782 28:145.013 29:147.98399 30:147.425 # frame 248
5.860076236762198e-013 1:547.67297 2:0.62987798 3:285.88501 4:243.44 5:5.2616 6:178.658 7:219.561 8:216.52499 9:216.89301 10:134.411 11:133.112 12:133.244 13:220.394 14:218.371 15:218.58701 16:135.45799 17:134.914 18:135.03999 19:241.584 20:240.54201 21:237.95599 22:144.188 23:143.838 24:142.65601 25:241.129 26:242.28999 27:244.582 28:145.683 29:146.291 30:147.061 # frame 248
-2.4575042667614867e-012 1:305.05801 2:6.4011998 3:325.375 4:177.96001 5:18.584499 6:191.423 7:209.66499 8:208.19701 9:204.99899 10:131.657 11:130.688 12:129.61099 13:210.084 14:211.617 15:212.44701 16:130.073 17:130.662 18:131.19901 19:253.94901 20:253.785 21:253.53 22:149.217 23:149.58501 24:149.448 25:218.439 26:220.319 27:221.03101 28:138.278 29:137.60201 30:137.972 # frame 290
-4.6422000287607522e-012 1:302.62299 2:24.6584 3:217.067 4:183.425 5:49.267799 6:156.91701 7:210.175 8:209.612 9:209.782 10:131.908 11:131.694 12:131.60899 13:208.38499 14:210.005 15:209.948 16:128.8 17:129.118 18:129.32401 19:246.14301 20:246.862 21:244.342 22:147.14 23:147.056 24:146.317 25:214.35699 26:212.52499 27:211.73801 28:135.93401 29:134.564 30:134.873 # frame 290
-1.2515457106282106e-012 1:182.98199 2:14.4065 3:419.46799 4:112.492 5:31.2174 6:214.75 7:216.645 8:216.894 9:204.78 10:130.895 11:130.965 12:125.099 13:221.493 14:220.953 15:215.97701 16:134.92101 17:134.037 18:130.698 19:249.13699 20:232.698 21:237.89301 22:146.758 23:139.67999 24:142.19501 25:226.507 26:229.133 27:222.881 28:139.56799 29:140.812 30:138.02 # frame 311
-1.0227538852622823e-012 1:280.82501 2:9.1272898 3:174.218 4:161.37199 5:29.4466 6:133.985 7:228.446 8:226.34599 9:225.12 10:138.52 11:137.60899 12:137.021 13:223.94501 14:222.263 15:225.08501 16:137.13 17:136.42599 18:137.54601 19:238.245 20:238.82899 21:236.32401 22:143.42 23:143.79601 24:142.834 25:245.062 26:243.09599 27:244.95599 28:146.757 29:146.061 30:146.526 # frame 311
8.1414219825286748e-013 1:142.062 2:16.5823 3:213.82201 4:82.432899 5:39.208801 6:145.968 7:211.08701 8:202.91299 9:202.864 10:130.636 11:127.474 12:127.228 13:217.617 14:214.159 15:213.489 16:134.173 17:132.673 18:132.133 19:254.81 20:257.362 21:253.621 22:150.157 23:151.246 24:149.854 25:238.21201 26:242.53799 27:244.785 28:144.653 29:146.147 30:146.882 # frame 311
3.3595629975815626e-012 1:17.929701 2:55.123001 3:298.67801 4:41.793201 5:74.5243 6:176.11301 7:217.40199 8:217.785 9:218.06599 10:133.002 11:133.104 12:133.14301 13:225.795 14:222.62 15:224.31799 16:135.922 17:134.59599 18:135.283 19:224.62 20:225.289 21:222.271 22:135.097 23:135.737 24:134.367 25:224.688 26:224.922 27:227.21201 28:136.32001 29:136.422 30:137.10899 # frame 311
-2.2185650653482695e-012 1:218.99001 2:5.5283899 3:147.50999 4:120.838 5:22.6569 6:120.677 7:223.16901 8:224.586 9:221.96201 10:135.839 11:136.334 12:135.118 13:225.287 14:225.767 15:222.55901 16:137.073 17:137.302 18:135.83099 19:233.98599 20:235.95399 21:230.786 22:141.528 23:142.438 24:140.461 25:236.01199 26:237.78799 27:235.77699 28:143.38499 29:144.347 30:143.278 # frame 406
-2.4324102069747444e-012 1:58.3755 2:41.017601 3:215.82401 4:60.994801 5:61.4282 6:150.121 7:205.96201 8:197.795 9:197.226 10:128.06599 11:124.696 12:124.497 13:216.16901 14:212.38901 15:210.964 16:132.953 17:131.283 18:131.02299 19:254.894 20:255.907 21:259.186 22:150.382 23:150.733 24:151.797 25:240.649 26:246.638 27:246.112 28:145.442 29:147.797 30:147.528 # frame 406
-5.0752138447546494e-014 1:115.672 2:40.3806 3:209.823 4:83.938797 5:63.310501 6:136.039 7:225.048 8:222.981 9:220.57201 10:136.047 11:135.12399 12:134.065 13:231.47 14:231.172 15:228.99699 16:139.625 17:139.526 18:138.692 19:232.726 20:237.25 21:237.19 22:141.965 23:143.827 24:143.82201 25:221.496 26:222.13699 27:226.242 28:138.41901 29:138.84399 30:140.459 # frame 406
-4.0522758812733671e-012 1:40.881199 2:57.482899 3:331.62201 4:68.3582 5:80.297897 6:193.85899 7:225.39101 8:225.342 9:227.558 10:137.13499 11:137.08 12:137.924 13:231.039 14:229.43401 15:227.89999 16:139.729 17:139.209 18:138.80499 19:238.397 20:235.09399 21:239.34399 22:143.91701 23:142.558 24:143.87199 25:246.804 26:248.276 27:247.907 28:147.26801 29:147.97099 30:147.798 # frame 437
4.8565273212463507e-012 1:17.0431 2:10.9785 3:278.06 4:38.436401 5:32.405201 6:176.73599 7:229.218 8:228.49001 9:228.783 10:138.633 11:138.15199 12:138.142 13:223.271 14:225.987 15:224.18401 16:136.80499 17:137.495 18:136.81599 19:239.442 20:236.746 21:235.08299 22:143.985 23:142.797 24:141.968 25:232.295 26:232.923 27:234.38699 28:142.349 29:142.651 30:143.013 # frame 437
7.6025407087096727e-013 1:5.4677501 2:4.7284598 3:286.689 4:24.450701 5:22.8999 6:180.32899 7:226.463 8:225.83299 9:226.636 10:137.698 11:137.097 12:137.78799 13:227.933 14:225.254 15:227.21201 16:138.51199 17:137.41701 18:138.061 19:237.92999 20:235.17101 21:234.86099 22:143.04401 23:141.94901 24:141.86501 25:239.41 26:241.87399 27:240.466 28:144.66499 29:145.582 30:145.04201 # frame 437
-1.5151142344193726e-012 1:18.920401 2:22.6751 3:231.888 4:45.282001 5:47.577 6:160.73599 7:224.18401 8:228.136 9:226.519 10:136.237 11:137.87 12:137.584 13:221.605 14:224.427 15:225.27699 16:136.08099 17:136.834 18:137.707 19:238.998 20:237.877 21:237.576 22:143.89999 23:143.38 24:142.89 25:244.689 26:243.75101 27:243.76801 28:146.547 29:146.203 30:146.603 # frame 437
9.165603845422739e-012 1:9.1458502 2:8.5215597 3:196.089 4:24.8078 5:30.8727 6:149.07201 7:222.991 8:223.179 9:223.96001 10:135.743 11:135.689 12:135.987 13:222.938 14:225.16499 15:224.14799 16:136.21001 17:137.446 18:136.409 19:237.989 20:235.069 21:236.03 22:143.24001 23:142.19299 24:142.68201 25:232.255 26:231.83099 27:234.261 28:142.032 29:141.75301 30:142.644 # frame 437
-4.6399266034534622e-013 1:201.97099 2:1.31467 3:298.022 4:108.065 5:9.6862001 6:183.082 7:226.521 8:223.662 9:227.60201 10:138.65199 11:137.646 12:139.174 13:226.74699 14:228.64301 15:229.192 16:138.214 17:138.813 18:139.013 19:237.076 20:237.215 21:236.821 22:142.65601 23:142.549 24:142.536 25:240.27699 26:240.32001 27:240.51199 28:144.787 29:144.52901 30:144.855 # frame 467
3.318500990315681e-013 1:39.578999 2:22.8657 3:269.15201 4:67.092201 5:48.989601 6:173.869 7:230.51601 8:231.735 9:231.242 10:139.491 11:139.897 12:139.73801 13:229.651 14:229.157 15:231.786 16:139.289 17:138.959 18:139.937 19:241.149 20:240.87399 21:237.52 22:144.392 23:144.155 24:143.11301 25:244.51199 26:243.21001 27:242.47301 28:146.31799 29:145.985 30:145.63699 # frame 467
-1.6696939985732483e-013 1:134.554 2:5.2658601 3:279.91599 4:73.777802 5:21.1098 6:177.763 7:229.658 8:226.52901 9:227.73599 10:139.259 11:138.228 12:138.592 13:228.15199 14:228.326 15:230.494 16:138.662 17:138.35899 18:139.149 19:236.50101 20:231.944 21:234.342 22:142.701 23:140.69701 24:141.597 25:243.44501 26:244.077 27:244.30901 28:145.983 29:146.21201 30:146.231 # frame 467
-1.0553645440362903e-011 1:203.467 2:3.3959601 3:232.677 4:109.916 5:16.391701 6:160.51801 7:231.731 8:230.961 9:233.327 10:139.993 11:139.63499 12:140.60001 13:225.985 14:230.216 15:224.649 16:138.058 17:139.226 18:137.343 19:229.959 20:228.974 21:227.289 22:139.77699 23:139.265 24:138.614 25:237.25301 26:240.62601 27:240.539 28:143.87 29:145.18401 30:145.15401 # frame 467
-4.7643821475677759e-012 1:39.400002 2:24.614901 3:213.38499 4:66.515999 5:51.428101 6:155.23199 7:221.039 8:220.437 9:224.173 10:134.36301 11:133.776 12:135.412 13:229.05499 14:228.797 15:227.754 16:139.452 17:139.01801 18:138.907 19:237.27 20:237.554 21:238.214 22:143.045 23:142.90199 24:143.22501 25:243.017 26:245.78799 27:243.28101 28:146.032 29:146.97701 30:146.283 # frame 467
3.5070835632829193e-012 1:425.10599 2:0.94813901 3:272.841 4:179.838 5:9.7196999 6:176.15401 7:223.44299 8:226.586 9:226.173 10:135.578 11:136.632 12:136.48399 13:225.808 14:224.786 15:220.49001 16:137.24699 17:137.05499 18:135.255 19:234.843 20:235.392 21:235.455 22:142.283 23:142.494 24:142.33501 25:240.244 26:239.15199 27:240.658 28:144.968 29:144.675 30:145.278 # frame 467
4.7375986714014586e-012 1:227.933 2:17.9221 3:97.564499 4:160.87399 5:44.455002 6:105.304 7:224.362 8:221.088 9:222.039 10:134.627 11:133.65601 12:133.662 13:227.41299 14:227.11 15:224.58299 16:138.24899 17:138.123 18:136.994 19:231.062 20:230.821 21:228.776 22:141.17101 23:141.131 24:140.593 25:224.334 26:226.98801 27:229.92101 28:139.506 29:140.45799 30:141.436 # frame 501
2.2341348562365018e-012 1:168.328 2:24.5742 3:110.207 4:134.989 5:51.214401 6:109.018 7:212.30499 8:211.711 9:212.366 10:128.358 11:127.901 12:128.509 13:209.179 14:207.24699 15:209.556 16:128.174 17:127.371 18:128.685 19:223.834 20:225.51199 21:223.047 22:136.308 23:137.123 24:135.87801 25:225.59399 26:226.489 27:226.123 28:137.213 29:137.50101 30:137.306 # frame 501
-3.8880280805379561e-012 1:302.858 2:11.2336 3:158.321 4:186.041 5:35.326 6:133.905 7:226.174 8:228.698 9:226.27901 10:137.252 11:138.407 12:137.342 13:224.067 14:222.828 15:226.59399 16:137.246 17:136.82201 18:138.461 19:231.70399 20:231.99699 21:231.90601 22:141.30901 23:141.08099 24:141.078 25:242.509 26:238.33501 27:236.76801 28:145.62199 29:144.55701 30:143.66299 # frame 501
8.0794586754094663e-013 1:346.935 2:10.905 3:163.13699 4:198.668 5:34.531898 6:135.778 7:226.67101 8:224.539 9:226.30701 10:137.5 11:136.689 12:137.37801 13:228.12199 14:229.692 15:230.246 16:138.549 17:139.661 18:139.756 19:233.57201 20:235.49899 21:232.711 22:141.744 23:142.69901 24:141.577 25:245.95599 26:246.403 27:244.478 28:147.017 29:147.342 30:146.407 # frame 501
1.5758280816020677e-013 1:312.366 2:10.2982 3:311.703 4:189 5:34.219101 6:188.38901 7:223.355 8:221.60001 9:220.77699 10:135.245 11:134.33 12:133.95399 13:225.459 14:223.397 15:225.274 16:136.907 17:136.228 18:136.929 19:240.304 20:239.965 21:237.105 22:143.836 23:143.899 24:142.782 25:233.408 26:234.571 27:234.11 28:143.035 29:143.468 30:143.323 # frame 567
1.7126133529360768e-012 1:258.67999 2:2.7570801 3:222.021 4:153.58501 5:15.4665 6:158.55099 7:223.97301 8:220.20399 9:222.366 10:135.371 11:133.758 12:134.73399 13:219.41701 14:219.42999 15:219.528 16:135.18201 17:134.797 18:134.98 19:236.561 20:236.43201 21:235.797 22:142.72301 23:142.474 24:142.205 25:239.701 26:240.478 27:238.625 28:144.908 29:145.015 30:144.742 # frame 567
7.9670921309195324e-012 1:350.33099 2:5.6103802 3:255.826 4:200.104 5:24.9956 6:170.728 7:221.028 8:219.718 9:220.37199 10:133.103 11:132.77499 12:133.032 13:222.315 14:223.85001 15:220.877 16:135.83299 17:136.104 18:135.134 19:240.614 20:241.004 21:241.373 22:144.22 23:144.52 24:144.978 25:242.256 26:239.687 27:239.291 28:146.106 29:145.17999 30:144.73599 # frame 567
-3.4274689401420213e-012 1:357.69101 2:4.8713799 3:247.75101 4:202.158 5:23.219 6:167.819 7:222.877 8:220.438 9:221.603 10:134.192 11:133.041 12:133.37601 13:225.10699 14:221.989 15:224.918 16:137.463 17:135.87399 18:137.16 19:238.304 20:236.849 21:236.082 22:142.955 23:142.50101 24:142.323 25:234.869 26:237.89999 27:236.77499 28:143.067 29:144.22501 30:143.526 # frame 567
4.0381271942654649e-012 1:338.42001 2:6.2441502 3:259.13699 4:196.10699 5:26.2153 6:171.795 7:216.69701 8:220.54201 9:217.933 10:131.758 11:133.209 12:132.213 13:216.21201 14:215.373 15:214.229 16:133.87 17:133.68201 18:132.908 19:238.668 20:240.521 21:239.918 22:143.332 23:143.967 24:144.043 25:242.77699 26:243.59 27:240.409 28:146.175 29:146.386 30:145.009 # frame 567
-3.3009038493529388e-012 1:351.35101 2:3.2178299 3:251.08701 4:200.286 5:18.741899 6:168.802 7:223.065 8:222.233 9:222.952 10:135.396 11:135.181 12:135.57899 13:217.563 14:217.87399 15:217.698 16:133.908 17:133.64 18:133.578 19:235.509 20:238.509 21:238.774 22:142.888 23:144.14101 24:144.356 25:234.953 26:237.061 27:235.472 28:143.58299 29:143.80701 30:143.22501 # frame 601
-1.8385591764169646e-012 1:327.13901 2:8.8452101 3:238.242 4:193.36301 5:31.368601 6:163.972 7:221.55701 8:221.98199 9:220.33299 10:134.653 11:134.511 12:133.953 13:214.692 14:217.839 15:214.946 16:132.155 17:133.698 18:132.42999 19:233.379 20:235.597 21:233.53 22:142.745 23:143.464 24:142.797 25:237.127 26:242.731 27:238.64301 28:144.095 29:146.114 30:144.56799 # frame 601
7.1337837112710892e-012 1:345.98001 2:6.3179698 3:253.39301 4:198.82201 5:26.342501 6:169.672 7:217.63699 8:215.78999 9:213.28101 10:133.13 11:131.978 12:130.98199 13:221.28799 14:219.327 15:222.362 16:135.17101 17:134.01801 18:135.48399 19:241.14799 20:238.77901 21:238.063 22:143.642 23:143.38699 24:142.981 25:227.42599 26:231.17 27:231.44501 28:140.72301 29:142.024 30:141.94501 # frame 601
4.9778727770168627e-012 1:351.319 2:6.36308 3:249.30701 4:200.43201 5:26.8039 6:168.23 7:200.29401 8:198.72 9:199.082 10:124.356 11:123.698 12:123.9 13:211.754 14:213.22301 15:211.358 16:130.90199 17:131.504 18:131.097 19:260.96399 20:260.651 21:259.84698 22:151.853 23:151.821 24:151.379 25:237.399 26:237.554 27:240.034 28:143.942 29:144.151 30:144.87399 # frame 601
7.5376683913774594e-013 1:416.34399 2:1.9357001 3:214.661 4:212.173 5:14.2433 6:155.62199 7:219.347 8:216.04201 9:216.702 10:133.72 11:132.047 12:132.61 13:212.18401 14:216.604 15:214.989 16:131.494 17:132.968 18:132.293 19:238.151 20:236.48399 21:239.345 22:143.528 23:143.064 24:144.269 25:227.284 26:230.38 27:229.065 28:140.776 29:141.38699 30:141.005 # frame 661
5.7643285087930671e-012 1:344.64499 2:1.8784 3:221.448 4:187.97501 5:13.1848 6:158.34599 7:221.763 8:217.806 9:220.101 10:133.52901 11:132.036 12:133.005 13:224.467 14:221.239 15:221.009 16:136.321 17:135.019 18:135.054 19:236.39 20:243.17999 21:241.311 22:142.48199 23:144.871 24:144.37801 25:233.132 26:235.67799 27:232.287 28:142.381 29:143.28101 30:142.00999 # frame 661
-2.6732683132125909e-012 1:53.1003 2:47.491299 3:168.44501 4:77.650002 5:72.811699 6:138.504 7:222.345 8:217.297 9:216.763 10:133.347 11:131.13699 12:130.91299 13:224.802 14:222.056 15:223.34599 16:137.366 17:135.448 18:136.244 19:231.343 20:234.54401 21:233.438 22:141.185 23:142.55499 24:142.134 25:232.222 26:227.562 27:228.69 28:142.245 29:139.875 30:140.718 # frame 749
-1.3956240013752994e-013 1:62.531601 2:32.017502 3:150.399 4:84.328796 5:58.896801 6:130.784 7:225.98 8:226.709 9:225.755 10:136.298 11:136.162 12:136.147 13:225.342 14:218.589 15:222.502 16:137.87199 17:134.75101 18:136.319 19:229.34 20:232.09599 21:229.97099 22:140.534 23:141.35001 24:140.709 25:235.10201 26:237.00101 27:236.32201 28:143.16499 29:143.50101 30:143.85201 # frame 759
-1.0553513435568878e-012 1:55.6096 2:25.931499 3:143.532 4:79.181396 5:52.8358 6:127.711 7:224.005 8:226.22099 9:223.401 10:135.42799 11:135.98801 12:135.30299 13:229.65401 14:225.226 15:228.16299 16:139.71001 17:137.62199 18:138.746 19:229.59399 20:230.86501 21:226.845 22:140.468 23:140.70599 24:139.26801 25:232.77 26:234.43201 27:230.46001 28:142.19901 29:142.369 30:141.43201 # frame 759
1.405441911020229e-012 1:50.906399 2:19.9237 3:133.81599 4:75.257401 5:46.342201 6:123.091 7:229.021 8:229.302 9:229.64301 10:138.265 11:138.437 12:138.61099 13:229.239 14:229.022 15:229.63901 16:139.19501 17:138.93401 18:139.567 19:231.66499 20:231.494 21:233.39999 22:141.158 23:141.077 24:141.50999 25:242.644 26:238.36301 27:238.034 28:146.196 29:144.586 30:144.44099 # frame 759
-3.4150544238324223e-012 1:156.422 2:15.8273 3:183.15601 4:116.266 5:34.085899 6:141.99899 7:230.185 8:229.047 9:229.388 10:138.354 11:137.713 12:137.972 13:229.02699 14:226.616 15:230.132 16:139.511 17:138.5 18:139.57201 19:233.005 20:234.088 21:234.118 22:141.70799 23:141.94099 24:142.062 25:236.336 26:235.08501 27:234.989 28:143.922 29:143.261 30:143.427 # frame 824
4.1235641971313749e-013 1:237.07201 2:17.4884 3:218.205 4:141.839 5:32.747898 6:154.535 7:228.673 8:223.517 9:227.172 10:137.134 11:135.222 12:136.70399 13:223.979 14:223.173 15:226.08501 16:137.476 17:136.515 18:138.202 19:234.592 20:235.795 21:232.745 22:141.931 23:142.42 24:141.21001 25:240.01199 26:243.071 27:240.476 28:145.041 29:146.076 30:145.261 # frame 824
1.1792372562473361e-012 1:326.86899 2:5.9717398 3:249.97 4:168.862 5:16.4543 6:166.168 7:223.423 8:219.28799 9:221.24001 10:135.54601 11:133.80099 12:135.00999 13:220.987 14:218.978 15:223.54201 16:135.755 17:134.83501 18:136.95399 19:226.55 20:228.57401 21:231.765 22:138.896 23:139.252 24:140.561 25:242.92799 26:245.80299 27:242.918 28:146.291 29:147.17799 30:146.252 # frame 824
-5.4342929352212177e-013 1:415.44299 2:2.0729899 3:269.66599 4:202.369 5:9.2528 6:172.843 7:207.25301 8:206.453 9:206.304 10:130.252 11:129.575 12:129.589 13:211.606 14:211.536 15:211.819 16:131.35201 17:131.439 18:131.55901 19:248.25101 20:250.589 21:248.425 22:147 23:147.922 24:146.974 25:237.578 26:235.942 27:240.339 28:144.69701 29:143.85001 30:145.729 # frame 824
1.2146970832726345e-012 1:408.25 2:15.2487 3:281.35199 4:189.32899 5:25.575001 6:177.66701 7:204.791 8:211.086 9:207.78 10:128.123 11:130.61501 12:129.17799 13:230.515 14:227.495 15:226.87399 16:140.362 17:138.86 18:138.55701 19:250.549 20:247.81799 21:242.52499 22:149.07201 23:147.707 24:144.849 25:229.886 26:227.51801 27:228.58 28:141.453 29:140.925 30:140.892 # frame 824
-1.8635539670617233e-012 1:479.39301 2:1.15631 3:228.515 4:220.492 5:7.6810999 6:160.142 7:227.826 8:229.68201 9:228.502 10:138.23199 11:139.16 12:138.487 13:232.52499 14:231.85699 15:231.673 16:140.444 17:140.2 18:139.929 19:241.64799 20:242.709 21:239.601 22:144.662 23:144.938 24:143.711 25:244.15401 26:243.033 27:240.80499 28:146.18401 29:146.241 30:145.145 # frame 824
-3.8437515435443163e-012 1:462.41901 2:0.55771202 3:281.728 4:224.289 5:7.1282001 6:177.83501 7:229.222 8:227.991 9:227.595 10:138.455 11:137.918 12:137.782 13:233.375 14:230.015 15:232.457 16:140.52499 17:139.339 18:140.32899 19:236.56799 20:235.592 21:231.37399 22:142.228 23:141.896 24:140.244 25:240.194 26:240.444 27:239.241 28:144.767 29:144.908 30:144.261 # frame 824
2.854512988020298e-012 1:94.577301 2:2.0653501 3:159.338 4:65.506798 5:13.3097 6:131.42999 7:196.673 8:194.51801 9:195.60201 10:122.413 11:121.5 12:121.774 13:196.267 14:195.12601 15:195.713 16:121.689 17:121.286 18:121.737 19:227.94099 20:224.265 21:228.33299 22:138.086 23:136.405 24:137.881 25:212.483 26:210.821 27:208.935 28:132.146 29:131.077 30:130.308 # frame 824
3.4977617808180104e-012 1:401.82101 2:1.00212 3:214.32401 4:208.698 5:10.0862 6:152.418 7:205.35899 8:207.20799 9:205.42999 10:125.756 11:126.562 12:126.035 13:216.53101 14:215.561 15:214.847 16:131.369 17:130.87 18:130.618 19:230.229 20:229.819 21:226.123 22:138.222 23:137.929 24:136.375 25:211.673 26:213.78101 27:211.957 28:132.14301 29:132.82001 30:132.32201 # frame 837
8.4386678785179984e-013 1:461.186 2:1.2729501 3:225.26601 4:223.56 5:11.3183 6:156.468 7:186.677 8:182.54601 9:188.791 10:120.076 11:118.331 12:120.963 13:181.28799 14:182.737 15:183.907 16:114.319 17:114.406 18:115.285 19:235.993 20:235.058 21:232.216 22:141.03101 23:140.63901 24:139.836 25:200.043 26:201.13901 27:198.52299 28:128.599 29:128.638 30:128.129 # frame 996
-1.5529876668204565e-012 1:482.117 2:1.65477 3:227.54601 4:228.468 5:13.0098 6:157.248 7:187.162 8:189.086 9:192.521 10:119.445 11:120.192 12:122.031 13:183.87 14:185.341 15:187.817 16:115.449 17:115.906 18:117.117 19:232.55701 20:231.474 21:235.75101 22:139.612 23:139.235 24:140.51801 25:204.914 26:206.202 27:200.772 28:130.507 29:130.19 30:128.939 # frame 996
-9.538350479924925e-013 1:512.03497 2:1.68167 3:226.605 4:235.062 5:13.2098 6:156.922 7:184.717 8:184.217 9:186.881 10:117.586 11:117.652 12:118.848 13:184.14999 14:182.842 15:184.399 16:114.882 17:113.971 18:114.734 19:239.979 20:241.894 21:249.252 22:142.461 23:143.04401 24:145.578 25:209.601 26:209.71001 27:203.601 28:132.121 29:131.883 30:129.908 # frame 996
3.0591946719841143e-012 1:457.67401 2:1.43305 3:196.11301 4:222.03799 5:11.9364 6:145.55099 7:181.995 8:184.49001 9:182.427 10:117.722 11:118.383 12:117.747 13:186.864 14:185.282 15:183.658 16:117.781 17:117.391 18:116.62 19:226.222 20:225.22099 21:224.80701 22:137.049 23:136.733 24:136.285 25:205.08701 26:204.83299 27:207.694 28:130.146 29:129.341 30:130.576 # frame 1091
-5.9248047402620529e-012 1:440.40201 2:1.75959 3:184.59801 4:217.67999 5:13.2372 6:141.39799 7:187.28799 8:187.429 9:187.533 10:119.375 11:119.407 12:119.538 13:199.19 14:199.59801 15:199.353 16:123.145 17:122.858 18:123.059 19:228.658 20:235.134 21:232.742 22:137.517 23:140.069 24:138.892 25:198.83099 26:199.16701 27:197.67999 28:127.329 29:126.963 30:126.597 # frame 1091
1.8190277503620665e-012 1:463.048 2:0.654163 3:295.73801 4:229.774 5:8.2985001 6:183.55 7:226.44299 8:224.94901 9:226.883 10:137.73399 11:137.129 12:137.853 13:222.35699 14:221.88901 15:224.33099 16:135.679 17:135.40601 18:136.58299 19:235.743 20:234.49001 21:235.58099 22:142.144 23:141.675 24:142.12801 25:236.60699 26:236.422 27:236.33099 28:143.493 29:143.662 30:143.627 # frame 1180
-2.5252914111963275e-012 1:455.009 2:0.840415 3:297.22101 4:227.93201 5:9.4316998 6:183.948 7:234.077 8:235.222 9:234.16299 10:140.67799 11:141.05 12:140.67599 13:222.49699 14:224.493 15:224.108 16:136.121 17:136.813 18:136.78799 19:230.70799 20:232.381 21:233.552 22:139.895 23:140.498 24:140.689 25:234.786 26:235.642 27:235.311 28:143.173 29:143.72501 30:143.405 # frame 1180
-3.9798117497111745e-013 1:480.43399 2:0.93885797 3:287.21301 4:234.021 5:10.0172 6:180.82001 7:233.269 8:231.54401 9:232.151 10:139.634 11:139.12601 12:139.30099 13:225.655 14:227.10699 15:226.71201 16:137.72301 17:138.12801 18:138.09399 19:236.213 20:234.308 21:234.502 22:141.481 23:140.901 24:140.662 25:237.972 26:237.88699 27:236.814 28:144.28999 29:144.196 30:143.70799 # frame 1180
3.3512541723584733e-012 1:517.22498 2:1.0319 3:268.853 4:242.539 5:10.4705 6:174.59399 7:234.69501 8:235.17 9:233.493 10:139.89 11:140.11099 12:139.638 13:225.539 14:224.929 15:225.34599 16:137.606 17:137.617 18:137.319 19:236.25 20:234.226 21:233.91499 22:141.584 23:140.98 24:140.69099 25:244.446 26:245.41299 27:242.362 28:146.74001 29:147.175 30:146.27299 # frame 1180
-4.5242625681958484e-012 1:518.034 2:0.80271798 3:268.314 4:242.778 5:9.0790005 6:174.26199 7:229.507 8:228.961 9:228.856 10:137.72501 11:137.511 12:137.42 13:228.72099 14:230.821 15:230.271 16:138.619 17:139.439 18:139.153 19:236.422 20:235.605 21:235.142 22:141.97701 23:141.466 24:141.43401 25:242.028 26:242.13 27:243.808 28:145.745 29:145.87601 30:146.467 # frame 1180
-8.4318348046379205e-012 1:380.84399 2:0.77859002 3:247.022 4:179.588 5:7.2329998 6:167.84399 7:212.84801 8:215.17599 9:213.44901 10:133.228 11:134.11501 12:133.336 13:219.37801 14:214.564 15:217.627 16:134.416 17:132.19 18:133.355 19:244.573 20:240.668 21:241.74899 22:145.323 23:143.968 24:144.04401 25:223.728 26:222.411 27:222.125 28:139.82201 29:139.192 30:138.97301 # frame 1206
1.4649700057626556e-013 1:56.612499 2:20.861 3:172.024 4:62.370998 5:44.7612 6:139.683 7:227.409 8:227.05701 9:226.03799 10:137.429 11:137.23599 12:136.77499 13:234.991 14:228.188 15:228.25101 16:141.88499 17:138.588 18:138.8 19:235.843 20:235.634 21:236.155 22:142.797 23:142.257 24:142.85699 25:239.7 26:238.408 27:237.53101 28:145.01401 29:144.345 30:144.08299 # frame 1206
2.0187714174436286e-013 1:63.9743 2:24.548 3:149.41299 4:67.108597 5:48.478401 6:130.14799 7:227.04201 8:230.629 9:228.08299 10:137.202 11:138.76199 12:137.60001 13:233.07201 14:231.66 15:230.782 16:141.15601 17:140.101 18:140.19299 19:231.84801 20:230.32001 21:232.968 22:140.395 23:139.95599 24:141.04601 25:243.967 26:242.27499 27:245.692 28:146.411 29:146.077 30:147.315 # frame 1206
1.7935697977775914e-012 1:326.604 2:9.3304195 3:185.013 4:193.125 5:27.5627 6:134.183 7:213.60201 8:216.787 9:215.77699 10:133.395 11:134.642 12:134.427 13:215.444 14:217.924 15:215.692 16:132.205 17:133.27 18:132.214 19:240.63499 20:240.07201 21:239.70599 22:143.51801 23:143.272 24:143.097 25:217.957 26:218.058 27:215.565 28:137.27901 29:137.57201 30:136.70599 # frame 1232
-5.9768548081833207e-012 1:346.71399 2:10.8074 3:186.78799 4:197.269 5:25.7551 6:140.405 7:227.86 8:228.485 9:226.037 10:138.869 11:139.23399 12:138.19 13:219.783 14:219.851 15:219.73801 16:134.424 17:134.733 18:134.608 19:230.052 20:228.65401 21:232.19901 22:140.257 23:140.257 24:140.98801 25:221.877 26:222.371 27:222.62399 28:138.647 29:138.867 30:138.985 # frame 1232
-9.5876909710969662e-014 1:314.298 2:180.119 3:165.815 4:188.248 5:138.924 6:135.46201 7:193.79401 8:198.17999 9:204.636 10:122.52 11:124.118 12:127.191 13:209.804 14:215.036 15:213.745 16:130.12 17:132.843 18:132.071 19:249.17799 20:250.69901 21:243.39101 22:148.008 23:148.869 24:145.694 25:224.912 26:229.466 27:230.73599 28:139.317 29:141.73599 30:141.929 # frame 1232
-2.4051458676002019e-012 1:348.70801 2:9.3987398 3:205.339 4:196.076 5:24.0319 6:145.701 7:226.52299 8:224.229 9:224.07001 10:137.821 11:136.651 12:136.661 13:220.866 14:221.077 15:222.40199 16:135.418 17:135.64301 18:136.062 19:229.101 20:227.065 21:229.679 22:140.409 23:139.58299 24:140.70399 25:230.44501 26:230.55901 27:233.68401 28:141.271 29:141.505 30:142.673 # frame 1301
3.6928614626042321e-013 1:303.54901 2:5.6202202 3:150.31 4:185.65401 5:24.8913 6:129.795 7:226.442 8:225.451 9:225.203 10:137.72701 11:137.267 12:137.201 13:215.265 14:215.01601 15:215.63901 16:132.50301 17:132.26801 18:132.662 19:230.547 20:228.597 21:231.423 22:141.215 23:140.60699 24:141.62601 25:225.66701 26:228.271 27:227.98 28:139.23801 29:140.269 30:140.05701 # frame 1301
3.8197373720647372e-012 1:271.79999 2:7.94909 3:168.179 4:176.092 5:29.8409 6:138.062 7:228.547 8:227.30499 9:227.806 10:137.287 11:136.87199 12:136.825 13:222.606 14:224.00101 15:222.633 16:135.867 17:136.369 18:135.92799 19:232.38699 20:232.705 21:233.563 22:141.69701 23:141.793 24:142.02699 25:236.711 26:237.65601 27:237.401 28:143.41499 29:143.65601 30:143.483 # frame 1301
-6.8681584452832396e-012 1:262.73801 2:8.5041103 3:179.76601 4:173.34399 5:30.9408 6:143.105 7:226.43401 8:225.39 9:225.761 10:136.196 11:135.888 12:136.065 13:219.714 14:219.813 15:220.77299 16:134.688 17:134.812 18:135.34 19:233.371 20:232.881 21:229.86301 22:141.743 23:141.53 24:140.218 25:238.172 26:238.159 27:239.933 28:144.25 29:144.09599 30:144.827 # frame 1301
-7.7808956388191786e-012 1:263.27701 2:7.5095201 3:185.08299 4:173.45799 5:29.024599 6:145.233 7:227.214 8:226.369 9:225.985 10:136.495 11:136.155 12:136.03101 13:221.744 14:218.783 15:219.453 16:135.597 17:134.325 18:134.52499 19:238.545 20:236.922 21:239.028 22:143.52499 23:143.07001 24:143.79401 25:239.815 26:238.582 27:239.55701 28:144.908 29:144.51401 30:144.94099 # frame 1301
1.3082108145188935e-011 1:292.43301 2:10.6334 3:140.985 4:182.537 5:34.075802 6:126.01 7:232.58501 8:233.147 9:232.619 10:139.979 11:140.424 12:140.146 13:226.384 14:226.27299 15:228.522 16:138.20799 17:138.10001 18:139.12199 19:229.09399 20:228.897 21:229.03799 22:140.12399 23:139.879 24:140.12399 25:235.873 26:233.834 27:234.209 28:143.104 29:142.431 30:142.48801 # frame 1352
-1.1804511544023433e-011 1:316.22601 2:7.7818499 3:181.72 4:189.966 5:28.7195 6:143.179 7:232.14799 8:232.76801 9:231.64301 10:140.091 11:140.243 12:139.83501 13:226.81599 14:227.19501 15:225.04201 16:138.15601 17:138.56599 18:137.662 19:234.12399 20:233.401 21:234.075 22:141.964 23:141.57401 24:141.967 25:243.033 26:245.30099 27:243.759 28:145.908 29:146.685 30:146.38 # frame 1352
5.8084540191615426e-012 1:357.22601 2:10.2503 3:187.411 4:200.021 5:25.995399 6:144.311 7:235.502 8:233.064 9:234.907 10:141.577 11:140.75 12:141.239 13:230.922 14:230.964 15:228.84399 16:139.87801 17:139.78799 18:138.972 19:235.25 20:232.73599 21:233.244 22:142.589 23:141.70799 24:141.62601 25:242.972 26:243.78101 27:244.558 28:146.256 29:146.567 30:146.769 # frame 1352
6.3900041251947017e-012 1:345.66699 2:8.4448099 3:204.517 4:195.617 5:21.138399 6:147.702 7:232.356 8:232.438 9:233.882 10:139.812 11:139.573 12:140.145 13:237.321 14:237.118 15:240.70399 16:142.189 17:142.23 18:143.51401 19:228.433 20:231.64 21:233.517 22:139.233 23:140.465 24:141.077 25:236.33501 26:238.18201 27:238.52299 28:143.737 29:144.218 30:144.386 # frame 1352
-3.8766063436397407e-012 1:364.99701 2:3.5007701 3:173.564 4:203.492 5:19.073799 6:139.364 7:229.519 8:229.737 9:230.20399 10:137.993 11:138.11099 12:138.52499 13:234.15601 14:232.75101 15:232.882 16:140.925 17:140.44901 18:140.27499 19:229.33701 20:233.494 21:232.541 22:139.411 23:141.188 24:140.877 25:238.979 26:242.27299 27:238.05299 28:144.554 29:145.653 30:143.939 # frame 1352
-3.1161643835842312e-012 1:21.189699 2:22.6427 3:297.134 4:48.598598 5:48.692902 6:184.08501 7:225.27 8:227.03101 9:226.036 10:136.11099 11:136.832 12:136.418 13:220.686 14:221.42101 15:224.33 16:135.53 17:136.033 18:137.134 19:229.377 20:230.86099 21:227.929 22:140.092 23:140.519 24:139.362 25:240.368 26:243.52299 27:238.99699 28:145.145 29:146.467 30:144.52 # frame 1387
5.2076954807374975e-012 1:12.4449 2:10.0983 3:312.85001 4:36.586201 5:33.079399 6:188.808 7:224.05299 8:225.306 9:224.62601 10:136.342 11:136.85699 12:136.524 13:223.196 14:224.097 15:222.29601 16:136.62801 17:136.841 18:135.927 19:231.192 20:234.166 21:235.89301 22:140.772 23:141.606 24:142.198 25:240.522 26:240.61301 27:241.839 28:145.283 29:145.576 30:145.912 # frame 1387
1.9479685151695794e-012 1:157.061 2:4.9078102 3:239.46201 4:93.916199 5:20.9526 6:163.72701 7:227.91 8:228.728 9:228.46201 10:137.629 11:138.12601 12:137.964 13:222.703 14:227.92599 15:229.498 16:135.776 17:138.28799 18:138.99699 19:234.438 20:240.069 21:239.689 22:142.026 23:144.147 24:143.795 25:241.56799 26:242.729 27:240.83701 28:145.849 29:146.383 30:145.436 # frame 1387
6.6921219074625757e-014 1:321.237 2:8.9628201 3:152.879 4:191.50101 5:30.910801 6:131.117 7:232.05299 8:231.845 9:231.556 10:139.44099 11:139.61 12:139.339 13:225.58701 14:228.52699 15:227.71201 16:137.92 17:138.95 18:138.373 19:232.336 20:234.86301 21:235.795 22:141.159 23:142.076 24:142.47 25:241.755 26:242.07001 27:240.84801 28:145.619 29:145.7 30:145.21201 # frame 1387
-3.5019951518767453e-014 1:342.97101 2:6.3653798 3:167.895 4:197.55099 5:25.6336 6:137.254 7:232.231 8:233.793 9:234.603 10:139.24899 11:139.99001 12:140.177 13:229.132 14:230.74001 15:228.517 16:139.009 17:139.98 18:138.73399 19:228.495 20:227.92599 21:228.34599 22:139.69901 23:139.235 24:139.54401 25:241.23599 26:238.40401 27:238.235 28:145.422 29:144.543 30:144.271 # frame 1387
1.7184458714657492e-013 1:95.997704 2:3.79322 3:310.332 4:54.659801 5:19.225599 6:187.304 7:226.97501 8:229.647 9:226.356 10:137.618 11:138.965 12:137.549 13:223.90601 14:224.875 15:225.886 16:136.774 17:137.452 18:137.44299 19:231.48 20:237.511 21:235.241 22:140.694 23:143.259 24:141.88901 25:243.476 26:243.297 27:241.424 28:146.35699 29:146.27299 30:145.369 # frame 1409
1.5304906242285053e-011 1:73.3573 2:4.46456 3:278.92999 4:44.140999 5:21.679701 6:177.953 7:228.06799 8:225.01801 9:223.71201 10:138.02 11:136.617 12:136.205 13:221.283 14:224.493 15:218.74001 16:135.177 17:136.414 18:134.27499 19:237.561 20:236.627 21:234.088 22:143.409 23:143.03799 24:141.57899 25:238.14 26:240.84 27:242.2 28:144.45399 29:145.43401 30:146.097 # frame 1409
-9.6593799602410981e-013 1:42.465 2:5.57162 3:247.658 4:32.199001 5:24.149401 6:167.828 7:223.495 8:224.01601 9:223.983 10:135.339 11:135.638 12:135.638 13:223.173 14:223.384 15:224.953 16:136.09 17:135.965 18:136.62 19:233.39301 20:236.72 21:233.461 22:141.80499 23:142.72701 24:141.375 25:234.686 26:235.38901 27:235.62 28:143.039 29:143.47701 30:143.487 # frame 1409
-8.6928531706429823e-012 1:32.812 2:4.5255098 3:243.123 4:29.409201 5:21.913099 6:166.386 7:216.39101 8:217.55299 9:216.709 10:131.827 11:132.13499 12:131.83299 13:220.63699 14:220.274 15:217.752 16:134.994 17:134.54401 18:133.71899 19:237.26801 20:238.996 21:238.92799 22:143.75 23:144.472 24:144.047 25:238.74899 26:238.263 27:240.987 28:144.57201 29:144.522 30:145.62199 # frame 1409
7.2741185938845848e-012 1:58.502899 2:4.5258098 3:226.32401 4:37.864799 5:21.6166 6:160.506 7:212.011 8:211.09801 9:210.19701 10:130.39301 11:129.883 12:129.655 13:214.608 14:213.94501 15:215.133 16:132.46899 17:132.02499 18:132.62 19:245.55099 20:243.271 21:244.661 22:146.537 23:145.56 24:146.13499 25:236.814 26:239.048 27:236.02901 28:143.97099 29:144.44099 30:143.63 # frame 1409
-5.4757684003625386e-012 1:75.777298 2:5.13484 3:208.737 4:45.077999 5:23.0954 6:154.054 7:209.869 8:205.98 9:205.98801 10:129.164 11:127.573 12:127.364 13:220.255 14:217.12601 15:216.021 16:134.48599 17:133.10699 18:132.67 19:247.20799 20:247.98399 21:248.569 22:147.364 23:147.78999 24:147.901 25:235.14101 26:236.97701 27:236.282 28:143.23199 29:143.765 30:143.705 # frame 1409
-2.0473088474593796e-012 1:5.16078 2:15.4732 3:606.89899 4:24.2001 5:41.8965 6:263.245 7:204.89999 8:204.60001 9:204.36 10:130.30099 11:129.976 12:130.08299 13:207.957 14:198.52 15:198.467 16:129.355 17:123.602 18:123.736 19:246.24001 20:252.485 21:249.218 22:145.452 23:148.10201 24:146.80099 25:227.87 26:224.31799 27:224.16701 28:140.659 29:140.084 30:139.74001 # frame 1442
1.1942703798300955e-012 1:5.1609502 2:17.445801 3:596.80499 4:24.2302 5:44.544102 6:261.01901 7:212.61501 8:210.76401 9:211.196 10:133.028 11:132.269 12:132.562 13:218.5 14:209.358 15:207.709 16:133.99001 17:128.52901 18:128.04201 19:238.006 20:242.19501 21:241.90601 22:142.65601 23:144.28799 24:143.981 25:230.23801 26:228.218 27:228.96001 28:141.646 29:141.27299 30:141.521 # frame 1442
6.7526985646576385e-012 1:5.0557098 2:20.4688 3:568.711 4:23.993601 5:48.2048 6:254.589 7:217.61099 8:212.71201 9:213.584 10:134.60899 11:132.60201 12:132.97099 13:219.30701 14:215.604 15:211.12801 16:134.347 17:132.159 18:129.505 19:236.608 20:240.774 21:241.994 22:142.327 23:143.98199 24:144.354 25:229.66 26:229.08701 27:229.063 28:141.08299 29:141.106 30:141.105 # frame 1442
-2.9016205676041618e-012 1:5.4148898 2:23.4547 3:538.39899 4:24.8736 5:51.728401 6:247.952 7:221.722 8:217.722 9:217.845 10:135.399 11:133.93201 12:133.841 13:218.67101 14:218.325 15:209.32001 16:133.864 17:133.66901 18:128.612 19:234.502 20:234.608 21:236.912 22:141.69701 23:141.66901 24:142.442 25:237.474 26:236.812 27:237.13 28:143.588 29:143.59599 30:143.922 # frame 1442
-7.9264702077102732e-012 1:5.3650999 2:25.1362 3:527.19 4:24.745501 5:53.5522 6:245.442 7:222.435 8:218.267 9:218.563 10:135.255 11:133.87 12:134.048 13:215.43401 14:213.121 15:204.383 16:132.716 17:131.533 18:126.812 19:244 20:243.338 21:247.729 22:144.47099 23:144.218 24:145.86301 25:232.31 26:235.588 27:233.034 28:142.116 29:143.495 30:142.711 # frame 1442
8.9288008990983192e-012 1:5.5366602 2:27.0875 3:499.314 4:25.1444 5:55.567402 6:238.77499 7:221.84801 8:221.80499 9:222.26801 10:135.351 11:135.37199 12:135.802 13:219.12199 14:218.073 15:212.845 16:134.276 17:133.58099 18:130.72 19:241.01199 20:239.847 21:243.259 22:143.877 23:143.552 24:144.952 25:235.231 26:236.702 27:235.369 28:143.21201 29:143.455 30:143.214 # frame 1442
-3.9404876842550131e-012 1:5.4022398 2:28.5564 3:477.40799 4:24.823799 5:57.048901 6:233.45399 7:221.40199 8:223.463 9:222.06 10:134.875 11:135.63499 12:135.248 13:222.062 14:221.403 15:217.21899 16:135.811 17:135.65401 18:133.353 19:240.67 20:240.048 21:242.672 22:143.55499 23:143.51401 24:144.515 25:239.377 26:238.62199 27:239.901 28:144.98399 29:144.375 30:145.116 # frame 1442
2.1174482805969906e-012 1:5.5772099 2:28.195999 3:445.90201 4:25.212601 5:56.675301 6:225.08501 7:219.714 8:220.215 9:219.032 10:133.80299 11:133.86301 12:133.80901 13:215.29401 14:212.983 15:211.183 16:132.866 17:131.647 18:130.254 19:244.38699 20:243.927 21:245.207 22:145.256 23:145.14301 24:145.60201 25:237.657 26:240.23199 27:238.739 28:144.463 29:144.802 30:144.629 # frame 1442
4.848954228045924e-012 1:11.6466 2:17.854799 3:313.24701 4:36.078999 5:44.3908 6:187.718 7:230.92599 8:232.052 9:234.283 10:139.72099 11:139.99001 12:140.868 13:225.241 14:228.66701 15:226.42599 16:137.56799 17:138.99001 18:137.825 19:232.522 20:232.536 21:233.673 22:140.95799 23:140.78999 24:141.252 25:242.463 26:242.575 27:244.601 28:145.687 29:145.537 30:146.386 # frame 1478
-9.4942774360043076e-012 1:8.52596 2:14.3329 3:333.20599 4:30.846399 5:40.006901 6:193.79601 7:231.22 8:229.44501 9:229.024 10:139.86301 11:139.47099 12:139.125 13:227.11301 14:227.33299 15:225.237 16:138.29401 17:138.26801 18:137.33701 19:235.3 20:232.961 21:233.006 22:142.106 23:141.16499 24:141.53 25:243.545 26:245.23 27:242.92599 28:146.35699 29:146.98199 30:145.985 # frame 1478
-8.416242910583804e-013 1:11.6955 2:11.2986 3:298.634 4:28.262501 5:34.7061 6:181.767 7:230.427 8:231.23599 9:230.27699 10:140.12199 11:140.485 12:139.87601 13:227.79401 14:228.12199 15:228.092 16:138.79201 17:138.81799 18:138.843 19:235.967 20:235.911 21:235.259 22:141.741 23:142.216 24:141.871 25:242.308 26:245.136 27:245.481 28:145.399 29:146.621 30:146.636 # frame 1478
4.5451587102771489e-012 1:22.2372 2:10.9672 3:285.349 4:29.3421 5:32.829899 6:176.336 7:227.21899 8:228.996 9:226.498 10:138.95 11:139.786 12:138.5 13:226.327 14:226.12801 15:226.995 16:138.351 17:137.965 18:138.476 19:231.186 20:229.655 21:231.14301 22:140.895 23:140.314 24:140.675 25:241.74699 26:240.435 27:240.717 28:145.263 29:144.918 30:144.933 # frame 1478
-4.1488710019312915e-012 1:10.2036 2:18.384199 3:243.745 4:30.014601 5:43.423302 6:162.69099 7:224.60899 8:225.091 9:223.563 10:138.20399 11:138.48599 12:137.82401 13:229.327 14:227.535 15:231.683 16:139.76401 17:138.614 18:140.248 19:237.13699 20:235.616 21:232.994 22:142.87601 23:142.31799 24:141.13901 25:240.35001 26:240.467 27:240.799 28:145.07899 29:145.28101 30:145.039 # frame 1478
5.0825339228216271e-012 1:331.01199 2:5.08181 3:250.916 4:168.618 5:15.4383 6:168.755 7:224.483 8:226.327 9:226.672 10:137.105 11:137.64101 12:138.01401 13:226.88901 14:230.694 15:230.41701 16:138.049 17:139.453 18:139.60001 19:235.258 20:232.862 21:237.123 22:142.328 23:141.19099 24:142.883 25:241.08099 26:240.03999 27:241.66701 28:145.68401 29:145.15601 30:145.741 # frame 1542
8.4840062466518255e-013 1:509.92499 2:0.29276901 3:257.67099 4:239.61501 5:5.6413002 6:171.548 7:212.59 8:216.192 9:211.44299 10:133.118 11:134.411 12:132.582 13:214.67999 14:213.37 15:213.965 16:131.964 17:131.40199 18:131.649 19:243.077 20:241.875 21:245.17 22:144.927 23:144.961 24:146.047 25:224.16701 26:225.117 27:224.429 28:140.005 29:140.155 30:139.88499 # frame 1542
-4.7382221413364924e-012 1:508.633 2:0.378508 3:254.416 4:241.07899 5:6.3383999 6:170.455 7:212.508 8:210.98399 9:211.702 10:132.62399 11:132.22099 12:132.34399 13:207.774 14:208.21899 15:210.356 16:129.40401 17:129.40401 18:130.218 19:238.464 20:235.631 21:239.159 22:143.01401 23:142.513 24:143.343 25:227.533 26:226.58701 27:228.215 28:141.239 29:140.714 30:141.35899 # frame 1542
-2.6764315797860685e-012 1:517.104 2:0.33895099 3:251.145 4:242.899 5:6.0685 6:169.205 7:222.53999 8:223.95399 9:222.131 10:136.58299 11:137.10201 12:136.44901 13:214.793 14:214.509 15:213.61099 16:132.03101 17:131.85001 18:131.47 19:236.694 20:237.686 21:236.98801 22:143.28799 23:144.17101 24:143.49899 25:230.45399 26:233.733 27:230.02499 28:141.951 29:142.83299 30:141.778 # frame 1542
5.6073941549622326e-012 1:522.34003 2:0.34509099 3:242.245 4:244.149 5:6.1163001 6:166.207 7:222.09399 8:222.36301 9:222.38499 10:136.047 11:136.198 12:136.147 13:215.16901 14:216.27699 15:215.56 16:132.45399 17:133.02299 18:132.66 19:237.439 20:238.16901 21:239.368 22:143.015 23:143.494 24:143.737 25:232.326 26:232.20399 27:233.392 28:142.50999 29:142.485 30:142.73599 # frame 1542
1.0008503322163285e-013 1:528.66498 2:0.31989101 3:248.119 4:245.63 5:5.8990998 6:168.293 7:216.80299 8:215.646 9:214.965 10:133.933 11:133.424 12:133.093 13:214.52699 14:216.106 15:215.019 16:132.26401 17:132.916 18:132.28101 19:244.567 20:242.399 21:242.735 22:145.179 23:144.42799 24:144.439 25:233.30901 26:234.037 27:233.95799 28:142.487 29:142.646 30:142.54401 # frame 1542
3.2217684768876365e-012 1:529.67401 2:0.35596499 3:232.92 4:243.84801 5:6.1108999 6:162.793 7:221.93201 8:220.98 9:221.27901 10:135.94 11:135.472 12:135.688 13:220.754 14:219.496 15:220.38 16:134.92 17:134.351 18:134.504 19:240.54201 20:241.078 21:241.36301 22:144.16701 23:144.42599 24:144.543 25:232.591 26:235.36301 27:230.63901 28:142.20599 29:143.23199 30:141.40601 # frame 1542
1.0004074656735866e-012 1:268.724 2:68.312103 3:145.79601 4:174.92999 5:87.6828 6:127.702 7:199.47 8:205.27 9:205.47301 10:126.216 11:129.131 12:128.701 13:207.69701 14:217.049 15:212.41499 16:129.058 17:133.651 18:131.8 19:252.53999 20:244.5 21:254.39799 22:148.95399 23:145.52 24:149.93201 25:232.136 26:222.173 27:235.74699 28:142.502 29:138.92999 30:144.228 # frame 1572
2.5703370629840477e-012 1:250.535 2:44.345402 3:114.26 4:168.045 5:64.8993 6:109.86 7:217.74899 8:215.66299 9:223.405 10:133.526 11:133.188 12:135.40401 13:221.627 14:220.83501 15:226.39101 16:136.513 17:136.05299 18:138.39101 19:242.526 20:239.96001 21:237.3 22:145.36301 23:144.013 24:142.793 25:246.446 26:242.877 27:241.231 28:147.52 29:146.33099 30:145.377 # frame 1572
-4.9240390468245323e-012 1:223.32899 2:28.976299 3:83.309196 4:157.16299 5:49.6021 6:92.230797 7:229.62399 8:228.66499 9:230.43401 10:139.576 11:139.228 12:139.744 13:234.888 14:237.47301 15:237.89101 16:141.937 17:142.73199 18:142.903 19:236.976 20:233.86501 21:234.467 22:142.903 23:141.472 24:141.40601 25:241.425 26:239.791 27:241.27 28:145.44 29:144.53999 30:145.161 # frame 1572
4.4224290886703382e-012 1:237.927 2:13.3792 3:60.868401 4:157.121 5:34.195301 6:81.015602 7:231.312 8:234.73599 9:229.88499 10:139.909 11:140.868 12:139.164 13:230.908 14:233.382 15:232.453 16:140.11501 17:141.172 18:140.746 19:235.63 20:235.814 21:235.883 22:142.36301 23:142.34 24:142.269 25:244.291 26:243.30499 27:244.485 28:146.586 29:146.39101 30:146.60201 # frame 1572
-7.3315579867306333e-013 1:43.2006 2:39.171799 3:476.64499 4:67.117897 5:65.646301 6:232.673 7:214.483 8:212.763 9:212.063 10:131.092 11:130.702 12:130.17599 13:223.489 14:217.67101 15:223.46001 16:137.062 17:134.37601 18:136.77299 19:234.745 20:233.875 21:237.979 22:142.16701 23:141.439 24:143.388 25:235.494 26:239.466 27:237.63 28:143.022 29:144.912 30:143.99001 # frame 1589
-1.747307208067192e-012 1:36.019001 2:41.026901 3:446.26501 4:63.821301 5:66.824303 6:224.18201 7:214.776 8:220.573 9:223.605 10:132.07201 11:134.231 12:134.908 13:231.961 14:229.64301 15:230.026 16:140.71899 17:139.314 18:139.63901 19:237.54401 20:240.91901 21:237.548 22:142.939 23:144.159 24:142.89999 25:236.19099 26:241.754 27:239.82201 28:143.78101 29:145.649 30:144.646 # frame 1589
6.3252129064242351e-012 1:30.351299 2:39.298302 3:461.85699 4:58.4333 5:64.833199 6:228.722 7:215.817 8:222.67 9:220.14999 10:132.297 11:135.017 12:133.976 13:225.30099 14:221.71899 15:224.698 16:137.74001 17:136.453 18:137.21001 19:236.84801 20:240.235 21:239.98399 22:142.632 23:143.547 24:143.30901 25:237.494 26:245.55499 27:240.563 28:144.132 29:147.399 30:145.214 # frame 1589
-3.960748813751827e-012 1:27.1415 2:34.350201 3:432.98199 4:54.004398 5:59.672199 6:219.19501 7:218.009 8:220.89 9:216.72 10:133.01401 11:133.73399 12:132.05499 13:229.903 14:229.283 15:230.099 16:139.673 17:139.00301 18:139.633 19:241.718 20:242.877 21:237.70799 22:144.666 23:145.19299 24:143.157 25:237.57899 26:241.459 27:245.125 28:144.467 29:145.26601 30:146.929 # frame 1589
9.5104039860523037e-012 1:71.996201 2:31.696301 3:284.72299 4:82.669701 5:56.602798 6:172.98599 7:214.87601 8:211.174 9:211.69099 10:130.526 11:128.388 12:128.76401 13:228.963 14:226.40401 15:227.19501 16:139.131 17:137.827 18:138.465 19:236.422 20:237.25999 21:240.147 22:143.007 23:143.45399 24:144.388 25:242.548 26:243.98 27:244.054 28:146.146 29:146.356 30:146.478 # frame 1589
4.0142757237347357e-012 1:37.725101 2:24.1259 3:515.20697 4:64.168602 5:50.737598 6:240.338 7:215.748 8:212.02699 9:213.37601 10:131.18201 11:129.786 12:129.972 13:224.48 14:220.623 15:217.756 16:136.642 17:134.521 18:133.26801 19:235.299 20:238.549 21:236.50101 22:141.47 23:143.278 24:142.533 25:235.213 26:234.50301 27:235.828 28:142.558 29:142.224 30:142.93201 # frame 1599
-4.718297046898055e-012 1:28.624701 2:35.370899 3:566.88 4:57.074902 5:61.737499 6:254.08299 7:210.66901 8:214.38901 9:212.485 10:129.679 11:131.125 12:130.812 13:222.20799 14:211.94099 15:215.582 16:136.362 17:131.506 18:132.73 19:238.94901 20:241.563 21:243.59599 22:143.47099 23:144.444 24:145.58 25:235.161 26:239.68401 27:234.58701 28:142.59801 29:144.66701 30:142.95599 # frame 1599
-3.6541813762929237e-013 1:24.066 2:36.953201 3:569.51898 4:52.279598 5:63.243999 6:254.731 7:213.248 8:218.05 9:216.8 10:130.743 11:132.457 12:131.72701 13:227.005 14:212.87399 15:216.85001 16:138.084 17:131.80299 18:133.64999 19:235.117 20:238.254 21:242.105 22:142.233 23:143.03101 24:144.79601 25:235.80299 26:237.424 27:238.62801 28:142.95799 29:143.62 30:144.392 # frame 1599
-2.2913300237039381e-012 1:27.9701 2:29.6877 3:490.24301 4:55.100899 5:56.8153 6:233.032 7:199.842 8:206.58099 9:202.944 10:124.401 11:126.884 12:125.371 13:222.978 14:220.795 15:226.731 16:136.112 17:134.882 18:136.884 19:244.46899 20:249.336 21:247.564 22:146.159 23:147.42999 24:147.203 25:235.513 26:240.231 27:238.811 28:143.47099 29:145.30901 30:144.103 # frame 1599
6.190831406013348e-013 1:41.668201 2:23.555599 3:296.79401 4:65.229897 5:49.463501 6:178.177 7:201.008 8:212.642 9:207.233 10:124.512 11:129.159 12:126.957 13:221.224 14:222.442 15:220.52299 16:135.77299 17:135.326 18:134.744 19:240.29601 20:239.711 21:241.02901 22:144.453 23:144.369 24:144.832 25:237.27299 26:236.035 27:234.07201 28:144.189 29:143.658 30:142.563 # frame 1599
2.0066853006957141e-012 1:120.906 2:26.935101 3:249.22501 4:105.312 5:50.884399 6:166.955 7:219.18401 8:218.218 9:213.33501 10:132.24001 11:131.619 12:129.83 13:224.38699 14:215.12399 15:219.133 16:137.37601 17:133.133 18:134.94 19:227.99001 20:226.60899 21:224.144 22:139.287 23:138.658 24:137.882 25:240.58099 26:242.423 27:240.326 28:145.521 29:145.804 30:144.888 # frame 1599
9.3508382013332051e-013 1:242.414 2:72.126801 3:207.026 4:157.491 5:85.595596 6:141.742 7:218.369 8:224.561 9:227.353 10:131.96001 11:134.136 12:135.506 13:235.659 14:236.17599 15:237.97301 16:140.882 17:142.218 18:142.06 19:227.534 20:235.726 21:234.104 22:139.12601 23:142.196 24:141.83299 25:232.39999 26:230.992 27:229.44501 28:141.787 29:141.24899 30:140.519 # frame 1599
-1.5782777386179596e-012 1:320.578 2:67.902603 3:77.476501 4:191.34399 5:86.491997 6:89.338699 7:206.47701 8:207.04201 9:209.69501 10:126.198 11:126.321 12:127.661 13:229.80499 14:234.064 15:227.86301 16:138.82201 17:140.47099 18:138.26401 19:245.513 20:246.745 21:241.306 22:147.841 23:147.978 24:145.83501 25:227.026 26:226.8 27:228.44501 28:140.077 29:140.147 30:140.519 # frame 1599
-3.7387443923861883e-013 1:40.501999 2:25.809601 3:639.13397 4:63.730701 5:53.572899 6:269.98199 7:221.804 8:222.134 9:219.924 10:134.41499 11:134.02499 12:133.33 13:225.423 14:220.021 15:222.116 16:136.95599 17:134.806 18:134.95 19:240.33701 20:238.86301 21:239.877 22:143.396 23:142.985 24:143.47701 25:243.86 26:246.052 27:243.644 28:146.79201 29:147.571 30:146.16499 # frame 1607
-1.7124123190893679e-012 1:38.247799 2:30.5534 3:616.70502 4:62.4464 5:57.744598 6:265.048 7:217.90199 8:216.80901 9:217.59 10:132.748 11:132.187 12:132.83 13:225.89799 14:220.257 15:216.98 16:137.362 17:134.632 18:133.397 19:237.953 20:239.493 21:237.08099 22:142.649 23:143.263 24:142.427 25:244.646 26:244.14999 27:240.61 28:146.237 29:146.235 30:145.08099 # frame 1607
3.5678105623306524e-012 1:32.555302 2:29.505899 3:575.78198 4:60.420399 5:56.245701 6:255.19501 7:219.998 8:215.664 9:217.632 10:134.25301 11:131.995 12:133.314 13:222.34801 14:220.20399 15:217.136 16:136.12601 17:134.633 18:133.733 19:232.992 20:236.05 21:239.692 22:141.106 23:142.313 24:143.86099 25:237.058 26:239.005 27:237.276 28:143.369 29:144.39301 30:143.924 # frame 1607
5.7775763947705351e-012 1:24.649099 2:21.873699 3:604.49597 4:52.275002 5:48.306702 6:261.09299 7:216.23399 8:217.328 9:214.3 10:131.905 11:132.35201 12:131.56 13:228.68201 14:224.621 15:221.537 16:138.939 17:137.11 18:135.63699 19:241.23199 20:241.19701 21:240.933 22:144.468 23:144.564 24:144.467 25:247.645 26:246.64999 27:244.60899 28:147.248 29:147.218 30:146.633 # frame 1607
-6.7721978708005884e-012 1:29.0203 2:21.261499 3:427.50699 4:53.8745 5:47.431301 6:215.936 7:209.90601 8:211.36 9:207.506 10:129.049 11:129.72 12:127.996 13:222.756 14:224.058 15:219.802 16:135.763 17:136.513 18:134.72701 19:240.05701 20:240.22501 21:241.461 22:144.539 23:144.321 24:145.00101 25:244.644 26:242.702 27:241.862 28:146.28 29:145.931 30:145.146 # frame 1607
2.4279684420173756e-012 1:59.5172 2:15.622 3:268.52899 4:63.163399 5:39.197102 6:173.383 7:218.062 8:221.94501 9:215.875 10:131.85699 11:133.41701 12:131.13499 13:221.853 14:219.651 15:218.89101 16:135.933 17:134.694 18:134.54401 19:228.877 20:225.978 21:229.08099 22:140.007 23:138.849 24:140.116 25:240.381 26:238.60001 27:242.493 28:144.685 29:144.19701 30:145.575 # frame 1607
-1.6220466377635106e-012 1:73.955399 2:20.2855 3:464.27701 4:66.149597 5:44.8433 6:224.29201 7:222.326 8:224.52699 9:225.27499 10:134.93201 11:135.85899 12:136.145 13:226.13901 14:222.75999 15:222.438 16:138.185 17:136.847 18:136.32201 19:238.593 20:240.397 21:239.297 22:143.035 23:143.66 24:143.347 25:243.867 26:241.12399 27:242.002 28:145.948 29:145.07899 30:145.22099 # frame 1607
7.8718628917157195e-013 1:14.823 2:22.4368 3:575.10699 4:35.715302 5:48.735298 6:254.797 7:218.75 8:220.646 9:212.839 10:132.948 11:133.944 12:129.96899 13:219.048 14:216.34 15:214.047 16:134.492 17:133.674 18:131.464 19:236.808 20:239.715 21:232.89999 22:142.224 23:143.284 24:140.702 25:239.334 26:242.433 27:243.00101 28:144.317 29:145.741 30:145.59801 # frame 1607
1.1616060885320242e-013 1:21.615801 2:18.360901 3:661.97998 4:46.0508 5:43.951801 6:274.66199 7:220.425 8:220.813 9:219.409 10:134.48599 11:134.306 12:133.215 13:225.86 14:218.395 15:214.592 16:137.65401 17:133.584 18:132.201 19:239.774 20:239.65199 21:239.979 22:142.90199 23:143.241 24:142.88499 25:237.358 26:240.367 27:242.659 28:144.233 29:145.114 30:145.63499 # frame 1627
1.6745614962277977e-012 1:22.4676 2:26.4538 3:635.94202 4:48.8564 5:52.786098 6:269.035 7:222.93201 8:222.80299 9:218.08701 10:135.015 11:134.87601 12:133.168 13:225.539 14:218.724 15:217.37801 16:137.22 17:133.98801 18:133.72099 19:239.89301 20:236.97701 21:237.325 22:143.12199 23:142.092 24:142.20399 25:243.60699 26:243.58501 27:240.33299 28:146.047 29:146.306 30:144.573 # frame 1627
3.5573755646600477e-013 1:24.8692 2:32.230499 3:603.90601 4:52.5005 5:59.104599 6:261.41199 7:221.705 8:218.02499 9:216.798 10:134.927 11:133.67101 12:133.355 13:228.84599 14:218.39101 15:220.511 16:138.855 17:134.70599 18:135.436 19:233.286 20:234.745 21:237.707 22:141.004 23:141.35001 24:142.806 25:245.47 26:245.967 27:243.63699 28:146.7 29:147.078 30:146.133 # frame 1627
-3.8592696481886313e-012 1:19.036301 2:30.8358 3:634.461 4:46.361801 5:57.4366 6:268.69199 7:222.52901 8:221.465 9:219.83 10:135.80701 11:135.02 12:134.522 13:228.87801 14:226.384 15:221.842 16:138.83501 17:137.214 18:135.30901 19:235.841 20:232.30701 21:236.745 22:142.478 23:141.01601 24:142.90601 25:238.11501 26:241.062 27:240.765 28:143.991 29:144.871 30:145.17999 # frame 1627
9.3114300590055792e-013 1:16.0756 2:31.118099 3:662.646 4:42.408699 5:57.6768 6:274.69901 7:218.112 8:220.481 9:213.34801 10:133.51199 11:134.576 12:131.41901 13:223.16 14:222.271 15:216.64999 16:136.23199 17:135.26401 18:132.724 19:239.502 20:233.14999 21:236.90401 22:143.51801 23:141.183 24:142.44701 25:239.036 26:239.21201 27:238.48599 28:143.97099 29:144.49899 30:143.856 # frame 1627
-2.1270067965950135e-013 1:43.808701 2:22.443199 3:631.95697 4:52.662498 5:47.007999 6:267.59 7:218.847 8:219.729 9:216.72701 10:134.08099 11:134.159 12:132.757 13:221.489 14:219.783 15:220.80099 16:135.63699 17:134.84801 18:134.70599 19:235.83099 20:234.79201 21:242.397 22:142.207 23:141.61301 24:144.74699 25:241.28999 26:237.66701 27:242.57001 28:145.166 29:143.81 30:145.81599 # frame 1627
-1.7637619176810936e-013 1:51.360199 2:18.6313 3:562.44702 4:53.317699 5:41.900101 6:250.29601 7:203.468 8:196.54201 9:186.041 10:125.059 11:122.018 12:116.662 13:210.161 14:209.936 15:204.536 16:128.804 17:127.487 18:124.527 19:253.79201 20:236.437 21:231.01601 22:148.61099 23:140.972 24:140.047 25:228.814 26:233.157 27:222.32201 28:140.23199 29:142.59599 30:137.567 # frame 1627
-2.1569270262484252e-012 1:151.75301 2:14.624 3:276.77399 4:112.597 5:35.781898 6:176.85899 7:223.66299 8:225.10699 9:223.29601 10:134.763 11:135.459 12:134.60899 13:232.218 14:233.353 15:231.089 16:140.37801 17:140.924 18:140.036 19:228.703 20:233.806 21:235.037 22:139.644 23:141.386 24:142.05901 25:236.687 26:236.698 27:236.548 28:143.58501 29:143.33701 30:143.20399 # frame 1627
2.0660316906441192e-012 1:210.00101 2:13.5984 3:301.16501 4:130.547 5:31.6579 6:180.258 7:214.22099 8:214.674 9:213.198 10:128.71899 11:129.16499 12:128.383 13:226.041 14:231.69099 15:234.371 16:137.537 17:139.511 18:140.367 19:235.082 20:232.636 21:233.423 22:142.168 23:140.88901 24:141.558 25:227.81799 26:230.955 27:222.73 28:140.194 29:141.245 30:138.08299 # frame 1627
-7.0435064308234942e-013 1:34.825298 2:25.101 3:652.53003 4:59.078701 5:52.292999 6:272.63901 7:212.175 8:216.85201 9:212.883 10:130.53101 11:131.814 12:129.72701 13:223.979 14:217.364 15:211.569 16:136.467 17:132.80901 18:130.183 19:246.826 20:238.007 21:239.80901 22:145.739 23:142.73399 24:143.10201 25:246.98199 26:245.258 27:241.052 28:147.862 29:147.229 30:145 # frame 1638
3.5899371808246956e-012 1:18.970699 2:39.110199 3:594.33899 4:44.813702 5:64.264 6:259.487 7:223.564 8:225.311 9:224.321 10:137.70399 11:138.19901 12:138.20799 13:227.17101 14:223.44099 15:226.369 16:138.437 17:136.98599 18:137.735 19:236.825 20:233.94099 21:239.707 22:142.87199 23:141.468 24:143.515 25:238.22701 26:239.849 27:241.765 28:143.71899 29:144.57899 30:145.438 # frame 1638
3.6919475556332127e-012 1:81.186203 2:24.2962 3:529.36603 4:66.739998 5:48.0131 6:242.942 7:227.158 8:227.886 9:223.289 10:138.64999 11:138.446 12:136.21899 13:225.022 14:223.74699 15:218.77699 16:137.33501 17:135.94501 18:133.66299 19:238.116 20:234.69501 21:233.175 22:142.86 23:140.98399 24:140.802 25:232.748 26:237.57401 27:238.104 28:142.043 29:143.63 30:143.946 # frame 1638
-6.9214531330710621e-012 1:106.471 2:15.4785 3:459.57199 4:74.556297 5:37.882198 6:226.414 7:224.19701 8:226.269 9:227.838 10:137.645 11:138.21899 12:138.674 13:225.759 14:226.07001 15:222.222 16:137.95 17:137.91499 18:135.825 19:239.41901 20:237.039 21:236.203 22:143.006 23:142.362 24:142.269 25:238.269 26:238.52299 27:239.748 28:144.11 29:144.09599 30:144.53799 # frame 1638
4.6306788051314355e-012 1:201.067 2:6.4209099 3:380.004 4:115.636 5:24.439899 6:204.8 7:224.56799 8:226.151 9:226.924 10:136.526 11:136.62399 12:136.78101 13:225.181 14:230.231 15:236.45599 16:137.10699 17:139.019 18:141.714 19:233.40601 20:230.743 21:229.112 22:140.82201 23:140.504 24:139.263 25:233.51801 26:228.888 27:226.48599 28:142.8 29:140.84801 30:139.714 # frame 1638
1.0688114355930405e-012 1:57.7743 2:5.8558698 3:410.45499 4:37.0275 5:23.747999 6:213.95599 7:212.834 8:212.231 9:209.187 10:130.864 11:130.297 12:129.287 13:218.491 14:220.06 15:221.158 16:134.506 17:135.425 18:135.63699 19:239.88901 20:234.71201 21:236.758 22:144.12 23:142.42101 24:142.972 25:243.713 26:245.711 27:247.177 28:146.431 29:147.12801 30:147.69701 # frame 1638
-1.1131045987782801e-012 1:134.677 2:4.4252501 3:309.82199 4:77.879898 5:21.0513 6:183.117 7:225.73 8:226.343 9:226.233 10:135.36099 11:135.603 12:135.881 13:233.825 14:234.948 15:237.325 16:140.438 17:140.90601 18:141.68401 19:234.26601 20:237.159 21:235.772 22:142.153 23:143.091 24:142.974 25:238.282 26:238.31599 27:236.505 28:144.395 29:144.297 30:143.698 # frame 1638
-5.477917677784874e-012 1:190.341 2:5.5290198 3:244.75 4:113.38 5:22.441099 6:163.786 7:211.83 8:210.85201 9:213.438 10:129.231 11:128.814 12:129.98199 13:222.311 14:225.76801 15:225.51801 16:135.817 17:137.02 18:136.70399 19:252.00101 20:251.86501 21:253.74699 22:148.05099 23:147.577 24:148.36099 25:227.007 26:226.07201 27:226.58 28:140.17101 29:139.7 30:139.558 # frame 1638
-3.7612074174138975e-012 1:278.68301 2:8.1702995 3:228.97501 4:173.37601 5:29.293301 6:161.62199 7:202.36 8:206.076 9:209.179 10:126.2 11:127.751 12:128.811 13:211.67 14:215.79401 15:218.052 16:130.67999 17:132.179 18:133.75101 19:255.265 20:247.827 21:250.131 22:149.271 23:146.287 24:146.96001 25:224.57899 26:217.687 27:210.909 28:139.71001 29:136.55701 30:133.968 # frame 1638
-5.0294425863845818e-013 1:28.676901 2:41.837002 3:604.88898 4:55.222301 5:67.610298 6:262.11499 7:229.81799 8:228.547 9:227.005 10:139.22501 11:138.76401 12:138.464 13:232.179 14:224.043 15:221.646 16:140.216 17:136.278 18:135.681 19:235.07201 20:236.12601 21:236.59399 22:141.439 23:141.75999 24:141.916 25:238.392 26:242.51601 27:237.02699 28:143.436 29:145.521 30:143.797 # frame 1647
-3.0374918881600446e-012 1:19.7272 2:39.685501 3:615.87598 4:47.113602 5:65.870102 6:264.42401 7:229.63699 8:224.94099 9:225.14301 10:140.03799 11:137.71899 12:138.418 13:229.41901 14:224.293 15:220.30901 16:139.133 17:136.905 18:135.216 19:237.59801 20:238.757 21:240.157 22:142.64799 23:143.27299 24:143.754 25:239.455 26:242.547 27:239.151 28:144.522 29:145.584 30:144.802 # frame 1647
1.9739787576826864e-012 1:12.775 2:36.1008 3:603.73499 4:37.436699 5:62.012402 6:261.68799 7:225.99001 8:226.37399 9:225.425 10:138.028 11:138.29601 12:137.55901 13:226.173 14:222.92999 15:222.686 16:137.722 17:136.351 18:135.93401 19:242.433 20:234.87801 21:238.561 22:144.789 23:141.593 24:143.173 25:241.968 26:243.966 27:243.448 28:145.08 29:145.87601 30:145.836 # frame 1647
-6.1277779510673572e-013 1:70.115303 2:27.9394 3:496.207 4:61.1609 5:50.221001 6:234.767 7:224.047 8:227.881 9:221.758 10:137.133 11:138.60899 12:135.474 13:223.05299 14:224.983 15:217.95599 16:136.57899 17:136.994 18:133.04601 19:239.716 20:238.58701 21:234.603 22:143.33 23:142.993 24:141.687 25:241.534 26:241.498 27:240.39101 28:145.369 29:145.26601 30:144.40199 # frame 1647
6.5379664414444255e-013 1:177.36 2:11.7898 3:378.927 4:110.332 5:31.7897 6:204.369 7:226.55499 8:227.424 9:225.929 10:137.21001 11:137.74001 12:136.797 13:223.485 14:225.619 15:223.117 16:136.48801 17:137.12199 18:135.783 19:237.57401 20:232.729 21:233.60001 22:142.10899 23:140.73399 24:141.015 25:235.45599 26:235.89101 27:233.24001 28:143.244 29:143.392 30:142.159 # frame 1647
5.5234157000157662e-013 1:241.868 2:6.5052099 3:337.021 4:141.524 5:25.0159 6:192.728 7:224.41701 8:222.36301 9:226.505 10:134.84 11:134.13901 12:135.778 13:222.017 14:226.67599 15:223.75999 16:135.345 17:137.476 18:135.584 19:238.56799 20:236.959 21:242.59599 22:142.907 23:142.459 24:144.44299 25:231.091 26:224.26401 27:225.817 28:141.673 29:139.04601 30:139.912 # frame 1647
7.1599154249480395e-013 1:105.583 2:7.2539001 3:403.99399 4:65.831299 5:26.232599 6:212.19701 7:209.168 8:213.791 9:213.20799 10:128.856 11:130.95399 12:130.62 13:225.30499 14:222.87 15:229.47 16:136.758 17:136.121 18:138.562 19:235.465 20:237.69099 21:236.743 22:142.48399 23:143.67799 24:143.369 25:237.213 26:232.22 27:226.593 28:144.043 29:142.67101 30:140.29201 # frame 1647
-2.0517339792895539e-012 1:51.709599 2:5.1159801 3:356.11801 4:44.943802 5:23.1231 6:197.047 7:207.78999 8:207.353 9:206.024 10:127.886 11:127.796 12:127.244 13:217.44099 14:215.608 15:216.44299 16:133.595 17:132.552 18:132.871 19:234.62399 20:233.175 21:232.478 22:142.93401 23:141.996 24:141.87801 25:231.53101 26:232.261 27:234.172 28:142.045 29:142.246 30:142.795 # frame 1647
4.1804044969410057e-012 1:130.74001 2:5.1482501 3:248.79401 4:85.328003 5:22.4265 6:164.211 7:192.478 8:193.81599 9:190.951 10:121.991 11:122.606 12:121.519 13:205.222 14:205.151 15:205.188 16:128.164 17:128.10899 18:127.951 19:264.50601 20:266.345 21:268.23999 22:152.757 23:153.211 24:154.037 25:226.24001 26:224.509 27:227.349 28:140.67999 29:139.84 30:140.76801 # frame 1647
1.0936779746999674e-013 1:25.5872 2:50.015202 3:551.91803 4:53.1581 5:74.130302 6:250.397 7:221.045 8:223.284 9:221.024 10:136.466 11:137.16701 12:136.55499 13:226.263 14:217.74699 15:218.763 16:138.339 17:134.491 18:135.25101 19:237.20599 20:233.644 21:235.386 22:142.56799 23:141.252 24:142.218 25:232.134 26:236.808 27:233.612 28:141.739 29:143.75 30:142.498 # frame 1658
-5.7084999657022683e-012 1:19.5149 2:49.936001 3:548.13702 4:46.067699 5:73.2006 6:248.774 7:232.51199 8:231.561 9:229.36501 10:141.297 11:140.56 12:139.88699 13:233.972 14:230.547 15:228.759 16:141.358 17:139.576 18:139.13901 19:232.254 20:235.08701 21:237.308 22:140.901 23:142.15199 24:142.616 25:235.60699 26:240.39101 27:240.32401 28:142.937 29:145.127 30:144.909 # frame 1658
-9.4976107519005181e-013 1:14.8182 2:38.344101 3:550.90997 4:39.699902 5:63.6619 6:249.674 7:225.756 8:226.95 9:224.15401 10:138.29201 11:138.661 12:137.246 13:228.60699 14:229.649 15:223.62199 16:138.918 17:139.19901 18:136.59599 19:239.881 20:238.715 21:238.45399 22:143.65401 23:143.47 24:143.09801 25:237.603 26:239.045 27:240.26401 28:143.40401 29:144.34 30:144.65401 # frame 1658
1.6731756646291343e-013 1:22.5116 2:30.4016 3:526.51099 4:35.245899 5:52.338001 6:243.21201 7:226.10899 8:228.04601 9:225.13901 10:138.605 11:139.22501 12:138.311 13:230.44099 14:231.75999 15:226.246 16:140.245 17:140.136 18:137.71899 19:238.30299 20:236.802 21:235.457 22:143.27299 23:142.683 24:141.466 25:240.215 26:241.879 27:238.306 28:144.537 29:145.097 30:144.013 # frame 1658
2.7322852189715218e-012 1:13.6494 2:11.1956 3:396.746 4:20.6831 5:33.773102 6:211.411 7:218.047 8:220.828 9:220.916 10:134.22501 11:135.437 12:135.162 13:225.474 14:230.78999 15:228.073 16:136.834 17:139.073 18:137.66299 19:241.817 20:248.198 21:245.51601 22:144.42599 23:147.326 24:146.21001 25:234.938 26:228.57201 27:233.58501 28:143.14999 29:140.63499 30:142.48399 # frame 1658
4.9670481693733871e-012 1:159.492 2:6.6004901 3:298.63599 4:86.092697 5:25.693001 6:176.896 7:204.46899 8:206.214 9:204.713 10:127.531 11:127.923 12:127.622 13:225.77901 14:227.42599 15:226.01199 16:137.157 17:137.627 18:137.267 19:257.064 20:252.664 21:251.91 22:151.54601 23:149.60001 24:149.26601 25:245.737 26:244.132 27:244.17 28:147.024 29:146.18201 30:146.42599 # frame 1658
-6.1369270505950295e-013 1:262.79099 2:4.8115802 3:177.09599 4:141.08299 5:21.729 6:135.836 7:221.343 8:220.804 9:219.157 10:133.68401 11:133.25999 12:133.084 13:231.34399 14:231.573 15:230.60201 16:139.42799 17:139.584 18:139.239 19:238.265 20:235.759 21:235.72501 22:143.411 23:142.41 24:142.433 25:223.179 26:225.931 27:222.849 28:138.35001 29:139.498 30:138.41901 # frame 1658
-2.0703223468318439e-012 1:143.24699 2:8.79175 3:277.35199 4:99.294197 5:29.498699 6:174.19501 7:220.194 8:218.513 9:218.373 10:133.89301 11:133.174 12:133.147 13:219.726 14:216.55299 15:214.287 16:135.19099 17:134.55299 18:132.944 19:230.77499 20:232.71899 21:231.783 22:139.651 23:140.448 24:140.12399 25:223.867 26:230.702 27:231.097 28:139.15401 29:141.27699 30:141.442 # frame 1658
4.3523655018650631e-012 1:238.47701 2:6.0910501 3:221.53101 4:149.448 5:25.174999 6:157.655 7:213.252 8:212.459 9:213.76801 10:129.96201 11:129.433 12:129.97 13:224.33501 14:227.05099 15:231.606 16:136.65401 17:137.593 18:139.395 19:238.77499 20:239.45399 21:243.11 22:143.327 23:143.89799 24:145.57001 25:230.69099 26:233.429 27:230.308 28:141.427 29:142.173 30:141.117 # frame 1658
7.3808844851644734e-012 1:25.497101 2:55.939499 3:543.65802 4:53.935398 5:79.245201 6:248.80901 7:224.66 8:221.92 9:224.422 10:136.591 11:135.679 12:136.64301 13:227.535 14:220.174 15:220.54601 16:138.444 17:134.927 18:134.64799 19:236.056 20:241.939 21:239.43401 22:142.05499 23:144.084 24:143.41 25:235.133 26:240.533 27:239.69501 28:143.05701 29:145.092 30:144.86 # frame 1669
-5.7513364564537758e-012 1:16.288099 2:52.863998 3:552.33698 4:42.3694 5:76.259399 6:250.293 7:225.54601 8:225.125 9:225.319 10:137.511 11:137.06599 12:137.66 13:228.259 14:221.58099 15:224.286 16:138.955 17:135.589 18:136.33 19:234.548 20:234.239 21:232.76801 22:141.448 23:141.084 24:140.451 25:235.69 26:235.276 27:237.14301 28:143.07401 29:142.883 30:143.78101 # frame 1669
7.5588081670670782e-012 1:10.9746 2:40.8895 3:557.604 4:34.754002 5:66.334602 6:251.63 7:225.994 8:228.983 9:225.94901 10:137.33701 11:138.036 12:136.60699 13:226.821 14:225.05701 15:221.48399 16:137.649 17:136.77901 18:135.07401 19:237.364 20:229.901 21:232.41299 22:142.58701 23:139.448 24:140.661 25:239.222 26:240.23399 27:239.214 28:144.565 29:144.96001 30:144.474 # frame 1669
-7.6291373726884044e-013 1:9.1987801 2:40.685299 3:553.96997 4:32.0602 5:64.2006 6:251.24699 7:230.97701 8:230.98199 9:228.75301 10:138.85699 11:138.61501 12:137.72301 13:229.161 14:225.16901 15:224.229 16:139.105 17:137.58099 18:136.506 19:240.26601 20:235.036 21:235.32899 22:143.58299 23:141.755 24:141.74899 25:241.771 26:244.815 27:243.00101 28:145.116 29:146.50301 30:145.644 # frame 1669
-2.9130277296144134e-012 1:10.0815 2:23.5109 3:520.711 4:29.8528 5:49.730301 6:243.61099 7:209.56 8:210.48399 9:215.967 10:130.297 11:131.028 12:132.987 13:210.431 14:211.00301 15:211.586 16:130.679 17:130.82899 18:129.88699 19:242.32201 20:243.034 21:248.69701 22:143.853 23:144.06799 24:146.08299 25:239.431 26:234.265 27:231.793 28:144.735 29:143.088 30:142.306 # frame 1669
-8.7652083821379829e-014 1:45.463902 2:13.3083 3:527.66901 4:40.336899 5:35.0797 6:243.42799 7:199.90199 8:195.397 9:194.57401 10:126.103 11:124.175 12:123.709 13:213.532 14:206.507 15:204.911 16:131.69099 17:127.372 18:125.925 19:245.117 20:248.631 21:249.871 22:145.168 23:146.22701 24:146.785 25:228.14999 26:228.017 27:223.758 28:140.839 29:141.29201 30:139.742 # frame 1669
-2.1877596730384237e-012 1:42.6119 2:11.6111 3:396.86801 4:30.059401 5:33.696701 6:210.437 7:205.786 8:210.131 9:203.57001 10:128.47301 11:129.95799 12:127.572 13:221.735 14:226.29601 15:225.28101 16:135.248 17:137.386 18:136.584 19:254.79401 20:259.034 21:255.916 22:149.981 23:151.427 24:150.45 25:234.93401 26:230.84599 27:237.78999 28:143.371 29:141.92599 30:144.481 # frame 1669
-3.8039777265375353e-012 1:234.48199 2:7.3212299 3:241.492 4:121.273 5:26.5357 6:157.562 7:211.97701 8:211.36 9:210.778 10:130.02499 11:129.48599 12:129.144 13:231.19901 14:230.70599 15:229.938 16:139.72099 17:139.105 18:139.151 19:247.384 20:244.375 21:245.567 22:147.32401 23:146.267 24:146.903 25:245.252 26:241.291 27:244.95399 28:146.90401 29:145.673 30:146.73599 # frame 1669
2.6895905453911899e-012 1:255.037 2:5.5093498 3:174.744 4:140.593 5:22.934601 6:135.862 7:217.25999 8:219.58701 9:217.489 10:132.84399 11:133.32001 12:133.08 13:225.342 14:226.491 15:225.55499 16:136.77499 17:137.213 18:136.436 19:246.774 20:246.56799 21:245.07899 22:145.425 23:145.19299 24:144.479 25:210.31799 26:212.007 27:209.94 28:134.32201 29:134.76401 30:134.067 # frame 1669
-2.3304909313876367e-012 1:36.812 2:47.438 3:460.83301 4:60.633701 5:69.322304 6:227.056 7:228.12399 8:226.476 9:227.56599 10:139.02299 11:138.57201 12:138.86 13:229.534 14:227.79601 15:227.088 16:139.366 17:138.18201 18:138.52299 19:233.237 20:233.022 21:236.80701 22:141.308 23:141.261 24:142.55099 25:235.974 26:237.216 27:235.095 28:143.105 29:143.752 30:142.564 # frame 1698
4.9877912012929834e-012 1:22.549999 2:54.983898 3:419.94101 4:48.365898 5:76.030899 6:215.647 7:229.336 8:233.177 9:232.334 10:139.633 11:141.38499 12:141.026 13:230.847 14:232.58501 15:226.50301 16:139.989 17:141.181 18:138.51601 19:238.521 20:234.63901 21:240.55901 22:143.263 23:141.74001 24:143.91299 25:243.186 26:240.075 27:240.37399 28:145.827 29:145.026 30:144.974 # frame 1698
2.6436878466258034e-012 1:14.838 2:57.381901 3:484.25299 4:39.041599 5:77.134804 6:233.10201 7:230.856 8:230.32899 9:228.433 10:140.485 11:140.24899 12:139.51601 13:231.12399 14:230.98399 15:226.12801 16:140.114 17:140.114 18:137.86501 19:237.556 20:233.82201 21:233.058 22:142.694 23:141.09599 24:140.87 25:242.60201 26:239.571 27:239.90199 28:145.644 29:144.61301 30:144.293 # frame 1698
-1.8681055803606897e-013 1:181.05701 2:8.5017004 3:316.45401 4:113.137 5:28.627199 6:187.287 7:202.545 8:203.87601 9:199.257 10:125.71 11:126.318 12:124.48 13:213.379 14:214.537 15:211.489 16:130.245 17:130.446 18:129.539 19:257.293 20:256.18399 21:258.828 22:148.082 23:148.711 24:149.153 25:216.332 26:218.561 27:217.036 28:137.13699 29:136.47501 30:137.964 # frame 1698
-1.4222849732616843e-016 1:134.075 2:12.7772 3:494.39001 4:76.068398 5:28.278799 6:231.88901 7:121.832 8:104.481 9:96.805099 10:75.625 11:68.329697 12:63.898399 13:125.59 14:120.027 15:115.147 16:77.9039 17:74.742996 18:71.096001 19:225.714 20:202.69099 21:178.98599 22:138.508 23:126.506 24:120.48 25:151.808 26:165.14301 27:142.55 28:109.052 29:115.854 30:106.117 # frame 1698
5.4811467124748623e-012 1:210.82201 2:7.0945601 3:278.681 4:134.513 5:26.735901 6:175.162 7:231.758 8:227.73599 9:227.41499 10:140.767 11:139.04601 12:139.089 13:223.23399 14:225.75 15:218.161 16:136.28999 17:136.899 18:133.561 19:236.32001 20:231.54401 21:229.258 22:142.342 23:140.534 24:139.576 25:230.43201 26:229.30901 27:225.756 28:141.563 29:141.26801 30:140.215 # frame 1716
-5.1690129625570457e-012 1:171.271 2:17.518299 3:319.65399 4:109.791 5:37.340698 6:187.41 7:222.526 8:227.78799 9:227.769 10:136.561 11:138.56 12:138.48599 13:225.28101 14:227.89301 15:223.826 16:137.326 17:137.907 18:136.40199 19:239.34 20:233.46201 21:238.83099 22:143.74899 23:141.245 24:143.21001 25:241.03999 26:237.66299 27:239.16701 28:145.216 29:143.95 30:144.57899 # frame 1716
6.5660694506851533e-012 1:143.188 2:16.5282 3:358.34201 4:91.759003 5:37.057499 6:198.83701 7:222.578 8:223.411 9:226.101 10:136.21001 11:137.20399 12:137.94501 13:222.05299 14:224.30901 15:221.043 16:135.75 17:136.981 18:135.341 19:241.285 20:237.27699 21:238.55701 22:144.278 23:142.384 24:143.196 25:242.444 26:234.519 27:237.308 28:145.77699 29:143.006 30:143.789 # frame 1716
5.8836539383406527e-012 1:143.826 2:11.2033 3:366.388 4:91.774002 5:32.407799 6:200.215 7:215.407 8:218.894 9:217.8 10:132.763 11:134.51199 12:134.248 13:221.65401 14:218.57899 15:217.44901 16:135.77901 17:134.614 18:133.64301 19:240.993 20:239.42 21:241.795 22:144.218 23:143.35201 24:144.27901 25:245.541 26:244.076 27:242.009 28:147.282 29:146.80701 30:146.10001 # frame 1716
-3.7569632063475061e-012 1:123.721 2:10.0655 3:382.80099 4:84.928802 5:32.510101 6:203.435 7:211.217 8:207.45799 9:208.992 10:130.908 11:129.47099 12:130.27499 13:210.08501 14:204.002 15:204.61099 16:130.3 17:127.211 18:127.395 19:239.97099 20:242.657 21:242.92 22:143.444 23:144.24699 24:144.42799 25:234.479 26:234.466 27:237.539 28:143.052 29:143.405 30:144.311 # frame 1716
-1.7873157743913082e-013 1:179.561 2:8.2772398 3:340.84799 4:105.948 5:28.8407 6:191.425 7:219.36099 8:213.967 9:215.56799 10:135.125 11:132.952 12:133.564 13:222.972 14:216.41299 15:211.125 16:135.08 17:131.72099 18:128.767 19:243.12801 20:245.565 21:244.894 22:144.457 23:145.25999 24:145.37601 25:216.789 26:216.772 27:217.996 28:136.338 29:136.76601 30:137.366 # frame 1716
-2.0820747167610462e-012 1:72.632401 2:12.6094 3:406.63199 4:59.796299 5:35.478901 6:212.37601 7:213.304 8:207.455 9:206.922 10:131.27299 11:129.367 12:129.088 13:216.87199 14:206.40401 15:202.66 16:132.595 17:126.817 18:124.466 19:243.52299 20:246.76199 21:248.92101 22:144.282 23:145.54401 24:146.16901 25:211.27499 26:217.785 27:217.203 28:133.48399 29:136.847 30:136.761 # frame 1716
-9.4108847737702497e-013 1:101.758 2:11.0852 3:419.76801 4:69.272697 5:32.821201 6:215.96001 7:212.116 8:209.675 9:211.05901 10:131.20399 11:130.504 12:130.964 13:218.01401 14:216.146 15:207.28999 16:133.489 17:131.75101 18:128.065 19:245.619 20:252.842 21:244.94299 22:145.23399 23:147.99899 24:145.30099 25:227.56799 26:226.701 27:228.105 28:139.894 29:140.08099 30:140.86099 # frame 1716
-7.3919320824581152e-012 1:15.823 2:15.0682 3:488.66199 4:34.073898 5:38.5298 6:235.39799 7:226.201 8:228.687 9:229.99699 10:138.11301 11:138.951 12:139.28101 13:229.261 14:229.407 15:228.98 16:138.97 17:138.92599 18:138.53799 19:238.492 20:237.293 21:231.96201 22:143.27699 23:142.48599 24:140.091 25:240.077 26:237.368 27:238.339 28:145.041 29:143.798 30:144.179 # frame 1732
3.8931767169808498e-012 1:86.2005 2:13.5846 3:429.19601 4:66.576897 5:36.323399 6:218.688 7:222.66499 8:224.85201 9:228.311 10:136.769 11:137.881 12:139.06799 13:224.39301 14:225.895 15:227.99899 16:137.403 17:138.002 18:138.65199 19:241.26401 20:240.46899 21:238.92799 22:144.209 23:143.942 24:143.20799 25:238.57201 26:237.884 27:235.019 28:144.496 29:144.241 30:143.175 # frame 1732
7.2878068097435547e-012 1:164.14799 2:8.8370304 3:327.83301 4:103.462 5:29.5858 6:190.21201 7:223.07201 8:220.073 9:219.804 10:137.02499 11:135.815 12:135.349 13:222.386 14:223.117 15:219.886 16:136.347 17:136.782 18:135.36 19:241.983 20:246.41299 21:242.505 22:144.62199 23:146.25301 24:144.71899 25:235.32001 26:238.27 27:236.843 28:143.47 29:144.472 30:144.02699 # frame 1732
2.6289882620048245e-012 1:230.408 2:7.4861002 3:286.53101 4:135.66 5:27.4652 6:176.95399 7:225.347 8:225.92 9:224.425 10:137.049 11:137.214 12:136.853 13:224.077 14:223.162 15:223.058 16:137.317 17:136.44 18:136.13699 19:236.442 20:237.979 21:237.192 22:142.61301 23:142.769 24:142.573 25:236.90199 26:238.121 27:238.494 28:144.049 29:144.315 30:144.534 # frame 1732
-8.2623914053188197e-012 1:264.03201 2:6.9853301 3:264.922 4:148.798 5:26.3694 6:170.83701 7:226.377 8:230.37199 9:227.19299 10:137.153 11:138.56599 12:137.33701 13:220.623 14:222.679 15:223.27499 16:135.287 17:136.008 18:135.978 19:237.201 20:231.91499 21:237.63699 22:142.21201 23:140.476 24:142.554 25:238.30299 26:233.658 27:234.746 28:144.28 29:142.259 30:142.745 # frame 1732
5.9398718225785439e-012 1:280.81799 2:6.21066 3:234.96899 4:158.34399 5:25.6145 6:160.709 7:231.70799 8:231.31 9:235.19099 10:139.026 11:138.74899 12:140.205 13:224.707 14:230.856 15:229.73399 16:137.11301 17:139.746 18:139.226 19:233.771 20:230.424 21:233.164 22:140.83 23:139.48 24:140.42999 25:226.47099 26:219.66299 27:224.687 28:140.033 29:137.01801 30:139.145 # frame 1732
1.5125992802370552e-012 1:96.429199 2:12.3703 3:410.33499 4:79.8946 5:35.283298 6:213.52499 7:216.911 8:217.054 9:215.51801 10:134.341 11:134.729 12:134.10699 13:216.438 14:214.64 15:214.584 16:133.59599 17:131.786 18:131.757 19:245.26601 20:243.495 21:240.683 22:145.23599 23:144.64101 24:143.255 25:241.513 26:235.202 27:232.14 28:145.89101 29:143.511 30:142.438 # frame 1744
-1.3054269518739368e-012 1:150.50101 2:9.5272102 3:363.08301 4:104.234 5:31.9692 6:199.942 7:201.888 8:196.702 9:196.59801 10:128.48599 11:126.008 12:126.045 13:201.864 14:198.35001 15:193.189 16:126.49 17:123.592 18:120.551 19:247.806 20:249.386 21:249.162 22:145.43401 23:145.896 24:146.022 25:225.57201 26:224.517 27:220.603 28:139.82201 29:139.84399 30:138.653 # frame 1744
-6.0586950126178066e-013 1:83.8442 2:9.2228603 3:424.03601 4:62.967602 5:31.403601 6:217.965 7:211.714 8:208.632 9:205.483 10:131.67599 11:130.065 12:128.83501 13:212.60699 14:210.082 15:204.161 16:131.033 17:129.05099 18:126.036 19:239.867 20:246.07899 21:245.44099 22:142.96899 23:145.134 24:145.14101 25:230.761 26:230.168 27:227.907 28:141.112 29:141.57001 30:140.89999 # frame 1744
6.3819771495984222e-012 1:137.76601 2:7.41113 3:369.49399 4:80.648003 5:26.8269 6:203.442 7:209.30299 8:208.285 9:205.27699 10:130.328 11:129.756 12:128.71899 13:211.64999 14:216.211 15:212.621 16:131.201 17:132.903 18:131.332 19:237.493 20:239.006 21:235.74899 22:143.05901 23:143.73199 24:143.21201 25:237.23801 26:235.985 27:234.133 28:144.34399 29:144.004 30:143.32899 # frame 1744
4.8094224545858513e-013 1:7.6630001 2:13.1695 3:487.80499 4:29.5497 5:38.6637 6:235.93201 7:213.468 8:211.46001 9:212.718 10:132.005 11:131.38499 12:131.69701 13:216.07001 14:215.00101 15:207.91499 16:132.97301 17:131.827 18:127.899 19:244.23801 20:242.832 21:250.157 22:144.04601 23:143.968 24:146.48801 25:232.25101 26:233.701 27:235.291 28:141.911 29:142.77299 30:143.686 # frame 1744
5.7636591987742755e-012 1:24.572201 2:11.3588 3:460.68799 4:35.5 5:35.331001 6:228.39301 7:217.183 8:214.60001 9:211.783 10:133.028 11:132.183 12:130.935 13:219.48399 14:217.308 15:213.429 16:134.278 17:132.246 18:130.11099 19:250.054 20:252.118 21:252.177 22:147.12399 23:148.062 24:147.98199 25:230 26:230.632 27:230.401 28:141.20399 29:141.728 30:141.74699 # frame 1744
3.4410152412619903e-012 1:177.593 2:6.1960402 3:328.62 4:99.742996 5:24.934799 6:191.31799 7:219.636 8:218.439 9:222.205 10:133.10699 11:132.595 12:134.17101 13:224.976 14:230.702 15:227.883 16:136.967 17:139.53799 18:137.714 19:229.83 20:224.33701 21:226.7 22:139.879 23:138.07899 24:138.79601 25:227.64999 26:224.662 27:227.946 28:140.01401 29:138.83 30:140.21001 # frame 1744
-4.0494013058340524e-012 1:312.38199 2:8.5748701 3:176.39999 4:184.728 5:29.9361 6:141.18401 7:205.00101 8:207.089 9:205.698 10:128.183 11:129.15601 12:128.478 13:219.161 14:221.36099 15:224.39301 16:133.69 17:134.369 18:135.748 19:250.34599 20:249.245 21:248.116 22:148.711 23:148.60001 24:147.994 25:225.545 26:221.842 27:224.52299 28:139.595 29:138.662 30:139.71201 # frame 1744
-1.8732995391737368e-012 1:21.2675 2:22 3:588.88898 4:40.5369 5:47.348202 6:258.69101 7:225.00101 8:226.43201 9:221.892 10:137.81 11:138.61099 12:136.577 13:227.272 14:225.62801 15:219.97701 16:138.11 17:137.517 18:134.65601 19:237.472 20:232.922 21:234.05901 22:142.748 23:141.161 24:141.37 25:242.741 26:247.515 27:241.63901 28:145.547 29:147.761 30:145.31799 # frame 1756
3.7970849166373614e-012 1:92.259804 2:12.3972 3:475.93701 4:71.5448 5:34.791 6:230.77 7:221.673 8:221.923 9:225.39 10:136.205 11:136.222 12:137.26601 13:221.07401 14:222.02 15:215.276 16:135.508 17:135.439 18:132.267 19:237.437 20:238.485 21:240.72301 22:142.412 23:143.05701 24:143.534 25:240.567 26:236.306 27:234.185 28:145.298 29:143.77299 30:142.814 # frame 1756
-2.6764557140871435e-012 1:139.483 2:8.69419 3:403.758 4:95.969498 5:30.4853 6:211.39301 7:211.47701 8:209.03 9:208.998 10:131.88499 11:130.86 12:130.812 13:209.78101 14:203.728 15:202.407 16:130.052 17:126.311 18:125.413 19:242.802 20:248.185 21:244.13499 22:144.285 23:146.468 24:145.11099 25:229.85001 26:225.83 27:225.397 28:141.09599 29:140.05499 30:140.021 # frame 1756
9.9520361335401582e-013 1:217.155 2:8.9081697 3:300.33301 4:138.964 5:30.907 6:182.377 7:225.853 8:222.53799 9:223.047 10:136.26401 11:134.716 12:135.49001 13:224.028 14:221.68201 15:218.653 16:136.173 17:135.10201 18:132.81599 19:239.188 20:236.297 21:239.96001 22:143.01199 23:141.653 24:143.149 25:229.95599 26:228.647 27:227.63699 28:140.789 29:140.62 30:140.392 # frame 1756
-2.8889218503581858e-012 1:220.84801 2:7.5042701 3:310.04901 4:132.722 5:27.8535 6:184.88901 7:227.04201 8:226.05299 9:223.80901 10:136.813 11:136.46001 12:135.56 13:225.595 14:229.08501 15:219.92101 16:137.036 17:138.30099 18:133.922 19:240.241 20:237.052 21:241.705 22:143.34 23:142.043 24:143.845 25:235.77 26:233.72501 27:234.20799 28:143.27299 29:142.54601 30:142.66499 # frame 1756
8.1625571591210398e-012 1:289.81201 2:11.2957 3:205.161 4:180.642 5:35.297199 6:152.724 7:211.493 8:214.782 9:217.814 10:131.103 11:132.209 12:133.586 13:219.216 14:225.71001 15:227.925 16:133.834 17:136.38901 18:137.339 19:243.87199 20:243.328 21:244.27901 22:145.67101 23:145.89999 24:146.099 25:221.511 26:218.033 27:215.689 28:138.239 29:136.42799 30:135.567 # frame 1756
2.6157301359017286e-012 1:284.95099 2:14.2467 3:188.17 4:180.49001 5:40.078701 6:146.535 7:207.062 8:204.131 9:204.75301 10:129.63699 11:128.41 12:128.78999 13:208.049 14:207.963 15:208.647 16:128.29601 17:128.633 18:128.50999 19:252.515 20:254.15401 21:252.289 22:149.314 23:150.02901 24:148.651 25:220.44701 26:219.668 27:216.092 28:138.31599 29:136.94901 30:136.084 # frame 1756
4.375181016873531e-012 1:279.12299 2:19.7686 3:173.675 4:178.265 5:46.93 6:140.722 7:208.313 8:207.08299 9:206.71899 10:129.32201 11:128.911 12:128.672 13:213.69 14:214.259 15:214.11099 16:131.63 17:131.819 18:131.67 19:246.591 20:245.834 21:243.161 22:147.222 23:146.895 24:145.537 25:223.10001 26:218.812 27:219.257 28:138.245 29:137.17101 30:137.638 # frame 1756
-4.2835670710932001e-013 1:464.23801 2:20.527399 3:239.709 4:226.009 5:44.074799 6:156.645 7:172.646 8:169.00301 9:169.438 10:109.772 11:108.493 12:108.962 13:192.177 14:191.185 15:193.60899 16:117.744 17:117.21 18:118.439 19:268.51801 20:268.29099 21:264.64301 22:153.812 23:154.011 24:153.47 25:218.515 26:201.75999 27:203.10899 28:138.35699 29:131.802 30:132.821 # frame 1756
-2.3119143935586263e-012 1:16.896099 2:25.917299 3:597.94702 4:38.645 5:51.932201 6:260.646 7:226.289 8:230.34 9:224.924 10:137.99899 11:139.605 12:136.767 13:222.271 14:219.47 15:216.80099 16:135.799 17:134.11099 18:132.437 19:236.401 20:233.631 21:233.40601 22:142.12601 23:141.004 24:141.20799 25:242.54401 26:240.83 27:244.972 28:145.69701 29:145.239 30:146.21201 # frame 1781
-2.9407549225169108e-012 1:84.367897 2:15.0453 3:481.31299 4:67.611099 5:38.045101 6:231.99699 7:222.08 8:222.77901 9:220.216 10:135.673 11:136.23399 12:134.526 13:218.74899 14:220.705 15:217.511 16:134.196 17:134.642 18:132.336 19:235.522 20:231.899 21:235.005 22:141.534 23:140.05299 24:141.51601 25:241.168 26:237.40401 27:236.13901 28:145.123 29:144.149 30:143.436 # frame 1781
7.5498255742297666e-012 1:165.55701 2:8.2914696 3:384.08701 4:103.708 5:29.080799 6:206.50301 7:223.591 8:218.286 9:216.783 10:136.467 11:134.3 12:133.672 13:216.205 14:212.43201 15:206.099 16:132.929 17:130.74001 18:127.452 19:236.629 20:240.14101 21:240.545 22:142.10899 23:143.36301 24:143.65601 25:231.34 26:232.07001 27:233.562 28:141.75999 29:142.35899 30:143.16701 # frame 1781
-1.8337683469542685e-012 1:315.64499 2:4.3548102 3:267.34299 4:173.51401 5:21.1597 6:173.369 7:230.05499 8:229.472 9:227.705 10:137.87801 11:137.782 12:136.98801 13:232.078 14:238.63499 15:241.612 16:139.448 17:142.297 18:143.53101 19:233.726 20:234.062 21:233.81799 22:141.47701 23:142.022 24:141.673 25:225.131 26:221.422 27:218.80901 28:139.73399 29:138.189 30:136.80099 # frame 1781
-8.1309864492722679e-012 1:342.289 2:5.0822401 3:218.43401 4:193.836 5:22.9517 6:157.60201 7:216.799 8:211.64101 9:213.75999 10:132.437 11:130.089 12:131.03 13:219.061 14:219.272 15:221.724 16:133.61099 17:133.771 18:135.33 19:237.54401 20:238.22099 21:235.81 22:143.295 23:144.08299 24:143.289 25:223.92599 26:225.23199 27:220.069 28:139.172 29:138.91 30:137.271 # frame 1781
-7.186006312206621e-012 1:330.01999 2:7.8727798 3:187.504 4:188.591 5:28.7283 6:145.604 7:220.53999 8:215.92799 9:215.033 10:134.228 11:132.536 12:131.853 13:217.431 14:219.612 15:221.149 16:133.851 17:134.85201 18:135.205 19:230.00101 20:234.366 21:234.774 22:140.177 23:141.933 24:142.254 25:233.063 26:235.194 27:231.59599 28:142.214 29:143.201 30:141.505 # frame 1781
-1.0761445392988728e-011 1:279.806 2:7.7024102 3:214.22301 4:155.96001 5:27.8801 6:153.56599 7:225.28 8:218.28999 9:220.388 10:135.06799 11:132.41 12:133.371 13:226.28799 14:230.53999 15:227.284 16:137.35899 17:139.22701 18:137.88499 19:235.243 20:233.291 21:234.944 22:142.638 23:142.213 24:142.21001 25:236.71899 26:234.422 27:232.903 28:143.742 29:142.976 30:142.27299 # frame 1781
7.1763337002130803e-012 1:332.73599 2:6.8415399 3:202.505 4:171.60699 5:25.879299 6:150.297 7:218.436 8:214.298 9:212.782 10:132.76601 11:131.16701 12:130.62 13:218.214 14:221.40199 15:222.341 16:133.83 17:135.74699 18:135.875 19:232.955 20:232.463 21:233.644 22:141.791 23:141.99699 24:141.392 25:233.474 26:236.086 27:232.31599 28:142.724 29:143.823 30:142.149 # frame 1781
-1.0672043212815263e-011 1:310.336 2:18.5429 3:161.96899 4:181.3 5:40.128601 6:134.64799 7:219.828 8:214.366 9:217.492 10:133.392 11:131.30499 12:132.37801 13:221.349 14:225.40199 15:226.668 16:135.47301 17:137.119 18:137.57401 19:237.90199 20:235.04601 21:237.267 22:143.362 23:142.467 24:142.92599 25:233.55701 26:236.10201 27:238.14799 28:142.645 29:143.698 30:144.492 # frame 1781
-3.0444194084389754e-013 1:289.89999 2:4.4945202 3:268.715 4:171.845 5:21.347401 6:174.354 7:202.66499 8:200.84 9:206.27 10:127.356 11:127.221 12:129.341 13:209.01199 14:211.946 15:218.265 16:129.04601 17:130.147 18:132.817 19:248.82899 20:250.505 21:247.55 22:147.278 23:148.685 24:147.30499 25:217.674 26:215.021 27:214.884 28:138.229 29:136.425 30:136.496 # frame 1797
4.0376148991248827e-012 1:312.767 2:6.1103001 3:239.5 4:184.646 5:24.951401 6:164.86099 7:202.32401 8:203.112 9:207.44701 10:127.853 11:128.21001 12:129.91499 13:207.144 14:209.211 15:210.44901 16:128.22501 17:129.06599 18:129.73 19:241.431 20:240.80099 21:240.08501 22:145.011 23:144.952 24:144.649 25:215.657 26:215.145 27:211.60001 28:136.752 29:136.093 30:134.451 # frame 1797
-6.6723627020636694e-012 1:326.595 2:6.9098501 3:221.88 4:187.959 5:26.2936 6:158.519 7:215.772 8:213.836 9:213.237 10:132.748 11:132.043 12:131.711 13:223.41 14:221.243 15:218.571 16:136.117 17:135.382 18:134.314 19:234.30499 20:236.233 21:236.12399 22:142.72 23:143.836 24:143.3 25:228.84599 26:229.19299 27:229.36301 28:141.058 29:140.912 30:140.91299 # frame 1797
-2.2830161858179229e-012 1:187.97301 2:8.9451199 3:337.11801 4:107.393 5:29.5471 6:193.181 7:216.88901 8:212.27499 9:212.59801 10:132.632 11:130.97301 12:131.229 13:222.22501 14:221.534 15:216.125 16:135.946 17:135.23801 18:133.647 19:236.60899 20:233.043 21:233.5 22:142.841 23:141.60899 24:141.899 25:242.535 26:243.48199 27:241.908 28:145.923 29:146.05099 30:145.938 # frame 1797
-9.0277988128522243e-012 1:274.60999 2:6.5343699 3:260.59299 4:149.14301 5:25.552999 6:169.72 7:210.21201 8:205.689 9:204.382 10:130.036 11:128.133 12:127.681 13:211.653 14:212.937 15:210.48399 16:131.33299 17:131.59 18:130.429 19:242.855 20:245.302 21:245.134 22:145.623 23:146.506 24:146.424 25:235.674 26:234.76401 27:237.237 28:143.60699 29:142.985 30:144.222 # frame 1797
-7.2489765918424794e-012 1:327.49899 2:7.3510699 3:207.006 4:177.80099 5:27.815001 6:151.601 7:210.92999 8:204.048 9:202.45 10:130.649 11:127.633 12:127.345 13:211.19701 14:212.002 15:209.321 16:131.125 17:131.157 18:130.286 19:242.52901 20:238.625 21:242.89799 22:145.20599 23:144.09599 24:145.701 25:234.911 26:237.005 27:234.34801 28:143.22501 29:144.14799 30:143.067 # frame 1797
4.1398277153319441e-012 1:307.33499 2:11.8079 3:157.356 4:184.086 5:35.8862 6:133.379 7:207.23 8:202.675 9:203.326 10:128.56799 11:126.833 12:127.11 13:216.63901 14:217.457 15:219.067 16:132.535 17:133.317 18:134.09 19:242.63 20:244.817 21:245.927 22:145.44099 23:146.60899 24:146.68201 25:225.884 26:226.95 27:231.713 28:140.03101 29:141.049 30:142.61 # frame 1797
2.71814537570093e-012 1:273.86301 2:13.7242 3:150.101 4:171.841 5:38.284199 6:130.09 7:215.408 8:214.534 9:212.16299 10:132.091 11:131.90601 12:131.14301 13:216.12399 14:217.92799 15:222.884 16:133.12199 17:134.119 18:136.349 19:236.18401 20:237.453 21:234.14101 22:142.526 23:143.358 24:141.938 25:225.778 26:224.994 27:222.61501 28:139.395 29:139.573 30:138.679 # frame 1797
