SVM-light Version V6.20
1 # kernel type
3 # kernel parameter -d 
1 # kernel parameter -g 
1 # kernel parameter -s 
1 # kernel parameter -r 
empty# kernel parameter -u 
30 # highest feature index 
153 # number of training documents 
501 # number of support vectors plus 1 
0 # threshold b, each following line is a SV (starting with alpha*y)
-7.2270166266377943e-013 1:292.34 2:11.4449 3:400.89401 4:178.77499 5:32.108501 6:207.989 7:216.571 8:217.509 9:215.30701 10:131.90401 11:132.295 12:131.508 13:228.53101 14:233.189 15:231.17 16:138.616 17:140.55299 18:139.577 19:241.03799 20:241.743 21:240.84599 22:144.843 23:144.625 24:144.69701 25:234.77901 26:237.00301 27:235.767 28:142.761 29:143.709 30:142.901 # frame 16
1.0861855630569877e-012 1:258.61801 2:59.435101 3:206.522 4:148.397 5:61.692402 6:146.36501 7:229.73399 8:226.94 9:228.716 10:137.709 11:136.646 12:137.256 13:212.955 14:213.873 15:213.125 16:131.42599 17:131.907 18:131.561 19:234.769 20:233.936 21:234.784 22:141.841 23:141.722 24:142.062 25:238.39301 26:236.8 27:237.93401 28:143.95 29:143.464 30:143.754 # frame 16
-1.6012747720014113e-012 1:95.888901 2:46.214401 3:121.883 4:81.694 5:51.718399 6:117.017 7:221.455 8:221.218 9:222.299 10:134.994 11:134.897 12:135.164 13:224.728 14:221.604 15:228.769 16:136.66499 17:135.60001 18:138.239 19:238.036 20:237.40601 21:239.399 22:144.008 23:143.77901 24:144.444 25:229.353 26:232.14101 27:230.798 28:141.33099 29:142.22099 30:141.942 # frame 16
-1.9091574504759658e-012 1:395.36099 2:2.20894 3:276.58301 4:181.67999 5:12.0899 6:174.8 7:222.59801 8:222.58299 9:220.966 10:136.144 11:136.248 12:135.463 13:214.517 14:214.996 15:211.496 16:132.037 17:132.34 18:130.90601 19:229.614 20:231.666 21:227.927 22:140.399 23:140.744 24:139.138 25:232.97501 26:231.338 27:231.468 28:142.34599 29:141.674 30:141.502 # frame 16
-4.3880741997034472e-012 1:147.32001 2:15.2481 3:146.07201 4:83.465202 5:35.1371 6:125.651 7:224.09599 8:221.487 9:221.401 10:135.802 11:134.58099 12:134.55299 13:217.843 14:218.73199 15:217.92 16:133.957 17:134.575 18:133.91499 19:235.56 20:236.59599 21:237.772 22:142.59599 23:143.041 24:143.466 25:236.927 26:236.51801 27:234.948 28:144.189 29:143.843 30:143.272 # frame 16
-3.8524439408811083e-013 1:286.21899 2:8.8828897 3:322.25 4:173.57001 5:27.785601 6:173.242 7:210.998 8:214.145 9:215.65401 10:128.657 11:130.127 12:130.86099 13:216.83299 14:220.089 15:220.36301 16:131.44099 17:132.495 18:132.92 19:236.7 20:235.02 21:239.953 22:139.827 23:139.02901 24:141.22301 25:219.08701 26:220.63499 27:219.425 28:133.955 29:135.119 30:134.50999 # frame 65
3.0771671272515286e-013 1:429.10901 2:12.0392 3:85.6054 4:209.48399 5:31.961 6:97.973999 7:212.106 8:208.875 9:208.093 10:132.97501 11:131.577 12:131.53101 13:226.894 14:222.752 15:217.98801 16:137.918 17:136.058 18:133.84399 19:249.623 20:248.216 21:247.65199 22:147.27901 23:147.37801 24:146.492 25:206.88 26:212.563 27:211.353 28:133.606 29:135.696 30:135.433 # frame 65
-4.0288513300851062e-012 1:517.91998 2:0.417555 3:259.633 4:241.25 5:6.4671001 6:171.97301 7:229.09599 8:227.55901 9:226.57201 10:138.681 11:138.151 12:137.537 13:224.67799 14:221.24899 15:222.70799 16:137.108 17:135.75301 18:136.024 19:234.69299 20:235.44299 21:233.86301 22:141.989 23:142.399 24:141.57899 25:237.88 26:239.867 27:241.052 28:144.246 29:145.05099 30:145.358 # frame 65
-6.9787606323441255e-012 1:415.51199 2:4.8067999 3:231.62399 4:216.716 5:18.404499 6:161.01801 7:227.509 8:229.09399 9:227.155 10:138.763 11:139.325 12:138.448 13:225.354 14:223.804 15:223.10201 16:137.52699 17:137.062 18:136.51801 19:231.16499 20:232.588 21:233.597 22:140.651 23:141.30099 24:141.295 25:241.416 26:241.36 27:238.64799 28:146.026 29:146.11501 30:144.79601 # frame 65
8.9820273885834983e-013 1:72.681801 2:23.194 3:142.369 4:78.413597 5:46.060799 6:122.746 7:216.838 8:215.616 9:215.02 10:131.494 11:131.149 12:131.082 13:217.226 14:218.31799 15:217.299 16:132.21899 17:132.27499 18:131.94501 19:227.84599 20:225.869 21:225.451 22:136.604 23:136.04601 24:135.895 25:235.972 26:236.323 27:232.881 28:140.75999 29:140.77499 30:139.92101 # frame 65
5.7399959865436692e-012 1:131.11 2:4.6034698 3:201.56799 4:73.640999 5:17.2047 6:150.353 7:221.965 8:220.30901 9:219.99899 10:134.69099 11:134.039 12:133.703 13:212.17999 14:209.356 15:211.45399 16:131.599 17:130.856 18:131.35001 19:227.278 20:229.80299 21:229.30499 22:139.067 23:140.12199 24:139.88499 25:233.161 26:234.65199 27:235.082 28:142.489 29:142.993 30:142.731 # frame 65
5.2729583020621308e-013 1:389.87601 2:57.734901 3:186.35899 4:203.09399 5:60.8437 6:143.071 7:212.649 8:218.164 9:223.464 10:132.46001 11:134.49899 12:136.64301 13:229.741 14:232.78799 15:234.017 16:139.442 17:140.80701 18:141.438 19:238.11501 20:236.27499 21:241.44 22:144.06799 23:143.08099 24:144.776 25:234.522 26:234.149 27:229.476 28:143.528 29:143.332 30:141.62 # frame 65
2.1218877837341675e-013 1:318.32599 2:3.89043 3:245.735 4:190.739 5:20.545099 6:166.62 7:224.84399 8:225.345 9:226.192 10:136.593 11:136.95399 12:137.228 13:214.72501 14:215.905 15:214.48801 16:132.534 17:133.13699 18:132.646 19:234.396 20:237.332 21:235.192 22:141.875 23:143.561 24:142.705 25:237.625 26:237.479 27:235.674 28:143.99699 29:144.256 30:143.364 # frame 92
3.2233121373531253e-012 1:264.80701 2:8.7259703 3:209.108 4:162.194 5:27.242001 6:143.047 7:213.118 8:210.467 9:213.028 10:129.519 11:128.416 12:129.3 13:205.159 14:205.713 15:202.467 16:126.648 17:127.004 18:125.527 19:216.412 20:218.907 21:222.638 22:132.39799 23:133.26401 24:134.479 25:222.76801 26:222.31599 27:225.679 28:135.52 29:135.562 30:136.748 # frame 92
7.9378856231609022e-013 1:160.849 2:12.5578 3:306.10501 4:91.257004 5:29.928301 6:183.183 7:225.24699 8:216.664 9:211.662 10:137.692 11:133.8 12:132.12199 13:215.588 14:211.272 15:210.759 16:132.436 17:130.17 18:130.2 19:241.468 20:243.51601 21:248.841 22:143.819 23:144.763 24:146.756 25:230.008 26:238.965 27:237.513 28:142.002 29:144.29601 30:144.20399 # frame 92
4.667561474542996e-012 1:390.616 2:2.5334101 3:242.655 4:211.265 5:16.7043 6:165.858 7:229.358 8:228.12199 9:228.368 10:139.578 11:139.11301 12:139.099 13:226.80901 14:228.50101 15:228.01199 16:138.035 17:138.70399 18:138.19099 19:240.23199 20:238.901 21:239.006 22:144.10699 23:143.498 24:143.68401 25:243.689 26:243.091 27:241.53799 28:146.319 29:146.032 30:145.362 # frame 92
-8.4339186234492501e-013 1:370.88699 2:2.87918 3:243.53999 4:205.867 5:17.911501 6:166.144 7:228.386 8:229.367 9:229.52299 10:138.89799 11:139.40601 12:139.284 13:229.07001 14:231.05099 15:230.97501 16:139.246 17:139.83099 18:139.76801 19:236.577 20:235.92599 21:234.99001 22:142.57401 23:142.33299 24:142.172 25:243.186 26:245.278 27:243.12 28:145.636 29:146.72501 30:145.92999 # frame 92
3.2914271316364719e-012 1:283.672 2:7.0454202 3:237.483 4:175.589 5:24.7696 6:159.528 7:220.642 8:221.045 9:221.658 10:133.963 11:134.076 12:134.35899 13:214.73399 14:215.855 15:216.054 16:130.505 17:131.198 18:131.073 19:222.858 20:226.564 21:224.45599 22:134.69299 23:136.19299 24:135.23599 25:227.29601 26:229.64301 27:228.864 28:137.40601 29:138.495 30:138.326 # frame 92
-1.9580250536705181e-012 1:308.755 2:27.610201 3:139.778 4:172.597 5:50.647999 6:119.658 7:207.05099 8:207.334 9:209.914 10:128.474 11:128.62 12:129.466 13:221.416 14:225.17999 15:223.37399 16:135.45599 17:136.862 18:136.55499 19:244.73599 20:245.59801 21:247.412 22:146.64101 23:147.405 24:148.284 25:244.888 26:247.242 27:245.134 28:147.371 29:148.521 30:147.592 # frame 92
1.4165587277309494e-011 1:372.202 2:1.44365 3:272.94601 4:200.92101 5:11.0277 6:175.989 7:230.215 8:229.59 9:229.72301 10:138.862 11:138.868 12:138.774 13:227.472 14:226.571 15:227.787 16:138.345 17:138.02499 18:138.65199 19:232.299 20:234.55499 21:234.896 22:140.98 23:141.789 24:142.05299 25:238.99001 26:239.213 27:240.48599 28:144.767 29:144.823 30:145.13901 # frame 170
-1.1076587025270594e-012 1:14.772 2:37.666801 3:257.392 4:40.2346 5:61.628502 6:163.026 7:226.925 8:225.485 9:227.07201 10:137.89301 11:137.214 12:137.588 13:221.563 14:217.50999 15:218.534 16:135.87399 17:133.627 18:133.73 19:236.345 20:239.256 21:236.34399 22:142.604 23:144.118 24:143.009 25:244.099 26:242.42599 27:244.19701 28:146.55 29:145.905 30:146.354 # frame 170
5.5467323848129788e-012 1:21.7223 2:41.4072 3:260.93399 4:47.547199 5:64.4561 6:165.2 7:216.64999 8:214.252 9:215.595 10:132.026 11:131.2 12:131.461 13:223.104 14:220.502 15:220.043 16:134.496 17:133.19299 18:133.263 19:225.50101 20:226.62399 21:225.896 22:135.47501 23:135.91499 24:135.58099 25:228.54201 26:228.80499 27:229.28999 28:137.92599 29:138.168 30:138.07401 # frame 170
1.0679013009049215e-012 1:339.14001 2:50.501701 3:78.310303 4:196.40199 5:72.946098 6:85.334396 7:230.36301 8:233.345 9:229.55 10:139.077 11:139.823 12:138.48801 13:236.539 14:239.118 15:236.994 16:141.44 17:142.783 18:141.948 19:235.326 20:238.33099 21:234.88699 22:143.015 23:144.26401 24:142.564 25:211.55299 26:210.763 27:211.465 28:134.321 29:134.033 30:134.472 # frame 170
-3.7163400983396489e-012 1:348.57599 2:7.5000501 3:152.91901 4:198.39301 5:26.742901 6:129.87801 7:231.951 8:232.908 9:233.314 10:140.136 11:140.43401 12:140.83501 13:230.286 14:235.34599 15:233.74699 16:139.53101 17:141.83501 18:140.856 19:233.828 20:232.358 21:234.37801 22:141.537 23:141.224 24:141.825 25:235.879 26:239.022 27:234.67599 28:143.24699 29:144.241 30:142.905 # frame 170
-1.6463143492021618e-012 1:245.528 2:4.9191198 3:167.957 4:127.637 5:19.791401 6:129.216 7:224.27699 8:222.144 9:221.787 10:136.51801 11:135.40401 12:135.394 13:225.12199 14:226.17 15:225.44501 16:137.438 17:137.50301 18:137.285 19:234.854 20:235.013 21:233.62399 22:141.776 23:141.597 24:141.12399 25:246.812 26:246.60201 27:248.97301 28:147.70599 29:147.595 30:148.44701 # frame 170
-2.5106696461173572e-012 1:102.803 2:16.304701 3:112.234 4:66.330399 5:37.527699 6:106.034 7:218.3 8:221.293 9:221.36099 10:131.976 11:133.037 12:133.043 13:220.27699 14:217.332 15:218.198 16:133.332 17:132.062 18:132.586 19:226.34399 20:223.38499 21:223.48801 22:136.39999 23:134.797 24:135.189 25:229.899 26:231.584 27:229.912 28:138.33 29:138.77901 30:138.403 # frame 170
5.4731085952409275e-013 1:273.02802 2:0.158906 3:324.60001 4:163.658 5:3.8496001 6:192.65199 7:220.149 8:217.981 9:218.192 10:135.556 11:134.649 12:134.901 13:217.354 14:216.71201 15:217.479 16:132.964 17:132.688 18:133.02499 19:238.97099 20:238.69701 21:240.62801 22:142.905 23:143.022 24:143.536 25:223.731 26:225.179 27:222.54401 28:138.974 29:139.674 30:138.62399 # frame 267
-5.8648093044326447e-012 1:401.76801 2:0.290712 3:294.595 4:175.304 5:5.2470002 6:183.297 7:226.17 8:226.709 9:226.97301 10:137.942 11:138.371 12:138.342 13:224.814 14:226.94099 15:224.944 16:137.381 17:138.159 18:137.258 19:234.89301 20:235.28101 21:233.298 22:141.326 23:141.569 24:140.519 25:247.2 26:247.127 27:246.769 28:147.69299 29:147.701 30:147.466 # frame 267
-1.0774086848019727e-012 1:15.0057 2:4.3284602 3:421.203 4:28.943701 5:21.1408 6:218.96899 7:224.222 8:224.40601 9:223.439 10:136.67999 11:137.27499 12:136.698 13:220.951 14:223.172 15:221.291 16:135.451 17:136.561 18:135.483 19:236.99899 20:235.12 21:235.916 22:142.28101 23:141.666 24:141.91499 25:245.55 26:240.912 27:242.522 28:146.94501 29:145.53999 30:146.04401 # frame 267
1.2631465832107504e-012 1:295.267 2:0.32058901 3:384.996 4:135.496 5:5.2772999 6:204.146 7:217.38 8:218.82899 9:219.422 10:131.78 11:132.34 12:132.51601 13:218.403 14:216.933 15:217.50101 16:132.733 17:132.017 18:132.399 19:222.77699 20:220.509 21:222.907 22:134.491 23:133.519 24:134.552 25:232.226 26:228.97701 27:230.83299 28:139.37399 29:138.11099 30:138.71001 # frame 267
-8.1393325859526606e-013 1:391.81 2:31.303699 3:178.257 4:209.877 5:43.912102 6:134.931 7:231.35001 8:231.026 9:231.403 10:139.534 11:139.528 12:139.74001 13:230.632 14:233.955 15:231.668 16:139.72701 17:140.883 18:140.07401 19:234.205 20:235.66 21:235.683 22:141.847 23:142.7 24:142.62399 25:240.511 26:242.429 27:241.69299 28:145.403 29:146.358 30:145.813 # frame 267
4.1159625023664684e-012 1:292.11401 2:14.3732 3:172.09399 4:162.782 5:33.7276 6:137.08099 7:225.24699 8:223.51401 9:224.752 10:136.533 11:135.806 12:136.537 13:225.19299 14:225.34599 15:225.105 16:137.481 17:137.534 18:137.476 19:234.867 20:234.36 21:237.57899 22:142.173 23:142.14301 24:142.931 25:242.10201 26:246.256 27:244.785 28:146.01199 29:147.24699 30:146.785 # frame 267
-8.1565456880874979e-013 1:161.664 2:27.060699 3:340.543 4:101.885 5:50.785599 6:175.272 7:216.757 8:214.521 9:218.806 10:132.94501 11:131.91299 12:133.769 13:220.351 14:219.66299 15:222.705 16:134.98199 17:134.59599 18:135.936 19:240.302 20:243.131 21:243.332 22:144.98199 23:146.43401 24:146.32899 25:218.752 26:222.929 27:220.701 28:137.42 29:138.936 30:138.12 # frame 267
-3.6421139923409332e-012 1:33.360401 2:9.1195602 3:328.76099 4:41.339401 5:28.491699 6:187.797 7:221.097 8:219.114 9:217.70599 10:134.339 11:133.40401 12:132.931 13:220.177 14:222.60001 15:221.33501 16:133.61 17:134.215 18:134.14999 19:225.375 20:226.14 21:226.646 22:135.522 23:135.743 24:135.854 25:226.343 26:230.437 27:229.15199 28:137.019 29:138.44299 30:137.995 # frame 267
-1.3902171656095647e-012 1:212.21001 2:9.4580402 3:301.15201 4:138.855 5:27.4498 6:183.31 7:205.17799 8:202.614 9:203.515 10:129.409 11:128.64301 12:128.834 13:205.05701 14:204.903 15:204.397 16:127.423 17:127.086 18:126.941 19:249.70399 20:249.526 21:257.64801 22:148.07899 23:148.228 24:151.21201 25:217.578 26:216.53101 27:216.17101 28:137.692 29:136.108 30:136.241 # frame 342
-1.8222186625574579e-012 1:408.267 2:5.6027598 3:213.76601 4:213.728 5:21.2453 6:155.005 7:232.24699 8:232.381 9:230.74899 10:139.339 11:139.62601 12:139.024 13:220.638 14:221.19901 15:219.39799 16:135.59 17:135.89 18:135.29601 19:232.203 20:229.17 21:227.47301 22:141.133 23:139.937 24:139.245 25:238.20599 26:237.319 27:240.856 28:144.52299 29:144.09801 30:145.60201 # frame 342
8.8286823727417055e-013 1:77.778702 2:23.379601 3:252.88699 4:64.977402 5:46.766899 6:158.92799 7:219.618 8:211.92799 9:213.047 10:133.22701 11:130.21001 12:130.758 13:225.558 14:222.01199 15:222.032 16:137.578 17:135.87801 18:135.78999 19:238.62199 20:241.70399 21:245.98801 22:144.218 23:145.62199 24:147.285 25:231.092 26:236.99001 27:238.48801 28:141.99001 29:144.28 30:144.838 # frame 342
5.4374961397576546e-014 1:17.8514 2:62.480301 3:259.271 4:38.843601 5:77.132004 6:163.74001 7:221.245 8:221.207 9:216.341 10:133.323 11:133.328 12:131.287 13:221.94901 14:223.09 15:219.10001 16:134.464 17:134.584 18:132.80299 19:221.88499 20:219.28999 21:221.892 22:134.343 23:133.57201 24:134.52299 25:222.549 26:226.39301 27:228.892 28:135.377 29:137.058 30:137.78101 # frame 342
-1.0595186490127891e-011 1:471.625 2:3.4955201 3:298.75699 4:226.84399 5:11.3887 6:183.606 7:230.82401 8:229.86301 9:230.52901 10:138.278 11:137.998 12:138.174 13:224.132 14:227.75 15:224.35201 16:137.028 17:138.511 18:137.026 19:239.496 20:241.59 21:240.332 22:142.967 23:143.617 24:143.02901 25:243.782 26:242.02901 27:241.528 28:146.79401 29:146.002 30:145.786 # frame 342
1.6503434216293622e-012 1:408.76801 2:40.350601 3:185.312 4:204.15601 5:49.726501 6:140.826 7:206.37 8:208.103 9:202.93401 10:128.739 11:129.48199 12:127.633 13:225.73399 14:224.28999 15:226.772 16:137.342 17:137.286 18:137.97 19:234.55901 20:235.729 21:237.205 22:142.22099 23:143.09 24:144.03 25:243.709 26:244.216 27:245.351 28:147.035 29:147.179 30:147.466 # frame 342
-2.3945933831736006e-013 1:267.591 2:7.3489199 3:114.982 4:156.007 5:26.007601 6:105.185 7:233.39101 8:228.677 9:232.328 10:138.828 11:136.717 12:138.414 13:238.461 14:238.75999 15:238.313 16:142.843 17:142.922 18:142.726 19:230.408 20:232.608 21:233.744 22:140.14101 23:141.286 24:141.545 25:232.03 26:234.91499 27:232.49899 28:142.034 29:143.10899 30:142.285 # frame 342
2.596163420580258e-013 1:244.90199 2:73.439301 3:228.785 4:124.755 5:73.167198 6:138.933 7:187.215 8:185.97099 9:174.052 10:119.358 11:118.848 12:113.728 13:199.694 14:185.27 15:178.528 16:124.029 17:117.817 18:113.965 19:241.15401 20:233.888 21:232.17799 22:141.838 23:138.80099 24:137.629 25:218.65199 26:215.271 27:210.27699 28:135.496 29:133.457 30:131.46899 # frame 389
-4.5148811504389592e-012 1:301.37299 2:38.236198 3:149.323 4:185.425 5:63.555698 6:129.342 7:223.403 8:222.097 9:225.026 10:135.64301 11:135.244 12:136.563 13:223.88499 14:230.116 15:231.771 16:136.246 17:139.061 18:139.645 19:236.957 20:236.80499 21:238.323 22:143.82401 23:143.97701 24:144.565 25:228.718 26:228.673 27:225.181 28:140.786 29:140.64301 30:139.291 # frame 389
4.2631040990218955e-012 1:377.10501 2:11.617 3:226.744 4:206.007 5:30.734301 6:150.164 7:234.186 8:232.39 9:230.545 10:141.959 11:141.12601 12:140.493 13:233.252 14:236.08299 15:236.077 16:140.85001 17:141.94701 18:141.914 19:238.297 20:236.745 21:236.82401 22:142.71001 23:142.43401 24:142.395 25:233.31 26:235.591 27:235.912 28:142.42999 29:142.97501 30:143.145 # frame 389
-4.5786792770572047e-013 1:389.87299 2:32.172798 3:138.104 4:194.843 5:52.630199 6:110.138 7:230.63901 8:230.76801 9:228.871 10:138.86301 11:138.786 12:138.11099 13:232.80299 14:230.625 15:230.42 16:140.65601 17:139.98399 18:140.04601 19:230.095 20:230.26801 21:232.063 22:140.496 23:140.218 24:141.08501 25:230.395 26:229.948 27:231.722 28:141.35001 29:140.828 30:141.20599 # frame 389
-1.3062362603446991e-013 1:44.044498 2:95.552498 3:185.146 4:68.681503 5:96.994003 6:134.93401 7:213.998 8:210.842 9:210.19501 10:131.14799 11:129.451 12:129.38499 13:222.548 14:217.91901 15:222.946 16:134.658 17:132.739 18:134.7 19:226.897 20:228.444 21:230.789 22:136.519 23:137.216 24:138.28799 25:228.866 26:231.133 27:231.745 28:138.216 29:138.92599 30:139.174 # frame 389
5.3841423908020217e-012 1:364.495 2:11.209 3:176.772 4:202.576 5:26.4818 6:141.33299 7:220.472 8:219.918 9:219.03799 10:134.44701 11:134.31599 12:133.98801 13:218.194 14:228.00101 15:225.293 16:134.145 17:138.155 18:137.103 19:238.146 20:240.795 21:240.07899 22:143.979 23:145.002 24:144.701 25:236.45799 26:236.72 27:236.377 28:143.974 29:143.946 30:143.953 # frame 389
-2.5645460603371208e-012 1:39.346401 2:70.988297 3:211.21899 4:67.011398 5:87.987198 6:153.964 7:226.813 8:227.698 9:227.369 10:138.159 11:138.44501 12:138.412 13:232.896 14:228.293 15:230.575 16:140.92599 17:138.601 18:139.371 19:238.993 20:240.89799 21:238.90601 22:144.028 23:144.494 24:143.79601 25:240.8 26:244.19501 27:246.403 28:144.89999 29:146.468 30:147.239 # frame 429
-1.248551848203375e-012 1:31.34 2:43.011101 3:265.09601 4:58.220001 5:66.623001 6:168.96201 7:219.299 8:218.72099 9:217.289 10:132.571 11:132.254 12:131.91701 13:218.84801 14:216.032 15:215.67101 16:132.556 17:131.55499 18:131.272 19:225.013 20:221.81 21:222.19901 22:135.944 23:134.42101 24:134.474 25:234.045 26:232.494 27:236.01801 28:139.883 29:139.31799 30:140.76601 # frame 429
2.5121942163392902e-012 1:142.67799 2:7.0781798 3:155.69901 4:75.441597 5:27.197399 6:133.30701 7:222.207 8:222.105 9:220.56799 10:135.761 11:135.412 12:134.998 13:218.552 14:216.007 15:215.826 16:133.533 17:132.604 18:132.64301 19:233.158 20:233.755 21:235.284 22:141.765 23:142.13699 24:142.423 25:225.187 26:227.05099 27:226.16701 28:139.728 29:140.483 30:139.53 # frame 429
3.6371901166996427e-013 1:6.7156401 2:26.584499 3:134.59399 4:25.4552 5:54.7131 6:123.876 7:216.604 8:212.888 9:210.27499 10:134.46001 11:132.672 12:131.367 13:215.45799 14:208.879 15:205.972 16:132.86099 17:129.98599 18:128.064 19:234.19701 20:233.44 21:237.065 22:142.69901 23:142.71001 24:144.099 25:222.12601 26:223.46001 27:224.756 28:139.05 29:139.52499 30:140.064 # frame 429
8.8324385055106958e-013 1:27.242201 2:47.801498 3:185.563 4:54.435299 5:69.854599 6:141.978 7:226.894 8:224.70599 9:228.745 10:138.603 11:137.864 12:139.02499 13:230.961 14:235.922 15:233.483 16:140.16299 17:141.901 18:140.786 19:236.735 20:235.995 21:235.355 22:142.63499 23:142.146 24:142.10201 25:242.446 26:241.263 27:241.57001 28:145.408 29:144.951 30:145.09 # frame 429
4.5872678991581378e-012 1:38.327099 2:61.1679 3:185.757 4:64.310402 5:78.158501 6:139.541 7:216.192 8:214.38901 9:214.105 10:132.104 11:131.14101 12:130.89799 13:222.407 14:219.474 15:219.647 16:133.995 17:132.88699 18:132.72701 19:223.22701 20:226.994 21:227.80499 22:134.951 23:136.174 24:136.94099 25:231.30499 26:232.674 27:230.481 28:138.881 29:139.287 30:138.424 # frame 429
1.0497930384929098e-012 1:44.351398 2:35.740799 3:288.43399 4:50.652199 5:56.502399 6:176.549 7:218.57001 8:210.742 9:214.332 10:133.256 11:130.589 12:131.52299 13:222.071 14:219.12399 15:214.99699 16:135.84 17:134.905 18:132.483 19:243.383 20:244.629 21:248.48199 22:145.711 23:145.937 24:147.603 25:244.78799 26:248.927 27:248.186 28:146.826 29:148.36501 30:148.282 # frame 429
-3.4197331129662041e-012 1:298.58899 2:15.514 3:147.364 4:184.157 5:40.823399 6:128.86 7:223.772 8:226.062 9:224.74699 10:136.707 11:137.446 12:136.98599 13:223.16 14:219.564 15:222.35699 16:136.929 17:135.71201 18:136.619 19:233.76801 20:232.879 21:234.02901 22:142.147 23:141.584 24:142.129 25:234.98801 26:239.62601 27:240.174 28:143.145 29:144.901 30:145.054 # frame 495
3.4101330490641395e-012 1:258.83401 2:11.0409 3:130.33701 4:170.726 5:34.323898 6:120.264 7:226.98599 8:226.495 9:225.68201 10:137.58 11:137.42799 12:136.94701 13:221.923 14:223.013 15:221.91901 16:135.67 17:136.06799 18:135.58701 19:229.81 20:229.998 21:229.62801 22:140.925 23:140.789 24:140.93401 25:235.71001 26:236.147 27:238.832 28:143.035 29:143.55499 30:144.636 # frame 495
3.6173885470577737e-012 1:132.868 2:12.4263 3:97.610603 4:119.028 5:35.801102 6:102.207 7:216.99899 8:216.071 9:215.689 10:130.90401 11:130.254 12:130.487 13:216.52499 14:213.627 15:216.763 16:132.047 17:130.77 18:131.98399 19:219.862 20:219.394 21:219.94099 22:134.125 23:133.94 24:134.14 25:227.414 26:226.963 27:226.009 28:137.56599 29:137.483 30:137.078 # frame 495
-1.3712032704454156e-012 1:416.004 2:22.724501 3:171.399 4:217.27299 5:49.752899 6:132.136 7:228.155 8:232.842 9:230.55099 10:137.743 11:139.726 12:138.80299 13:225.59801 14:234.15199 15:232.31 16:137.007 17:141.064 18:139.882 19:228.78999 20:229.431 21:229.97701 22:140.16499 23:140.51801 24:140.552 25:229.51601 26:228.325 27:232.79601 28:140.677 29:140.489 30:142.41299 # frame 495
3.7567934035787514e-012 1:451.16901 2:1.69112 3:256.04901 4:196.51401 5:12.7832 6:169.02499 7:228.02 8:226.217 9:227.495 10:138.87801 11:138.23399 12:138.651 13:229.05499 14:233.2 15:230.88901 16:138.784 17:140.767 18:139.744 19:239.686 20:238.282 21:236.41 22:143.541 23:143.295 24:142.62 25:241.705 26:244.028 27:241.10201 28:145.411 29:146.319 30:145.31599 # frame 495
1.594950141930272e-012 1:362.70499 2:1.48957 3:228.334 4:167.013 5:11.262 6:158.19 7:231.01601 8:226.03999 9:229.619 10:140.218 11:138.34801 12:139.702 13:230.55701 14:226.856 15:227.832 16:140.134 17:138.612 18:138.966 19:234.573 20:236.33501 21:236.85201 22:141.308 23:141.946 24:142.11 25:240.04201 26:241.047 27:241.349 28:144.52299 29:144.888 30:144.957 # frame 495
-2.1953103895267626e-012 1:88.023598 2:14.1859 3:186.683 4:86.6464 5:34.702599 6:139.87801 7:206.338 8:214.138 9:211.931 10:126.939 11:130.121 12:128.98801 13:214.02699 14:212.907 15:214.285 16:130.646 17:129.756 18:130.399 19:235.537 20:231.013 21:231.89 22:140.194 23:138.28 24:138.674 25:237.30901 26:233.907 27:236.40199 28:141.151 29:140.155 30:140.834 # frame 495
-9.9983017829731165e-013 1:194.229 2:11.741 3:220.244 4:144.22501 5:35.387199 6:158.07201 7:224.56 8:219.855 9:219.586 10:136.217 11:134.16299 12:134.407 13:233.19 14:221.392 15:225.757 16:139.791 17:135.19701 18:136.618 19:234.89101 20:235.45 21:234.98 22:142.836 23:142.77699 24:142.981 25:222.218 26:227.74899 27:225.48801 28:138.403 29:140.328 30:139.485 # frame 564
-4.3077283609630226e-012 1:322.005 2:7.2771502 3:295.108 4:191.839 5:28.6499 6:183.44901 7:229.659 8:228.55701 9:230.254 10:139.306 11:138.69901 12:139.349 13:225.308 14:226.173 15:226.662 16:137.23599 17:137.62601 18:137.78 19:231.57201 20:233.20799 21:234.74899 22:140.164 23:141.44701 24:141.638 25:238.76801 26:239.923 27:238.92999 28:144.877 29:145.23399 30:144.75101 # frame 564
8.8675578183133464e-013 1:329.742 2:6.8306899 3:274.60901 4:194.112 5:27.731001 6:176.88499 7:228.19299 8:226.668 9:228.575 10:138.173 11:137.71899 12:138.341 13:221.11 14:223.035 15:218.789 16:135.621 17:136.089 18:134.483 19:235.158 20:234.22099 21:234.468 22:142.312 23:142.241 24:142.405 25:239.05299 26:238.847 27:240.71899 28:145.004 29:144.733 30:145.57001 # frame 564
6.6836338879510066e-012 1:280.16699 2:12.8569 3:274.01599 4:174.562 5:37.207699 6:172.461 7:214.774 8:212.685 9:214.20599 10:129.993 11:129.04401 12:129.881 13:207.88 14:205.05099 15:207.493 16:127.405 17:126.051 18:127.142 19:223.33 20:222.05099 21:221.673 22:135.67101 23:135.589 24:135.632 25:220.757 26:221.271 27:220.056 28:135.47 29:135.53101 30:134.858 # frame 564
-4.064111140307144e-013 1:340.72 2:64.039902 3:81.636703 4:197.24699 5:84.1418 6:93.6436 7:202.70399 8:203.73399 9:201.188 10:125.071 11:125.313 12:124.134 13:223.338 14:222.98399 15:227.903 16:136.058 17:136.218 18:137.89101 19:238.86501 20:239.14101 21:243.76801 22:146.103 23:146.03799 24:147.41901 25:242.099 26:243.18401 27:242.05499 28:145.993 29:146.30099 30:145.75 # frame 564
4.8999994045858346e-012 1:350.67401 2:6.5028 3:259.27701 4:200.181 5:26.9 6:171.83501 7:223.314 8:223.01601 9:224.81 10:134.584 11:134.51199 12:135.194 13:221.299 14:222.39301 15:224.02699 16:136.047 17:136.502 18:137.075 19:240.54401 20:241.849 21:240.65401 22:143.895 23:144.798 24:144.491 25:237.702 26:240.77901 27:240.97301 28:144.271 29:145.48 30:145.299 # frame 564
1.4172939632438165e-013 1:287.89401 2:134.489 3:246.174 4:180.97501 5:110.619 6:166.722 7:186.17799 8:188.73399 9:207.645 10:119.652 11:120.706 12:128.36 13:199.175 14:206.539 15:213.377 16:125.537 17:129.353 18:131.532 19:258.02499 20:256.914 21:250.743 22:150.746 23:149.998 24:147.774 25:231.224 26:236.875 27:223.069 28:141.92599 29:144.58 30:139.19099 # frame 564
-5.7090757034417774e-012 1:279.63 2:8.6887798 3:221.90401 4:174.075 5:30.146999 6:154.84599 7:210.25 8:210.455 9:211.341 10:127.25 11:127.478 12:127.769 13:210.992 14:209.21201 15:209.589 16:128.664 17:128.11099 18:128.17799 19:228.44701 20:225.815 21:226.556 22:137.616 23:136.92101 24:137.179 25:229.599 26:227.686 27:229.42599 28:138.60699 29:137.68401 30:138.51401 # frame 564
1.4921291302607859e-014 1:81.909599 2:16.4058 3:210.87801 4:96.502197 5:42.253799 6:155.142 7:224.55901 8:224.467 9:225.355 10:136.418 11:136.40199 12:136.963 13:217.99001 14:214.248 15:214.76401 16:134.01601 17:132.526 18:132.69299 19:234.20799 20:233.436 21:234.93201 22:142.453 23:142.32401 24:143.149 25:232.325 26:233.485 27:229.771 28:141.92599 29:142.76801 30:140.82001 # frame 586
-2.3533044806486599e-012 1:318.12201 2:7.7293301 3:313.448 4:190.711 5:29.589701 6:188.951 7:211.17101 8:210.24899 9:208.38499 10:130.33299 11:130.127 12:129.35699 13:215.164 14:214.24699 15:212.19701 16:132.162 17:131.661 18:130.311 19:238.312 20:239.923 21:240.289 22:143.743 23:144.897 24:144.78999 25:226.2 26:225.832 27:226.377 28:140.133 29:140.25 30:140.49699 # frame 586
1.7830636366709585e-013 1:331.57199 2:6.8719902 3:292.59399 4:194.72301 5:27.936199 6:182.595 7:214.994 8:213.909 9:215.37801 10:132.996 11:132.599 12:133.28 13:206.91901 14:207.494 15:205.57001 16:128.58501 17:128.944 18:127.711 19:243.26199 20:242.60699 21:242.646 22:144.939 23:145.187 24:144.97501 25:223.48199 26:225.82401 27:227.911 28:139.29601 29:140.494 30:141.19501 # frame 586
-2.6247358685756319e-012 1:287.32001 2:15.6949 3:220.88699 4:176.791 5:41.0648 6:154.44099 7:206.987 8:206.60899 9:206.879 10:126.141 11:126.189 12:125.997 13:197.004 14:194.86301 15:196.326 16:120.787 17:120.291 18:120.762 19:233.207 20:230.938 21:232.25 22:139.04401 23:139.287 24:139.744 25:219.60201 26:221.84 27:223.649 28:135.918 29:136.71899 30:137.00101 # frame 586
9.731212868104417e-013 1:182.161 2:9.4696598 3:172.61 4:138.526 5:28.8291 6:140.196 7:225.258 8:224.998 9:223.993 10:136.33099 11:135.81599 12:135.439 13:218.117 14:221.10001 15:221.444 16:134.67599 17:136.05 18:136.136 19:232.584 20:232.576 21:231.627 22:141.108 23:141.052 24:140.907 25:238.354 26:236.425 27:241.983 28:144.714 29:143.60699 30:145.701 # frame 586
1.4655139008284643e-012 1:318.35901 2:5.9435101 3:242.78101 4:190.231 5:25.504801 6:166.10001 7:212.27 8:213.666 9:211.42799 10:130.05 11:130.694 12:129.556 13:219.159 14:217.701 15:215.743 16:133.73 17:133.21201 18:132.26401 19:243.601 20:247.793 21:247.81599 22:146.18401 23:147.78 24:148.035 25:232.40401 26:232.94099 27:233.79201 28:142.564 29:141.96001 30:142.407 # frame 586
-1.1170252382598997e-012 1:333.862 2:61.971298 3:250.32001 4:194.556 5:68.290497 6:167.91901 7:208.10699 8:209.645 9:209.922 10:128.85899 11:129.74899 12:130.483 13:214.105 14:213.007 15:224.061 16:132.28 17:131.52901 18:136.98399 19:239.235 20:238.67101 21:245.744 22:143.539 23:143.674 24:146.63 25:239.207 26:237.737 27:230.12801 28:145.31799 29:144.63 30:141.86301 # frame 586
-2.1022193463950446e-012 1:315.353 2:3.96368 3:345.48001 4:185.114 5:20.462 6:193.782 7:199.358 8:199.155 9:193.981 10:123.623 11:123.419 12:121.414 13:185.757 14:185.16701 15:187.448 16:116.225 17:116.062 18:117.38 19:229.006 20:227.761 21:231.159 22:136.605 23:135.42599 24:136.80499 25:196.386 26:193.119 27:195.44501 28:125.968 29:124.911 30:125.684 # frame 622
-5.5706399301075625e-012 1:267.30301 2:11.824 3:223.74899 4:174.01801 5:35.417999 6:159.45799 7:215.73199 8:220.536 9:221.192 10:131.043 11:132.912 12:133.313 13:217.942 14:221.937 15:224.21899 16:134.508 17:135.884 18:137.05701 19:234.26801 20:238.243 21:234.97 22:141.742 23:143.205 24:142.064 25:237.73 26:236.71899 27:238.09801 28:144.039 29:143.58299 30:143.912 # frame 622
-1.1377109350175314e-014 1:307.233 2:7.6971798 3:292.526 4:187.41701 5:29.4165 6:182.26199 7:208.16 8:209.222 9:207.612 10:129.701 11:129.95 12:129.65601 13:213.463 14:214.83701 15:214.38 16:131.91701 17:132.149 18:132.075 19:251.597 20:253.50999 21:252.024 22:146.25999 23:147.10899 24:146.35899 25:229.03799 26:230.742 27:228.27901 28:140.81599 29:141.812 30:140.905 # frame 622
-9.3929463403142266e-013 1:306.22601 2:4.8387799 3:205.808 4:186.702 5:23.056601 6:152.66901 7:210.114 8:208.811 9:207.577 10:130.795 11:130.131 12:129.46001 13:218.789 14:217.50301 15:217.80701 16:134.17999 17:133.304 18:133.55701 19:247.496 20:245.28799 21:245.373 22:146.994 23:146.71001 24:146.737 25:225.877 26:227.43201 27:232.62 28:140.474 29:140.918 30:142.636 # frame 622
1.9708992682304068e-012 1:325.858 2:3.9830501 3:326.60199 4:188.217 5:20.5991 6:188.409 7:194.149 8:193.28 9:192.67999 10:120.863 11:120.697 12:120.137 13:187.414 14:190.03799 15:189.614 16:117.592 17:118.06 18:118.129 19:237.74699 20:234.73599 21:239.188 22:140.037 23:139.237 24:140.541 25:210.035 26:213.606 27:210.478 28:130.84801 29:132.853 30:131.282 # frame 622
-6.9667425199679571e-012 1:250.201 2:4.1362801 3:243.351 4:162.078 5:20.2675 6:165.786 7:208.692 8:207.17599 9:205.526 10:127.472 11:126.956 12:126.165 13:216.46899 14:211.577 15:212.95599 16:133.30701 17:131.028 18:131.74699 19:245.11501 20:245.194 21:244.685 22:146.675 23:146.772 24:146.58501 25:237.938 26:238.655 27:239.31799 28:143.823 29:144.317 30:144.328 # frame 622
-2.5169329633729853e-012 1:333.60699 2:7.6122499 3:255.25999 4:195.30299 5:29.115299 6:169.75 7:210.145 8:210.026 9:208.616 10:129.705 11:129.51601 12:128.828 13:213.867 14:213.30099 15:214.323 16:132.194 17:131.88699 18:132.431 19:253.00101 20:253.696 21:252.33 22:147.856 23:148.43401 24:147.96201 25:228.245 26:229.84599 27:231.97301 28:140.785 29:141.604 30:142.47099 # frame 622
-8.2164077938593028e-012 1:326.746 2:1.77527 3:234.66 4:192.851 5:13.693 6:163.298 7:208.299 8:208.425 9:209.91 10:130.35699 11:130.315 12:131.06 13:213.633 14:213.12199 15:213.65199 16:131.832 17:131.509 18:131.924 19:239.55 20:238.01601 21:238.317 22:144.44 23:143.608 24:143.81599 25:219.73199 26:220.196 27:220.642 28:138.618 29:138.817 30:138.914 # frame 657
2.649670367465237e-012 1:260.01901 2:24.7381 3:91.003899 4:163.996 5:48.996201 6:91.988899 7:196.187 8:196.04401 9:199.326 10:122.77 11:122.617 12:123.755 13:208.054 14:206.457 15:205.632 16:126.945 17:126.384 18:126.062 19:229.77699 20:231.245 21:229.995 22:138.937 23:139.276 24:138.91 25:221.06599 26:218.186 27:218.74001 28:136.049 29:134.83 30:135.145 # frame 657
1.4508130523203483e-012 1:236.375 2:12.8975 3:253.19 4:162.616 5:36.605801 6:169.286 7:218.436 8:221.653 9:221.42101 10:132.774 11:134.099 12:133.7 13:222.508 14:221.631 15:224.075 16:136.065 17:136.20399 18:136.758 19:242.451 20:236.442 21:237.351 22:144.53 23:142.3 24:142.92999 25:243.68201 26:236.52 27:236.625 28:146.75101 29:144.28101 30:143.742 # frame 657
-3.0197320242761225e-012 1:336.302 2:4.4226699 3:275.80099 4:196.036 5:21.548401 6:176.923 7:216.008 8:212.674 9:215.131 10:131.34599 11:129.896 12:131.334 13:219.813 14:219.16299 15:219.968 16:134.241 17:134.19501 18:134.68401 19:246.30901 20:244.16701 21:246.37601 22:144.97501 23:144.57001 24:145.323 25:235.045 26:235.47099 27:234.19099 28:143.444 29:143.39999 30:143.075 # frame 657
-3.0645611024332372e-012 1:484.242 2:3.1872499 3:126.031 4:234.29201 5:18.347601 6:119.488 7:211.744 8:212.763 9:209.33099 10:129.59 11:130.12601 12:128.733 13:217.882 14:221.94 15:220.22301 16:133.423 17:135.58501 18:134.57201 19:246.41 20:245.549 21:246.83099 22:146.467 23:146.158 24:146.35699 25:228.909 26:231.88901 27:231.757 28:140.381 29:142.145 30:141.899 # frame 657
-8.0723902612059541e-012 1:344.979 2:7.4746799 3:156.286 4:193.54401 5:27.566799 6:129.367 7:190.668 8:191.55499 9:193.53101 10:119.832 11:120.103 12:120.87 13:194.26601 14:194.778 15:196.31799 16:121.688 17:122.133 18:122.933 19:237.396 20:235.84599 21:238.549 22:140.63699 23:139.74699 24:141.067 25:211.642 26:212.57401 27:212.282 28:131.972 29:132.972 30:132.78 # frame 657
2.1091974234307193e-012 1:44.136002 2:26.4991 3:320.57101 4:70.830597 5:54.432598 6:191.209 7:224.063 8:223.55 9:221.42 10:133.55299 11:133.489 12:132.631 13:223.47099 14:227.311 15:226.561 16:137.039 17:138.45599 18:138.194 19:231.925 20:234.903 21:237.834 22:140.827 23:140.897 24:142.351 25:233.064 26:232.18401 27:234.763 28:142.211 29:141.783 30:143.07001 # frame 711
-9.2185525574189074e-013 1:46.893799 2:22.870501 3:257.76099 4:73.007202 5:50.049999 6:171.468 7:228.129 8:228.272 9:229.123 10:137.065 11:137.158 12:137.217 13:220.174 14:220.759 15:221.05299 16:135.12399 17:135.61301 18:135.54401 19:237.255 20:241.209 21:239.599 22:143.38699 23:144.01601 24:144.041 25:236.707 26:235.55299 27:235.83099 28:143.70399 29:143.98399 30:143.79201 # frame 711
3.400497910928906e-012 1:50.685902 2:13.9435 3:219.517 4:67.847801 5:37.271 6:157.741 7:215.73199 8:217.79201 9:217.493 10:131.386 11:131.995 12:132.362 13:219.479 14:217.629 15:220.168 16:134.82899 17:134.246 18:135.362 19:235.49699 20:236.00101 21:236.43401 22:142.495 23:143.063 24:142.89301 25:243.276 26:243.007 27:238.686 28:146.019 29:145.884 30:144.23199 # frame 711
2.7729960217491831e-012 1:305.19199 2:8.2589703 3:305.41 4:167.28 5:25.4879 6:183.58501 7:214.91901 8:207.323 9:204.11301 10:132.73599 11:129.42101 12:128.49899 13:226.60001 14:224.924 15:218.91499 16:136.75 17:136.36099 18:132.437 19:262.10999 20:265.54099 21:263.03601 22:151.386 23:152.754 24:151.983 25:212.53999 26:213.743 27:210.136 28:134.62601 29:135.59 30:134.599 # frame 711
6.3007690027730665e-013 1:50.4986 2:43.7099 3:219.084 4:75.715202 5:69.287399 6:157.85699 7:210.11501 8:202.96001 9:204.85699 10:128.314 11:125.181 12:125.972 13:222.642 14:217.429 15:220.66701 16:136.035 17:133.896 18:135.062 19:243.97701 20:241.905 21:241.769 22:145.72501 23:144.60699 24:144.688 25:237.429 26:237.813 27:238.07201 28:144.465 29:144.48599 30:144.15401 # frame 711
2.852370152399058e-012 1:35.804699 2:16.9666 3:210.037 4:59.069599 5:40.514099 6:154.658 7:216.29401 8:216.42799 9:217.161 10:131.213 11:131.064 12:131.60899 13:226.502 14:224.57899 15:222.16299 16:137.621 17:136.789 18:135.59399 19:242.767 20:241.269 21:243.248 22:145.437 23:144.30701 24:145.433 25:238.952 26:237.769 27:236.68401 28:144.467 29:144.13 30:143.61 # frame 711
9.7613720506173962e-013 1:29.769699 2:15.4888 3:182.815 4:51.9706 5:38.5093 6:144.23599 7:208.368 8:209.05099 9:206.839 10:127.935 11:127.887 12:127.254 13:220.746 14:221.77699 15:221.117 16:135.026 17:135.507 18:135.308 19:245.606 20:246.41 21:251.18201 22:146.88699 23:146.668 24:148.60899 25:232.85699 26:234 27:237.367 28:142.213 29:142.49001 30:143.61301 # frame 711
5.4593420264604152e-012 1:432.642 2:1.84296 3:258.66 4:222.201 5:14.1277 6:171.342 7:208.02901 8:207.76601 9:209.45799 10:129.088 11:129.05099 12:129.687 13:211.043 14:211.605 15:212.058 16:131.149 17:131.23399 18:131.07001 19:243.744 20:247.39799 21:246.502 22:144.407 23:145.759 24:145.323 25:227.60001 26:230.235 27:226.85899 28:140.79401 29:141.755 30:140.56 # frame 711
-1.8367366282901628e-012 1:56.2071 2:54.403198 3:173.164 4:80.057404 5:78.3162 6:140.405 7:215.328 8:211.49001 9:215.02499 10:130.039 11:128.687 12:129.70399 13:224.32899 14:221.51801 15:222.15601 16:136.834 17:135.451 18:135.536 19:238.742 20:237.47 21:240.701 22:143.99899 23:143.42101 24:144.743 25:234.242 26:228.246 27:226.364 28:142.84599 29:140.10899 30:139.64301 # frame 752
2.1822209459418419e-012 1:223.92599 2:10.7813 3:235.455 4:137.912 5:25.625299 6:161.42101 7:214.83299 8:207.60899 9:206.52299 10:130.741 11:127.458 12:127.261 13:217.06 14:214.03999 15:214.42799 16:134.217 17:132.54401 18:132.59 19:236.869 20:240.028 21:238.935 22:143.364 23:144.709 24:144.354 25:239.955 26:247.05299 27:240.339 28:144.748 29:147.416 30:145.149 # frame 752
-2.3307195495097539e-012 1:396.104 2:0.97519302 3:281.95599 4:212.623 5:10.1051 6:178.936 7:225.67101 8:225.916 9:226.28999 10:135.548 11:135.47501 12:135.66499 13:226.987 14:228.362 15:228.397 16:138.41 17:138.86301 18:138.798 19:236.98 20:236.55299 21:234.078 22:142.19701 23:142.043 24:141.061 25:242.679 26:243.005 27:242.711 28:146.299 29:146.33099 30:146.118 # frame 752
4.1263980784373906e-012 1:413.56 2:3.0431399 3:165.88699 4:216.12399 5:17.772301 6:137.30099 7:207.021 8:203.744 9:205.31 10:127.682 11:126.037 12:127.213 13:222.77499 14:217.558 15:218.709 16:135.97099 17:133.922 18:134.57899 19:238.662 20:234.84599 21:241.711 22:144.66299 23:142.879 24:145.45 25:239.125 26:241.108 27:237.62801 28:144.448 29:145.34399 30:143.84 # frame 752
-4.0960337640827244e-013 1:344.50699 2:12.3572 3:201.95799 4:188.461 5:30.203699 6:150.774 7:190.87399 8:196.25101 9:192.82401 10:119.672 11:121.637 12:120.123 13:215.168 14:221.27499 15:222.47 16:134.02901 17:135.957 18:137.036 19:250.686 20:241.70599 21:245.44701 22:148.047 23:144.493 24:146.354 25:252.505 26:238.61301 27:245.013 28:150.086 29:144.43201 30:146.855 # frame 752
-7.1058393395983827e-013 1:379.53299 2:1.0961 3:321.91699 4:208.10699 5:10.7846 6:191.29201 7:221.905 8:221.29601 9:220.384 10:134.32899 11:133.86301 12:133.461 13:235.694 14:233.69901 15:235.474 16:141.50999 17:140.56599 18:141.461 19:234.492 20:232.366 21:234.298 22:141.528 23:140.86301 24:141.62801 25:240.599 26:242.054 27:242.866 28:144.89799 29:145.25101 30:145.56599 # frame 752
1.9263762949710529e-012 1:445.91901 2:0.154806 3:302.117 4:225.584 5:4.0455999 6:185.51401 7:203.61301 8:200.619 9:202.786 10:125.669 11:124.475 12:125.225 13:213.84599 14:214.955 15:215.70399 16:132.203 17:132.69 18:132.91 19:252.935 20:254.364 21:252.931 22:148.17101 23:148.47701 24:148.12399 25:234.80099 26:233.802 27:233.869 28:143.092 29:142.867 30:142.756 # frame 830
2.186130460525879e-013 1:228.457 2:3.27966 3:222.77 4:101.241 5:18.761101 6:159.578 7:166.48399 8:162.54401 9:161.2 10:109.159 11:107.226 12:106.915 13:174.336 14:175.886 15:173.194 16:111.999 17:112.006 18:110.923 19:258.98001 20:258.802 21:261.026 22:152.037 23:151.07201 24:152.01801 25:195.03101 26:204.02 27:203.16901 28:127.704 29:131.95399 30:132.814 # frame 830
-2.244527774384384e-012 1:77.2388 2:23.4363 3:142.349 4:84.020798 5:43.409801 6:126.707 7:192.18401 8:201.049 9:197.972 10:120.448 11:123.46 12:122.351 13:224.132 14:222.625 15:221.692 16:137.472 17:135.96201 18:135.84399 19:235.853 20:240.517 21:241.76199 22:142.71201 23:144.41901 24:144.29201 25:239.86501 26:234.55701 27:237.28 28:145.142 29:142.759 30:144.35899 # frame 830
-2.8947962468883699e-012 1:498.26599 2:0.293641 3:304.32001 4:237.93401 5:5.5763001 6:186.23199 7:205.65401 8:204.619 9:206.55499 10:126.96 11:126.636 12:127.427 13:217.70399 14:217.815 15:218.64799 16:133.93401 17:134.233 18:134.397 19:258.241 20:257.14899 21:257.28201 22:149.746 23:149.506 24:149.478 25:240.132 26:240.118 27:238.252 28:145.38901 29:145.42999 30:144.73599 # frame 830
-3.36344085870984e-012 1:498.97299 2:0.36550701 3:249.474 4:238.618 5:6.2435002 6:167.77 7:219.89101 8:219.02901 9:218.407 10:133.02699 11:132.504 12:132.32401 13:231.95799 14:232.841 15:231.37601 16:140.332 17:140.80499 18:140.06599 19:242.64799 20:241.616 21:242.13699 22:144.42999 23:144.01401 24:144.17999 25:243.20599 26:244.062 27:244.48 28:146.451 29:146.769 30:146.91701 # frame 830
6.271570340102611e-012 1:353.729 2:1.17533 3:216.618 4:198.091 5:10.979 6:154.22 7:203.263 8:203.782 9:201.79401 10:125.722 11:125.977 12:125.063 13:216.002 14:215.528 15:217.78999 16:132.33501 17:131.957 18:133.218 19:248.22701 20:246.946 21:247.658 22:147.14101 23:146.976 24:146.97 25:228.519 26:229.382 27:229.76401 28:140.728 29:140.918 30:141.161 # frame 830
-3.5803559950391468e-013 1:146.194 2:9.17729 3:84.130699 4:111.386 5:28.4744 6:96.912903 7:199.158 8:194.021 9:190.959 10:122.395 11:120.362 12:118.913 13:222.78101 14:221.942 15:227.132 16:136.709 17:136.634 18:138.409 19:246.367 20:248.479 21:248.674 22:147.24899 23:148.108 24:148.284 25:240.927 26:238.347 27:237.295 28:145.38699 29:144.15199 30:143.761 # frame 830
-8.160258573976119e-012 1:397.92899 2:2.2398801 3:272.12 4:179.828 5:14.1319 6:175.483 7:216.27699 8:215.62801 9:217.22 10:134.056 11:133.535 12:134.32001 13:215.884 14:217.88499 15:213.944 16:132.28 17:133.158 18:131.504 19:239.405 20:240.073 21:239.896 22:144.12199 23:144.466 24:144.412 25:228.94099 26:231.099 27:229.478 28:141.203 29:141.967 30:141.259 # frame 994
-7.6070950265077107e-013 1:576.87299 2:1.60084 3:246.564 4:252.957 5:13.2119 6:167.879 7:201.366 8:199.82899 9:197.666 10:127.002 11:126.471 12:125.514 13:201.46899 14:198.397 15:198.985 16:125.233 17:123.558 18:124.116 19:238.98399 20:238.155 21:241.552 22:145.343 23:145.161 24:146.01801 25:214.91701 26:214.45599 27:208.22099 28:136.705 29:136.3 30:134.455 # frame 994
-1.5479553212328783e-012 1:107.193 2:26.071199 3:142.479 4:90.542801 5:47.887199 6:126.516 7:227.274 8:226.71201 9:230.026 10:136.81 11:136.80701 12:138.166 13:226.105 14:227.892 15:227.524 16:138.717 17:138.64101 18:139.117 19:231.955 20:233.541 21:234.964 22:141.10899 23:141.246 24:141.924 25:238.575 26:238.84801 27:232.73 28:144.16901 29:144.364 30:142.075 # frame 994
-2.1663780620445842e-012 1:491.46899 2:0.53631902 3:281.12701 4:232.058 5:7.1020999 6:177.54201 7:233.19901 8:232.644 9:232.933 10:140.586 11:140.39301 12:140.42599 13:233.341 14:232.3 15:234.57201 16:140.689 17:140.024 18:141.08099 19:232.95599 20:235.36501 21:234.82401 22:141.036 23:141.964 24:141.67101 25:243 26:243.298 27:241.83099 28:146.092 29:146.254 30:145.67999 # frame 994
6.1295308612500206e-013 1:563.54999 2:1.2179101 3:271.237 4:247.33099 5:11.1457 6:171.69 7:193.24899 8:190.776 9:193.826 10:121.547 11:120.584 12:121.854 13:183.882 14:183.35201 15:182.589 16:114.527 17:114.551 18:114.415 19:233.56599 20:235.244 21:231.778 22:138.448 23:138.864 24:137.80701 25:202.735 26:203.38699 27:199.17101 28:128.948 29:129.80299 30:127.976 # frame 1132
6.9329873095732514e-013 1:55.898499 2:27.0366 3:107.326 4:77.746002 5:52.2855 6:110.2 7:217.793 8:215.282 9:216.24699 10:131.577 11:130.19701 12:130.698 13:229.79601 14:228.588 15:229.22701 16:139.487 17:138.87 18:138.964 19:243.467 20:243.974 21:241.21201 22:145.44701 23:145.76801 24:144.358 25:235.021 26:236.12801 27:234.467 28:143.229 29:143.437 30:142.81599 # frame 1132
3.6431737789725743e-012 1:526.08398 2:0.29194301 3:264.62 4:240.10001 5:5.3297 6:173.306 7:220.946 8:220.924 9:221.564 10:133.51401 11:133.52901 12:133.715 13:226.134 14:225.02499 15:225.541 16:137.97301 17:137.34 18:137.61 19:242.619 20:241.74699 21:246.75101 22:144.60699 23:144.15401 24:145.916 25:235.94901 26:237.80499 27:236.373 28:143.87601 29:144.55099 30:144.19299 # frame 1132
4.3478872397815035e-012 1:84.098801 2:48.7267 3:171.80701 4:81.894203 5:63.758499 6:138.992 7:217.345 8:218.67599 9:215.64799 10:130.965 11:131.425 12:130.431 13:232.388 14:225.147 15:227.827 16:139.463 17:136.158 18:137.005 19:224.53999 20:227.715 21:224.45799 22:139.103 23:140.504 24:138.90601 25:230.131 26:230.50301 27:231.127 28:140.246 29:140.43401 30:140.998 # frame 1201
5.6490257742251307e-012 1:364.388 2:7.3863502 3:227.05299 4:178.66 5:22.9858 6:160.423 7:205.745 8:206.73 9:205.444 10:129.086 11:129.5 12:129.07001 13:202.72701 14:204.69501 15:206.386 16:126.479 17:127.044 18:127.626 19:240.946 20:242.35201 21:245.659 22:144.334 23:145.21899 24:146.69299 25:216.714 26:219.769 27:216.659 28:137.10001 29:137.828 30:136.886 # frame 1201
-3.9269065639747205e-013 1:512.29999 2:4.8849902 3:153.146 4:235.67599 5:20.9482 6:131.306 7:219.062 8:218.55901 9:216.752 10:133.632 11:133.392 12:132.65401 13:219.508 14:218.411 15:218.319 16:135.123 17:134.593 18:134.43401 19:236.274 20:237.825 21:238.50999 22:143.132 23:143.75999 24:143.72099 25:242.562 26:242.08501 27:241.45399 28:145.94099 29:145.942 30:145.403 # frame 1201
1.0536463017987228e-012 1:347.181 2:0.466869 3:324.73001 4:197.851 5:6.9105 6:192.69299 7:194.317 8:190.314 9:189.825 10:125.766 11:124.202 12:124.153 13:201.914 14:201.373 15:198.48399 16:126.202 17:125.841 18:124.757 19:253.022 20:251.88 21:251.25999 22:146.338 23:146.119 24:146.201 25:202.899 26:204.548 27:199.224 28:132.06599 29:133.396 30:130.938 # frame 1235
-2.2725782254459887e-012 1:347.073 2:9.9516096 3:196.70399 4:199.155 5:28.9161 6:142.263 7:209.067 8:205.901 9:205.091 10:130.922 11:129.63699 12:129.44501 13:217.62 14:218.62199 15:215.713 16:133.08299 17:133.629 18:132.364 19:253.632 20:251.532 21:250.867 22:148.798 23:147.855 24:147.84599 25:220.95599 26:220.015 27:219.62199 28:138.69299 29:138.31799 30:138.39799 # frame 1235
-1.0273355415777393e-012 1:322.34601 2:29.8573 3:81.532799 4:176.64101 5:50.4184 6:84.979599 7:222.175 8:218.056 9:211.467 10:132.629 11:131.173 12:128.989 13:223.478 14:221.17101 15:218.735 16:133.655 17:133.04401 18:131.683 19:220.336 20:223.192 21:227.295 22:134.05299 23:135.60699 24:136.912 25:206.007 26:207.532 27:211.966 28:129.14999 29:129.606 30:131.431 # frame 1235
5.8006743259908887e-013 1:491.34399 2:0.347119 3:287.95099 4:234.655 5:5.9584999 6:181.41 7:208.093 8:207.888 9:209.287 10:130.64101 11:130.89999 12:131.058 13:203.05701 14:201.153 15:202.84599 16:127.118 17:126.428 18:126.935 19:269.04901 20:270.08801 21:269.745 22:151.76401 23:152.30099 24:151.89799 25:214.498 26:210.895 27:213.30099 28:136.63499 29:135.339 30:136.11099 # frame 1235
-2.1659637123945126e-012 1:291.18701 2:4.4875798 3:392.64999 4:182.254 5:22.112499 6:211.01199 7:230.323 8:229.57201 9:230.744 10:139.436 11:138.92101 12:139.45 13:222.433 14:224.37199 15:228.151 16:135.883 17:137.03 18:138.743 19:233.058 20:230.01401 21:235.468 22:140.97 23:140.028 24:142.10899 25:238.965 26:242.633 27:241.526 28:144.448 29:145.575 30:145.629 # frame 1288
2.2355636935355051e-012 1:383.42401 2:0.60066199 3:273.32101 4:208.783 5:7.6416001 6:176.71899 7:215.63699 8:213.515 9:212.257 10:135.04601 11:134.507 12:133.718 13:209.261 14:209.979 15:207.345 16:129.451 17:129.505 18:128.39101 19:248.89101 20:248.826 21:248.097 22:145.82201 23:146.03 24:145.479 25:211.746 26:213.36 27:214.011 28:135.20399 29:135.883 30:136.23 # frame 1288
2.3164217044523389e-012 1:290.03799 2:7.24368 3:174.576 4:176.289 5:26.9986 6:140.577 7:225.77901 8:227.33701 9:231.039 10:138.01199 11:138.692 12:139.714 13:223.026 14:223.47701 15:225.942 16:136.37199 17:136.696 18:137.336 19:232.405 20:228.89999 21:229.632 22:141.702 23:140.28101 24:140.698 25:237.19 26:236.63901 27:235.011 28:143.80099 29:143.459 30:142.882 # frame 1288
-3.2376570725216583e-012 1:254.91499 2:13.7296 3:177.688 4:166.455 5:38.2066 6:138.69 7:215.03799 8:214.42999 9:213.741 10:131.194 11:130.98399 12:130.735 13:211.711 14:212.313 15:212.80499 16:129.701 17:129.576 18:130.18201 19:218.48801 20:220.621 21:219.633 22:133.744 23:134.798 24:134.25101 25:225.79201 26:224.082 27:225.90401 28:137.093 29:136.291 30:137.20599 # frame 1288
-3.558811182534359e-013 1:374.505 2:35.776402 3:52.801498 4:206.74899 5:60.149399 6:71.877998 7:222.342 8:221.394 9:222.673 10:134.073 11:133.466 12:133.94099 13:225.38699 14:227.59 15:227.02499 16:136.562 17:137.731 18:136.868 19:221.006 20:221.877 21:221.783 22:138.29601 23:138.49699 24:138.356 25:207.22701 26:208.38901 27:211.22501 28:132.69299 29:133.05701 30:133.99899 # frame 1288
-1.1632174915705307e-012 1:473.17999 2:6.6038198 3:219.33299 4:221.354 5:11.9305 6:157.571 7:214.173 8:214.498 9:212.577 10:131.558 11:131.744 12:130.873 13:212.38 14:213.537 15:214.31599 16:131.491 17:131.605 18:132.14799 19:242.636 20:245.34599 21:244.662 22:145.23 23:146.371 24:146.136 25:226.211 26:228.44099 27:227.58701 28:140.16701 29:140.746 30:140.56599 # frame 1288
-1.9467980652301906e-012 1:331.883 2:17.029301 3:183.867 4:193.367 5:31.8909 6:137.287 7:208.183 8:207.95 9:209.054 10:129.286 11:128.957 12:129.377 13:217.87399 14:216.89999 15:217.53101 16:134.358 17:134.162 18:134.12801 19:242.07201 20:243.373 21:240.44701 22:145.36501 23:145.839 24:144.57001 25:245.564 26:244.70599 27:245.94 28:147.17599 29:146.748 30:147.36501 # frame 1361
-3.8801039114349592e-012 1:327.10199 2:19.353001 3:144.96001 4:179.98199 5:36.542301 6:120.871 7:210.241 8:209.439 9:205.30299 10:127.329 11:126.705 12:125.164 13:207.692 14:207.211 15:207.89999 16:127.746 17:127.238 18:127.857 19:216.964 20:214.48801 21:214.58701 22:133.291 23:132.47701 24:132.892 25:221.151 26:223.86501 27:225.914 28:135.336 29:136.383 30:137.077 # frame 1361
1.759210023104148e-012 1:371.19 2:0.3664 3:340.01401 4:166.513 5:5.8632002 6:197.09599 7:182.49001 8:182.203 9:184.79201 10:119.028 11:119.047 12:120.199 13:191.677 14:188.439 15:191.062 16:121.468 17:119.964 18:121.496 19:263.66101 20:258.603 21:263.00601 22:150.98801 23:148.629 24:150.588 25:210.16499 26:212.207 27:211.849 28:133.879 29:135.40601 30:134.905 # frame 1361
-9.7040700630938211e-013 1:222.25999 2:0.54715902 3:272.953 4:97.067398 5:7.5521002 6:176.55901 7:192.49001 8:191.487 9:192.90199 10:123.875 11:123.542 12:124.162 13:196.022 14:195.866 15:192.33099 16:123.606 17:123.362 18:121.588 19:271.67099 20:270.95001 21:272.84 22:153.65601 23:153.063 24:153.935 25:216.912 26:217.444 27:210.899 28:137.55299 29:137.90401 30:134.94701 # frame 1361
2.8141129529743671e-012 1:354.93399 2:5.07054 3:207.827 4:201.241 5:23.476 6:153.673 7:207.996 8:209.349 9:207.063 10:127.666 11:128.44701 12:127.414 13:218.68201 14:217.84599 15:218.561 16:134.446 17:134.21201 18:134.371 19:243.985 20:244.067 21:248.07401 22:146.28 23:146.269 24:147.67101 25:242.259 26:240.68201 27:240.45399 28:145.923 29:145.258 30:145.326 # frame 1361
-1.080985222940311e-011 1:284.20801 2:17.7663 3:150.015 4:175.789 5:43.488998 6:127.142 7:196.24001 8:195.57001 9:200.49699 10:121.071 11:120.592 12:122.829 13:205.69901 14:209.144 15:210.638 16:126.563 17:128.246 18:128.886 19:236.04601 20:233.931 21:230.664 22:140.69299 23:139.92999 24:138.741 25:226.256 26:229.20599 27:222.285 28:136.964 29:138.36 30:135.804 # frame 1361
-2.6583486503088148e-013 1:41.826401 2:10.2856 3:640.73102 4:37.9361 5:32.886398 6:268.875 7:200.44299 8:195.59599 9:194.116 10:126.123 11:123.521 12:122.913 13:195.15601 14:193.453 15:190.063 16:121.169 17:119.969 18:118.3 19:253.093 20:250.681 21:250.44701 22:147.47099 23:146.285 24:146.214 25:220.142 26:221.248 27:214.76601 28:137.892 29:137.98199 30:135.089 # frame 1425
-2.7576106462201214e-012 1:63.469299 2:6.9877501 3:297.00299 4:40.015598 5:26.148899 6:183.412 7:216.588 8:222.177 9:219.561 10:133.293 11:135.41701 12:134.24699 13:217.672 14:218.211 15:218.259 16:134.172 17:134.26601 18:134.007 19:235.19299 20:235.07899 21:233.283 22:142.16901 23:142.243 24:141.394 25:245.903 26:242.118 27:245.17599 28:147.733 29:146.35201 30:147.201 # frame 1425
-1.4157988247496868e-012 1:21.950899 2:24.383699 3:223.058 4:49.359798 5:51.412601 6:159.38901 7:227.51601 8:229.08299 9:228.364 10:137.041 11:137.67599 12:137.431 13:224.213 14:220.998 15:221.911 16:136.894 17:135.942 18:135.896 19:228 20:231.05901 21:231.476 22:139.879 23:140.728 24:140.802 25:237.08501 26:238.78101 27:238.774 28:143.61099 29:144.605 30:144.44901 # frame 1425
-5.3557835644739626e-013 1:4.2638001 2:20.200199 3:585.03998 4:21.932899 5:47.406101 6:257.495 7:215.976 8:213.08701 9:216.177 10:130.918 11:129.627 12:131.75101 13:215.526 14:223.688 15:219.341 16:133.11301 17:136.2 18:134.535 19:245.854 20:244.22099 21:241.332 22:144.70599 23:144.07201 24:142.825 25:230.61301 26:232.59801 27:227.674 28:142.028 29:142.313 30:140.65601 # frame 1425
-3.615090000778851e-013 1:575.802 2:1.54591 3:234.88499 4:239.675 5:12.9594 6:163.769 7:213.63 8:209.371 9:210.31799 10:132.33299 11:130.582 12:130.879 13:217.19901 14:216.274 15:217.263 16:133.05499 17:132.77 18:132.91901 19:255.455 20:254.55901 21:254.586 22:148.90401 23:148.937 24:148.64999 25:217.94299 26:220.04401 27:217.14301 28:137.50301 29:137.96201 30:137.32899 # frame 1425
2.2373686989376217e-012 1:165.511 2:24.5201 3:159.36501 4:90.314003 5:46.996201 6:134.33701 7:220.875 8:213.543 9:214.26401 10:133.177 11:130.347 12:130.31599 13:228.73199 14:221.655 15:220.265 16:138.91701 17:135.69701 18:134.957 19:237.784 20:241.356 21:242.87 22:143.44701 23:144.91901 24:145.61501 25:233.125 26:237.14799 27:237.459 28:142.245 29:144.04401 30:144.054 # frame 1425
4.9161173870333439e-013 1:28.5993 2:10.741 3:208.858 4:34.727001 5:33.6619 6:151.793 7:210.707 8:206.436 9:207.09801 10:130.263 11:128.46001 12:128.91299 13:210.198 14:203.44701 15:206.22701 16:130.565 17:127.453 18:128.379 19:246.45799 20:242.89 21:239.577 22:147.222 23:145.722 24:144.76199 25:229.591 26:233.20799 27:228.914 28:141.214 29:142.834 30:140.82001 # frame 1425
-1.2123907105034878e-012 1:87.625397 2:23.259501 3:182.61 4:72.504402 5:46.8204 6:141.323 7:227.903 8:231.114 9:228.15601 10:138.442 11:139.74899 12:138.306 13:222.97 14:222.959 15:223.84599 16:136.836 17:136.67999 18:136.979 19:228.418 20:233.09599 21:232.297 22:139.58 23:141.77299 24:141.302 25:239.77901 26:239.14301 27:240.966 28:145.10201 29:144.789 30:145.48 # frame 1483
6.7972141964027824e-012 1:26.419201 2:2.96928 3:286.737 4:26.6266 5:18.210501 6:180.388 7:216.38901 8:217.47701 9:215.85201 10:134.758 11:135.224 12:134.46001 13:215.403 14:214.705 15:213.911 16:132.517 17:132.30499 18:131.485 19:237.063 20:237.228 21:236.60001 22:142.084 23:141.97701 24:141.718 25:228.272 26:230.239 27:228.44299 28:141.18401 29:142.05 30:141.35899 # frame 1483
4.0070547697761633e-012 1:11.499 2:15.5791 3:272.98801 4:31.7752 5:40.7533 6:173.856 7:229.466 8:231.854 9:230.298 10:139.28799 11:140.485 12:139.5 13:227.912 14:227.03 15:225.218 16:138.603 17:138.299 18:137.39301 19:239.799 20:237.522 21:236.561 22:143.772 23:142.64799 24:142.55701 25:243.681 26:243.409 27:243.535 28:146.17999 29:145.98199 30:145.996 # frame 1483
-2.7654286699087602e-012 1:18.5259 2:51.4244 3:279.37 4:44.698799 5:71.218002 6:173.164 7:216.17999 8:215.358 9:213.614 10:131.782 11:131.476 12:130.847 13:219.55 14:219.51601 15:218.39301 16:132.81 17:132.621 18:131.989 19:223.69099 20:227.59 21:225.209 22:135.481 23:136.694 24:135.694 25:236.26401 26:234.425 27:233.879 28:140.668 29:139.813 30:139.599 # frame 1483
-5.438578126737052e-012 1:114.167 2:2.2212999 3:255.845 4:55.839199 5:15.6235 6:170.694 7:218.601 8:219.459 9:219.91499 10:134.07001 11:134.65401 12:134.66499 13:211.72099 14:213.549 15:214.25999 16:130.638 17:131.27499 18:131.63699 19:242.27 20:241.06599 21:241.13699 22:145.314 23:144.55901 24:144.00999 25:231.12601 26:232.765 27:231.487 28:142.188 29:142.776 30:142.341 # frame 1483
2.3741728022336842e-014 1:3.9781001 2:3.9435899 3:249.173 4:20.489599 5:21.068199 6:168.634 7:221.43201 8:221.132 9:220.39301 10:136.03999 11:135.80299 12:135.584 13:216.604 14:218.903 15:216.286 16:133.106 17:133.733 18:132.746 19:235.97099 20:238.743 21:235.772 22:143.235 23:144.15401 24:142.942 25:234.619 26:237.623 27:235.418 28:142.767 29:144.06599 30:143.332 # frame 1483
3.217284025171235e-012 1:10.856 2:18.746201 3:178.78 4:27.314501 5:44.339901 6:140.299 7:227.66299 8:228.37399 9:226.80299 10:138.112 11:138.11301 12:137.463 13:231.409 14:234.06799 15:227.99899 16:140.091 17:140.82001 18:138.431 19:231.756 20:231.517 21:231.717 22:141.347 23:141.11099 24:141.106 25:235.01199 26:237.00101 27:237.914 28:142.961 29:143.311 30:143.896 # frame 1483
-2.6173924491205974e-013 1:338.64999 2:36.7118 3:30.4718 4:188.59801 5:58.680801 6:43.492298 7:196.668 8:199.22301 9:199.52699 10:122.13 11:122.622 12:122.992 13:198.011 14:198.39 15:194.70399 16:121.751 17:121.427 18:119.745 19:236.7 20:234.992 21:232.02499 22:140.659 23:139.909 24:138.27 25:192.22501 26:186.26601 27:182.94701 28:126.166 29:122.931 30:121.531 # frame 1483
2.2095697785363325e-012 1:44.368198 2:37.458599 3:249.215 4:70.467598 5:62.976601 6:167.67799 7:219.481 8:221.446 9:220.409 10:133.57201 11:134.29401 12:133.991 13:233.013 14:231.245 15:229.194 16:140.66701 17:139.627 18:138.939 19:235.895 20:238.78 21:237.513 22:142.43401 23:143.33099 24:142.67599 25:235.53799 26:238.17 27:236.285 28:143.278 29:144.289 30:143.314 # frame 1571
-8.1018341655937647e-013 1:211.451 2:26.5098 3:81.368103 4:153.22701 5:48.458599 6:91.817001 7:232.59399 8:232.425 9:231.453 10:140.687 11:140.918 12:140.399 13:234.133 14:236.995 15:233.623 16:141.535 17:142.327 18:141.23801 19:231.444 20:232.028 21:234.198 22:140.744 23:140.82201 24:141.28799 25:243.271 26:239.162 27:242.27299 28:146.32201 29:144.571 30:145.476 # frame 1571
9.4497859587141098e-013 1:284.117 2:53.422298 3:111.887 4:180.27699 5:78.047096 6:112.916 7:219.54201 8:221.84599 9:222.623 10:134.58099 11:135.64301 12:135.993 13:222.49899 14:225.79401 15:224.952 16:136.01401 17:137.73599 18:137.47301 19:237.884 20:238.304 21:239.243 22:143.53 23:143.668 24:144.27901 25:225.679 26:226.265 27:228.45399 28:140.278 29:140.57001 30:141.401 # frame 1571
5.6328499201333365e-013 1:287.56601 2:45.081299 3:108.896 4:181.367 5:71.6922 6:111.507 7:201.14301 8:207.278 9:209.03799 10:128.67599 11:131.681 12:132.254 13:209.06799 14:207.62 15:207.12601 16:130.27 17:129.414 18:129.265 19:252.819 20:252.47301 21:252.73801 22:148.618 23:148.43401 24:148.981 25:211.28999 26:207.798 27:214.412 28:136.05499 29:134.134 30:136.78999 # frame 1571
-5.0661649830958609e-012 1:28.1546 2:39.1367 3:225.106 4:55.226002 5:64.4394 6:158.599 7:227.504 8:224.093 9:225.996 10:137.161 11:135.834 12:136.24899 13:234.722 14:227.783 15:226.964 16:141.25 17:138.347 18:137.73199 19:234.177 20:235.57899 21:234.38499 22:141.782 23:142.548 24:142.26801 25:242.173 26:243.162 27:244.088 28:145.828 29:146.097 30:146.48399 # frame 1571
4.7870231983868598e-012 1:379.48599 2:17.3871 3:168.571 4:205.739 5:34.245201 6:137.302 7:225.049 8:223.533 9:223.44099 10:136.20599 11:135.57201 12:135.66 13:215.005 14:216.47701 15:213.88 16:132.33701 17:132.84 18:131.685 19:232.28 20:229.605 21:227.85899 22:141.429 23:140.59399 24:139.58299 25:228.61501 26:231.095 27:231.517 28:140.868 29:141.573 30:141.642 # frame 1571
3.0960479640835276e-013 1:19.7006 2:22.4856 3:577.85101 4:45.543598 5:49.6586 6:255.29601 7:227.024 8:226.27 9:228.03799 10:138.787 11:138.327 12:139.217 13:227.32201 14:225.85201 15:225.71899 16:138.821 17:137.78101 18:137.558 19:238.937 20:236.66499 21:241.67799 22:143.13499 23:142.58501 24:144.505 25:241.088 26:242.873 27:244.13901 28:144.86099 29:146.076 30:146.467 # frame 1602
1.8002124995675118e-013 1:288.858 2:21.6057 3:204.996 4:181.748 5:49.394901 6:153.009 7:209.056 8:206.5 9:208.912 10:131.092 11:130.076 12:131.136 13:210.976 14:210.95399 15:212.629 16:130.217 17:130.12601 18:130.64999 19:246.64301 20:244.263 21:247.16299 22:147.205 23:146.19099 24:147.188 25:218.507 26:217.92599 27:216.145 28:137.82201 29:136.558 30:136.45599 # frame 1602
7.9160344508391472e-013 1:313.69501 2:31.254999 3:116.009 4:189.214 5:58.7019 6:112.141 7:209.858 8:209.875 9:210.045 10:131.02499 11:130.78 12:130.894 13:217.054 14:216.386 15:219.657 16:133.136 17:132.61099 18:134.258 19:243.17101 20:241.229 21:239.955 22:145.39799 23:144.717 24:144.222 25:222.964 26:225.235 27:224.142 28:138.746 29:139.897 30:139.69501 # frame 1602
4.1734732933867947e-012 1:405.021 2:17.7334 3:104.492 4:193.869 5:42.500999 6:107.169 7:229.412 8:231.108 9:226.864 10:138.226 11:138.894 12:137.21001 13:229.96899 14:232.342 15:231.02499 16:140.17 17:140.683 18:140.433 19:236.383 20:239.201 21:237.13 22:142.65601 23:144.02299 24:143.222 25:240.84 26:243.864 27:243.399 28:144.91901 29:146.39999 30:146.164 # frame 1602
-6.2695132590497288e-013 1:239.92 2:15.9273 3:243.543 4:151.903 5:41.448799 6:163.985 7:213.742 8:212.827 9:213.533 10:132.33501 11:131.87399 12:132.18401 13:212.892 14:213.35899 15:214.353 16:131.57201 17:131.631 18:131.875 19:228.99899 20:227.65401 21:224.39101 22:139.981 23:139.101 24:138.082 25:222.62399 26:219.44 27:217.79601 28:138.32899 29:137.353 30:137.05499 # frame 1602
2.8371915074027867e-012 1:305.17401 2:21.321899 3:163.172 4:186.83299 5:49.282001 6:136.5 7:221.354 8:219.133 9:221.707 10:134.203 11:133.48 12:134.588 13:216.28799 14:217.287 15:221.147 16:132.811 17:133.069 18:135.056 19:239.87601 20:238.69099 21:239.658 22:143.98 23:143.92999 24:144.27901 25:228.33299 26:228.48199 27:225.776 28:140.239 29:140.983 30:140.19299 # frame 1602
7.1069585896231031e-012 1:287.103 2:30.4625 3:143.082 4:181.21201 5:58.9063 6:127.807 7:217.028 8:218.644 9:222.733 10:132.198 11:132.724 12:134.784 13:215.118 14:220.91 15:224.047 16:132.325 17:135.597 18:136.493 19:240.271 20:239.48599 21:239.60201 22:144.68401 23:144.37 24:144.54201 25:228.047 26:233.149 27:229.604 28:140.438 29:142.533 30:141.261 # frame 1602
-6.2467073776450708e-013 1:70.861298 2:82.871696 3:211.149 4:51.4048 5:84.817101 6:151.28 7:222.028 8:220.24899 9:222.78999 10:134.647 11:134.29601 12:135.07201 13:235.62601 14:236.989 15:233.31599 16:142.194 17:142.575 18:141.03101 19:244.62 20:249.827 21:244.173 22:145.8 23:147.132 24:145.078 25:233.209 26:231.537 27:234.743 28:142.147 29:141.70799 30:142.841 # frame 1701
-2.2398496829454075e-013 1:28.147301 2:76.716904 3:417.36401 4:56.599098 5:91.929298 6:217.287 7:220.112 8:221.349 9:221.192 10:133.929 11:134.899 12:134.496 13:227.87801 14:227.61301 15:228.481 16:138.701 17:138.41499 18:138.718 19:232.394 20:231.89101 21:230.748 22:141.00999 23:140.452 24:140.05701 25:244.173 26:241.362 27:241.10699 28:146.69501 29:145.53 30:145.28101 # frame 1701
-1.0954753305246957e-013 1:22.3312 2:10.5733 3:550.00098 4:37.051201 5:33.8022 6:248.944 7:189.071 8:187.26601 9:190.645 10:122.161 11:121.662 12:123.199 13:193.813 14:193.004 15:198.287 16:120.472 17:120.032 18:122.731 19:251.401 20:249.573 21:253.298 22:146.22501 23:145.80299 24:147.23599 25:212.467 26:212.23199 27:212.30299 28:135.8 29:135.04401 30:134.181 # frame 1701
4.6438848594604382e-013 1:354.36099 2:6.97681 3:154.006 4:195.505 5:27.2502 6:131.37801 7:217.821 8:220.64 9:217.26601 10:133.092 11:134.10001 12:133.112 13:222.702 14:224.459 15:227.23399 16:135.52299 17:136.81 18:137.88699 19:236.41499 20:237.41701 21:234.53799 22:142.799 23:142.939 24:141.937 25:225.884 26:227.577 27:223.80499 28:139.899 29:140.459 30:139.498 # frame 1701
-7.8177675487893847e-012 1:274.798 2:17.1903 3:167.862 4:142.293 5:39.970699 6:130.99899 7:230.53999 8:231.592 9:229.272 10:139.506 11:139.978 12:138.91 13:232.082 14:229.978 15:229.476 16:140.495 17:139.73599 18:139.27901 19:234.37199 20:237.34599 21:236.05701 22:141.685 23:142.79401 24:142.567 25:237.938 26:235.55299 27:235.21001 28:143.952 29:143.351 30:143.19 # frame 1758
7.5518084124094805e-013 1:6.41676 2:106.06 3:190.82001 4:13.3121 5:104.866 6:140.50301 7:214.657 8:216.886 9:215.862 10:130.272 11:130.728 12:130.26801 13:221.231 14:220.508 15:217.492 16:134.075 17:133.675 18:132.599 19:226.283 20:223.47501 21:223.814 22:136.64101 23:135.11301 24:135.198 25:222.681 26:222.707 27:224.851 28:135.94099 29:136 30:136.683 # frame 1758
-2.8692920150363812e-013 1:15.9458 2:19.804899 3:563.06702 4:35.9729 5:46.021198 6:252.567 7:229.899 8:224.592 9:225.076 10:139.229 11:136.98599 12:136.13499 13:224.95399 14:220.446 15:215.117 16:136.532 17:134.71001 18:131.605 19:240.567 20:232.21201 21:232.112 22:143.336 23:140.41 24:140.15601 25:243.175 26:243.23599 27:239.873 28:146.40199 29:146.554 30:145.136 # frame 1758
-3.040560075426024e-012 1:309.418 2:10.9898 3:197.33099 4:184.606 5:33.871498 6:149.591 7:210.276 8:207.062 9:208.97501 10:130.51601 11:129.375 12:129.96201 13:211.15601 14:213.68201 15:215.836 16:130.05099 17:131.405 18:132.358 19:250.076 20:250.556 21:252.22 22:147.84801 23:147.92999 24:148.797 25:219.57899 26:218.802 27:217.541 28:137.271 29:136.70799 30:136.89101 # frame 1758
6.0576531632595036e-012 1:138.317 2:5.2838502 3:312.16101 4:93.025002 5:22.7085 6:186.58 7:214.82001 8:213.67101 9:212.446 10:132.91499 11:132.326 12:131.864 13:220.177 14:224.483 15:219.692 16:134.505 17:136.196 18:134.60001 19:239.582 20:237.80901 21:235.789 22:144.757 23:143.98 24:143.293 25:229.379 26:228.576 27:227.29201 28:141.40401 29:140.674 30:140.097 # frame 1840
2.0258078270966207e-012 1:6.2079 2:62.528999 3:325.66599 4:20.226299 5:81.058502 6:187.634 7:230.30701 8:228.931 9:227.80099 10:140.002 11:139.203 12:138.834 13:231.647 14:231.85201 15:232.49699 16:140.161 17:140.289 18:139.961 19:234.62 20:238.41499 21:237.436 22:141.992 23:143.22301 24:142.77901 25:242.037 26:243.509 27:243.412 28:145.72701 29:146.293 30:146.05299 # frame 1840
-2.3232804264372558e-012 1:37.095402 2:27.662399 3:309.63599 4:64.001404 5:54.305599 6:183.041 7:218.30901 8:218.01199 9:219.70399 10:132.218 11:131.77499 12:132.912 13:230.784 14:231.397 15:234.528 16:139.243 17:139.793 18:140.838 19:238.66701 20:235.203 21:237.95 22:143.21001 23:142.02299 24:143.369 25:233.181 26:234.08299 27:230.244 28:141.73199 29:142.026 30:140.84801 # frame 1840
-4.0578785995197458e-012 1:257.56299 2:6.48526 3:274.853 4:145.383 5:25.874399 6:174.048 7:213.23599 8:213.86099 9:206.457 10:131.97301 11:132.061 12:129.162 13:213.099 14:218.769 15:216.05299 16:131.418 17:134.10201 18:132.396 19:252.909 20:249.888 21:251.679 22:147.619 23:146.554 24:147.23801 25:222.22 26:223.073 27:225.50301 28:138.746 29:138.811 30:139.811 # frame 1840
-1.7103443247022164e-012 1:278.888 2:12.4786 3:208.211 4:175.70799 5:36.494701 6:153.44701 7:218.452 8:214.53799 9:211.133 10:135.67599 11:133.94901 12:132.94901 13:216.338 14:218.002 15:214.349 16:132.698 17:133.341 18:131.84599 19:242.48199 20:240.987 21:243.28 22:145.987 23:145.341 24:146.37399 25:215.743 26:214.403 27:213.61099 28:136.659 29:135.22099 30:135.35899 # frame 2011
-1.5886102118300783e-013 1:49.958599 2:103.826 3:235.08 4:39.292801 5:103.798 6:160.08099 7:211.149 8:212.552 9:211.972 10:131.03101 11:131.485 12:131.07201 13:218.825 14:224.271 15:222.91701 16:134.746 17:136.858 18:136.84399 19:242.927 20:240.392 21:235.472 22:144.592 23:144.207 24:142.25301 25:248.468 26:248.272 27:244.343 28:148.12601 29:147.85001 30:146.547 # frame 2011
-1.628702273149142e-012 1:71.163696 2:20.109699 3:221.655 4:74.611801 5:44.079899 6:157.59399 7:220.674 8:223.433 9:220.85201 10:133.457 11:134.11099 12:133.231 13:229.30499 14:232.026 15:230.498 16:138.756 17:139.356 18:138.897 19:229.57201 20:237.535 21:236.771 22:139.87601 23:142.965 24:142.367 25:235.54601 26:239.263 27:235.924 28:143.157 29:144.41 30:142.868 # frame 2011
-5.2147049182369043e-012 1:164.67799 2:7.1880798 3:318.98599 4:100.401 5:27.803101 6:188.198 7:223.21201 8:219.211 9:218.543 10:135.623 11:134.12199 12:134.02499 13:221.298 14:221.31599 15:221.21201 16:134.343 17:134.519 18:134.577 19:241.802 20:241.38699 21:243.213 22:144.166 23:144.132 24:144.845 25:230.351 26:231.586 27:229.845 28:141.355 29:141.543 30:141.06599 # frame 2011
-2.8141301770078036e-012 1:294.58801 2:11.6551 3:159.093 4:172.882 5:34.6259 6:132.306 7:218.92 8:217.16499 9:217.401 10:134.183 11:133.55499 12:133.51601 13:216.112 14:222.157 15:224.491 16:133.11301 17:136.228 18:137.233 19:237.185 20:237.49699 21:236.508 22:143.429 23:143.328 24:142.86 25:228.216 26:232.036 27:231.84599 28:140.73801 29:142.76401 30:142.44501 # frame 2011
-7.3501023321541026e-013 1:48.098 2:80.403702 3:219.153 4:30.6619 5:91.326401 6:151.819 7:223.12 8:221.76601 9:220.12601 10:136.868 11:136.48 12:135.623 13:224.62199 14:224.241 15:223.931 16:138.172 17:137.61099 18:137.40199 19:229.767 20:234.929 21:237.158 22:139.847 23:142.315 24:142.614 25:241.23801 26:243.224 27:245.146 28:145.44501 29:146.459 30:147.047 # frame 2011
-4.7568122933865132e-013 1:11.0093 2:13.2804 3:413.026 4:35.256401 5:37.280102 6:216.89999 7:211.34 8:216.186 9:215.05701 10:130.054 11:131.873 12:131.73599 13:218.021 14:224.332 15:225.036 16:134.612 17:137.09399 18:137.127 19:245.561 20:245.468 21:242.825 22:145.77 23:145.194 24:144.65601 25:239.80099 26:234.452 27:235.286 28:145.338 29:142.95799 30:143.02 # frame 2011
-5.0416619531475832e-013 1:86.468697 2:38.6222 3:339.366 4:77.446404 5:54.942299 6:193.647 7:233.67599 8:231.95799 9:232.811 10:140.98399 11:140.26199 12:140.474 13:234.97 14:228.862 15:228.54601 16:141.55299 17:138.55299 18:138.53999 19:236.354 20:238.701 21:236.158 22:142.397 23:143.522 24:142.405 25:240.968 26:238.09399 27:239.722 28:145.761 29:144.16701 30:144.992 # frame 2047
1.5441956365701413e-012 1:371.09 2:2.6198599 3:290.51401 4:179.843 5:15.9378 6:180.411 7:223.80499 8:218.435 9:218.23801 10:136.464 11:134.494 12:134.09599 13:224.30901 14:222.489 15:221.291 16:136.298 17:135.705 18:134.927 19:242.30901 20:241.923 21:234.724 22:144.564 23:144.741 24:141.98 25:225.77499 26:227.625 27:225.131 28:140.37199 29:140.70399 30:139.82899 # frame 2047
-1.7245869689955754e-012 1:18.0492 2:71.866203 3:220.22 4:23.8999 5:84.719803 6:152.62601 7:231.479 8:233.233 9:228.494 10:139.53999 11:140.161 12:137.83501 13:244.47501 14:244.78799 15:242.916 16:145.507 17:145.714 18:144.79201 19:240.439 20:239.43401 21:238.85899 22:144.35001 23:143.437 24:143.17799 25:231.09599 26:233.45 27:236.29201 28:141.283 29:142.427 30:143.161 # frame 2047
1.1056370852479267e-012 1:166.28799 2:16.173 3:178.293 4:113.299 5:39.817799 6:138.47 7:217.42101 8:220.80099 9:216.351 10:131.806 11:133.125 12:131.132 13:228.065 14:224.853 15:225.692 16:138.38699 17:136.965 18:137.34599 19:234.70599 20:230.46899 21:233.882 22:142.23199 23:140.30901 24:141.76601 25:238.71001 26:237.444 27:240.22301 28:144.23599 29:143.589 30:144.603 # frame 2047
2.6270456247538868e-012 1:401.621 2:7.5181298 3:262.42099 4:199.60899 5:25.996201 6:165.944 7:210.22701 8:210.015 9:206.537 10:130.118 11:130.177 12:128.808 13:213.202 14:212.895 15:215.871 16:131.964 17:131.616 18:132.50101 19:243.045 20:241.80299 21:242.29401 22:144.929 23:144.58501 24:144.81599 25:239.903 26:243.862 27:241.90401 28:145.29401 29:146.733 30:146.118 # frame 2047
3.6930328694913246e-012 1:340.81299 2:11.8834 3:138.10699 4:193.28999 5:34.3615 6:123.928 7:209.188 8:212.649 9:213.592 10:129.032 11:130.679 12:130.804 13:216.668 14:221.24699 15:223.864 16:133.224 17:135.47099 18:136.543 19:241.515 20:240.464 21:237.438 22:145.242 23:144.93401 24:143.41499 25:219.73801 26:220.131 27:219.44701 28:137.30901 29:137.88499 30:137.272 # frame 2047
-3.1431645472173466e-012 1:375.06799 2:12.6403 3:77.456703 4:203.25 5:31.892799 6:91.3144 7:220.022 8:218.086 9:220.073 10:133.593 11:132.99699 12:133.82401 13:230.41499 14:230.577 15:228.90401 16:139.198 17:139.089 18:138.452 19:236.72 20:234.33701 21:235.39799 22:143.39 23:142.87 24:143.071 25:222.939 26:219.032 27:216.907 28:138.92599 29:137.342 30:136.55 # frame 2047
1.4613550983032931e-013 1:277.91299 2:3.1601 3:253.282 4:178.101 5:18.598301 6:169.435 7:193.19299 8:190.548 9:192.28999 10:123.18 11:122.183 12:122.944 13:206.174 14:209.21899 15:205.67599 16:128.325 17:129.726 18:127.846 19:259.64301 20:251.868 21:253.564 22:149.46899 23:146.89999 24:147.33099 25:213.899 26:213.64101 27:215.645 28:136.04601 29:135.97 30:136.416 # frame 2104
2.8610110965301829e-012 1:524.41803 2:0.381769 3:219.57401 4:240.444 5:6.3079 6:158.222 7:211.815 8:208.851 9:209.332 10:132.515 11:131.09599 12:131.442 13:213.465 14:212.243 15:212.644 16:131.34 17:130.787 18:130.96001 19:245.996 20:246.547 21:245.77499 22:146.47 23:146.951 24:146.70799 25:219.745 26:221.188 27:221.214 28:137.99699 29:138.278 30:138.61099 # frame 2104
2.1001187817234091e-012 1:427.13101 2:0.415999 3:236.44901 4:188.78101 5:6.3776999 6:164.129 7:211.83299 8:212.367 9:210.533 10:132.61099 11:132.67 12:132.08099 13:211.894 14:209.091 15:211.74699 16:131.036 17:129.569 18:130.83099 19:240.142 20:240.972 21:239.388 22:145.164 23:145.709 24:144.54201 25:226.132 26:229.91499 27:227.679 28:140.74899 29:141.985 30:141.45599 # frame 2104
5.6785860354138342e-013 1:522.90503 2:0.257451 3:274.48199 4:238.808 5:5.2098999 6:176.845 7:205.321 8:205.507 9:204.09599 10:131.133 11:131.149 12:130.593 13:205.063 14:203.82201 15:205.84 16:127.165 17:126.622 18:127.488 19:254.239 20:253.62601 21:252.631 22:148.763 23:148.97099 24:148.354 25:216.935 26:219.47 27:216.25 28:137.431 29:138.584 30:137.408 # frame 2104
-1.9736336707723593e-013 1:20.184 2:0.84701198 3:252.617 4:31.844801 5:9.3752003 6:169.39301 7:201.645 8:199.89999 9:199.651 10:126.534 11:125.896 12:125.84 13:200.875 14:200.435 15:201.953 16:126.283 17:125.784 18:126.215 19:244.55901 20:243.595 21:245.511 22:145.612 23:145.19 24:145.66299 25:225.67599 26:223.005 27:224.02901 28:140.64999 29:139.73399 30:140.17101 # frame 2104
-5.1495335986966296e-013 1:8.2158604 2:2.6063001 3:239.198 4:22.809999 5:16.844999 6:164.933 7:216.83299 8:215.808 9:217.439 10:133.155 11:132.817 12:133.368 13:204.86301 14:208.108 15:207.66499 16:127.856 17:129.48399 18:129.086 19:229.345 20:231.802 21:231.914 22:139.976 23:140.87601 24:140.985 25:225.644 26:226.45 27:224.713 28:139.882 29:140.479 30:139.621 # frame 2104
5.1870347632897934e-012 1:12.4041 2:3.1098499 3:277.603 4:23.3652 5:18.512899 6:177.64101 7:217.679 8:216.269 9:219.608 10:133.28999 11:133.037 12:134.069 13:216.5 14:216.35899 15:217.384 16:133.17599 17:133.00101 18:133.17999 19:241.51801 20:243.175 21:241.495 22:144.81799 23:145.09599 24:144.091 25:231.67 26:232.04401 27:234.57899 28:142.073 29:142.369 30:143.33299 # frame 2104
1.0918609896675576e-012 1:293.40302 2:8.9909 3:164.595 4:135.91901 5:25.3358 6:132.599 7:219.442 8:219.202 9:213.481 10:134.839 11:134.778 12:132.554 13:216.314 14:216 15:215.66 16:133.558 17:133.67101 18:133.558 19:245.88499 20:244.37199 21:244.838 22:146.552 23:146.201 24:146.187 25:241.826 26:241.496 27:244.586 28:145.881 29:145.711 30:146.711 # frame 2104
-2.2516421465394821e-012 1:282.409 2:3.09339 3:266.87701 4:174.698 5:16.9112 6:167.38699 7:219.7 8:218.312 9:216.703 10:134.071 11:133.509 12:132.87601 13:219.87399 14:221.28799 15:217.162 16:133.83099 17:134.604 18:132.974 19:236.49899 20:239.855 21:239.776 22:142.875 23:144.006 24:144.00301 25:227.463 26:228.562 27:228.71201 28:140.521 29:140.55499 30:140.761 # frame 2138
3.3302491423268437e-013 1:326.66501 2:0.38515401 3:231.82001 4:152.457 5:6.1106 6:161.77499 7:218 8:216.48801 9:216.304 10:132.623 11:131.84801 12:131.87399 13:237.965 14:237.871 15:239.73399 16:141.821 17:141.851 18:142.63499 19:240.795 20:243.14999 21:241.138 22:143.007 23:144.13699 24:143.629 25:233.91901 26:235.67999 27:235.896 28:143.209 29:144.056 30:144.01199 # frame 2138
-4.2682941571238605e-012 1:129.089 2:1.4333301 3:272.14801 4:77.584 5:12.1672 6:175.12199 7:223.29601 8:220.272 9:220.931 10:136.394 11:135.015 12:135.244 13:227.033 14:229.078 15:227.24699 16:137.181 17:137.84 18:137.438 19:240.174 20:244.30701 21:239.58 22:143.526 23:145.22099 24:143.49899 25:231.522 26:237.252 27:230.383 28:142.67599 29:144.72 30:141.81 # frame 2138
-5.1248336488909923e-013 1:278.328 2:16.3176 3:118.792 4:160.507 5:37.017899 6:103.851 7:221.367 8:220.69099 9:218.401 10:134.55499 11:134.201 12:133.134 13:226.912 14:227.345 15:225.42999 16:138.07201 17:138.30499 18:137.345 19:236.06 20:237.91901 21:237.362 22:142.80701 23:143.89 24:143.39 25:206.98801 26:209.62601 27:211.052 28:132.8 29:133.758 30:134.19 # frame 2138
1.5351973945169988e-013 1:273.17599 2:54.100899 3:200.595 4:176.72 5:75.867302 6:146.34 7:181.17101 8:183.392 9:193.142 10:119.591 11:121.102 12:125.397 13:190.28999 14:198.58501 15:197.799 16:120 17:124.31 18:123.636 19:267.22299 20:262.017 21:261.668 22:154.033 23:151.908 24:151.942 25:215.909 26:215.47701 27:211.101 28:137.912 29:138.14799 30:135.72099 # frame 2193
-4.6962603669197412e-013 1:265.728 2:23.5588 3:190.442 4:174.34 5:51.770599 6:147.438 7:183.086 8:181.39 9:183.687 10:118.841 11:118.212 12:119.154 13:197.925 14:196.24001 15:198.431 16:124.33 17:123.598 18:124.543 19:249.10001 20:247.56799 21:247.23199 22:147.83 23:147.015 24:147.032 25:213.022 26:207.633 27:211.024 28:135.052 29:133.26199 30:135.59399 # frame 2193
6.4631688973109588e-013 1:261.776 2:20.509701 3:126.674 4:172.25 5:46.812099 6:118.21 7:200.88 8:198.686 9:199.186 10:126.815 11:125.998 12:126.325 13:208.002 14:208.48 15:209.59399 16:128.672 17:129.01401 18:129.871 19:252.306 20:250.194 21:249.08099 22:149.123 23:148.105 24:148.47 25:207.543 26:201.867 27:206.30299 28:132.758 29:131.12801 30:133.543 # frame 2193
-3.534951920706451e-013 1:138.037 2:13.5575 3:262.22601 4:99.706497 5:32.496498 6:167.248 7:210.659 8:205.325 9:203.871 10:131.26199 11:129.127 12:128.728 13:217.709 14:215.341 15:210.868 16:134.064 17:132.79401 18:131.174 19:247.48199 20:240.849 21:243.383 22:146.06 23:143.8 24:144.817 25:237.901 26:237.172 27:238.367 28:144.58099 29:144.42999 30:144.246 # frame 2193
-6.715101903117174e-013 1:269.22299 2:27.893 3:164.44 4:175.478 5:56.296799 6:136.897 7:202.927 8:197.856 9:208.73399 10:127.936 11:126.242 12:131.00101 13:200.241 14:206.181 15:209.42599 16:125.395 17:128.30901 18:129.995 19:253.217 20:252.89999 21:249.785 22:148.733 23:148.72301 24:147.371 25:213.56 26:214.55701 27:212.468 28:135.33099 29:136.78799 30:135.659 # frame 2193
2.8927876325490313e-012 1:283.83401 2:21.6915 3:141.867 4:180.17 5:49.629601 6:127.166 7:208.254 8:202.87801 9:207.87 10:129.983 11:127.727 12:129.688 13:212.91901 14:218.159 15:219.254 16:131.879 17:134.278 18:135.166 19:252.11099 20:251.39101 21:248.77699 22:148.58501 23:148.52699 24:147.425 25:217.33701 26:219.028 27:217.09399 28:136.638 29:137.966 30:137.05499 # frame 2193
3.9094285805036969e-012 1:280.55801 2:15.2647 3:116.55 4:169.759 5:39.593399 6:110.854 7:205.924 8:206.284 9:212.612 10:128.17999 11:128.86501 12:130.924 13:218.479 14:223.83 15:224.112 16:134.26401 17:136.66499 18:136.761 19:246.103 20:247.274 21:248.86099 22:145.673 23:146.08299 24:147.015 25:225.3 26:223.162 27:220.453 28:139.817 29:139.407 30:138.153 # frame 2193
6.6620145035188756e-013 1:272.28601 2:8.5926905 3:300.668 4:176.46001 5:30.0804 6:185.114 7:208.467 8:202.286 9:204.233 10:131.088 11:128.73801 12:129.617 13:213.395 14:211.929 15:215.476 16:131.595 17:130.855 18:132.35699 19:247.758 20:247.306 21:254.42101 22:145.76601 23:146.464 24:149.304 25:220.338 26:225.12199 27:220.955 28:138.978 29:140.425 30:138.257 # frame 2228
-1.2068924877940168e-012 1:285.47501 2:4.28336 3:272.95401 4:180.627 5:21.999201 6:176.604 7:176.036 8:177.5 9:177.424 10:115.584 11:116.56 12:116.449 13:185.42999 14:187.064 15:186.32001 16:117.631 17:118.855 18:118.112 19:258.673 20:259.53601 21:260.77499 22:148.571 23:149.036 24:150.34599 25:203.94501 26:206.63699 27:209.33501 28:132.61 29:134.121 30:134.77901 # frame 2228
-2.3284087816763261e-012 1:300.55499 2:21.6805 3:184.097 4:184.33501 5:44.459599 6:141.375 7:208.82001 8:209.88499 9:212.052 10:130.43201 11:131.149 12:131.744 13:211.084 14:211.99001 15:210.59399 16:129.953 17:130.381 18:129.757 19:247.94 20:247.603 21:248.02901 22:145.153 23:146.173 24:145.79601 25:206.16701 26:208.76199 27:209.17 28:132.452 29:133.49899 30:134.158 # frame 2228
2.235321627466745e-012 1:288.479 2:22.041401 3:156.019 4:175.942 5:42.3904 6:129.40601 7:203.16499 8:198.32001 9:202.22501 10:123.128 11:121.207 12:122.676 13:217.717 14:214.82899 15:219.172 16:131.75 17:130.785 18:132.009 19:233.52499 20:230.48199 21:235.74699 22:139.54401 23:138.181 24:140.472 25:223.088 26:221.92599 27:220.12601 28:135.563 29:135.226 30:134.57899 # frame 2228
-8.6879859440173965e-013 1:315.17999 2:48.140099 3:78.879501 4:189.79601 5:69.289101 6:85.605003 7:216.862 8:217.948 9:216.58099 10:132.40199 11:132.63699 12:132.245 13:229.24001 14:229.30499 15:230.052 16:137.45 17:137.653 18:137.75999 19:223.899 20:222.34599 21:219.647 22:139.47099 23:138.849 24:138.14999 25:204.589 26:209.325 27:210.75301 28:132.483 29:134.106 30:134.12199 # frame 2228
2.9624653632505814e-013 1:314.448 2:52.694199 3:239.739 4:188.299 5:59.291599 6:164.49001 7:201.95599 8:200.95599 9:199.166 10:128.386 11:128.005 12:127.299 13:195.57401 14:193.88499 15:192.47 16:123.651 17:123.081 18:122.644 19:250.36301 20:249.845 21:255.916 22:145.485 23:147.01601 24:149.255 25:205.42 26:207.203 27:208.323 28:133.483 29:133.901 30:133.81599 # frame 2228
-1.6361772631339142e-012 1:259.879 2:8.6179504 3:198.452 4:172.16901 5:26.679701 6:147.856 7:202.817 8:202.638 9:200.285 10:129.149 11:129.315 12:128.258 13:195.69299 14:196.534 15:200.097 16:123.701 17:123.851 18:125.626 19:256.66 20:259.99301 21:259.17999 22:149.931 23:151.455 24:150.851 25:207.51801 26:205.166 27:204.321 28:133.245 29:132.075 30:131.153 # frame 2228
8.1405983976728315e-013 1:236.78101 2:37.9786 3:172.09 4:160.40601 5:63.6427 6:136.03101 7:196.56599 8:195.795 9:194.409 10:122.525 11:122.128 12:121.505 13:195.642 14:194.466 15:201.55499 16:121.87 17:121.594 18:124.769 19:227.269 20:226.54401 21:226.56 22:136.77901 23:137.026 24:136.506 25:214.284 26:212.297 27:214.62801 28:132.509 29:131.62199 30:133.201 # frame 2265
-2.751315613968569e-012 1:307.23199 2:0.54828602 3:270.35001 4:171.006 5:6.6255999 6:175.729 7:194.709 8:193.489 9:191.993 10:123.928 11:123.413 12:122.68 13:207.856 14:209.12199 15:207.44501 16:128.092 17:129.01801 18:128.25 19:269.884 20:266.86401 21:264.54599 22:153.2 23:152.338 24:151.194 25:203.75999 26:206.209 27:202.991 28:132.489 29:133.649 30:132.63 # frame 2265
-2.0211503568063732e-012 1:340.405 2:0.73324502 3:266.79401 4:196.983 5:9.0459003 6:174.625 7:183.72701 8:184.521 9:182.931 10:120.149 11:120.899 12:120.136 13:196.127 14:196.226 15:194.707 16:123.26 17:123.949 18:122.811 19:282.37701 20:283.047 21:281.267 22:157.657 23:158.048 24:157.685 25:210.20599 26:209.612 27:208.875 28:135.013 29:135.02901 30:134.64799 # frame 2265
-1.5719656846281564e-013 1:459.28799 2:15.6643 3:95.372704 4:224.758 5:39.906399 6:101.105 7:231.015 8:230.33299 9:230.33501 10:137.45599 11:137.103 12:137.39799 13:236.032 14:240.21001 15:239.33501 16:142.16299 17:143.817 18:143.49001 19:231.209 20:229.526 21:228.02699 22:140.72 23:140.05 24:139.21201 25:233.38699 26:234.645 27:233.439 28:142.246 29:142.67799 30:142.233 # frame 2265
-1.1106324336188036e-012 1:262.659 2:42.694901 3:125.499 4:168.843 5:67.088501 6:115.907 7:221.166 8:222.539 9:222.953 10:132.40601 11:132.899 12:132.84801 13:218.2 14:219.24699 15:221.742 16:132.42599 17:133.164 18:134.063 19:224.146 20:220.18201 21:224.33501 22:135.989 23:134.317 24:135.922 25:231.455 26:233.677 27:235.21899 28:139.188 29:139.959 30:140.52901 # frame 2265
3.2871719617535514e-012 1:297.164 2:0.85465902 3:324.68799 4:184.21201 5:9.7405005 6:192.532 7:198.96899 8:200.897 9:201.136 10:126.545 11:127.163 12:127.499 13:211.633 14:210.95599 15:212.216 16:130.86 17:130.44099 18:131.048 19:249.75999 20:249.493 21:250.76401 22:146.435 23:146.42 24:147.244 25:209.24899 26:207.347 27:207.86099 28:134.063 29:133.35899 30:133.472 # frame 2295
1.9969644236905078e-012 1:265.89899 2:15.024 3:343.88699 4:174.38699 5:39.1717 6:191.575 7:233.173 8:232.834 9:233.474 10:140.036 11:139.961 12:140.196 13:215.36099 14:217.289 15:219.918 16:132.33299 17:133.537 18:134.63699 19:228.353 20:225.53999 21:226.651 22:139.34 23:138.364 24:138.899 25:236.87199 26:237.994 27:237.287 28:143.56 29:144.22 30:143.73 # frame 2295
-1.1405711535379756e-012 1:257.24701 2:42.063999 3:146.166 4:167.28799 5:67.467598 6:126.059 7:202.177 8:198.509 9:208.27299 10:127.06 11:125.705 12:130.51801 13:195.565 14:199.933 15:206.00301 16:121.674 17:124.073 18:126.998 19:224.72 20:222.808 21:222.84 22:135.964 23:135.25301 24:135.284 25:199.528 26:203.151 27:200.16499 28:127.189 29:129.72701 30:128.34 # frame 2295
-3.2493691989643984e-012 1:323.561 2:1.52499 3:243.97301 4:192.32001 5:13.0845 6:166.97301 7:200.005 8:198.05299 9:199.563 10:127.712 11:127.156 12:127.868 13:205.571 14:206.41 15:207.694 16:128.10699 17:128.26801 18:128.686 19:262.242 20:263.81699 21:261.83099 22:150.927 23:152.823 24:151.998 25:206.97701 26:210.951 27:210.96001 28:134.131 29:135.34 30:135.00301 # frame 2295
2.6372330418663638e-013 1:413.22 2:0.70820701 3:222.196 4:216.78799 5:8.4609003 6:159.349 7:190.81799 8:187.22099 9:191.09599 10:123.375 11:121.836 12:123.699 13:190.929 14:191.629 15:189.651 16:121.562 17:121.369 18:120.627 19:261.93799 20:262.698 21:258.82901 22:152.922 23:153.269 24:151.478 25:210.09399 26:209.662 27:210.17799 28:135.265 29:134.883 30:134.94701 # frame 2295
8.3846680370540621e-012 1:309.078 2:4.95331 3:252.009 4:187.77901 5:22.898199 6:166.302 7:192.75 8:194.02299 9:193.41701 10:123.674 11:124.231 12:124.136 13:198.789 14:199.967 15:200.229 16:124.135 17:124.469 18:124.49 19:251.22301 20:251.35899 21:252.425 22:148.65601 23:149.097 24:149.45 25:212.476 26:211.457 27:209.494 28:135.05099 29:133.981 30:133.82001 # frame 2295
-3.9769614395043969e-015 1:241.619 2:2.22472 3:677.23499 4:117.667 5:6.8246999 6:274.48801 7:37.106899 8:38.786098 9:30.7311 10:23.1665 11:24.618799 12:20.618 13:44.1045 14:42.473 15:41.050098 16:26.650101 17:25.811199 18:25.1546 19:165.453 20:171.47 21:131.149 22:116.25 23:112.517 24:100.383 25:63.396599 26:101.489 27:81.737701 28:71.513603 29:89.876602 30:82.942596 # frame 2327
-2.8135676563946842e-013 1:278.94299 2:1.91478 3:401.76801 4:130.483 5:11.6615 6:211.688 7:220.834 8:217.785 9:202.052 10:134.627 11:133.28 12:125.31 13:218.868 14:224.35001 15:215.67999 16:132.478 17:134.46899 18:130.047 19:262.789 20:254.08501 21:250.73 22:151.40401 23:147.97501 24:146.68401 25:206.91299 26:210.222 27:206.97099 28:132.377 29:133.94901 30:131.952 # frame 2327
-3.2397566146130724e-012 1:529.24597 2:0.28948799 3:246.177 4:243.35699 5:5.5517998 6:167.72301 7:203.905 8:202.35899 9:203.30901 10:130.041 11:129.46899 12:129.776 13:212.707 14:210.63699 15:212.414 16:130.966 17:130.05299 18:130.789 19:255.133 20:254.243 21:253.862 22:148.987 23:149.05 24:148.31799 25:213.129 26:213.549 27:210.229 28:135.955 29:135.916 30:134.989 # frame 2327
-5.5393152319638924e-013 1:323.12799 2:1.45811 3:282.694 4:191.896 5:12.1121 6:178.836 7:230.138 8:228.95 9:227.847 10:140.06599 11:139.565 12:138.964 13:229.674 14:230.231 15:229.959 16:138.94 17:139.321 18:139.084 19:231.55099 20:234.11 21:234.02699 22:140.98399 23:142.33701 24:142.13699 25:244.325 26:246.08299 27:247.957 28:146.81799 29:147.287 30:148.007 # frame 2327
-2.6346079001725559e-014 1:250.959 2:10.585 3:260.54001 4:132.465 5:29.700899 6:160.702 7:216.024 8:212.782 9:216.17101 10:130.534 11:129.369 12:130.33701 13:235.782 14:238.64799 15:236.27699 16:141.84599 17:142.412 18:141.561 19:258.375 20:260.70499 21:259.58099 22:150.37 23:151.20799 24:151.071 25:222.25101 26:220.073 27:219.082 28:138.084 29:137.45599 30:136.97099 # frame 2327
2.4295026274468899e-012 1:512.85602 2:0.61208498 3:215.44 4:225.164 5:7.9528999 6:156.86501 7:199.423 8:193.392 9:199.18401 10:126.262 11:123.646 12:126.451 13:207.745 14:207.054 15:206.38699 16:128.85699 17:128.701 18:128.321 19:251.97501 20:250.62399 21:253.72501 22:148.317 23:148.16299 24:149.01601 25:222.069 26:224.01801 27:220.013 28:138.98599 29:139.57201 30:138.489 # frame 2327
-3.2135503842925704e-012 1:431.68399 2:25.0576 3:199.024 4:212.418 5:38.140598 6:150.382 7:208.188 8:209.463 9:210.33501 10:129.44 11:129.896 12:130.33099 13:209.465 14:210.729 15:211.47301 16:130.13 17:130.808 18:130.526 19:248.286 20:248.508 21:246.476 22:147.457 23:147.791 24:147.00101 25:223.03 26:225.528 27:227.354 28:138.98 29:139.74899 30:140.47099 # frame 2327
7.6260618434058177e-013 1:10.5828 2:32.8993 3:275.17899 4:33.119598 5:56.7775 6:167.254 7:230.058 8:231.621 9:231.13 10:139.358 11:140.11099 12:139.51801 13:224.349 14:227.521 15:228.15601 16:136.51199 17:137.27499 18:137.761 19:231.339 20:231.66299 21:233.62601 22:140.992 23:140.91 24:141.48399 25:232.86099 26:231.036 27:235.35899 28:141.935 29:141.278 30:142.811 # frame 2354
-1.4657926105657761e-012 1:7.2206502 2:20.142799 3:404.51401 4:28.5322 5:47.453098 6:213.403 7:221.7 8:225.032 9:222.66901 10:134.248 11:135.618 12:134.562 13:227.2 14:231.08701 15:229.15199 16:138.661 17:139.84 18:139.117 19:233.011 20:235.634 21:234.968 22:141.201 23:142.07899 24:141.88 25:236.959 26:238.229 27:236.69099 28:143.326 29:144.185 30:143.528 # frame 2354
7.2461369693425983e-013 1:6.0714002 2:22.395 3:523.54303 4:26.295799 5:50.530399 6:244.576 7:214.064 8:206.62601 9:205.683 10:132.27 11:129.46201 12:129.286 13:212.54201 14:213.754 15:199.95599 16:131.283 17:131.564 18:124.491 19:246.588 20:246.286 21:250.36 22:145.72099 23:145.342 24:147.448 25:227.5 26:231.87399 27:229.151 28:140.34399 29:142.382 30:141.882 # frame 2354
-1.7767251631223427e-015 1:5.5020099 2:24.3218 3:533.86401 4:25.0814 5:52.643398 6:246.897 7:216.873 8:213.10899 9:210.94099 10:133.077 11:131.882 12:131.119 13:215.938 14:214.334 15:204.07899 16:132.505 17:131.41701 18:125.883 19:245.45399 20:249.95599 21:249.823 22:145.761 23:147.29401 24:147.401 25:231.55701 26:233.509 27:230.12399 28:141.786 29:142.868 30:141.789 # frame 2354
-5.4032773566145698e-013 1:343.39001 2:14.58 3:60.528702 4:197.87801 5:39.4333 6:81.032402 7:226.696 8:225.79201 9:228.86301 10:137.041 11:136.81 12:137.799 13:233.05901 14:235.07001 15:236.759 16:141.015 17:141.589 18:142.237 19:237.90401 20:235.287 21:236.57401 22:144.252 23:143.196 24:143.519 25:234.465 26:232.959 27:233.843 28:143.252 29:142.785 30:143.05499 # frame 2354
9.7316964677799336e-013 1:271.69699 2:13.2465 3:85.524696 4:171.666 5:34.169201 6:96.354301 7:202.619 8:202.715 9:208.66701 10:128.905 11:129.621 12:132.29601 13:211.3 14:208.634 15:207.76601 16:130.892 17:129.513 18:129.007 19:242.619 20:243.61099 21:241.30901 22:145.918 23:146.27901 24:145.12199 25:209.254 26:210.813 27:207.95599 28:134.81599 29:135.35899 30:134.47701 # frame 2381
-9.6361744261041272e-013 1:266.181 2:29.1189 3:74.911797 4:135.59399 5:54.1478 6:88.204903 7:198.61099 8:196.524 9:197.80299 10:126.991 11:126.444 12:126.875 13:224.46001 14:217.101 15:213.983 16:135.953 17:132.716 18:131.584 19:263.634 20:256.745 21:256.12201 22:153.22 23:150.388 24:150.192 25:212.94299 26:213.814 27:214.16701 28:136.59599 29:136.23199 30:136.95399 # frame 2381
-8.3354301262892519e-013 1:322.90601 2:25.694599 3:91.678802 4:192.077 5:53.259201 6:101.129 7:211.19299 8:209.431 9:208.84 10:129.8 11:129.47501 12:129.274 13:217.726 14:217.22099 15:217.243 16:134.093 17:134.13499 18:134.201 19:238.647 20:237.50101 21:233.776 22:143.49001 23:142.83 24:141.34599 25:228.979 26:231.25101 27:228.705 28:141.203 29:142.254 30:141.233 # frame 2381
-9.6465033104747578e-013 1:63.2337 2:7.24229 3:255.694 4:45.8522 5:28.354099 6:169.25 7:224.55499 8:220.89301 9:221.283 10:136.30499 11:134.983 12:135.095 13:225.226 14:225.02499 15:226.015 16:137.431 17:137.20399 18:137.66299 19:237.933 20:238.286 21:235.00301 22:142.99699 23:143.01199 24:141.58701 25:242.909 26:244.524 27:242.50101 28:146.45399 29:146.979 30:146.16499 # frame 2381
-4.8519474550834696e-013 1:331.58301 2:12.5428 3:82.092003 4:192.573 5:37.427299 6:95.411301 7:238.278 8:236.40199 9:236.55099 10:141.744 11:140.869 12:141.158 13:231.64 14:232.517 15:235.142 16:140.379 17:140.674 18:141.64799 19:231.23599 20:231.304 21:234.967 22:141.07201 23:140.963 24:142.362 25:226.71899 26:226.942 27:223.214 28:140.16499 29:139.95 30:138.502 # frame 2381
2.4333511906705484e-012 1:288.965 2:9.2473001 3:204.95 4:181.731 5:32.3428 6:152.90199 7:191.99899 8:189.26401 9:190.039 10:123.8 11:122.893 12:122.862 13:198.72701 14:199.26801 15:198.653 16:123.653 17:124.135 18:124.098 19:256.255 20:251.735 21:255.36501 22:150.54401 23:148.914 24:150.27299 25:211.763 26:211.688 27:211.985 28:135.05499 29:134.38499 30:134.26401 # frame 2399
-7.7609710218125168e-013 1:388.091 2:17.322399 3:75.116798 4:191.524 5:38.9459 6:88.555496 7:233.918 8:231.287 9:230.054 10:140.114 11:138.85001 12:138.842 13:234.748 14:234.521 15:237.04201 16:141.242 17:141.33099 18:142.283 19:228.36501 20:230.244 21:228.769 22:139.742 23:140.46899 24:139.96201 25:233.08501 26:235.966 27:236.47099 28:142.00301 29:143.039 30:143.42101 # frame 2399
3.3869060018562844e-012 1:298.142 2:22.695601 3:152.511 4:184.565 5:50.610401 6:130.918 7:199.561 8:199.92 9:202.217 10:123.36 11:123.345 12:124.3 13:213.56 14:214.117 15:217.095 16:132.146 17:132.45599 18:133.825 19:236.815 20:235.286 21:235.088 22:142.504 23:141.811 24:141.964 25:247.27 26:246.155 27:246.711 28:147.364 29:147.311 30:147.41 # frame 2399
-1.6388004318727394e-013 1:297.71399 2:19.219801 3:497.297 4:140.81799 5:35.616001 6:229.47301 7:178.785 8:170.138 9:160.38901 10:110.075 11:106.354 12:101.63 13:195.44501 14:192.414 15:182.40199 16:119.777 17:117.669 18:112.698 19:240.03799 20:229.146 21:216.048 22:144.076 23:138.134 24:134.702 25:216.302 26:229.48 27:213.892 28:134.804 29:141.121 30:134.37801 # frame 2399
2.5151151997553399e-012 1:325.38699 2:6.6746702 3:149.946 4:192.86501 5:27.438299 6:130.72501 7:197.873 8:198.17799 9:197.383 10:125.396 11:125.449 12:125.263 13:197.46201 14:202.21899 15:201.187 16:124.925 17:127.173 18:126.724 19:256.11499 20:251.117 21:250.75101 22:150.16701 23:148.582 24:148.474 25:234.47301 26:231.19501 27:230.791 28:143.084 29:142.702 30:142.127 # frame 2399
1.0810681674987757e-012 1:296.142 2:4.11588 3:104.375 4:176.91 5:17.757299 6:107.656 7:199.543 8:197.853 9:202.47301 10:125.589 11:124.905 12:126.961 13:214.72701 14:216.30499 15:215.351 16:132.57401 17:133.453 18:132.993 19:245.174 20:248.621 21:244.78999 22:146.405 23:147.728 24:146.3 25:218.59 26:219.91901 27:217.537 28:138.00101 29:138.14799 30:137.33 # frame 2399
3.5940323054926056e-012 1:56.435501 2:28.8409 3:220.412 4:77.398804 5:52.979698 6:154.12399 7:209.27699 8:216.216 9:213.66701 10:128.036 11:130.21899 12:129.075 13:213.164 14:211.662 15:213.423 16:130.5 17:129.759 18:130.56799 19:227.08299 20:219.98199 21:221.97099 22:136.811 23:133.573 24:134.62399 25:231.179 26:226.97 27:232.49899 28:139.218 29:137.601 30:139.679 # frame 2437
-2.7310036437268735e-013 1:281.55899 2:3.5580001 3:325.78101 4:179.38901 5:20.0343 6:192.923 7:206.086 8:203.63901 9:206.77299 10:128.886 11:128.062 12:129.358 13:212.099 14:212.549 15:212.261 16:131.52 17:131.498 18:131.304 19:256.79501 20:253.207 21:253.882 22:148.55299 23:147.08 24:147.5 25:216.06799 26:218.524 27:213.679 28:136.554 29:137.864 30:136.36301 # frame 2437
2.8459655026455987e-012 1:339.95999 2:1.51491 3:286.28699 4:197.146 5:13.0509 6:180.83501 7:208.3 8:207.009 9:205.817 10:130.06799 11:129.34801 12:128.879 13:209.326 14:209.98399 15:209.94501 16:128.85001 17:129.608 18:129.37199 19:247.56599 20:250.994 21:251.705 22:146.033 23:148.05 24:148.29201 25:217.056 26:219.293 27:217.778 28:137.174 29:137.995 30:137.19501 # frame 2437
1.2212868369370163e-012 1:332.806 2:2.0760901 3:187.47 4:189.528 5:11.5531 6:145.57001 7:211.492 8:208.838 9:210.897 10:130.395 11:129.366 12:130.196 13:218.16 14:216.133 15:216.472 16:133.8 17:132.373 18:132.86301 19:240.019 20:241.875 21:242.246 22:144.22501 23:145.338 24:145.39 25:227.85201 26:227.707 27:228.69299 28:141.11301 29:140.994 30:141.47099 # frame 2437
2.2099022574318394e-014 1:274.58801 2:2.86127 3:658.92401 4:177.20399 5:17.982901 6:274.32599 7:176.953 8:174.536 9:174.625 10:113.984 11:113.046 12:112.913 13:182.75301 14:187.189 15:183.513 16:113.678 17:115.524 18:113.736 19:274.72601 20:266.35599 21:277.745 22:153.192 23:147.489 24:152.952 25:219.007 26:215.94 27:217.78799 28:137.616 29:137.50999 30:138.95 # frame 2473
1.2276603348007151e-011 1:261.069 2:0.97777998 3:276.27899 4:172.578 5:10.4378 6:177.592 7:215.17999 8:215.47 9:212.735 10:133.213 11:133.293 12:132.485 13:214.368 14:215.797 15:214.451 16:132.006 17:132.416 18:131.825 19:242.593 20:244.05099 21:241.595 22:143.97099 23:144.955 24:144.149 25:222.933 26:221.89 27:222.80499 28:139.214 29:138.94 30:139.175 # frame 2473
-7.9773556267049458e-012 1:214.127 2:0.23326699 3:284.491 4:130.658 5:4.0922999 6:179.882 7:220.39101 8:219.214 9:220.491 10:135.22501 11:134.845 12:135.49001 13:220.73399 14:223.08099 15:219.65199 16:134.342 17:135.33 18:133.88 19:238.79201 20:239.70799 21:238.884 22:142.967 23:143.63699 24:143.57899 25:234.47701 26:234.41 27:234.731 28:143.31 29:143.41 30:143.464 # frame 2473
-1.5263477096935888e-012 1:92.0634 2:2.65569 3:187.558 4:95.837799 5:12.0565 6:145.692 7:228.552 8:226.89101 9:225.299 10:138.401 11:137.48801 12:137.03101 13:217.714 14:219.563 15:217.877 16:133.953 17:134.58299 18:134.233 19:237.524 20:236.51601 21:236.783 22:143.59599 23:143.49899 24:143.369 25:234.282 26:237.89799 27:237.228 28:143.261 29:144.461 30:144.235 # frame 2473
6.9249840069608623e-013 1:456.711 2:12.3202 3:197.114 4:199.436 5:31.756399 6:145.918 7:197.222 8:201.22099 9:204.245 10:122.913 11:124.658 12:126.054 13:192.60899 14:193.95799 15:192.04201 16:119.986 17:120.205 18:119.494 19:227.075 20:221.21001 21:223.616 22:137.22701 23:135.65199 24:135.60201 25:211.168 26:209.979 27:207.933 28:131.618 29:130.63499 30:130.75101 # frame 2504
-7.2186023810934677e-012 1:369.61099 2:2.11621 3:262.98401 4:205.343 5:15.3269 6:173.243 7:207.599 8:208.72501 9:206.814 10:131.269 11:131.92799 12:130.929 13:209.92799 14:207.455 15:210.463 16:130.047 17:129.04201 18:130.395 19:244.71001 20:243.58701 21:244.77299 22:145.183 23:145.61301 24:146.03799 25:227.757 26:224.125 27:222.995 28:141.67799 29:140.314 30:139.541 # frame 2504
-6.2923040651802664e-012 1:338.51599 2:1.65299 3:253.37199 4:196.57899 5:13.5791 6:170.05499 7:213.48 8:211.634 9:213.461 10:132.7 11:131.95399 12:132.51199 13:211.577 14:213.605 15:214.565 16:130.55099 17:131.38699 18:131.718 19:245.52699 20:245.90199 21:243.832 22:144.843 23:146.17 24:145.149 25:220.31 26:217.252 27:218.655 28:138.442 29:137.131 30:137.724 # frame 2504
-1.6993942206802693e-012 1:219.60001 2:3.4137299 3:260.444 4:143.476 5:15.7434 6:169.56799 7:209.101 8:206.321 9:202.567 10:130.836 11:129.70399 12:127.999 13:208.57899 14:206.008 15:207.953 16:129.082 17:127.885 18:128.976 19:247.71001 20:251.647 21:250.121 22:147.97099 23:149.24899 24:148.839 25:219.10201 26:224.51801 27:219.98801 28:137.394 29:139.315 30:137.319 # frame 2504
6.886503253486424e-014 1:148.353 2:25.188101 3:295.07599 4:66.541603 5:48.932098 6:183.343 7:216.98599 8:215.964 9:218.81799 10:132.237 11:131.761 12:132.91701 13:207.944 14:211.103 15:205.93201 16:129.356 17:129.993 18:127.584 19:236.96001 20:240.17 21:240.194 22:143.76601 23:144.84801 24:144.24001 25:234.479 26:237.41299 27:235.502 28:142.547 29:143.95 30:143.72099 # frame 2536
