SVM-light Version V6.20
0 # kernel type
3 # kernel parameter -d 
1 # kernel parameter -g 
1 # kernel parameter -s 
1 # kernel parameter -r 
empty# kernel parameter -u 
35 # highest feature index 
42 # number of training documents 
2 # number of support vectors plus 1 
0.1036011 # threshold b, each following line is a SV (starting with alpha*y)
1 1:0.0068128249 2:-0.026580246 3:-0.051882897 4:0.045442186 5:0.063810579 6:-0.0064099585 7:0.048478127 8:-0.050720651 9:-0.077682279 10:-0.089598067 11:-0.029253602 12:-0.037402965 13:-0.039929099 14:0.073764086 15:0.088602953 16:0.10522638 17:0.048978496 18:0.055551935 19:0.064227156 20:-0.01713223 21:-0.039098933 22:-0.023516843 23:-0.012189572 24:-0.025388021 25:-0.018900558 26:0.0061700451 27:-0.00017177299 28:-0.01726654 29:-0.0041367267 30:-0.018613456 31:-0.021028023 32:0.0033533813 33:-0.00088533241 #
