SVM-light Version V6.20
1 # kernel type
3 # kernel parameter -d 
1 # kernel parameter -g 
1 # kernel parameter -s 
1 # kernel parameter -r 
empty# kernel parameter -u 
30 # highest feature index 
189 # number of training documents 
501 # number of support vectors plus 1 
0 # threshold b, each following line is a SV (starting with alpha*y)
1.8112905894884774e-012 1:298.617 2:11.1258 3:423.33801 4:181.843 5:31.749701 6:214.17999 7:215.04201 8:216.468 9:213.95399 10:131.285 11:131.80701 12:130.847 13:228.25301 14:230.729 15:231.10699 16:138.571 17:139.5 18:139.623 19:243.061 20:244.17599 21:246.52499 22:145.252 23:145.707 24:146.597 25:236.98599 26:235.28 27:235.10001 28:143.901 29:143.325 30:142.77299 # frame 12
1.3841201279280148e-012 1:385.27802 2:25.0805 3:169.629 4:198.808 5:46.898701 6:124.596 7:204.883 8:207.11 9:206.59599 10:127.747 11:128.645 12:128.508 13:222.33099 14:222.77901 15:224.633 16:134.563 17:133.608 18:135.082 19:218.767 20:220.22099 21:220.541 22:132.979 23:134.174 24:133.939 25:221.907 26:217.76801 27:217.25999 28:135.825 29:134.21001 30:133.873 # frame 12
2.9184611321490415e-014 1:184.371 2:40.640598 3:168.806 4:119.415 5:54.929001 6:134.71201 7:221.69501 8:222.631 9:222.198 10:134.978 11:135.237 12:135.36301 13:227.74699 14:218.811 15:225.133 16:138.63499 17:134.842 18:137.104 19:235.147 20:229.30099 21:233.87 22:142.506 23:140.29201 24:142.481 25:246.091 26:241.10699 27:243.04201 28:147.328 29:145.06 30:146.455 # frame 12
1.2073397843242606e-012 1:49.275799 2:96.245796 3:126.87 4:72.000397 5:96.654099 6:118.829 7:228.267 8:226.612 9:227.59399 10:138.246 11:137.61301 12:137.791 13:232.69501 14:228.42999 15:228.729 16:141.017 17:138.97301 18:139.369 19:235.547 20:231.98 21:234.51401 22:142.823 23:141.327 24:142.49699 25:243.22099 26:243.075 27:242.72099 28:146.173 29:146.56 30:146.17 # frame 12
2.2341335909522924e-012 1:72.176804 2:1.51318 3:139.16299 4:54.4482 5:11.9378 6:125.433 7:218.121 8:220.994 9:218.283 10:134.338 11:135.397 12:134.347 13:209.349 14:210.12199 15:212.088 16:130.069 17:130.149 18:130.86501 19:234.01199 20:231.85001 21:232.382 22:142.91701 23:142.049 24:142.006 25:231.756 26:233.505 27:235.617 28:141.86099 29:142.27299 30:142.96201 # frame 12
5.0662126532610154e-012 1:331.30701 2:8.2346897 3:134.605 4:186.961 5:28.197001 6:120.379 7:223.468 8:222.67101 9:225.14 10:136.539 11:136.207 12:137.183 13:227.19 14:228.373 15:230.644 16:137.63699 17:138.728 18:139.172 19:239.401 20:238.061 21:237.74899 22:144.069 23:143.71899 24:143.543 25:233.866 26:234.397 27:234.793 28:142.42799 29:142.711 30:142.933 # frame 71
2.1926548003651203e-013 1:195.875 2:23.4142 3:145.561 4:111.053 5:40.187801 6:126.184 7:230.683 8:231.30299 9:231.41 10:139.593 11:139.87199 12:139.98199 13:235.8 14:225.207 15:231.132 16:142.224 17:137.603 18:140.14301 19:234.181 20:234.32401 21:236.065 22:141.63 23:141.77499 24:142.633 25:245.056 26:241.668 27:242.92999 28:146.959 29:145.688 30:145.955 # frame 71
-2.1027285874104858e-012 1:44.554901 2:71.167503 3:131.522 4:71.091599 5:88.301697 6:120.735 7:232.758 8:228.229 9:229.25301 10:139.713 11:137.612 12:138.42599 13:230.98 14:223.457 15:228.879 16:140.297 17:136.761 18:139.2 19:230.985 20:232.72501 21:228.405 22:140.647 23:141.13 24:139.57401 25:239.472 26:242.646 27:241.71899 28:145.14999 29:146.188 30:145.755 # frame 71
1.8869595084731014e-012 1:54.337502 2:80.982903 3:139.468 4:78.669197 5:94.902603 6:124.9 7:228.40199 8:226.064 9:227.166 10:137.73 11:136.649 12:136.998 13:227.714 14:223.302 15:225.761 16:138.662 17:136.741 18:137.69099 19:233.90401 20:232.133 21:234.121 22:142.17999 23:141.75 24:142.436 25:236.69299 26:238.44099 27:236.97099 28:143.67799 29:144.32899 30:144.004 # frame 71
-1.434516756259019e-012 1:172.306 2:37.824799 3:145.089 4:119.148 5:57.483002 6:126.749 7:219.358 8:220.87801 9:219.71001 10:133.08 11:133.72501 12:132.92101 13:229.386 14:232.31799 15:230.23801 16:139.368 17:140.49899 18:139.938 19:228.034 20:236.188 21:232.55701 22:139.536 23:142.69099 24:141.299 25:232.433 26:230.032 27:230.709 28:142.31799 29:141.35699 30:141.369 # frame 71
7.1608752956720052e-013 1:442.827 2:5.3417401 3:93.794098 4:216.218 5:22.667601 6:103.388 7:204.907 8:204.28101 9:205.75301 10:128.584 11:128.476 12:129.267 13:226.289 14:226.21001 15:224.274 16:137.636 17:137.48599 18:136.901 19:259.54099 20:260.405 21:260.37399 22:150.864 23:150.97701 24:151.11 25:205.377 26:209.83 27:209.395 28:133.116 29:134.575 30:134.43201 # frame 71
2.9058945276697218e-012 1:282.215 2:5.8204999 3:177.92101 4:169.48399 5:22.459299 6:137.284 7:232.70799 8:231.479 9:230.25 10:139.60899 11:139.138 12:138.69901 13:220.94 14:222.767 15:222.326 16:135.36501 17:136.43401 18:136.16 19:233.806 20:233.57899 21:233.87 22:141.69299 23:141.683 24:141.90401 25:238.617 26:240.89101 27:239.657 28:144.44099 29:145.14301 30:144.739 # frame 103
3.034486314201642e-012 1:347.29099 2:1.71978 3:275.12799 4:199.071 5:13.3338 6:175.24699 7:231.717 8:231.619 9:229.884 10:140.386 11:140.105 12:139.476 13:219.85201 14:221.586 15:221.552 16:135.08299 17:135.791 18:135.754 19:231.80701 20:233.44901 21:233.011 22:140.26199 23:141.245 24:140.92799 25:237.295 26:239.276 27:240.485 28:144.07401 29:144.812 30:145.271 # frame 103
-3.9984120500856117e-013 1:369.76599 2:1.38308 3:315.40201 4:205.286 5:12.1833 6:186.81799 7:235.95599 8:233.588 9:233.548 10:141.51801 11:140.407 12:140.382 13:227.39 14:225.42101 15:228.19099 16:138.45599 17:137.57899 18:138.42999 19:231.838 20:234.147 21:236.29401 22:140.384 23:141.188 24:142.17 25:245.78101 26:246.976 27:247.01199 28:147.351 29:147.85699 30:147.767 # frame 103
3.6640070961110093e-012 1:397.97198 2:1.43538 3:253.799 4:213.145 5:12.3707 6:169.95799 7:233.241 8:233.40199 9:233.18401 10:140.799 11:140.877 12:140.668 13:228.96001 14:229.80901 15:231.77299 16:138.944 17:139.00999 18:140.062 19:230.49699 20:231.144 21:231.14101 22:139.74699 23:140.22701 24:140.269 25:240.91 26:242.94299 27:242.198 28:145.588 29:146.32401 30:145.88901 # frame 103
3.2938341711887689e-012 1:401.242 2:1.4006 3:266.51001 4:214.063 5:12.2276 6:174.30499 7:233.302 8:233.91 9:231.015 10:139.95799 11:140.42 12:139.368 13:224.185 14:225.286 15:226.67599 16:136.38699 17:136.98 18:137.259 19:237.09599 20:235.70399 21:237.28101 22:142.45399 23:141.78999 24:142.437 25:239.461 26:240.024 27:239.754 28:144.98 29:145.371 30:145.40199 # frame 103
6.580267646549176e-013 1:344.26001 2:0.34958601 3:341.987 4:191.19 5:4.9468002 6:197.586 7:230.295 8:231.092 9:229.77699 10:139.37199 11:139.634 12:139.008 13:215.145 14:216.174 15:215.55099 16:133.024 17:133.271 18:133.12601 19:227.75 20:228.57201 21:227.383 22:138.60001 23:138.875 24:138.562 25:227.496 26:228.153 27:227.964 28:140.22099 29:140.46201 30:140.384 # frame 149
-2.7675423335230076e-012 1:343.065 2:0.120615 3:373.992 4:175.797 5:3.2753 6:206.58099 7:226.481 8:226.209 9:224.83 10:137.60899 11:137.619 12:137.045 13:222.597 14:223.63499 15:222.073 16:135.737 17:136.04201 18:135.41499 19:233.522 20:236.591 21:233.46899 22:141.2 23:142.29401 24:141.237 25:233.953 26:233.841 27:236.575 28:142.614 29:142.593 30:143.569 # frame 149
-3.0234417395444343e-012 1:304.79501 2:0.948928 3:384.01401 4:185.582 5:6.7241998 6:208.84 7:217.36501 8:216.04601 9:215.985 10:133.575 11:132.961 12:133.177 13:213.22099 14:211.93201 15:212.509 16:131.961 17:131.084 18:131.44701 19:245.57001 20:244.828 21:247.629 22:146.188 23:146.131 24:147.149 25:244.569 26:246.75 27:247.27699 28:146.927 29:147.67799 30:148.009 # frame 149
-5.1302029529253018e-012 1:259.509 2:10.5182 3:260.88901 4:164.97701 5:30.254801 6:170.45599 7:216.896 8:222.02499 9:219.99001 10:131.841 11:133.948 12:132.92101 13:220.896 14:225.716 15:224.907 16:135.047 17:136.592 18:136.576 19:236.791 20:231.489 21:236.464 22:142.267 23:140.153 24:141.80499 25:239.49899 26:234.306 27:235.535 28:144.828 29:142.95799 30:143.14101 # frame 149
3.1246418796469845e-012 1:17.2761 2:30.0261 3:221.504 4:35.4781 5:52.615398 6:151.84801 7:217.92799 8:216.93401 9:215.211 10:132.556 11:132.14 12:131.62601 13:219.855 14:220.052 15:218.58299 16:133.12199 17:133.187 18:132.69 19:225.504 20:229.302 21:226.71001 22:135.784 23:137.409 24:136.15601 25:228.798 26:232.388 27:231.31599 28:137.918 29:139.187 30:138.814 # frame 149
1.883502675010373e-013 1:113.951 2:25.448601 3:190.508 4:72.290604 5:44.593201 6:136.29201 7:225.013 8:206.77499 9:207.086 10:135.578 11:128.278 12:128.2 13:224.43201 14:216.022 15:216.646 16:136.877 17:133.203 18:133.81599 19:241.84 20:249.276 21:255.36 22:146.112 23:149.08099 24:151.767 25:241.054 26:251.99001 27:252.729 28:145.524 29:149.841 30:150.48801 # frame 149
-1.637103187791388e-013 1:108.106 2:23.1612 3:225.96201 4:83.947403 5:42.718399 6:152.237 7:221.707 8:221.047 9:217.75101 10:135.925 11:135.636 12:134.26601 13:222.67799 14:223.72301 15:224.17101 16:136.683 17:136.804 18:137.328 19:240.994 20:236.83 21:238.619 22:144.218 23:142.645 24:143.353 25:243.192 26:245.38901 27:246.077 28:146.554 29:147.51801 30:147.771 # frame 388
5.3336591184271477e-012 1:283.15701 2:4.0064301 3:241.771 4:142.869 5:13.4864 6:160.069 7:229.99699 8:228.772 9:228.718 10:139.02 11:138.647 12:138.478 13:233.64 14:236.539 15:236.696 16:140.91499 17:141.98599 18:142.086 19:239.38901 20:242.343 21:241.77699 22:143.92799 23:145.24699 24:144.80499 25:235.653 26:237.45799 27:236.638 28:143.34399 29:143.92 30:143.453 # frame 388
-4.7519473929283395e-012 1:330.18799 2:13.7389 3:350.207 4:193.157 5:35.148602 6:193.606 7:224.188 8:224.636 9:224.342 10:137.405 11:137.64101 12:137.35201 13:223.08299 14:223.64799 15:223.129 16:136.98399 17:137.28 18:137.06 19:230.065 20:233.013 21:233.045 22:139.784 23:141.114 24:141.12399 25:242.36301 26:243.146 27:244.21899 28:145.726 29:146.09801 30:146.61 # frame 388
2.0331013160345802e-012 1:352.194 2:13.6518 3:299.49701 4:198.41701 5:31.5425 6:174.50999 7:228.48399 8:228.896 9:226.698 10:138.60699 11:138.73801 12:137.8 13:220.218 14:218.55 15:218.828 16:134.57001 17:134.41701 18:134.446 19:222.33701 20:228.28799 21:222.073 22:136.98599 23:139.299 24:136.726 25:224.013 26:229.87399 27:230.34599 28:138.812 29:141.16 30:141.185 # frame 388
-1.8944916504557439e-012 1:424.35199 2:1.73313 3:189.964 4:218.733 5:12.7185 6:146.758 7:230.55099 8:232.408 9:230.41901 10:138.879 11:139.073 12:138.60699 13:223.53799 14:226.362 15:227.02 16:137.062 17:138.214 18:138.138 19:235.33299 20:236.10699 21:235.295 22:141.849 23:142.158 24:141.791 25:239.28799 26:238.32001 27:239.01601 28:144.661 29:144.356 30:144.87 # frame 388
-2.6591002811450888e-012 1:388.60901 2:1.36674 3:246.86099 4:208.726 5:11.0626 6:167.226 7:222.142 8:222.15199 9:220.692 10:134.96201 11:134.963 12:134.22301 13:215.73599 14:214.972 15:214.162 16:132.535 17:132.17799 18:132.16701 19:234.85001 20:236.355 21:238.54201 22:141.929 23:143.12601 24:143.364 25:234.39999 26:236.244 27:234.394 28:143.159 29:144.05299 30:143.35201 # frame 388
-1.2830226666330239e-012 1:338.315 2:15.2108 3:229.713 4:195.931 5:31.6168 6:160.543 7:203.017 8:192.855 9:196.186 10:125.368 11:121.448 12:122.832 13:208.57201 14:212.228 15:212.86 16:129.446 17:131.452 18:131.80099 19:249.30901 20:249.98 21:250.82001 22:147.745 23:148.308 24:148.55901 25:235.614 26:237.694 27:234.384 28:142.985 29:144.62199 30:143.218 # frame 388
8.8899558082422342e-014 1:282.379 2:48.270401 3:153.129 4:179.57401 5:72.855499 6:131.793 7:209.616 8:208.14101 9:212.007 10:129.255 11:128.248 12:130.379 13:212.146 14:220.683 15:220.60699 16:130.72701 17:135.23 18:135.14 19:243.64999 20:237.68201 21:237.979 22:145.784 23:143.53 24:143.20399 25:218.44099 26:222.36099 27:218.84399 28:136.52901 29:138.86099 30:137.367 # frame 388
-1.2677026098964079e-012 1:39.5158 2:81.727997 3:208.961 4:67.126297 5:94.7593 6:153.026 7:229.86301 8:229.562 9:229.933 10:139.312 11:139.159 12:139.39301 13:230.659 14:228.37399 15:229.92599 16:139.88699 17:138.802 18:139.59599 19:235.52699 20:234.73599 21:236.92799 22:142.048 23:142.16 24:142.797 25:245.64799 26:245.44 27:243.84 28:147.084 29:147.16299 30:146.424 # frame 424
2.2534235041839089e-012 1:32.168701 2:71.930298 3:184.037 4:59.992401 5:87.361 6:142.752 7:236.043 8:231.36099 9:230.657 10:141.883 11:139.864 12:139.743 13:227.666 14:226.444 15:227.935 16:138.911 17:138.02901 18:138.769 19:234.782 20:236.401 21:236.04201 22:142.065 23:142.791 24:142.41701 25:240.452 26:247.64 27:245.371 28:144.95599 29:147.562 30:146.496 # frame 424
3.1130838292260003e-013 1:18.434799 2:33.279099 3:185.96899 4:45.442799 5:60.036999 6:143.87801 7:228.19701 8:228.586 9:225.14 10:138.89101 11:138.952 12:137.355 13:228.13699 14:227.278 15:229.517 16:139.05099 17:138.202 18:139.338 19:240.332 20:237.021 21:240.87601 22:144.063 23:142.87801 24:144.504 25:242.265 26:240.77 27:244.396 28:145.658 29:145.411 30:146.61301 # frame 424
8.2277977655054231e-013 1:36.955299 2:37.1922 3:136.526 4:49.7742 5:59.7593 6:121.511 7:230.976 8:226.59399 9:229.61 10:139.94099 11:138.207 12:139.326 13:226.882 14:229.263 15:227.548 16:138.162 17:139.442 18:138.819 19:231.582 20:234.74899 21:231.606 22:140.842 23:141.849 24:140.77 25:242.912 26:243.772 27:244.41901 28:146.03101 29:146.01199 30:146.379 # frame 424
5.2922801892839225e-013 1:41.556 2:8.59552 3:190.28 4:41.249001 5:30.3127 6:143.84599 7:226.02299 8:224.006 9:224 10:137.412 11:136.661 12:136.40199 13:231.11099 14:231.10899 15:231.571 16:139.717 17:139.54601 18:140.10699 19:237.59399 20:241.306 21:242.483 22:143.474 23:145.078 24:145.698 25:239.138 26:239.715 27:239.618 28:144.76801 29:145.02 30:145.256 # frame 424
-9.9564567488872384e-013 1:282.63501 2:15.0632 3:76.5186 4:143.049 5:38.218102 6:83.739502 7:220.65401 8:223.592 9:221.075 10:135.5 11:136.66299 12:135.45799 13:231.826 14:228.30701 15:226.017 16:139.97501 17:138.567 18:137.543 19:237.593 20:239.10201 21:241.567 22:144.18401 23:144.371 24:145.315 25:235.38699 26:234.536 27:235.286 28:143.69701 29:143.438 30:143.70799 # frame 424
1.5655738508284205e-012 1:362.88699 2:1.1914099 3:282.13199 4:166.062 5:8.5771999 6:178.597 7:230.44099 8:233.66499 9:233.717 10:140.118 11:141.34 12:141.23399 13:227.701 14:227.814 15:229.082 16:138.371 17:138.565 18:139.187 19:235.76199 20:237.004 21:232.875 22:141.888 23:142.217 24:140.63699 25:242.134 26:244.811 27:245.631 28:146 29:147.207 30:147.33299 # frame 462
-7.2740745918560671e-013 1:93.761803 2:8.2908401 3:244.70599 4:75.885597 5:28.016399 6:165.939 7:228.34801 8:233.55901 9:230.533 10:138.239 11:140.56599 12:138.879 13:222.63901 14:225.371 15:223.672 16:136.41299 17:137.547 18:136.70599 19:230.39 20:230.533 21:234.257 22:140.235 23:140.403 24:141.483 25:244.106 26:240.45399 27:240.05901 28:146.632 29:145.418 30:145.01199 # frame 462
8.6974682206802155e-013 1:48.091301 2:21.369301 3:204.32201 4:67.772202 5:46.592701 6:151.584 7:233.092 8:232.423 9:233.188 10:140.183 11:139.608 12:139.888 13:230.854 14:229.57201 15:228.151 16:139.931 17:139.321 18:138.88 19:239.87601 20:237.09801 21:237.24001 22:143.866 23:142.93401 24:143.043 25:244.13901 26:242.28 27:243.787 28:146.547 29:145.66901 30:146.263 # frame 462
4.5699217303857836e-012 1:39.4529 2:29.464899 3:217.42101 4:66.788803 5:57.017799 6:156.924 7:225.377 8:226.27499 9:224.72301 10:135.71001 11:135.657 12:134.97301 13:225.54401 14:227.97099 15:231.774 16:137.438 17:138.797 18:139.97301 19:231.256 20:233.16499 21:232.45599 22:140.767 23:141.16 24:141.198 25:241.63499 26:242.99699 27:241.61099 28:145.78101 29:146.509 30:145.89999 # frame 462
-3.3300343731283138e-012 1:79.810097 2:46.331299 3:174.70399 4:89.248398 5:68.1679 6:132.215 7:214.439 8:215.577 9:215.979 10:129.23599 11:129.621 12:129.951 13:216.362 14:215.91 15:213.644 16:131.53 17:131.42999 18:130.358 19:222.07401 20:223.002 21:224.97701 22:135.30701 23:135.754 24:136.578 25:227.584 26:230.78999 27:226.105 28:137.849 29:139.00101 30:137.31 # frame 462
5.6124658398619595e-012 1:87.058502 2:48.251099 3:155.774 4:92.915199 5:69.023003 6:124.762 7:216.45599 8:217.78 9:214.715 10:130.274 11:130.784 12:129.664 13:214.47501 14:211.517 15:210.297 16:131.03101 17:129.953 18:129.51601 19:221.312 20:220.95399 21:220.65601 22:134.655 23:134.23599 24:134.485 25:229.867 26:230.091 27:228.80499 28:138.80499 29:138.63901 30:138.075 # frame 462
2.0479420515927446e-012 1:227.047 2:18.197399 3:116.288 4:159.071 5:44.4245 6:114.264 7:226.36301 8:222.83299 9:228.045 10:136.79401 11:135.297 12:137.237 13:225.04401 14:227.271 15:227.271 16:137.817 17:138.651 18:138.39999 19:232.97501 20:232.248 21:231.29201 22:141.408 23:141.534 24:141.192 25:240.959 26:238.84801 27:239.414 28:145.38699 29:144.67101 30:145.049 # frame 500
-1.5649033228628281e-012 1:192.336 2:13.2891 3:81.391098 4:147.58299 5:37.633499 6:95.740196 7:230.543 8:230.36099 9:228.004 10:138.588 11:138.297 12:137.614 13:229.51601 14:227.21899 15:224.748 16:139.63499 17:138.651 18:137.299 19:233.97501 20:232.222 21:232.082 22:142.388 23:141.411 24:141.821 25:233.621 26:235.058 27:230.92 28:142.66499 29:142.968 30:141.437 # frame 500
1.0027560198429495e-012 1:211.349 2:15.0496 3:93.747398 4:154.537 5:40.636799 6:103.124 7:219.39101 8:221.32001 9:220.036 10:132.30701 11:133.392 12:132.756 13:223.63901 14:222.196 15:224.02499 16:136.85699 17:135.924 18:136.791 19:232.332 20:230.911 21:232.437 22:141.564 23:140.993 24:141.78999 25:232.118 26:233.498 27:233.10201 28:142.341 29:142.509 30:142.493 # frame 500
-4.815987352886673e-013 1:182.73199 2:17.237801 3:111.096 4:140.52 5:42.4007 6:109.224 7:214.649 8:214.121 9:214.98 10:129.20599 11:128.836 12:129.33501 13:210.522 14:213.01601 15:211.358 16:128.99699 17:129.839 18:129.576 19:223.85899 20:218.66701 21:221.828 22:135.918 23:133.871 24:135.42 25:226.832 26:227.129 27:224.69 28:137.381 29:137.50999 30:136.62399 # frame 500
1.1481580916488865e-012 1:180.871 2:17.7488 3:97.523399 4:142.755 5:43.9515 6:104.314 7:231.021 8:226.451 9:227.724 10:138.73199 11:136.86301 12:137.349 13:228.45799 14:228.89101 15:228.12399 16:139.019 17:139.23 18:139.002 19:229.476 20:229.15601 21:232.32899 22:140.03101 23:139.948 24:141.30299 25:234.79201 26:238.293 27:234.36 28:142.99899 29:144.746 30:143.23 # frame 500
2.7684822626644579e-013 1:186.097 2:14.912 3:110.564 4:144.45799 5:39.869099 6:111.407 7:220.742 8:225.70799 9:227.368 10:134.425 11:136.543 12:136.91901 13:225.10201 14:230.05701 15:228.106 16:137.326 17:139.64799 18:138.802 19:238.476 20:236.963 21:233.086 22:143.57401 23:142.94701 24:141.444 25:249.25301 26:243.12 27:245.741 28:148.595 29:146.63699 30:147.479 # frame 500
-3.1241378507481392e-012 1:295.34 2:10.9506 3:135.18401 4:183.44501 5:34.126999 6:123.062 7:223.93201 8:224.653 9:223.144 10:135.575 11:135.886 12:135.259 13:219.841 14:221.05299 15:220.129 16:135.14101 17:135.46899 18:135.619 19:234.83 20:235.70799 21:232.35699 22:142.728 23:142.93201 24:141.745 25:239.35699 26:238.784 27:241.81599 28:144.11 29:144.41901 30:145.42 # frame 500
3.9228394857097582e-012 1:341.90201 2:7.9428301 3:144.66499 4:196.98 5:29.0513 6:127.289 7:230.29601 8:230.901 9:229.28 10:139.005 11:139.071 12:138.455 13:232.063 14:230.22099 15:232.041 16:140.22099 17:139.748 18:140.342 19:237.882 20:235.54201 21:236.161 22:143.256 23:142.52499 24:142.767 25:240.075 26:241.498 27:239.729 28:144.78799 29:145.547 30:144.689 # frame 500
2.7758809975203655e-013 1:360.806 2:32.955101 3:227.362 4:201.472 5:51.455502 6:154.278 7:221.55 8:223.989 9:215.73 10:135.567 11:136.73599 12:133.58099 13:216.237 14:218.246 15:218.18401 16:132.923 17:133.60699 18:133.922 19:230.375 20:226.97 21:230.287 22:140.22099 23:138.50301 24:141.02499 25:231.155 26:230.545 27:234.052 28:141.599 29:141.786 30:142.57401 # frame 500
1.8724374971540167e-012 1:308.41599 2:41.640999 3:289.17401 4:186.27499 5:60.564301 6:173.658 7:224.673 8:225.054 9:223.58099 10:135.83099 11:136.06799 12:135.545 13:223.394 14:224.76601 15:225.59 16:136.8 17:137.73199 18:137.745 19:229.28 20:230.67599 21:231.95 22:140.06 23:140.539 24:140.987 25:240.04401 26:242.29201 27:242.657 28:144.634 29:145.642 30:145.797 # frame 500
-5.8253634167347173e-012 1:258.224 2:8.7905598 3:251.35699 4:169.588 5:31.287901 6:169.28 7:216.298 8:214.371 9:213.711 10:133.645 11:132.67 12:132.498 13:220.55701 14:213.862 15:218.57899 16:134.519 17:131.69 18:133.21201 19:244.605 20:242.284 21:242.642 22:146.071 23:145.82401 24:146.14999 25:221.92999 26:224.899 27:223.85001 28:138.991 29:139.994 30:139.092 # frame 562
-3.1517777666824898e-012 1:77.447899 2:11.3277 3:209.64101 4:92.724602 5:34.722401 6:154.63699 7:220.00101 8:220.27901 9:219.659 10:132.987 11:133.008 12:132.513 13:217.397 14:218.539 15:216.442 16:133.444 17:134.146 18:133.595 19:239.155 20:233.55499 21:232.86301 22:144.20799 23:142.36 24:141.798 25:240.472 26:235.88 27:238.429 28:144.823 29:143.61501 30:144.153 # frame 562
-1.5098294069127119e-012 1:68.3172 2:11.9704 3:214.153 4:87.672798 5:35.461601 6:156.27699 7:221.336 8:217.81599 9:218.85699 10:133.105 11:131.261 12:131.995 13:225.151 14:221.933 15:221.521 16:136.905 17:135.48399 18:135.388 19:241.186 20:236.04201 21:242.41 22:144.757 23:142.493 24:145.295 25:237.689 26:240.62399 27:236.12399 28:143.922 29:144.936 30:142.903 # frame 562
-1.3306946987401982e-012 1:82.902199 2:10.6089 3:229.67599 4:93.446404 5:33.5494 6:161.599 7:207.34399 8:210.41299 9:201.66499 10:126.402 11:127.361 12:123.953 13:225.136 14:224.289 15:219.724 16:136.56599 17:136.127 18:134.42101 19:241.11 20:239.883 21:236.203 22:144.97 23:144.368 24:143.28999 25:231.944 26:231.46201 27:232.847 28:141.63499 29:142.045 30:142.2 # frame 562
-8.5395824032942321e-013 1:275.164 2:14.2042 3:290.319 4:173.004 5:39.1609 6:177.575 7:214.785 8:214.48599 9:215.67999 10:129.97301 11:129.69099 12:130.054 13:206.599 14:206.071 15:207.217 16:126.745 17:126.708 18:126.903 19:220.539 20:220.519 21:220.29201 22:134.231 23:134.545 24:134.763 25:223.298 26:223.47301 27:224.936 28:136.33099 29:136.41701 30:136.923 # frame 562
-4.0324469252401434e-012 1:295.272 2:8.5980501 3:266.87601 4:183.767 5:31.2362 6:174.423 7:215.53799 8:216.526 9:215.515 10:132.92799 11:133.33501 12:132.782 13:215.502 14:215.741 15:215.03999 16:132.379 17:132.213 18:131.97301 19:233.368 20:233.52901 21:233.048 22:141.578 23:142.408 24:142.263 25:227.08299 26:229.399 27:228.136 28:140.97099 29:141.871 30:140.858 # frame 583
2.3340037397436116e-012 1:297.11099 2:9.07901 3:312.57001 4:184.356 5:32.122501 6:188.698 7:215.349 8:212.569 9:214.59 10:133.10699 11:131.866 12:132.65199 13:216.34599 14:217.534 15:218.465 16:132.604 17:132.907 18:133.37399 19:236.832 20:237.40401 21:237.258 22:142.783 23:143.134 24:142.912 25:229.42999 26:231.981 27:230.256 28:141.17999 29:142.539 30:142.091 # frame 583
7.3709201448896434e-012 1:299.70499 2:7.3940101 3:257.46301 4:185.067 5:28.805799 6:171.048 7:215.19901 8:215.94099 9:215.19099 10:132.839 11:132.965 12:132.883 13:213.589 14:215.179 15:213.76199 16:131.936 17:132.414 18:131.776 19:237.76401 20:239.45599 21:239.325 22:144.2 23:145.05299 24:144.98399 25:231.33 26:233.623 27:233.92799 28:142.384 29:142.55 30:142.517 # frame 583
-4.4598622436931247e-012 1:301.448 2:6.13587 3:236.86099 4:185.457 5:26.112499 6:164.27901 7:214.17101 8:217.24899 9:216.77 10:131.84599 11:133.13499 12:132.89999 13:213.646 14:213.836 15:215.528 16:132.285 17:132.186 18:132.713 19:233.519 20:235.938 21:235.175 22:142.381 23:143.30099 24:142.938 25:238.18401 26:236.83701 27:234.679 28:144.498 29:143.67 30:142.55901 # frame 583
-1.5837245123633512e-012 1:148.24001 2:12.0979 3:181.715 4:123.852 5:32.064098 6:143.87 7:228.02901 8:228.416 9:230.634 10:138.19501 11:138.69099 12:139.336 13:228.894 14:225.867 15:232.02699 16:139.23 17:137.80499 18:140.239 19:234.726 20:237.259 21:234.51199 22:141.987 23:143.077 24:142.168 25:241.13 26:237.85699 27:239.638 28:145.39799 29:144.388 30:145.177 # frame 583
1.211569127919165e-012 1:77.675301 2:26.484501 3:196.179 4:93.610802 5:53.954899 6:149.22501 7:218.019 8:222.326 9:219.908 10:132.64301 11:134.422 12:133.19099 13:223.961 14:220.09599 15:223.00999 16:136.722 17:135.17 18:136.271 19:237.52299 20:233.11301 21:236.211 22:142.811 23:141.18401 24:142.108 25:242.077 26:240.50999 27:245.32201 28:145.936 29:145.5 30:146.907 # frame 583
7.9157266884130062e-013 1:67.719902 2:9.4167204 3:267.67099 4:86.785004 5:31.333 6:174.077 7:219.53999 8:218.957 9:219.287 10:132.46001 11:131.97099 12:132.224 13:220.07201 14:224.955 15:228.702 16:134.75301 17:136.614 18:137.84399 19:242.07201 20:253.64101 21:251.32899 22:144.201 23:148.006 24:147.575 25:227.106 26:217.039 27:218.584 28:140.295 29:136.716 30:137.116 # frame 611
-2.833467745252537e-012 1:311.078 2:3.61041 3:248.444 4:179.407 5:18.794901 6:164.153 7:186.55299 8:178.14101 9:174.994 10:118.74 11:114.724 12:113.793 13:183.104 14:180.159 15:181.743 16:114.963 17:113.78 18:114.37 19:241.838 20:248.35201 21:245.23399 22:141.967 23:145.17799 24:143.29201 25:202.297 26:214.02699 27:210.039 28:129.629 29:134.093 30:131.995 # frame 611
3.5691667303025528e-012 1:344.21201 2:3.6526699 3:302.935 4:198.282 5:20.059299 6:185.965 7:192.67599 8:198.562 9:198.69501 10:121.339 11:123.488 12:123.8 13:200.01401 14:199.69 15:201.19099 16:124.445 17:124.368 18:125.066 19:263.43301 20:258.10001 21:259.85199 22:151.57201 23:149.81 24:149.979 25:216.735 26:221.649 27:215.66701 28:136.106 29:138.466 30:136.526 # frame 611
1.2057796848230391e-012 1:353.879 2:3.08266 3:292.577 4:196.942 5:17.885599 6:182.701 7:191.19 8:191.494 9:193.119 10:120.98 11:120.925 12:121.774 13:205.325 14:206.985 15:206.241 16:126.628 17:127.712 18:127.268 19:263.71301 20:266.16901 21:264.79401 22:152.49899 23:153.688 24:152.7 25:227.157 26:227.20599 27:225.618 28:140.625 29:141.02299 30:140.873 # frame 611
-1.9394941023387188e-013 1:354.92999 2:3.4070499 3:327.578 4:200.004 5:18.501101 6:192.16701 7:190.647 8:189.923 9:189.692 10:122.053 11:121.278 12:121.723 13:206.795 14:208.709 15:203.843 16:128.875 17:130.30901 18:127.83 19:271.38501 20:271.36899 21:269.79401 22:155.912 23:156.10699 24:155.202 25:246.81799 26:249.74899 27:247.60001 28:148.214 29:148.91701 30:148.47501 # frame 611
3.3441749116563883e-013 1:337.694 2:5.8550901 3:246.87601 4:196.203 5:25.524099 6:167.02499 7:203.911 8:195.84399 9:196.856 10:126.502 11:123.053 12:123.519 13:210.08 14:206.229 15:208.832 16:129.673 17:128.20399 18:129.233 19:253.16901 20:250.319 21:255.082 22:147.63499 23:147.078 24:148.711 25:227.491 26:233.60699 27:231.24001 28:140.855 29:143.05099 30:141.94099 # frame 611
-1.0127216018078459e-012 1:353.651 2:5.6645999 3:276.01099 4:201.10001 5:25.287201 6:176.911 7:201.71001 8:201.487 9:202.257 10:126.103 11:125.745 12:126.441 13:211.248 14:211.101 15:210.94299 16:130.505 17:130.714 18:130.502 19:254.819 20:256.55701 21:256.367 22:147.88901 23:148.758 24:148.34599 25:213.056 26:216.543 27:213.423 28:135.39 29:136.64101 30:135.67799 # frame 611
-2.1115162930783172e-012 1:328.04501 2:2.57359 3:342.522 4:193.62601 5:17.015499 6:197.66499 7:219.313 8:219.431 9:219.83 10:134.786 11:134.845 12:134.95599 13:220.16701 14:220.32001 15:220.243 16:134.653 17:134.76199 18:134.61301 19:233.577 20:233.03101 21:235.243 22:141.31 23:140.967 24:141.73801 25:234.05901 26:232.81799 27:234.58 28:142.786 29:142.78 30:143.52901 # frame 659
1.6677440681220845e-012 1:240.901 2:7.2964301 3:286.36301 4:157.377 5:24.775499 6:179.58501 7:227.207 8:225.173 9:227.244 10:138.032 11:137.121 12:137.68201 13:233.72301 14:226.446 15:223.93401 16:140.65601 17:137.28799 18:136.37399 19:235.22 20:236.511 21:230.52699 22:142.076 23:142.267 24:140.116 25:231.592 26:232.963 27:236.16 28:141.71899 29:142.612 30:143.942 # frame 659
-3.3683920475290886e-012 1:302.30399 2:6.2400799 3:298.15399 4:184.09 5:23.643499 6:183.856 7:227.76199 8:232.72099 9:228.763 10:138.244 11:139.79601 12:138.22 13:224.19501 14:224.084 15:223.998 16:137.002 17:136.981 18:137.088 19:228.242 20:227.84801 21:229.041 22:139.009 23:139.03101 24:139.62601 25:237.909 26:242.689 27:240.804 28:144.203 29:146.367 30:145.38901 # frame 659
-2.1227403200543595e-012 1:243.198 2:13.2299 3:273.81699 4:165.48399 5:37.4356 6:175.853 7:225.737 8:227.08099 9:233.155 10:137.59599 11:137.89 12:140.40601 13:222.16701 14:227.265 15:228.817 16:136.183 17:138.364 18:139.011 19:228.468 20:231.507 21:232.22099 22:138.908 23:140.38 24:140.66499 25:239.403 26:239.75301 27:242.40601 28:145.06 29:145.174 30:146.468 # frame 659
8.7668533057610628e-012 1:179.23199 2:10.3803 3:216.09 4:133.174 5:29.7465 6:156.132 7:219.533 8:221.295 9:220.334 10:132.245 11:133.129 12:132.51401 13:224.295 14:225.38901 15:225.043 16:136.97301 17:137.37601 18:136.77499 19:241.18201 20:235.763 21:234.244 22:144.638 23:142.172 24:141.87601 25:237.717 26:238.15401 27:237.41901 28:144.03101 29:144.42599 30:144.05 # frame 659
-7.5903600132832204e-014 1:531.61102 2:4.77352 3:33.841599 4:240.18401 5:21.908001 6:60.520302 7:193.10899 8:192.689 9:193.224 10:120.973 11:120.577 12:120.92 13:196.606 14:197.177 15:194.42599 16:122.114 17:122.638 18:121.213 19:233.10201 20:234.787 21:232.166 22:139.33299 23:139.901 24:139.049 25:196.091 26:199.371 27:194.46899 28:126.532 29:127.996 30:126.041 # frame 659
-2.4143635834187358e-013 1:633.24103 2:9.4264803 3:58.2239 4:266.92801 5:32.348301 6:81.000801 7:223.433 8:221.814 9:221.325 10:135.468 11:134.936 12:134.80499 13:215.349 14:217.26199 15:216.23801 16:132.77 17:133.593 18:133.136 19:235.327 20:235.19299 21:232.71201 22:143.293 23:143.56 24:142.50301 25:220.40601 26:218.108 27:215.952 28:138.367 29:137.571 30:136.62399 # frame 659
1.4509181480077803e-012 1:56.863098 2:33.897099 3:224.45 4:80.509804 5:61.631599 6:159.95 7:221.463 8:226.50301 9:224.65401 10:134.82001 11:137.078 12:136.149 13:224.015 14:221.91299 15:221.52299 16:136.575 17:136.05901 18:135.636 19:236.90601 20:241.287 21:237.717 22:142.93201 23:144.69 24:143.44 25:237.86301 26:235.175 27:237.11099 28:144.14101 29:143.373 30:143.647 # frame 696
2.3422177287698122e-012 1:49.833401 2:34.369999 3:223.83501 4:75.3694 5:61.542999 6:159.742 7:232.05499 8:231.211 9:228.944 10:139.245 11:138.672 12:137.8 13:222.509 14:223.812 15:221.478 16:136.57401 17:136.937 18:135.702 19:237.645 20:235.65401 21:233.44901 22:143.371 23:142.582 24:141.785 25:237.45799 26:237.888 27:238.22 28:144.08501 29:144.61 30:144.41701 # frame 696
-5.7039238802693305e-013 1:47.5383 2:30.1535 3:207.508 4:73.196198 5:56.110901 6:153.605 7:226.145 8:227.207 9:227.709 10:136.754 11:137.097 12:137.14 13:224.983 14:226.623 15:225.564 16:137.659 17:138.007 18:137.44299 19:235.213 20:239.198 21:234.72701 22:142.26401 23:144.039 24:142.11099 25:240.511 26:236.714 27:241.095 28:145.23399 29:143.78101 30:145.37 # frame 696
-8.1108418392830234e-012 1:44.9398 2:38.627899 3:204.112 4:71.491203 5:64.454903 6:152.424 7:220.12801 8:223.42999 9:220.916 10:132.916 11:133.88901 12:133.05 13:225.215 14:225.798 15:226.726 16:137.39799 17:137.33299 18:137.735 19:234.46899 20:235.535 21:234.52699 22:141.894 23:142.136 24:141.99699 25:237.882 26:239.543 27:241.033 28:144.388 29:145.04401 30:145.17 # frame 696
7.8573135897592817e-013 1:231.321 2:2.0622301 3:281.60101 4:105.315 5:13.7294 6:174.72099 7:196.899 8:193.73 9:194.192 10:122.392 11:121.224 12:121.655 13:205.966 14:206.13499 15:207.94701 16:126.279 17:126.371 18:127.002 19:242.19501 20:243.022 21:241.789 22:142.733 23:142.242 24:141.808 25:211.55299 26:214.35001 27:211.181 28:131.907 29:133.48 30:131.763 # frame 696
1.2314100957554868e-012 1:300.41901 2:3.7694299 3:263.397 4:167.30099 5:18.625299 6:172.02299 7:205.526 8:208.30701 9:202.96201 10:128.88499 11:129.924 12:127.714 13:213.01801 14:211.117 15:210.942 16:131.58501 17:130.40401 18:130.285 19:248.01199 20:246.908 21:243.73199 22:146.056 23:146.808 24:145.02499 25:218.455 26:223.5 27:221.12399 28:137.81799 29:139.448 30:138.50301 # frame 696
8.590614645395889e-012 1:380.05301 2:1.83216 3:339.32001 4:207.088 5:13.7508 6:196.047 7:213.77901 8:213.175 9:215.601 10:132.744 11:132.517 12:133.304 13:210.642 14:213.645 15:211.772 16:131.26199 17:132.218 18:131.604 19:240.073 20:242.502 21:242.02 22:143.662 23:144.53999 24:144.25301 25:231.371 26:229.502 27:231.461 28:141.39799 29:140.838 30:141.539 # frame 729
1.1918585725706816e-013 1:348.59601 2:1.5545 3:359.811 4:199.57899 5:13.1178 6:202.089 7:212.782 8:213.798 9:214.217 10:132.784 11:132.672 12:132.87601 13:216.29601 14:217.132 15:217.91 16:133.442 17:133.95599 18:134.14999 19:245.505 20:242.30901 21:246.181 22:145.112 23:144.15401 24:145.881 25:226.96899 26:225.819 27:226.091 28:139.73199 29:139.133 30:139.57899 # frame 729
-2.9367129076770863e-012 1:353.76599 2:1.5418 3:341.74799 4:200.91901 5:13.0399 6:196.813 7:217.976 8:217.05099 9:216.845 10:134.02699 11:133.75999 12:133.688 13:214.89 14:216.231 15:214.76199 16:132.351 17:133.05499 18:132.452 19:245.049 20:245.03999 21:244.89 22:145.61099 23:145.505 24:145.47099 25:228.026 26:226.145 27:224.009 28:140.12 29:139.834 30:138.911 # frame 729
-7.9004752234690328e-012 1:378.78 2:1.2105401 3:318.86499 4:203.019 5:11.1746 6:190.192 7:213.147 8:213.024 9:213.856 10:132.01801 11:131.94901 12:132.45599 13:210.661 14:214.10201 15:212.58701 16:130.692 17:132.17101 18:131.459 19:245.73399 20:247.23599 21:246.737 22:145.84399 23:146.495 24:146.019 25:235.34599 26:232.77299 27:233.043 28:143.765 29:142.672 30:142.84399 # frame 729
-3.6882642790222266e-012 1:67.502502 2:7.6805701 3:224.467 4:67.547798 5:25.937401 6:159.80499 7:222.85001 8:221.828 9:218.84 10:135.59599 11:135.179 12:134.093 13:220.80099 14:217.689 15:217.8 16:135.429 17:133.864 18:134.23199 19:234.83 20:235.97701 21:239.024 22:141.938 23:142.627 24:143.832 25:239.006 26:243.769 27:242.321 28:144.873 29:146.77499 30:146.22 # frame 729
7.1946443027131829e-012 1:58.446999 2:11.6672 3:191.138 4:74.156197 5:32.618401 6:147.319 7:220.67999 8:224.34599 9:224.213 10:134.911 11:136.047 12:136.228 13:225.173 14:224.772 15:223.68401 16:137.72301 17:137.515 18:137.089 19:230.354 20:231.61099 21:231.633 22:140.39 23:140.545 24:140.84399 25:239.953 26:241.37801 27:241.05499 28:145.20799 29:145.502 30:145.698 # frame 729
2.2070162353543669e-012 1:75.707703 2:20.2826 3:179.866 4:89.503998 5:43.567101 6:142.862 7:216.735 8:214.783 9:212.506 10:131.40601 11:130.66499 12:129.786 13:224.159 14:224.666 15:222.08501 16:137.507 17:137.584 18:136.09399 19:239.44701 20:235.37601 21:236.74699 22:143.871 23:142.149 24:142.83701 25:242.571 26:237.282 27:239.218 28:145.83099 29:143.78 30:144.73599 # frame 729
1.7930112736356459e-012 1:312.14999 2:2.8396599 3:336.69299 4:180.196 5:13.824 6:194.80299 7:198.255 8:203.77699 9:197.407 10:126.243 11:127.893 12:125.728 13:204.065 14:205.49001 15:202.64799 16:128.65601 17:128.714 18:127.622 19:244.453 20:245.181 21:245.703 22:145.114 23:145.19701 24:145.382 25:241.80499 26:243.276 27:242.52299 28:146.463 29:146.71899 30:146.56799 # frame 746
1.565656468098838e-012 1:377.23199 2:1.1547101 3:365.76901 4:206.67599 5:11.3635 6:204.147 7:223.23399 8:223.362 9:224.78101 10:136.83099 11:136.927 12:137.42999 13:226.10899 14:223.813 15:225.53101 16:137.77699 17:136.748 18:137.30901 19:235.739 20:236.278 21:233.03101 22:141.48599 23:141.674 24:140.39999 25:242.72099 26:242.384 27:243.48399 28:145.983 29:145.828 30:146.418 # frame 746
6.7022656968936454e-012 1:274.353 2:11.4032 3:278.88599 4:156.94901 5:26.3943 6:176.028 7:230.15199 8:230.034 9:232.94099 10:139.535 11:139.368 12:140.73399 13:231.744 14:231.649 15:232.062 16:140.05299 17:139.782 18:140.03101 19:240.515 20:238.457 21:238.586 22:143.082 23:142.532 24:142.644 25:243.97701 26:243.758 27:241.72 28:146.783 29:146.744 30:145.911 # frame 746
-3.2068692713910474e-012 1:205.175 2:21.881599 3:193.899 4:135.058 5:40.446701 6:147.108 7:222.061 8:230.23199 9:227.466 10:135.62601 11:139.08501 12:137.91901 13:227.192 14:225.46001 15:226.216 16:138.679 17:137.16299 18:137.99001 19:236.399 20:234.405 21:234.901 22:142.42101 23:141.395 24:141.79601 25:242.291 26:237.269 27:239.313 28:146.457 29:144.368 30:145.29201 # frame 746
-1.6680832636759135e-012 1:428.36801 2:0.191268 3:283.92999 4:215.16701 5:4.3308001 6:179.87199 7:210.912 8:211.715 9:212.57401 10:129.297 11:129.69099 12:129.91901 13:214.51801 14:216.99699 15:214.772 16:132.30901 17:133.254 18:132.118 19:245.395 20:247.838 21:245.345 22:145.645 23:146.28799 24:145.27901 25:232.95799 26:232.96001 27:232.979 28:142.265 29:142.535 30:142.43201 # frame 805
1.9080377512918513e-012 1:444.07001 2:0.27635801 3:306.082 4:220.37399 5:5.2964001 6:186.74899 7:216.776 8:213.653 9:213.791 10:131.992 11:130.67999 12:130.811 13:216.694 14:218.55701 15:218.05299 16:133.46201 17:134.22 18:134.004 19:239.694 20:238.02499 21:239.711 22:142.685 23:142.01401 24:142.758 25:235.77 26:235.30499 27:233.93201 28:143.433 29:143.19501 30:142.679 # frame 805
-1.9108030207140441e-012 1:265.87299 2:8.1589298 3:198.51801 4:149.35001 5:21.8613 6:146.052 7:214.60899 8:212.995 9:213.765 10:130.916 11:130.084 12:130.48399 13:232.57001 14:229.075 15:232.76601 16:140.69501 17:139.44299 18:140.62199 19:241.98599 20:236.998 21:241.048 22:144.707 23:143.175 24:144.44701 25:236.21899 26:238.08299 27:237.56599 28:143.685 29:144.464 30:143.972 # frame 805
2.7247864400526316e-013 1:573.638 2:1.22838 3:244.12399 4:254.627 5:11.4809 6:165.80499 7:203.726 8:203.713 9:201.905 10:127.542 11:127.208 12:126.612 13:214.418 14:213.79601 15:216.019 16:132.30499 17:131.88699 18:132.74699 19:245.677 20:245.78101 21:244.177 22:146.765 23:146.763 24:146.02299 25:223.966 26:227.388 27:226.912 28:138.879 29:139.92999 30:140.106 # frame 1028
2.3410926261901925e-012 1:530.37097 2:0.93497699 3:265.80801 4:246.007 5:8.9721003 6:173.394 7:219.50101 8:218.56 9:219.315 10:132.37199 11:132.07201 12:132.26601 13:215.802 14:216.69 15:216.38901 16:132.894 17:133.06799 18:133.06799 19:243.745 20:244.19 21:243.832 22:144.927 23:145.422 24:144.96899 25:234.201 26:234.44701 27:234.86 28:142.645 29:142.817 30:142.871 # frame 1028
-2.0705672502445896e-012 1:509.89099 2:0.362497 3:288.59799 4:241.386 5:6.2056999 6:181.06 7:223.728 8:223.354 9:221.14999 10:135.136 11:134.972 12:134.019 13:224.36 14:224.481 15:224.714 16:137.063 17:137.09399 18:137.017 19:240.422 20:239.10899 21:240.46001 22:143.571 23:143.222 24:143.65199 25:239.925 26:241.229 27:241.17799 28:145.147 29:145.71201 30:145.61099 # frame 1028
4.3952579257452728e-012 1:464.08301 2:0.63480902 3:298.00299 4:225.332 5:7.5057001 6:184.058 7:226.005 8:227.164 9:224.774 10:135.813 11:136.174 12:135.162 13:225.134 14:225.78 15:226.931 16:137.621 17:138.019 18:138.19099 19:240.32001 20:242.694 21:241.123 22:142.879 23:143.951 24:143.194 25:239.97701 26:240.658 27:240.239 28:145.17101 29:145.263 30:145.05099 # frame 1028
-8.8208845101018851e-012 1:448.74799 2:0.86051202 3:274.33801 4:225.67599 5:9.5045996 6:175.48399 7:205.061 8:206.59599 9:204.992 10:128.537 11:129.136 12:128.44501 13:209.711 14:209.899 15:208.595 16:131.062 17:130.98 18:130.185 19:247.437 20:246.44 21:246.631 22:146.554 23:145.912 24:146.09 25:226.396 26:227.873 27:226.94299 28:139.73599 29:140.369 30:139.80499 # frame 1028
1.6874000406662901e-012 1:400.66299 2:1.05208 3:275.33301 4:213.897 5:10.4951 6:177.401 7:202.515 8:198.78101 9:199.435 10:128.44 11:126.917 12:127.041 13:204.582 14:205.591 15:203.38 16:127.406 17:127.775 18:126.912 19:250.259 20:255.47099 21:253.03101 22:145.564 23:148.037 24:146.44299 25:217.22501 26:220.66299 27:215.341 28:137.936 29:139.022 30:136.996 # frame 1210
4.7389814263266794e-012 1:494.63101 2:0.330365 3:264.43399 4:227.30299 5:5.6662998 6:173.814 7:204.20399 8:203.185 9:201.187 10:129.821 11:129.36301 12:128.47701 13:204.608 14:203.39799 15:202.556 16:127.635 17:127.001 18:126.619 19:259.25299 20:254.408 21:255.534 22:149.604 23:147.77499 24:147.72301 25:217.60899 26:215.884 27:214.35201 28:137.853 29:137.07899 30:136.549 # frame 1210
6.8267645547136133e-012 1:243.214 2:1.61699 3:241.14999 4:118.713 5:11.4377 6:165.786 7:205.15199 8:206.918 9:205.461 10:128.32401 11:128.987 12:128.29401 13:220.088 14:215.662 15:218.911 16:134.965 17:133.089 18:133.93201 19:250.539 20:248.056 21:250.994 22:147.601 23:146.37 24:147.707 25:230.51199 26:232.547 27:232.47099 28:141.918 29:142.72099 30:142.713 # frame 1210
-5.193730816397965e-012 1:56.693802 2:21.0352 3:168.68401 4:61.999199 5:44.937199 6:138.338 7:219.30499 8:218.39999 9:216.01601 10:132.69701 11:132.271 12:131.467 13:224.90601 14:221.549 15:221.515 16:137.618 17:136.097 18:135.657 19:235.311 20:235.856 21:237.06799 22:142.353 23:142.56 24:142.77299 25:235.448 26:240.008 27:240.88499 28:143.248 29:145.092 30:145.38 # frame 1210
1.4851315002845011e-012 1:37.487701 2:59.852001 3:145.722 4:65.071999 5:79.351997 6:128.55499 7:226.37601 8:224.84 9:224.347 10:135.465 11:134.343 12:134.45599 13:229.96001 14:227.047 15:228.397 16:139.858 17:138.34399 18:138.812 19:236.606 20:237.711 21:235.90199 22:142.739 23:142.976 24:142.35899 25:237.201 26:238.108 27:236.468 28:144.034 29:144.054 30:143.588 # frame 1210
-1.952605578262885e-012 1:45.623901 2:92.600899 3:143.793 4:72.076401 5:100.244 6:127.587 7:229.121 8:221.838 9:220.614 10:136.69501 11:133.49699 12:133.006 13:228.672 14:225.961 15:230.173 16:139.077 17:137.93201 18:139.565 19:237.453 20:236.911 21:236.465 22:143.32401 23:143.073 24:142.72301 25:240.235 26:235.38499 27:238.021 28:145.444 29:143.073 30:144.453 # frame 1210
4.5549214688331316e-012 1:269.927 2:10.0993 3:192.85001 4:175.674 5:33.676601 6:148.26401 7:226 8:227.12399 9:224.476 10:136.895 11:137.375 12:136.366 13:221.992 14:222.48 15:221.60899 16:135.855 17:135.82401 18:135.466 19:231.62801 20:230.61 21:229.70399 22:140.97501 23:140.56799 24:140.261 25:236.291 26:235.49899 27:236.41499 28:143.455 29:143.03999 30:143.235 # frame 1286
-4.0992747896766007e-012 1:363.01501 2:2.53176 3:229.27299 4:189.07201 5:13.3697 6:161.543 7:210.23599 8:208.83099 9:209.778 10:132.549 11:132.189 12:132.158 13:203.918 14:204.748 15:205.14799 16:126.965 17:126.957 18:127.094 19:255.508 20:253.57401 21:252.784 22:148.57201 23:147.855 24:147.424 25:207.942 26:209.633 27:209.802 28:134.194 29:134.87399 30:134.89799 # frame 1286
3.4755112249414001e-012 1:298.67401 2:1.8569601 3:225.657 4:154.94701 5:11.2126 6:159.937 7:210.032 8:209.282 9:209.099 10:131.29201 11:130.77901 12:130.993 13:206.29201 14:205.019 15:204.133 16:128.66901 17:127.89 18:127.356 19:234.86 20:235.746 21:235.12399 22:141.82201 23:142.283 24:141.681 25:221.27699 26:223.149 27:223.002 28:139.125 29:139.541 30:139.53 # frame 1286
-1.4155985655184676e-011 1:360.854 2:0.211338 3:251.82401 4:173.062 5:4.2886 6:169.591 7:204.045 8:205.05 9:204.67 10:127.988 11:128.34399 12:128.362 13:214.42799 14:210.925 15:210.645 16:132.054 17:130.216 18:130.27 19:252.56599 20:251.963 21:251.53101 22:147.92 23:147.938 24:147.71001 25:223.41 26:226.722 27:225.817 28:139.701 29:140.75101 30:140.49699 # frame 1286
-5.1299284492460863e-012 1:405.38699 2:0.305044 3:251.629 4:211.21899 5:5.3874002 6:169.573 7:203.72701 8:203.271 9:203.867 10:128.48399 11:127.949 12:128.369 13:204.021 14:201.998 15:202.81 16:127.429 17:126.564 18:127.048 19:264.43399 20:259.79999 21:263.28299 22:151.448 23:150.599 24:151.431 25:220.42999 26:221.68201 27:220.14101 28:138.955 29:139.095 30:138.451 # frame 1286
1.0332520618534879e-012 1:306.59698 2:0.856296 3:286.39301 4:186.37801 5:8.7497997 6:180.778 7:193.998 8:192.386 9:190.00301 10:124.165 11:124.337 12:123.082 13:197.534 14:193.94501 15:190.534 16:123.879 17:121.785 18:120.714 19:262.25601 20:264.53601 21:267.13699 22:148.662 23:149.845 24:150.63499 25:210.547 26:204.924 27:205.424 28:135.466 29:132.88699 30:134.084 # frame 1286
1.8839393155790207e-013 1:316.72501 2:2.37535 3:305.94101 4:189.769 5:15.3681 6:187 7:180.896 8:178.166 9:184.608 10:118.991 11:118.337 12:120.907 13:185.133 14:180.064 15:184.071 16:118.869 17:115.536 18:117.671 19:278.87601 20:273.89099 21:283.495 22:154.37 23:153.77299 24:156.32401 25:203.34 26:202.091 27:200.55499 28:132.88499 29:131.952 30:132.713 # frame 1286
-1.8163238972293716e-012 1:382.17899 2:2.4714799 3:300.823 4:208.688 5:16.468201 6:185.189 7:205.259 8:201.75101 9:202.82201 10:125.041 11:123.448 12:123.755 13:213.077 14:215.968 15:215.498 16:131.991 17:133.35899 18:133.38901 19:242.99699 20:242.694 21:240.789 22:144.47501 23:144.313 24:143.97301 25:243.774 26:244.26401 27:244.40601 28:146.675 29:146.974 30:146.92101 # frame 1286
5.8618961174445657e-013 1:351.50699 2:2.1456599 3:288.48901 4:200.274 5:15.4423 6:181.463 7:194.74699 8:192.049 9:194.987 10:122.079 11:120.91 12:122.221 13:215.22301 14:211.326 15:214.72501 16:132.05099 17:130.437 18:131.733 19:252.494 20:253.427 21:254.323 22:147.564 23:147.948 24:147.96001 25:226.13901 26:228.951 27:226.42 28:140.004 29:141.158 30:140.343 # frame 1286
1.5346865094985184e-012 1:64.474602 2:4.3579602 3:199.80499 4:65.373596 5:15.603 6:146.61501 7:190.47301 8:187.16299 9:183.17599 10:119.889 11:118.313 12:116.651 13:204.257 14:198.297 15:200.164 16:125.783 17:123.121 18:123.675 19:239.05 20:243.62199 21:239.336 22:142.74899 23:144.078 24:142.467 25:224.336 26:228.133 27:228.25999 28:137.02 29:137.981 30:137.983 # frame 1286
-6.7348464176780049e-012 1:323.375 2:9.85497 3:189.49899 4:191.65601 5:28.7311 6:144.405 7:229.222 8:229.60699 9:229.446 10:138.147 11:138.3 12:138.12601 13:225.121 14:224.612 15:225.442 16:137.826 17:137.43201 18:137.993 19:234.68401 20:233.265 21:232.092 22:141.40601 23:140.87199 24:140.31 25:240.186 26:239.26801 27:239.90199 28:144.72301 29:144.52699 30:144.577 # frame 1344
2.9411255232598275e-012 1:305.52301 2:1.50358 3:302.76901 4:145.90199 5:12.3333 6:184.53799 7:202.311 8:202.41 9:200.91701 10:128.02299 11:128.164 12:127.551 13:207.83099 14:207.683 15:208.151 16:128.58501 17:128.144 18:128.62 19:266.89801 20:267.16599 21:265.521 22:152.23 23:152.285 24:152.142 25:206.05499 26:205.502 27:208.476 28:133.366 29:132.554 30:133.563 # frame 1344
3.0259728337820383e-012 1:13.3203 2:1.20947 3:313.87701 4:17.999399 5:11.5496 6:189.39799 7:200.27 8:198.53999 9:200.89301 10:126.901 11:126.293 12:127.223 13:199.04401 14:198.897 15:199.99899 16:125.065 17:125.122 18:125.75 19:262.62601 20:262.939 21:264.345 22:150.314 23:150.36 24:150.81 25:215.87399 26:217.31 27:216.64999 28:137.155 29:137.88901 30:137.02299 # frame 1344
-1.3932343828664551e-012 1:62.117599 2:1.30248 3:288.70599 4:32.118 5:11.8766 6:181.67999 7:204.75101 8:204.98 9:203.545 10:128.149 11:128.08501 12:127.72 13:206.172 14:204.72 15:203.97501 16:128.55299 17:127.721 18:127.767 19:267.52301 20:263.66101 21:264.91299 22:151.668 23:150.203 24:150.299 25:221.565 26:220.103 27:221.269 28:139.07201 29:138.39 30:138.595 # frame 1344
-2.8314426339808689e-012 1:30.031601 2:1.35097 3:275.242 4:20.1122 5:12.1148 6:177.382 7:200.224 8:200.65401 9:198.384 10:126.612 11:126.787 12:125.886 13:206.213 14:204.35699 15:204.22501 16:128.733 17:127.649 18:127.505 19:268.70099 20:269.27701 21:271.93201 22:152.621 23:152.371 24:153.252 25:217.953 26:219.94299 27:221.015 28:137.897 29:138.679 30:138.955 # frame 1344
9.9324466226026664e-013 1:95.518303 2:0.43945101 3:269.64899 4:45.765999 5:6.8576999 6:175.595 7:201.11099 8:200.23 9:197.502 10:126.766 11:126.313 12:125.129 13:199.077 14:197.634 15:196.142 16:125.144 17:124.394 18:123.663 19:270.298 20:270.526 21:271.134 22:152.123 23:152.564 24:152.44701 25:219.403 26:222.69701 27:220.132 28:138.11 29:139.619 30:138.65199 # frame 1344
4.8112511794046434e-014 1:537.90601 2:0.22269 3:277.867 4:244.006 5:4.9024 6:178.222 7:189.532 8:190.53799 9:188.403 10:121.527 11:122.011 12:121.012 13:195.121 14:194.711 15:195.864 16:123.312 17:122.851 18:123.429 19:279.74399 20:281.37201 21:280.32401 22:155.748 23:156.084 24:155.69501 25:224.239 26:225.407 27:223.649 28:140.299 29:141.19901 30:140.313 # frame 1344
5.5002890121653485e-012 1:439.90601 2:0.34216601 3:270.49301 4:221.04601 5:5.8393998 6:175.69 7:202.61099 8:198.071 9:198.692 10:124.193 11:122.6 12:122.874 13:215.015 14:212.739 15:213.38699 16:132.912 17:132.05901 18:131.845 19:248.838 20:249.532 21:249.94 22:145.668 23:146.04401 24:145.8 25:237.953 26:239.099 27:239.571 28:144.623 29:144.776 30:145.15401 # frame 1344
1.9474169896060492e-012 1:305.207 2:12.5451 3:172.776 4:180.33 5:33.883701 6:130.373 7:199.995 8:201.23599 9:197.38 10:122.768 11:122.908 12:121.563 13:218.48599 14:221.24899 15:215.802 16:131.96201 17:133.444 18:130.50101 19:233.646 20:229.55499 21:232.989 22:139.782 23:137.95 24:139.022 25:226.116 26:226.923 27:229.185 28:136.311 29:136.44099 30:137.472 # frame 1344
6.6904651399047533e-013 1:26.867001 2:23.1597 3:267.311 4:49.403702 5:48.3046 6:174.312 7:224.908 8:229.759 9:224.034 10:136.36301 11:138.209 12:135.862 13:220.427 14:222.084 15:223.51199 16:135.795 17:136.218 18:136.60001 19:226.62399 20:232.58099 21:228.117 22:139.396 23:141.37399 24:139.565 25:238.479 26:239.625 27:241.02299 28:144.244 29:145.23599 30:145.459 # frame 1414
-5.4014809479543144e-012 1:258.46799 2:5.3355198 3:297.939 4:116.11 5:20.7707 6:181.84399 7:226.508 8:229.246 9:228.00101 10:138.088 11:138.892 12:138.384 13:224.041 14:225.00101 15:225.61301 16:137.024 17:137.217 18:137.495 19:235.871 20:236.27901 21:237.021 22:142.668 23:142.728 24:143.284 25:247.08 26:244.02699 27:244.604 28:147.565 29:146.364 30:146.504 # frame 1414
1.5285836785198028e-012 1:149.274 2:5.0362701 3:250.558 4:72.433403 5:22.1847 6:168.125 7:224.045 8:226.33 9:224.436 10:136.172 11:136.827 12:136.149 13:220.246 14:220.702 15:219.38499 16:135.414 17:135.718 18:134.96899 19:235.021 20:234.655 21:234.95799 22:142.769 23:142.45399 24:142.44701 25:244.774 26:244.521 27:246.87199 28:146.946 29:146.70599 30:147.533 # frame 1414
7.953027541060119e-013 1:74.250999 2:3.2028 3:236.271 4:41.865002 5:18.3169 6:164.23599 7:220.144 8:219.825 9:218.452 10:135.002 11:134.873 12:134.254 13:212.168 14:212.914 15:213.897 16:130.94501 17:130.974 18:130.94299 19:241.283 20:238.993 21:244.737 22:144.873 23:144.326 24:145.804 25:231.084 26:231.133 27:229.381 28:142.186 29:142.136 30:141.851 # frame 1414
2.1931278865858188e-013 1:6.9627099 2:12.6309 3:484.827 4:28.194401 5:37.972801 6:235.464 7:199.56599 8:190.067 9:189.959 10:127.198 11:123.464 12:123.122 13:201.728 14:200.799 15:188.69 16:125.865 17:125.184 18:118.041 19:257.98801 20:254.123 21:260.78799 22:148.867 23:147.21899 24:149.605 25:216.97099 26:222.224 27:217.46899 28:136.69 29:139.43401 30:137.946 # frame 1449
-5.465178056464614e-013 1:6.8989201 2:13.1736 3:471.48001 4:28.0408 5:38.740398 6:232.11 7:204.377 8:197.65401 9:196.657 10:128.901 11:126.463 12:125.948 13:215.37199 14:213.207 15:207.17101 16:132.85699 17:131.32401 18:127.493 19:245.536 20:251.105 21:253.11501 22:145.19501 23:147.25301 24:147.92599 25:222.868 26:224.8 27:223.29201 28:138.33701 29:139.77901 30:139.593 # frame 1449
-1.1550455192547923e-012 1:7.2779298 2:22.5469 3:443.97299 4:28.463499 5:48.549702 6:224.868 7:221.94299 8:223.774 9:223.41701 10:134.798 11:135.51801 12:135.487 13:222.431 14:227.63699 15:220.731 16:136.388 17:138.289 18:135.302 19:235.931 20:237.114 21:233.25101 22:142.17 23:142.317 24:140.76601 25:248.132 26:248.63 27:245.67599 28:148.144 29:148.12199 30:147.065 # frame 1449
2.6851263334551207e-013 1:17.1991 2:80.332199 3:337.017 4:43.0056 5:90.996696 6:195.605 7:224.847 8:228.621 9:228.44099 10:135.439 11:136.97099 12:136.791 13:232.028 14:227.202 15:233.214 16:140.408 17:138.601 18:140.722 19:232.79401 20:233.95 21:230.215 22:141.254 23:141.52699 24:139.994 25:241.776 26:238.412 27:239.63901 28:145.496 29:144.286 30:144.991 # frame 1449
2.3001263746500401e-012 1:10.6359 2:39.5117 3:370.13199 4:33.749401 5:64.388 6:204.67 7:221.088 8:229.09599 9:228.53 10:133.841 11:136.98599 12:136.76199 13:226.168 14:231.71001 15:226.168 16:137.536 17:139.60899 18:137.327 19:236.23399 20:232.286 21:234.864 22:142.381 23:140.358 24:141.478 25:248.636 26:245.218 27:245.078 28:148.282 29:147.153 30:147.168 # frame 1449
-1.4944432832403152e-012 1:16.9722 2:55.9589 3:310.97501 4:41.802399 5:77.069397 6:178.483 7:215.657 8:219.468 9:220.70799 10:131.16 11:132.939 12:133.10699 13:220.793 14:217.812 15:217.99699 16:133.64999 17:132.317 18:132.2 19:222.745 20:227.082 21:225.936 22:135.31799 23:136.463 24:136.082 25:234.58701 26:232.07401 27:232.173 28:140.127 29:139.49899 30:139.24899 # frame 1449
1.6793590419492745e-012 1:7.3057599 2:41.076698 3:433.448 4:28.5667 5:67.7015 6:221.45399 7:226.091 8:225.79601 9:225.069 10:137.76801 11:137.545 12:137.45 13:229.536 14:227.332 15:227.642 16:139.006 17:138.144 18:138.214 19:233.226 20:233.85001 21:236.02299 22:141.26401 23:141.38901 24:142.414 25:243.69299 26:245.052 27:242.28999 28:146.179 29:146.60201 30:145.52 # frame 1449
-6.3045753244743715e-013 1:302.85901 2:68.420097 3:71.2696 4:185.371 5:87.643204 6:88.602203 7:203.582 8:200.70599 9:205.817 10:130.53999 11:129.914 12:132.056 13:208.998 14:203.218 15:202.94099 16:129.64101 17:127.097 18:127.065 19:251.005 20:252.75999 21:252.00101 22:148.004 23:148.992 24:149.082 25:200.746 26:206.38499 27:201.42599 28:132.037 29:133.701 30:132.121 # frame 1566
-1.3829668439058116e-012 1:285.10999 2:63.572102 3:109.845 4:180.593 5:85.146599 6:112.033 7:203.243 8:208.942 9:210.70599 10:129.53101 11:132.707 12:133.272 13:211.492 14:208.095 15:210.297 16:130.748 17:129.51401 18:130.353 19:253.20599 20:246.918 21:247.144 22:148.94901 23:146.813 24:147.25101 25:209.414 26:207.77299 27:210.53101 28:134.938 29:133.897 30:135.092 # frame 1566
-3.9823497346161592e-013 1:285.05301 2:58.353699 3:107.355 4:180.57201 5:81.542702 6:110.642 7:214.964 8:217.41299 9:217.489 10:133.51401 11:134.642 12:134.821 13:215.121 14:218.88 15:221.108 16:132.55499 17:134.55099 18:135.54401 19:239.522 20:236.90401 21:235.015 22:144.153 23:143.11 24:142.52299 25:218.82201 26:222.07899 27:219.427 28:137.855 29:139.12 30:137.84801 # frame 1566
3.9554978579726243e-012 1:294.68701 2:46.299702 3:116.703 4:183.44501 5:71.501198 6:115.022 7:208.364 8:211.216 9:215.603 10:131.742 11:133.17999 12:135.16299 13:213.16 14:216.39101 15:216.131 16:131.953 17:133.347 18:133.49001 19:245.731 20:243.729 21:244.286 22:146.368 23:145.70799 24:146.069 25:218.347 26:217.22501 27:216.063 28:138.239 29:137.52499 30:136.94299 # frame 1566
-1.6314904360321745e-012 1:324.21201 2:33.3419 3:137.31 4:190.843 5:56.269199 6:123.444 7:211.16499 8:212.282 9:214.771 10:131.642 11:132.55299 12:133.539 13:208.002 14:209.35001 15:209.851 16:130.05 17:130.61301 18:130.79201 19:234.403 20:231.39301 21:234.86 22:142.21001 23:141.049 24:142.72 25:220.907 26:219.46899 27:219.392 28:138.34801 29:138.299 30:137.886 # frame 1566
-3.2068206316901047e-013 1:504.186 2:0.40166301 3:247.89799 4:231.506 5:5.9376998 6:168.06 7:223.77499 8:223.239 9:222.39999 10:135.351 11:135.045 12:134.601 13:218.61099 14:216.48199 15:217.629 16:133.799 17:132.987 18:133.26199 19:239.478 20:238.67799 21:241.411 22:144.386 23:144.02499 24:144.813 25:242.002 26:240.771 27:240.58501 28:145.76199 29:145.32899 30:145.291 # frame 1566
1.1490509143471847e-013 1:327.435 2:0.78237301 3:207.511 4:166.724 5:6.3221002 6:153.476 7:220.836 8:222.92 9:221.69299 10:135.248 11:135.82001 12:135.14 13:216.05099 14:218.436 15:219.563 16:133.117 17:133.94901 18:134.49001 19:234.381 20:237.063 21:233.244 22:142.12199 23:143.50301 24:141.75101 25:236.386 26:238.51601 27:235.873 28:143.547 29:144.302 30:143.34 # frame 1566
-2.545689379293301e-013 1:21.596701 2:30.7222 3:552.23798 4:48.592602 5:58.2127 6:250.287 7:228.58701 8:228.312 9:228.82201 10:139.16 11:139.01801 12:139.367 13:225.50999 14:224.69501 15:223.658 16:138.673 17:137.196 18:137.243 19:236.647 20:241.88901 21:236.231 22:142.77901 23:144.66901 24:142.714 25:234.02901 26:240.30499 27:239.58299 28:142.69701 29:145.15401 30:145.233 # frame 1595
5.0748814717797492e-013 1:26.666901 2:45.532101 3:530.34003 4:55.066399 5:71.073097 6:245.77901 7:217.646 8:219.58 9:219.631 10:132.332 11:132.98801 12:132.826 13:222.892 14:215.00999 15:219.05099 16:136.755 17:132.78 18:134.67101 19:235.15601 20:231.446 21:235.88 22:141.677 23:140.286 24:142.192 25:239.311 26:240.793 27:243.32401 28:144.573 29:145.358 30:146.263 # frame 1595
-2.3086110720914109e-014 1:29.754299 2:43.330502 3:489.32599 4:57.3862 5:68.380096 6:234.37801 7:215.133 8:214.996 9:209.582 10:130.56 11:130.888 12:128.51801 13:230.524 14:224.367 15:227.3 16:138.97099 17:136.37 18:137.55901 19:240.507 20:245.185 21:245.90401 22:144.548 23:145.957 24:146.187 25:242.07899 26:245.724 27:246.02299 28:145.82401 29:147.464 30:147.242 # frame 1595
1.796597448008223e-012 1:304.052 2:30.7929 3:114.052 4:131.632 5:55.018002 6:109.804 7:211.437 8:214.33501 9:213.13699 10:128.035 11:129.12601 12:128.64999 13:213.08 14:217.209 15:218.465 16:130.72 17:132.216 18:132.832 19:221.35699 20:222.38499 21:223.741 22:134.24001 23:134.83099 24:135.054 25:234.511 26:231.054 27:228.57001 28:140.22099 29:138.989 30:137.89101 # frame 1595
8.1891980327230994e-013 1:329.306 2:50.546001 3:75.789703 4:167.32401 5:72.549797 6:90.776901 7:212.589 8:219.158 9:222.991 10:131.103 11:133.57201 12:135.15401 13:217.47301 14:222.30901 15:223.077 16:134.18401 17:136.062 18:136.308 19:237.69099 20:237.606 21:233.731 22:144.89 23:144.621 24:143.205 25:234.759 26:235.513 27:230.586 28:143.46201 29:143.716 30:142.017 # frame 1595
5.4061791258616055e-013 1:320.83301 2:33.9207 3:80.626602 4:191.41299 5:61.417599 6:93.791298 7:211.383 8:215.07201 9:217.043 10:130.938 11:132.744 12:133.59399 13:213.91701 14:216.81599 15:215.231 16:131.94701 17:133.343 18:132.666 19:243.272 20:241.353 21:244.83501 22:145.411 23:144.47 24:146.239 25:214.927 26:212.38 27:216.88699 28:136.284 29:135.226 30:137.12 # frame 1595
2.9923987603490119e-012 1:287.18301 2:33.386501 3:129.42101 4:181.237 5:61.6213 6:121.541 7:211.46201 8:214.606 9:216.785 10:131.215 11:132.77699 12:133.49899 13:207.181 14:215.05099 15:214.556 16:128.84399 17:132.884 18:132.597 19:244.903 20:242.11501 21:243.48399 22:146.248 23:144.873 24:145.217 25:224.93401 26:225.23801 27:225.714 28:139.653 29:139.75 30:140.13 # frame 1595
1.2486618527695268e-012 1:297.47198 2:27.7556 3:142.10001 4:184.453 5:56.203999 6:127.379 7:212.552 8:210.214 9:213.541 10:131.19299 11:130.278 12:131.77299 13:210.664 14:220.98199 15:218.343 16:130.181 17:135.21899 18:134.039 19:246.256 20:242.57201 21:241.91499 22:146.569 23:145.203 24:144.881 25:228.013 26:229.408 27:226.756 28:140.59 29:141.37399 30:140.515 # frame 1595
-3.8668690979934181e-012 1:292.38699 2:40.085999 3:135.745 4:182.879 5:67.3759 6:124.419 7:204.291 8:207.174 9:209.59599 10:127.109 11:128.308 12:129.62399 13:210.81 14:219.83099 15:220.69099 16:129.89301 17:134.49699 18:134.729 19:252.981 20:251.267 21:253.356 22:149.33299 23:148.424 24:149.34 25:225.88 26:226.13499 27:224.53101 28:140.13699 29:140.45799 30:140.064 # frame 1595
-1.5301133003478576e-012 1:257.211 2:4.42062 3:329.034 4:154.698 5:20.7869 6:191.62399 7:227.606 8:225.314 9:226.937 10:138.625 11:137.536 12:138.22701 13:218.92799 14:216.755 15:218.718 16:134.252 17:132.647 18:133.425 19:238.71201 20:239.89999 21:236.026 22:143.08 23:144.14999 24:142.14101 25:226.61099 26:223.021 27:220.121 28:140.45 29:138.93401 30:137.69501 # frame 1647
-1.5696556691685547e-012 1:101.237 2:18.6724 3:492.73099 4:72.627098 5:41.034901 6:234.377 7:223.44501 8:225.89 9:223.55901 10:136.97501 11:137.995 12:136.856 13:224.133 14:225.62 15:223.34399 16:136.895 17:137.38699 18:135.938 19:241.30099 20:238.295 21:238.73399 22:144.22301 23:143.325 24:143.037 25:238.367 26:240.35699 27:238.09 28:144.254 29:144.84 30:144.034 # frame 1647
-4.6542350743555872e-015 1:12.775 2:36.1008 3:603.73499 4:37.436699 5:62.012402 6:261.68799 7:225.99001 8:226.37399 9:225.425 10:138.028 11:138.29601 12:137.55901 13:226.173 14:222.92999 15:222.686 16:137.722 17:136.351 18:135.93401 19:242.433 20:234.87801 21:238.561 22:144.789 23:141.593 24:143.173 25:241.968 26:243.966 27:243.448 28:145.08 29:145.87601 30:145.836 # frame 1647
-2.8143563306950383e-013 1:22.720301 2:44.265598 3:603.85797 4:50.700901 5:68.9077 6:262.07001 7:221.26401 8:217.192 9:217.87601 10:134.94901 11:132.972 12:133.77499 13:229.354 14:218.114 15:223.592 16:139.28101 17:134.356 18:136.68401 19:233.99699 20:234.297 21:240.25301 22:141.37801 23:141.72099 24:144.12 25:239.347 26:240.565 27:242.43401 28:144.62 29:144.66299 30:145.854 # frame 1647
-2.5894973137487673e-013 1:3.02405 2:139.912 3:363.604 4:16.8076 5:117.836 6:193.58501 7:218.114 8:216.39799 9:212.83701 10:131.968 11:131.37 12:129.37199 13:222.72501 14:215.34599 15:211.04601 16:133.79401 17:130.929 18:128.66901 19:226.545 20:220.847 21:225.138 22:136.517 23:134.271 24:136.159 25:230.588 26:229.87 27:228.981 28:138.375 29:138.362 30:137.787 # frame 1647
2.7364126452323335e-013 1:10.4259 2:132.82401 3:256.39001 4:15.7808 5:120.059 6:168.45399 7:225.703 8:226.35699 9:223.64999 10:136.192 11:136.291 12:135.161 13:234.27901 14:235.99699 15:233.408 16:141.464 17:142.07401 18:140.81 19:234.32201 20:234.916 21:237.073 22:142.103 23:142.093 24:142.875 25:241.73801 26:239.886 27:242.244 28:145.83099 29:145.054 30:145.85201 # frame 1647
-9.0337409986782262e-013 1:17.9953 2:95.0186 3:198.98 4:18.480801 5:101.413 6:148.485 7:218.951 8:219.661 9:218.12801 10:133.254 11:133.179 12:132.879 13:226.37199 14:226.82899 15:219.91299 16:138.257 17:138.121 18:135.05701 19:235.026 20:234.754 21:237.347 22:142.601 23:142.722 24:143.14999 25:240.748 26:244.731 27:241.09399 28:145.142 29:146.63 30:145.44701 # frame 1647
-3.034518408304383e-013 1:3.0692501 2:96.404602 3:339.94 4:18.181601 5:101.775 6:193.19701 7:230.763 8:228.92799 9:228.57201 10:139.98801 11:139.26601 12:139.041 13:238.017 14:235.231 15:230.476 16:142.759 17:141.91299 18:139.55701 19:236.875 20:237.03999 21:238.054 22:142.56599 23:142.366 24:142.35001 25:246.37399 26:244.662 27:246.85899 28:146.90199 29:146.601 30:147.007 # frame 1790
-3.8507401976209303e-013 1:271.02802 2:12.0255 3:211.817 4:134.256 5:32.327202 6:151.619 7:228.35899 8:223.189 9:223.314 10:137.966 11:135.864 12:135.808 13:221.46001 14:225.065 15:225.16499 16:135.23399 17:136.924 18:136.44901 19:239.42599 20:237.48399 21:240.27 22:144.20599 23:143.448 24:144.632 25:234.27901 26:233.07899 27:238.804 28:142.817 29:142.274 30:144.73399 # frame 1790
5.8721529110785804e-012 1:307.02301 2:7.2613301 3:218.974 4:176.946 5:27.211599 6:157.088 7:216.963 8:211.853 9:214.258 10:132.36501 11:130.36501 12:131.582 13:218.70599 14:220.10201 15:222.40199 16:134.14101 17:134.554 18:135.558 19:242.414 20:238.18401 21:239.537 22:146 23:144.121 24:144.545 25:229.006 26:225.116 27:220.966 28:141.054 29:138.69299 30:137.53 # frame 1790
-9.2547803215771004e-013 1:301.45401 2:9.11761 3:204.896 4:185.261 5:31.5868 6:152.94 7:199.33 8:199.054 9:196.89999 10:126.278 11:125.826 12:125.107 13:202.992 14:205.192 15:204.72099 16:126.384 17:127.44 18:127.209 19:253.89999 20:252.765 21:254.242 22:149.73599 23:149.078 24:149.373 25:215.7 26:214.304 27:212.133 28:136.64301 29:135.121 30:134.31 # frame 1790
-3.8609588495032783e-013 1:321.306 2:6.32447 3:245.786 4:181.408 5:25.6889 6:166.808 7:216.87601 8:215.933 9:224.395 10:132.367 11:131.838 12:135.276 13:226.505 14:232.02299 15:239.37 16:137.069 17:139.362 18:142.33299 19:245.44501 20:240.601 21:244.604 22:146.41901 23:144.75 24:146.19501 25:219.992 26:217.239 27:209.244 28:137.936 29:136.21001 30:132.955 # frame 1790
1.2792761416858257e-012 1:205.94299 2:5.18014 3:362.74899 4:127.841 5:23.461599 6:200.30901 7:216.336 8:218.847 9:218.408 10:133.504 11:134.694 12:134.563 13:217.724 14:214.314 15:213.457 16:132.98 17:130.675 18:130.44901 19:240.41901 20:244.541 21:243.422 22:144.04401 23:145.493 24:145.071 25:229.571 26:226.40601 27:225.159 28:141.25101 29:140.47099 30:139.864 # frame 2014
6.5292313703633975e-014 1:109.298 2:10.6381 3:464.54501 4:72.915497 5:31.545 6:228.153 7:227.675 8:225.179 9:229.092 10:138.08501 11:137.13499 12:138.53 13:227.112 14:224.83299 15:223.06599 16:138.005 17:136.968 18:135.77699 19:243.27 20:240.299 21:237.455 22:145.02 23:143.896 24:143.112 25:239.34399 26:235.108 27:232.951 28:144.821 29:143.22301 30:142.386 # frame 2014
1.1782690320430561e-013 1:11.3505 2:21.912001 3:613.284 4:35.5425 5:47.943699 6:263.92999 7:225.188 8:222.02 9:219.659 10:136.61301 11:135.84399 12:133.49899 13:222.198 14:219.524 15:216.09 16:135.03999 17:134.226 18:131.45799 19:244.127 20:236.78 21:231.897 22:144.383 23:141.81799 24:140.257 25:238.547 26:238.50999 27:234.83701 28:144.05499 29:144.49001 30:142.42799 # frame 2014
-2.0578172898070456e-013 1:43.404999 2:18.948601 3:264.293 4:64.382301 5:42.712799 6:170.18401 7:218.101 8:222.026 9:219.35899 10:132.069 11:133.36301 12:132.755 13:226.45399 14:226.16299 15:229.903 16:137.457 17:137.60001 18:139.433 19:233.929 20:234.633 21:235.98 22:141.541 23:141.937 24:142.892 25:234.455 26:236.06599 27:229.004 28:142.879 29:142.814 30:140.32201 # frame 2014
6.411345313086643e-013 1:58.238602 2:90.275902 3:261.57501 4:44.919601 5:92.786903 6:164.576 7:205.69299 8:207.748 9:208.207 10:126.441 11:127.291 12:127.616 13:210.703 14:209.582 15:213.827 16:129.235 17:128.87399 18:130.36301 19:222.565 20:229.5 21:227.90601 22:134.394 23:137.396 24:136.91701 25:231.30701 26:225.01801 27:225.56799 28:139.41701 29:136.755 30:136.77499 # frame 2014
1.1025341178750289e-013 1:98.804298 2:59.000198 3:203.80299 4:65.349197 5:77.842697 6:141.327 7:218.686 8:216.951 9:215.36501 10:132.48399 11:131.82899 12:130.772 13:217.332 14:217.483 15:221.51801 16:133.989 17:134.02901 18:135.224 19:230.896 20:229.04201 21:227.287 22:141.436 23:140.571 24:140.157 25:232.30299 26:230.53101 27:229.748 28:141.88901 29:141.248 30:140.44099 # frame 2014
1.9925376770737803e-013 1:157.267 2:51.649502 3:238.065 4:99.267601 5:70.173103 6:161.054 7:178.627 8:174.216 9:172.2 10:112.095 11:110.283 12:109.702 13:182.86099 14:178.823 15:180.33701 16:115.017 17:112.061 18:112.727 19:239.616 20:233.536 21:260.311 22:142.63901 23:140.02901 24:149.21899 25:190.50101 26:212.625 27:202.85201 28:126.234 29:135.27699 30:131.873 # frame 2014
-8.2342654703793674e-014 1:315.758 2:14.5796 3:322.224 4:187.10699 5:39.425098 6:186.367 7:158.459 8:158.422 9:155.545 10:102.98 11:103.076 12:102.129 13:194.463 14:186.052 15:189.687 16:119.912 17:115.078 18:118.761 19:276.89499 20:269.20901 21:291.98901 22:156.722 23:153.076 24:160.60201 25:214.843 26:224.61501 27:217 28:135.138 29:140.162 30:138.02 # frame 2014
-1.680399799203295e-013 1:6.4903498 2:8.7501297 3:524.23401 4:27.118401 5:31.563801 6:244.717 7:204.022 8:203.604 9:202.933 10:128.937 11:128.62801 12:128.498 13:209.879 14:206.85201 15:198.08 16:130.114 17:127.799 18:123.411 19:238.98 20:238.836 21:245.14101 22:143.161 23:142.784 24:145.595 25:226.64101 26:228.851 27:226.94299 28:140.142 29:141.397 30:141.224 # frame 2054
-1.5850148866470521e-012 1:187.72099 2:6.17625 3:337.509 4:123.122 5:26.1003 6:191.866 7:201.034 8:194.89 9:196.64 10:127.628 11:125.533 12:126.171 13:205.597 14:206.114 15:207.567 16:127.87 17:128.226 18:128.774 19:250.14799 20:256.534 21:254.989 22:147.75999 23:150.254 24:149.43401 25:219.392 26:223.855 27:217.19901 28:138.076 29:139.23199 30:136.627 # frame 2054
2.6598963550758366e-012 1:204.09399 2:4.6972299 3:282.10501 4:117.24 5:22.013399 6:177.009 7:204.80499 8:202.35699 9:203.47301 10:127.424 11:126.745 12:127.052 13:210.76401 14:210.41299 15:207.078 16:131.12801 17:131.12601 18:130.064 19:234.86099 20:233.586 21:234.74699 22:142.257 23:142.255 24:142.00101 25:243.17999 26:239.93201 27:242.63499 28:146.082 29:145.01601 30:145.998 # frame 2054
-2.0777331702463026e-012 1:101.4 2:51.529999 3:301.08499 4:88.584999 5:67.455902 6:179.839 7:234.04601 8:232.89301 9:231.129 10:141.42101 11:141.009 12:139.858 13:230.19299 14:229.05099 15:227.295 16:139.364 17:138.985 18:138.491 19:233.65601 20:234.771 21:235.183 22:141.157 23:141.558 24:141.53799 25:241.16901 26:239.283 27:240.66701 28:144.989 29:144.743 30:144.57001 # frame 2054
1.8437639836881176e-012 1:51.256001 2:65.655602 3:161.526 4:75.6782 5:84.358498 6:133.65401 7:220.513 8:217.10201 9:220.705 10:132.933 11:131.351 12:132.84399 13:230.97099 14:228.315 15:231.09399 16:139.80099 17:138.388 18:139.715 19:235.265 20:234.49699 21:238.416 22:142.75101 23:142.42 24:143.55901 25:237.17599 26:241.017 27:238.713 28:144.31599 29:145.548 30:144.82001 # frame 2054
-7.7138117279477492e-013 1:47.248699 2:67.910599 3:203.689 4:71.950203 5:83.875603 6:146.159 7:227.297 8:224.754 9:226.08 10:136.237 11:135.338 12:135.662 13:231.71201 14:227.998 15:231.67101 16:140.63901 17:138.853 18:140.125 19:233.87601 20:226.364 21:226.981 22:141.493 23:138.592 24:138.746 25:237.05499 26:240.79401 27:235.37 28:143.521 29:144.95 30:143.076 # frame 2054
2.3006529309552852e-012 1:362.34799 2:0.232821 3:262.349 4:163.03 5:4.8027 6:173.05499 7:211.19 8:207.737 9:206.967 10:132.80499 11:131.569 12:131.207 13:213.823 14:213.506 15:214.34599 16:131.681 17:131.58099 18:131.825 19:234.13 20:235.903 21:232.186 22:142.519 23:143.048 24:141.41 25:225.951 26:228.51199 27:224.925 28:140.871 29:141.908 30:140.39301 # frame 2096
7.4612835833672142e-012 1:10.8184 2:2.0272 3:276.73001 4:32.165199 5:14.7874 6:177.56 7:215.17101 8:214.916 9:215.308 10:134.019 11:134.228 12:133.875 13:213.43201 14:212.46001 15:213.265 16:131.271 17:130.76801 18:131.12399 19:233.446 20:230.87 21:231.94 22:141.395 23:140.287 24:140.58701 25:219.52299 26:220.737 27:218.93401 28:137.855 29:138.198 30:137.481 # frame 2096
-3.7150106484137975e-013 1:10.119 2:2.48564 3:297.979 4:30.9622 5:16.491301 6:184.13 7:212.222 8:210.23399 9:209.89301 10:132.511 11:131.66901 12:131.33099 13:204.909 14:205.35201 15:203.80499 16:128.045 17:128.214 18:127.577 19:234.076 20:232.71201 21:234.892 22:141.84 23:141.26801 24:142.177 25:231.53999 26:231.855 27:231.407 28:142.608 29:142.577 30:142.19 # frame 2096
-6.7299080207851351e-012 1:276.35599 2:3.7964699 3:232.647 4:177.46001 5:20.2166 6:160.47301 7:210.312 8:207.983 9:207.526 10:131.592 11:130.791 12:130.47 13:214.842 14:216.87601 15:211.44901 16:131.882 17:132.755 18:130.32201 19:252.554 20:248.30499 21:248.847 22:148.69501 23:147.136 24:147.356 25:213.81799 26:214.83701 27:215.933 28:136.241 29:136.12 30:136.479 # frame 2132
-5.355102595954451e-012 1:40.275501 2:36.3475 3:220.927 4:65.078003 5:60.317402 6:149.59801 7:213.901 8:211.62 9:212.347 10:130.366 11:129.76199 12:129.755 13:210.714 14:211.47701 15:209.76601 16:129.62801 17:130.13901 18:129.22 19:227.448 20:225.37199 21:225.327 22:136.429 23:135.689 24:135.55499 25:235.563 26:233.41499 27:232.22099 28:140.427 29:139.563 30:139.002 # frame 2132
-2.8752651388827872e-012 1:43.211201 2:33.686001 3:169.38 4:65.964401 5:57.203098 6:132.29601 7:217.742 8:213.95799 9:215.864 10:131.811 11:130.101 12:131.202 13:218.698 14:218.577 15:219.66299 16:132.80701 17:132.62199 18:133.233 19:222.409 20:224.269 21:221.455 22:134.70799 23:135.369 24:134.132 25:226.636 26:230.713 27:228.63 28:137.17999 29:138.267 30:137.70399 # frame 2132
5.6065793366894209e-012 1:310.83701 2:5.0040898 3:263.66501 4:158.965 5:16.2645 6:167.605 7:227.048 8:223.44901 9:224.228 10:137.67999 11:136.295 12:136.76601 13:224.39999 14:225.431 15:224.409 16:136.666 17:136.94501 18:136.733 19:235.192 20:236.972 21:234.88499 22:141.601 23:142.681 24:141.46001 25:243.3 26:247.319 27:244.42799 28:145.946 29:147.367 30:146.427 # frame 2132
3.424895057853474e-013 1:218.442 2:2.21874 3:303.44199 4:108.041 5:12.9313 6:182.468 7:214.601 8:211.595 9:208.412 10:132.632 11:131.06599 12:129.77699 13:226.787 14:223.688 15:222.86099 16:137.925 17:136.825 18:136.38699 19:246.739 20:251.285 21:250.83701 22:145.985 23:147.82899 24:147.45399 25:234.12 26:240.911 27:237.763 28:143.381 29:145.839 30:144.672 # frame 2132
1.2543998265580127e-012 1:134.819 2:18.836201 3:254.49899 4:97.814201 5:40.0788 6:161.692 7:235.25 8:230.649 9:230.72301 10:141.33 11:139.68201 12:139.688 13:234.26199 14:234.313 15:233.825 16:141.075 17:141.17599 18:140.75101 19:232.22099 20:232.213 21:234.40401 22:141.05099 23:141.138 24:141.79401 25:230.54401 26:235.84801 27:234.53799 28:141.041 29:143.144 30:142.638 # frame 2167
1.3142218883603066e-014 1:312.117 2:18.2111 3:174.235 4:179.784 5:37.278099 6:132.173 7:207.69 8:206.30701 9:206.84599 10:130.96899 11:130.711 12:131.11099 13:223.797 14:227.064 15:224.17599 16:137.41299 17:138.83 18:137.55499 19:243.998 20:244.722 21:241.17101 22:145.01601 23:145.573 24:143.91 25:229.498 26:228.739 27:227.737 28:140.48801 29:140.39999 30:140.013 # frame 2167
-1.0583756686384408e-012 1:330.10901 2:4.5950599 3:267.41901 4:170.42101 5:16.1574 6:172.002 7:221.93201 8:216.91299 9:222.16499 10:134.993 11:132.866 12:135.77699 13:217.92599 14:221.065 15:223.924 16:134.733 17:136.02499 18:136.771 19:243.03999 20:244.61501 21:245.715 22:144.188 23:144.55901 24:145.278 25:241.108 26:241.903 27:235.55901 28:145.619 29:145.91 30:144.22099 # frame 2167
-6.0300542764422508e-014 1:305.289 2:1.38445 3:267.371 4:153.52 5:10.6202 6:172.767 7:224.381 8:222.397 9:222.325 10:136.05701 11:135.306 12:135.54401 13:215.267 14:220.036 15:218.976 16:132.39301 17:134.62 18:133.953 19:246.414 20:244.826 21:247.659 22:145.11301 23:144.589 24:145.61501 25:245.617 26:242.396 27:240.38699 28:148.03101 29:146.71201 30:146.104 # frame 2167
8.6427475529277112e-013 1:315.97501 2:4.8393202 3:242.599 4:158.28799 5:18.1991 6:163.802 7:218.19099 8:214.58701 9:217.522 10:133.85699 11:132.584 12:133.71201 13:221.757 14:230.77 15:230.662 16:134.97701 17:138.662 18:139.14999 19:245.592 20:239.925 21:243.54201 22:145.34399 23:143.459 24:144.696 25:237.92101 26:235.175 27:230.66499 28:145.19501 29:143.992 30:142.27299 # frame 2167
-6.6883762003114903e-013 1:366.207 2:11.1454 3:168.25101 4:184.185 5:28.459299 6:132.54401 7:220.52499 8:216.96001 9:218.343 10:133.892 11:132.69299 12:133.101 13:231.179 14:229.92999 15:229.63901 16:140.744 17:140.133 18:139.811 19:243.00301 20:239.66299 21:241.19099 22:145.064 23:143.75101 24:144.276 25:239.61501 26:240.571 27:241.032 28:145.259 29:145.666 30:145.713 # frame 2167
-1.452387461141738e-013 1:342.66101 2:48.973999 3:40.289902 4:194.573 5:68.9925 6:58.526199 7:223.08501 8:221.12601 9:220.491 10:135.209 11:134.42101 12:134.091 13:216.948 14:219.201 15:221.283 16:132.875 17:134.017 18:134.688 19:224.50301 20:227.972 21:228.774 22:138.44299 23:139.884 24:140.19099 25:190.661 26:191.395 27:193.048 28:126.616 29:127.226 30:127.8 # frame 2167
3.2158304187862081e-013 1:298.23001 2:37.085098 3:130.36099 4:184.562 5:58.390099 6:108.873 7:216.34 8:217.298 9:216.91 10:131.22 11:131.446 12:131.274 13:227.073 14:227.62 15:230.19701 16:138.004 17:138.382 18:139.23 19:233.95799 20:233.97 21:233.243 22:142.25101 23:142.14999 24:141.92799 25:237.709 26:239.05901 27:237.614 28:144.172 29:144.756 30:144.12601 # frame 2167
2.0788119445278808e-013 1:47.646198 2:56.352501 3:304.64801 4:57.478001 5:72.865501 6:178.29201 7:217.383 8:205.83501 9:204.597 10:132.043 11:127.418 12:126.952 13:213.76199 14:205.90601 15:205.784 16:129.741 17:126.668 18:126.446 19:226.235 20:222.495 21:228.112 22:135.726 23:134.336 24:136.47099 25:222.021 26:226.96899 27:232.813 28:135.59399 29:137.425 30:139.66499 # frame 2167
-6.7624810718570866e-015 1:269.19699 2:47.621101 3:260.59201 4:175.468 5:72.488403 6:168.062 7:201.35201 8:192.202 9:203.592 10:129.229 11:125.13 12:130.545 13:209.856 14:209.617 15:211.435 16:129.114 17:128.599 18:130.504 19:264.84799 20:263.08899 21:258.319 22:153.064 23:152.605 24:150.722 25:212.74001 26:211.047 27:208.524 28:135.564 29:135.457 30:134.519 # frame 2201
7.0828138343835496e-013 1:274.41 2:66.025803 3:177.65199 4:177.172 5:86.536697 6:141.733 7:205.496 8:199.89301 9:210.08099 10:128.57899 11:126.748 12:131.033 13:219.166 14:224.561 15:230.237 16:133.161 17:135.894 18:138.464 19:268.56 20:267.04501 21:267.23401 22:154.35201 23:154.24001 24:154.082 25:198.866 26:194.636 27:190.554 28:129.914 29:129.29201 30:127.568 # frame 2201
1.902796243627816e-012 1:260.27399 2:67.236702 3:158.42999 4:168.259 5:84.729698 6:130.116 7:219.745 8:218.875 9:219.44099 10:132.978 11:132.85201 12:133.022 13:221.774 14:220.88901 15:222.873 16:133.62601 17:133.59399 18:134.383 19:224.84 20:225.44501 21:225.47099 22:136.022 23:136.315 24:136.048 25:229.308 26:229.80901 27:233.59 28:138.44501 29:138.53101 30:139.967 # frame 2201
-4.4613562263900044e-012 1:285.814 2:52.068901 3:129.239 4:180.724 5:75.6931 6:120.334 7:228.25 8:231.58 9:229.767 10:138.862 11:139.96001 12:139.433 13:227.849 14:230.373 15:230.452 16:138.332 17:139.658 18:139.612 19:234.464 20:232.56799 21:231.03799 22:141.939 23:141.50301 24:140.923 25:243.33501 26:244.56599 27:242.659 28:146.52901 29:146.87399 30:146.202 # frame 2201
-1.9698642485547627e-012 1:377.40701 2:18.678499 3:114.971 4:206.45399 5:42.8843 6:109.757 7:211.41299 8:210.705 9:209.414 10:131.101 11:130.75999 12:130.267 13:214.836 14:216.508 15:213.92599 16:131.327 17:132.186 18:131.144 19:246.377 20:244.552 21:246.74699 22:146.44501 23:145.94 24:146.75301 25:214.69501 26:213.24899 27:216.746 28:135.718 29:134.842 30:136.086 # frame 2201
-4.1750744884078957e-013 1:260.867 2:22.3032 3:323.216 4:168.524 5:47.753799 6:189.33701 7:211.851 8:209.854 9:209.34599 10:131.089 11:130.321 12:130.455 13:220.683 14:224.67599 15:229.76401 16:133.035 17:134.39101 18:136.55901 19:274.995 20:271.80301 21:276.97 22:155.465 23:155.231 24:157.065 25:193.45599 26:202.19299 27:200.35201 28:128.487 29:131.49899 30:130.009 # frame 2223
3.4008849386710816e-013 1:227.64799 2:67.826797 3:173.849 4:157.097 5:84.293503 6:135.616 7:216.187 8:215.55 9:216.543 10:130.591 11:130.136 12:130.877 13:208.041 14:210.96001 15:214.487 16:128.006 17:128.927 18:130.922 19:220.60899 20:222.43201 21:220.386 22:134.144 23:135.13901 24:134.541 25:225.903 26:226.31 27:227.117 28:136.735 29:136.97501 30:137.47501 # frame 2223
-6.8184755495290158e-014 1:220.116 2:68.739799 3:166.47301 4:154.433 5:85.584297 6:132.368 7:206.336 8:207.15601 9:209.755 10:125.706 11:126.337 12:127.784 13:208.342 14:210.30499 15:212.14999 16:128.687 17:129.582 18:130.76601 19:229.84 20:221.886 21:225.661 22:137.23 23:134.25301 24:135.66499 25:234.412 26:234.30901 27:228.855 28:140.438 29:140.502 30:138.39101 # frame 2223
2.3408923897015003e-012 1:301.09299 2:28.876499 3:176.599 4:184.30701 5:50.150101 6:140.978 7:221.314 8:223.42799 9:218.42999 10:134.25 11:134.895 12:133.158 13:219.586 14:223.05499 15:224.575 16:135.491 17:136.11501 18:137.631 19:234.976 20:233.173 21:231.59 22:141.61099 23:140.85699 24:140.57401 25:241.745 26:245.032 27:244.61501 28:146.117 29:147.283 30:146.601 # frame 2223
1.0638234367054615e-012 1:278.73401 2:33.485298 3:165.01401 4:177.702 5:57.6693 6:134.728 7:224.948 8:229.57201 9:227.832 10:135.94 11:137.548 12:136.93401 13:226.89799 14:231.461 15:230.79401 16:137.408 17:139.851 18:139.42599 19:234.808 20:232.922 21:233.575 22:142.19099 23:141.754 24:141.63901 25:240.931 26:238.291 27:241.847 28:145.14999 29:144.207 30:145.54201 # frame 2223
3.4891532111619342e-012 1:275.08499 2:3.4637001 3:242.00301 4:177.078 5:19.381399 6:165.828 7:207.13901 8:206.495 9:205.67999 10:129.698 11:129.27299 12:128.931 13:211.451 14:211.491 15:208.78999 16:130.314 17:130.717 18:129.188 19:255.11099 20:257.422 21:257.186 22:148.535 23:150.12199 24:150.392 25:202.53999 26:204.414 27:206.144 28:131.953 29:132.511 30:132.83 # frame 2223
-1.5967408259610237e-012 1:311.77899 2:1.62089 3:317.80301 4:188.756 5:13.5579 6:190.545 7:207.38901 8:208.742 9:208.161 10:132.02499 11:132.608 12:132.41701 13:216.058 14:216.005 15:215.86501 16:132.476 17:132.601 18:132.39 19:244.384 20:246.23801 21:244.312 22:144.686 23:145.356 24:144.425 25:212.976 26:213.246 27:212.82401 28:135.77 29:136.10001 30:136.15199 # frame 2289
5.7396945030054444e-012 1:328.66299 2:1.60141 3:304.78799 4:193.856 5:13.4432 6:186.63499 7:202.011 8:201.452 9:202.10899 10:128.903 11:128.71201 12:129.11 13:211.66 14:210.59801 15:209.72301 16:130.62199 17:130.07201 18:129.696 19:236.481 20:239.438 21:237.63 22:141.39 23:142.229 24:141.342 25:209.353 26:211.85899 27:208.644 28:134.285 29:135.436 30:134.61501 # frame 2289
-3.6418995311843174e-013 1:331.90201 2:1.574 3:278.63699 4:194.83299 5:13.3799 6:178.42101 7:205.043 8:203.146 9:203.276 10:129.811 11:129.004 12:129.04601 13:208.302 14:208.218 15:209.672 16:129.099 17:129.362 18:129.722 19:251.62601 20:252.632 21:252.278 22:146.282 23:146.679 24:146.336 25:213.26601 26:217.267 27:215.492 28:135.668 29:137.603 30:136.825 # frame 2289
2.0773767999023567e-012 1:334.543 2:2.3765399 3:271.63199 4:195.627 5:16.3943 6:176.20799 7:200.649 8:200.369 9:200.16701 10:126.919 11:126.859 12:126.963 13:205.931 14:206.61301 15:206.64799 16:128.089 17:128.21899 18:128.20799 19:258.84299 20:258.37601 21:258.03101 22:148.42 23:149.588 24:149.25999 25:210.72099 26:212.93201 27:210.879 28:135.02901 29:135.955 30:134.76401 # frame 2289
2.7300931664517325e-012 1:264.13699 2:17.7616 3:300.60199 4:169.506 5:42.945801 6:174.964 7:204.438 8:205.89799 9:204.556 10:126.754 11:127.088 12:126.656 13:197.998 14:198.733 15:200.056 16:122.347 17:122.706 18:122.958 19:226.31799 20:225.12 21:227.894 22:136.72 23:136.237 24:137.582 25:212.752 26:215.39301 27:214.67599 28:132.168 29:133.145 30:133.01801 # frame 2289
8.7462527868408653e-013 1:276.58899 2:18.35 3:197.90601 4:177.864 5:45.556999 6:150.364 7:211.593 8:213.095 9:211.74001 10:130.09 11:130.78101 12:130.19501 13:210.978 14:210.466 15:210.211 16:129.929 17:129.64101 18:129.53 19:244.351 20:242.866 21:243.211 22:146.62 23:146.01801 24:146.071 25:230.19901 26:228.217 27:230.52 28:141.255 29:140.052 30:140.881 # frame 2289
-7.3252843107234795e-012 1:276.60199 2:9.1104803 3:197.33701 4:177.74001 5:31.3244 6:149.881 7:228.87399 8:229.01401 9:230.576 10:138.894 11:139.327 12:139.739 13:225.48199 14:228.513 15:226.92599 16:137.595 17:138.817 18:137.81 19:231.392 20:231.711 21:231.692 22:140.828 23:141.082 24:140.97701 25:240.5 26:239.72501 27:239.98199 28:145.013 29:144.765 30:144.776 # frame 2332
-2.0398368223611304e-012 1:419.79001 2:0.85606301 3:209.83299 4:214.63 5:8.6575003 6:154.53799 7:214.464 8:212.60201 9:212.342 10:133.869 11:133.24001 12:133.32001 13:207.94701 14:208.30901 15:209.039 16:128.94901 17:129.231 18:129.312 19:239.00999 20:239.40401 21:240.66499 22:144.285 23:144.552 24:144.769 25:218.133 26:218.319 27:218.96899 28:137.65199 29:137.64799 30:137.963 # frame 2332
2.8233941806847036e-012 1:436.009 2:0.38202 3:202.90401 4:214.666 5:5.9615998 6:152.061 7:208.985 8:210.19901 9:209.32201 10:131.431 11:132.065 12:131.714 13:214.18201 14:214.127 15:213.26601 16:131.638 17:131.60201 18:131.334 19:248.476 20:250.817 21:245.077 22:148.52499 23:149.14 24:147.064 25:223.888 26:223.563 27:222.923 28:139.586 29:139.735 30:139.278 # frame 2332
8.8833910647535502e-012 1:493.56799 2:0.33293599 3:238.20399 4:227.886 5:5.7185998 6:164.799 7:210.57201 8:209.69501 9:211.095 10:131.481 11:131.11501 12:131.698 13:216.342 14:215.53799 15:213.608 16:132.834 17:132.63 18:131.664 19:247.981 20:246.36501 21:245.533 22:147.373 23:146.71001 24:146.459 25:223.569 26:226.783 27:224.45599 28:139.705 29:140.94701 30:140.205 # frame 2332
2.5413923047791437e-013 1:499.004 2:1.2357 3:230.179 4:212.245 5:11.1787 6:161.866 7:212.83 8:211.11099 9:212.173 10:132.769 11:132.019 12:132.819 13:212.717 14:213.875 15:213.752 16:130.646 17:131.05701 18:131.52499 19:245.287 20:248.009 21:249.84399 22:145.951 23:147.086 24:147.647 25:221.34399 26:221.392 27:218.446 28:138.66901 29:138.755 30:137.87601 # frame 2332
-3.4335434520022389e-013 1:91.269302 2:7.8402801 3:323.58401 4:59.2742 5:29.2547 6:190.681 7:225.13 8:221.786 9:223.302 10:136.655 11:135.341 12:136.039 13:218.52699 14:218.806 15:218.929 16:134.91299 17:134.821 18:134.714 19:231.106 20:229.72099 21:230.502 22:139.627 23:139.252 24:139.69701 25:243.64101 26:243.326 27:241.155 28:146.73 29:146.495 30:145.44901 # frame 2369
-1.2625042052302248e-012 1:82.797699 2:8.9593096 3:278.00101 4:55.4184 5:31.291401 6:176.821 7:232.69299 8:231.41 9:229.17 10:139.532 11:138.755 12:138.13499 13:222.985 14:225.588 15:227.037 16:136.091 17:137.319 18:137.601 19:238.065 20:235.94501 21:236.427 22:143.862 23:142.153 24:142.64101 25:238.74001 26:239.66499 27:241.024 28:145.147 29:145.162 30:145.957 # frame 2369
1.5493310778044305e-012 1:18.849501 2:10.0552 3:303.465 4:32.4734 5:33.602501 6:185.729 7:219.537 8:220.323 9:216.37199 10:134.22501 11:134.442 12:132.82401 13:218.869 14:213.65601 15:215.55299 16:134.274 17:132.217 18:132.93201 19:238.127 20:238.291 21:237.95799 22:143.11 23:142.62399 24:142.754 25:238.127 26:237.819 27:239.64301 28:144.769 29:144.64101 30:144.948 # frame 2369
-1.7755309994394452e-012 1:107.89 2:9.0467396 3:251.17 4:69.476196 5:31.068399 6:167.075 7:235.356 8:234.953 9:233.924 10:139.968 11:139.85699 12:139.70399 13:232.043 14:234.409 15:235.511 16:139.702 17:140.743 18:141.55499 19:243.52499 20:242.32001 21:244.965 22:145.203 23:144.64 24:145.47501 25:231.565 26:231.26601 27:224.95799 28:142.13699 29:142.01401 30:139.339 # frame 2369
-2.1223435140196273e-012 1:42.102299 2:9.9295998 3:272.259 4:42.727798 5:33.042 6:175.13901 7:215.334 8:214.48599 9:214.729 10:130.603 11:130.097 12:130.20599 13:220.905 14:218.157 15:218.72701 16:135.761 17:134.716 18:134.86099 19:237.06599 20:234.74699 21:235.267 22:142.72301 23:141.38 24:141.21001 25:241.77 26:242.952 27:243.06599 28:145.771 29:146.381 30:146.095 # frame 2369
6.0378130147007785e-012 1:279.18399 2:7.9481301 3:245.62399 4:178.694 5:30.0438 6:167.537 7:200.78999 8:199.444 9:199.69299 10:127.636 11:127.084 12:127.219 13:208.927 14:206.121 15:207.327 16:129.286 17:127.828 18:128.58099 19:252.35201 20:248.50999 21:247.18401 22:147.645 23:147.369 24:146.84801 25:219.58299 26:219.285 27:221.685 28:138.935 29:137.983 30:138.666 # frame 2405
-6.7283814913023315e-013 1:280.98499 2:9.1144199 3:232.981 4:179.276 5:32.2071 6:163.13 7:192.629 8:191.612 9:191.27299 10:124.423 11:124.115 12:124.063 13:197.81599 14:195.866 15:196.32899 16:124.668 17:123.335 18:124.16 19:253.44 20:248.532 21:248.263 22:148.69 23:147.12199 24:147.222 25:211.127 26:209.31599 27:209.957 28:135.40199 29:134.11501 30:133.77499 # frame 2405
-3.4184445286820017e-012 1:281.267 2:11.9464 3:214.569 4:179.358 5:36.752602 6:156.448 7:201.035 8:196.47701 9:198.86099 10:126.989 11:125.269 12:126.213 13:212.289 14:212.799 15:212.284 16:131.20399 17:131.446 18:131.327 19:246.72301 20:245.002 21:248.175 22:146.073 23:145.67999 24:146.98399 25:218.243 26:219.56799 27:219.46001 28:137.172 29:137.146 30:137.158 # frame 2405
3.5923111001887716e-012 1:286.17401 2:17.749399 3:177.39999 4:180.914 5:44.777302 6:142.14799 7:203.14999 8:203.97501 9:203.03101 10:126.201 11:126.593 12:126.122 13:209.92799 14:211.226 15:214.302 16:130.50301 17:131.254 18:132.7 19:237.76199 20:240.498 21:239.243 22:143.354 23:144.358 24:143.657 25:221.972 26:225.008 27:224.342 28:137.733 29:139.41701 30:139.104 # frame 2405
-7.6725153394983317e-013 1:66.350098 2:13.8676 3:153.172 4:71.612801 5:34.997002 6:127.447 7:221.62199 8:220.97301 9:224.799 10:133.366 11:133.20399 12:134.839 13:221.272 14:223.05099 15:220.069 16:133.556 17:134.40401 18:133.233 19:223.84801 20:226.694 21:225.41 22:135.38499 23:136.368 24:135.797 25:231.183 26:233.63 27:231.05 28:138.92 29:139.855 30:139.067 # frame 2405
-6.6382927105462706e-013 1:278.25201 2:1.48613 3:290.047 4:177.923 5:12.6744 6:181.86501 7:210.662 8:207.871 9:205.68201 10:130.13 11:128.65199 12:127.935 13:215.716 14:213.85699 15:216.062 16:132.34 17:131.373 18:132.45599 19:245.743 20:246.188 21:245.99699 22:144.82899 23:145.52499 24:145.09599 25:227.532 26:227.67101 27:229.78999 28:140.937 29:141.043 30:141.83501 # frame 2475
7.6785601754052436e-013 1:295.32599 2:1.06701 3:296.45801 4:183.47 5:10.6319 6:183.767 7:209.077 8:207.332 9:208.267 10:130.51401 11:129.929 12:130.269 13:219.911 14:218.31599 15:218.85699 16:134.297 17:133.69299 18:133.561 19:248.478 20:253.21201 21:247.565 22:146.043 23:147.868 24:145.72501 25:233.75301 26:233.407 27:230.79401 28:143.28 29:143.569 30:142.504 # frame 2475
-1.5972383581213528e-012 1:310.52301 2:0.95958 3:283.073 4:187.946 5:10.1762 6:179.64 7:216.47501 8:215.936 9:215.19701 10:133.03999 11:132.612 12:132.39 13:218.459 14:217.271 15:218.666 16:134.315 17:133.56599 18:134.16499 19:245.79401 20:247.511 21:246.371 22:144.716 23:145.735 24:145.306 25:229.28101 26:229.619 27:229.46899 28:141.621 29:141.79401 30:141.66701 # frame 2475
-3.130923519548308e-012 1:296.961 2:0.924676 3:260.164 4:183.52699 5:9.8889999 6:172.202 7:217.181 8:216.28999 9:215.485 10:132.763 11:132.543 12:131.95599 13:218.187 14:217.69299 15:217.759 16:134.272 17:133.961 18:133.675 19:255.022 20:254.019 21:253.416 22:147.916 23:147.65199 24:147.42101 25:223.72501 26:225.076 27:224.50101 28:139.582 29:140.039 30:139.873 # frame 2475
2.073647217592767e-012 1:311.086 2:0.75772101 3:250.311 4:188.037 5:8.9428997 6:169.071 7:213.63 8:213.677 9:214.14 10:130.911 11:131.05299 12:131.116 13:210.591 14:211.554 15:210.96899 16:130.61099 17:131.183 18:131.071 19:257.66599 20:254.49001 21:254.88 22:148.53101 23:148.222 24:148.291 25:221.57201 26:223.327 27:223.23199 28:139.061 29:139.76801 30:139.496 # frame 2475
-1.2433070789701135e-012 1:341.578 2:1.55172 3:346.01501 4:196.355 5:12.9431 6:198.487 7:201.077 8:203.75999 9:202.98599 10:127.343 11:128.55099 12:128.20399 13:216.48399 14:218.642 15:218.645 16:132.627 17:133.46001 18:133.558 19:269.19601 20:274.07999 21:274.03799 22:153.077 23:154.561 24:154.58099 25:207.862 26:203.536 27:204.87801 28:133.645 29:132.006 30:132.62 # frame 2562
3.4532365967361859e-013 1:365.599 2:1.75688 3:331.67001 4:204.131 5:13.7679 6:193.854 7:222.813 8:222.62601 9:223.201 10:135.10201 11:134.985 12:135.175 13:227.655 14:229.77 15:227.42599 16:137.98399 17:138.922 18:138.02901 19:234.16 20:237.31799 21:232.82201 22:140.631 23:141.739 24:140.255 25:234.366 26:234.177 27:233.077 28:143.00101 29:142.98801 30:142.459 # frame 2562
1.3950994222093534e-012 1:416.129 2:0.71291602 3:288.35199 4:212.02299 5:7.5163999 6:175.645 7:187.996 8:186.12801 9:184.099 10:119.422 11:118.505 12:117.46 13:194.034 14:193.342 15:194.673 16:120.618 17:120.202 18:120.717 19:249.907 20:247.696 21:246.22501 22:146.612 23:145.569 24:145.129 25:218.784 26:218.86 27:217.436 28:135.116 29:134.784 30:134.14799 # frame 2562
1.2604603064510883e-014 1:339.62 2:50.619202 3:168.321 4:194.354 5:61.1301 6:137.99699 7:201.10201 8:206.01199 9:207.052 10:126.682 11:128.856 12:129.42101 13:202.86 14:212.90601 15:205.933 16:126.067 17:131.037 18:128.265 19:253.929 20:250.41299 21:248.226 22:149.981 23:148.30701 24:148.19 25:216.226 26:218.806 27:220.48399 28:136.50301 29:137.638 30:138.444 # frame 2562
8.5334836192953432e-013 1:160.675 2:7.8666701 3:280.44101 4:120.401 5:27.383499 6:177.61301 7:209.261 8:195.75 9:195.121 10:129.951 11:124.795 12:124.479 13:215.033 14:203.201 15:203.248 16:131.88699 17:127.029 18:126.835 19:253.298 20:261.94 21:258.604 22:149.752 23:152.961 24:151.62 25:222.31799 26:231.401 27:228.506 28:138.81 29:142.91901 30:141.36501 # frame 2562
-5.0264919724999325e-012 1:236.549 2:0.97775799 3:210.601 4:138.371 5:8.7138004 6:154.44901 7:204.304 8:204.159 9:203.895 10:127.469 11:127.254 12:127.183 13:215.08701 14:214.987 15:211.24699 16:131.927 17:132.188 18:130.696 19:248.688 20:246.698 21:245.145 22:147.311 23:146.79401 24:146.101 25:230.63901 26:229.52 27:227.95599 28:141.83099 29:141.362 30:140.677 # frame 2562
1.3313875160476824e-013 1:229.976 2:0.75086802 3:308.358 4:159.48399 5:8.0114002 6:187.02901 7:200.52499 8:198.06 9:200.509 10:128.89799 11:128.183 12:128.784 13:204.55 14:202.972 15:203.73599 16:127.366 17:126.541 18:126.653 19:259.21301 20:258.69601 21:253.526 22:149.987 23:149.293 24:147.366 25:208.33099 26:208.535 27:206.41701 28:134.314 29:134.44 30:133.98599 # frame 2590
3.2771334856236516e-012 1:270.918 2:0.47896001 3:271.57001 4:173.263 5:6.9211998 6:175.899 7:201.38901 8:199.297 9:198.63699 10:129.33299 11:128.57001 12:128.263 13:207.084 14:207.38699 15:206.48599 16:128.239 17:128.25 18:128.041 19:262.099 20:261.92001 21:259.52301 22:150.754 23:150.685 24:149.534 25:209.086 26:211.17101 27:210.907 28:134.606 29:135.33501 30:135.086 # frame 2590
4.3010178224638603e-012 1:369.40302 2:0.18182001 3:257.68701 4:184.61099 5:3.9598 6:171.436 7:213.895 8:216.11099 9:214.39301 10:133.702 11:134.832 12:134.007 13:214.16499 14:216.326 15:215.761 16:131.87601 17:132.62801 18:132.172 19:250.20399 20:248.92799 21:247.106 22:146.875 23:146.013 24:145.218 25:222.62199 26:220.95599 27:221.328 28:139.549 29:139.073 30:138.842 # frame 2590
-4.0790232193540743e-012 1:488.069 2:0.395215 3:250.49699 4:225.918 5:5.6099 6:169.07401 7:210.38 8:210.474 9:210.638 10:131.925 11:131.998 12:132.069 13:212.44501 14:211.772 15:210.463 16:131.16499 17:130.91499 18:130.334 19:245.502 20:242.94299 21:242.886 22:144.96899 23:144.37 24:143.965 25:227.02 26:228.933 27:225.666 28:140.99001 29:141.589 30:140.28799 # frame 2590
1.423142812468521e-012 1:404.18399 2:38.552299 3:109.288 4:213.29201 5:59.528 6:90.9823 7:199.89301 8:198.757 9:202.29401 10:127.773 11:127.188 12:128.661 13:207.847 14:207.323 15:208.57201 16:129.27699 17:129.101 18:129.336 19:254.584 20:251.38699 21:254.957 22:148.85899 23:147.424 24:148.36 25:209.52699 26:209.42101 27:206.823 28:135.17999 29:135.026 30:134.017 # frame 2616
-1.5281824934928962e-012 1:372.961 2:54.742001 3:118.113 4:197.562 5:71.820099 6:102.499 7:222.89999 8:219.86099 9:220.849 10:133.87601 11:132.42599 12:133.10001 13:227.91901 14:229.498 15:226.823 16:138.521 17:139.418 18:138.20399 19:228.81599 20:230.74699 21:230.271 22:139.83099 23:140.60001 24:140.89999 25:230.88901 26:232.655 27:235.265 28:141.405 29:141.924 30:143.32201 # frame 2616
-2.0938438995207865e-013 1:672.77802 2:114.584 3:150.97301 4:268.99399 5:111.459 6:127.486 7:188.10201 8:196.295 9:194.29601 10:120.477 11:124.145 12:123.054 13:201.073 14:201.498 15:198.961 16:124.117 17:123.906 18:122.027 19:240.653 20:242.592 21:238.7 22:142.397 23:143.36501 24:141.80901 25:199.10001 26:195.252 27:187.73 28:128.01801 29:126.819 30:122.846 # frame 2616
2.3606030604641752e-013 1:676.46503 2:116.435 3:148.394 4:270.936 5:112.379 6:126.406 7:198.17 8:201.183 9:195.189 10:123.773 11:125.159 12:122.537 13:210.924 14:208.966 15:200.853 16:127.981 17:127.031 18:122.097 19:231.258 20:231.563 21:230.804 22:139.45599 23:139.342 24:139.42599 25:199.382 26:201.08099 27:199.933 28:127.699 29:128.437 30:127.218 # frame 2616
2.0934222802034045e-014 1:689.75299 2:106.308 3:208.89301 4:280.35001 5:107.996 6:154.248 7:219.79601 8:222.746 9:195.855 10:134.74899 11:135.936 12:125.147 13:218.73 14:221.19099 15:201.34399 16:133.056 17:133.985 18:125.105 19:228.005 20:232.446 21:256.29501 22:140.26801 23:141.646 24:151.433 25:198.342 26:197.07899 27:219.62399 28:129.728 29:129.09801 30:137.784 # frame 2616
-1.497992363094584e-012 1:354.50699 2:11.3835 3:201.424 4:179.59599 5:33.793201 6:150.87 7:205.04401 8:201.608 9:195.57001 10:128.664 11:127.636 12:125.157 13:213.43201 14:212.364 15:210.735 16:131.338 17:131.25301 18:129.972 19:256.146 20:260.703 21:257.39401 22:149.99899 23:152.256 24:150.455 25:217.19299 26:214.933 27:218.386 28:136.556 29:135.45799 30:137.42599 # frame 2616
2.6731509148776262e-013 1:133.923 2:1.28271 3:189.64301 4:74.778198 5:9.1332998 6:145.73801 7:204.888 8:203.769 9:201.205 10:129.27699 11:128.897 12:127.899 13:206.677 14:204.649 15:205.474 16:128.23801 17:127.327 18:127.709 19:252.73199 20:252.862 21:253.241 22:149.394 23:149.258 24:149.29201 25:215.22501 26:214.63 27:216.091 28:136.584 29:136.367 30:137.063 # frame 2616
1.6018594342420863e-013 1:270.89899 2:38.607899 3:165.834 4:130.17101 5:37.840401 6:135.2 7:234.23599 8:230.93401 9:222.87399 10:140.103 11:139.09801 12:136.401 13:233.39799 14:230.162 15:234.323 16:140.845 17:140.39 18:141.63901 19:231.97099 20:230.446 21:227.347 22:140.938 23:140.765 24:139.94901 25:230.047 26:227.01601 27:233.14999 28:141.30499 29:139.918 30:142.33701 # frame 2616
8.4701224050669906e-013 1:455.61099 2:26.4627 3:220.425 4:216.418 5:31.3109 6:158.452 7:201.427 8:202.604 9:200.343 10:127.404 11:127.95 12:126.964 13:207.22099 14:206.52699 15:205.75999 16:129.356 17:128.884 18:128.314 19:264.31699 20:262.599 21:262.931 22:152.01601 23:151.60899 24:151.70599 25:222.089 26:220.707 27:221.283 28:139.255 29:138.722 30:138.94099 # frame 2616
-7.5466044610243794e-013 1:338.755 2:13.679 3:141.80701 4:192.467 5:34.2752 6:116.884 7:215.134 8:213.66701 9:216.25999 10:132.153 11:131.34399 12:132.565 13:223.183 14:230.05099 15:228.47301 16:135.711 17:138.644 18:138.162 19:245.828 20:247.896 21:246.814 22:144.509 23:145.86301 24:145.388 25:213.827 26:212.037 27:212.45599 28:135.48399 29:134.94099 30:135.151 # frame 2650
3.1864419841423215e-012 1:327.983 2:4.6777401 3:239.424 4:193.187 5:21.394699 6:163.657 7:219.452 8:219.995 9:221.14999 10:133.55099 11:133.785 12:134.129 13:225.076 14:224.826 15:227.088 16:136.845 17:136.815 18:137.577 19:239.92999 20:237.216 21:239.66 22:142.88901 23:142.267 24:142.60001 25:231.59399 26:232.036 27:231.23199 28:142.13 29:142.713 30:141.897 # frame 2650
1.5905142664447591e-014 1:252.90401 2:11.9979 3:415.39801 4:165.55099 5:33.1637 6:209.577 7:153.65401 8:152.51401 9:153.881 10:101.755 11:101.163 12:101.948 13:157.867 14:160.66499 15:173.496 16:100.514 17:101.957 18:109.862 19:274.022 20:261.45599 21:270.383 22:149.757 23:144.162 24:147.90401 25:218.448 26:211.425 27:212.177 28:136.476 29:134.153 30:131.16901 # frame 2650
3.4288044988751191e-015 1:242.92 2:14.5058 3:429.82401 4:166.567 5:38.691299 6:219.312 7:175.561 8:176.19299 9:179.791 10:116.644 11:116.777 12:118.575 13:191.2 14:188.397 15:194.968 16:122.099 17:121.138 18:124.022 19:276.349 20:269.64801 21:266.62701 22:156.138 23:152.99899 24:153.46899 25:241.44901 26:240.24899 27:232.28 28:146.64799 29:146.625 30:142.27299 # frame 2650
-2.5884213056148688e-012 1:379.51801 2:0.471885 3:274.18399 4:175.248 5:6.4548998 6:176.659 7:223.284 8:224.961 9:224.49001 10:136.847 11:137.45599 12:137.235 13:218.84 14:220.347 15:220.494 16:134.065 17:134.326 18:134.554 19:236.789 20:236.233 21:237.589 22:142.39101 23:142.015 24:142.685 25:235.04601 26:232.89 27:233.37 28:143.746 29:142.718 30:142.754 # frame 2696
-4.1028012172614319e-012 1:539.29401 2:0.39219901 3:273.99399 4:244.407 5:6.4176998 6:176.63901 7:222.011 8:222.595 9:221.258 10:136.524 11:136.63699 12:136.25301 13:223.66499 14:221.784 15:223.64 16:136.008 17:135.196 18:135.772 19:233.02699 20:234.467 21:236.653 22:141.298 23:141.96001 24:142.653 25:233.317 26:231.97701 27:231.188 28:143.463 29:142.687 30:142.47301 # frame 2696
4.4976390484576153e-013 1:533.492 2:0.40988401 3:254.00999 4:245.80901 5:6.5882001 6:170.179 7:217.70799 8:218.761 9:217.105 10:134.457 11:135.015 12:134.106 13:221.38901 14:221.647 15:221.291 16:135.491 17:135.61301 18:135.37601 19:241.66299 20:242.55499 21:241.72501 22:143.839 23:144.46001 24:143.842 25:224.41 26:225.30299 27:225.09599 28:139.99001 29:140.26401 30:140.164 # frame 2696
-7.5720827334444059e-013 1:521.78699 2:0.38930801 3:240.62 4:238.44701 5:6.3262 6:165.50999 7:221.91701 8:222.048 9:220.73399 10:135.57899 11:135.674 12:135.138 13:217.63 14:216.29201 15:217.554 16:133.407 17:132.701 18:133.394 19:237.689 20:238.66 21:237.505 22:142.188 23:143.16901 24:142.11501 25:235.869 26:237.339 27:236.463 28:144.008 29:144.464 30:144.16901 # frame 2696
2.9588889701097651e-012 1:502.345 2:0.485347 3:232.57201 4:236.416 5:7.0383 6:162.761 7:213.64799 8:214.45 9:213.70799 10:132.295 11:132.776 12:132.31599 13:210.132 14:208.83501 15:210.93201 16:130.763 17:130.01401 18:130.84801 19:239.99001 20:240.942 21:242.231 22:143.158 23:143.882 24:144.13 25:235.196 26:234.78 27:235.02499 28:143.80299 29:143.541 30:143.748 # frame 2696
-9.9965619841187909e-013 1:507.05301 2:4.9112201 3:150.55099 4:238.783 5:18.835899 6:122.416 7:212.903 8:213.528 9:214.028 10:131.02499 11:131.03999 12:131.52299 13:226.007 14:225.75101 15:225.675 16:137.623 17:137.439 18:137.30701 19:242.795 20:244.29201 21:242.19099 22:145.633 23:146.214 24:145.201 25:220.77699 26:223.005 27:220.875 28:138.01801 29:138.701 30:138.13 # frame 2726
