SVM-light Version V6.20
0 # kernel type
3 # kernel parameter -d 
1 # kernel parameter -g 
1 # kernel parameter -s 
1 # kernel parameter -r 
empty# kernel parameter -u 
35 # highest feature index 
39 # number of training documents 
2 # number of support vectors plus 1 
0.059649488 # threshold b, each following line is a SV (starting with alpha*y)
1 1:0.029010348 2:-0.10927055 3:-0.0060566878 4:0.013876088 5:0.077624753 6:0.055230711 7:0.048394445 8:0.00051590515 9:0.038586669 10:0.03104631 11:0.056803714 12:0.067560971 13:0.067950048 14:-0.023244776 15:-0.016536215 16:0.021013569 17:-0.022243422 18:-0.013880773 19:-0.0044732862 20:0.01260214 21:0.040061854 22:0.04401809 23:0.047595516 24:0.043900993 25:0.029283039 26:-0.066828817 27:-0.10126089 28:-0.15119141 29:-0.0036093688 30:-0.022669889 31:-0.030826231 32:-0.071915314 33:-0.0018011354 #
