SVM-light Version V6.20
0 # kernel type
3 # kernel parameter -d 
1 # kernel parameter -g 
1 # kernel parameter -s 
1 # kernel parameter -r 
empty# kernel parameter -u 
35 # highest feature index 
36 # number of training documents 
2 # number of support vectors plus 1 
0.039025708 # threshold b, each following line is a SV (starting with alpha*y)
1 1:-0.030095711 2:-0.01885134 3:-0.035234068 4:0.047089729 5:0.066257097 6:-0.0080047529 7:-0.055514332 8:0.020604353 9:-0.014015931 10:-0.0018406698 11:0.03641523 12:0.035668503 13:0.032635804 14:-0.028708175 15:-0.015800567 16:-0.023268688 17:-0.00063492125 18:0.0044426955 19:-0.01131805 20:0.040436108 21:0.02678181 22:0.064010285 23:-0.030038247 24:-0.032748632 25:-0.013419873 26:-0.064053096 27:-0.0013211223 28:0.017410031 29:-0.042044975 30:-0.013659779 31:0.0011335588 32:0.05128729 33:0.023100188 #
