SVM-light Version V6.20
0 # kernel type
3 # kernel parameter -d 
1 # kernel parameter -g 
1 # kernel parameter -s 
1 # kernel parameter -r 
empty# kernel parameter -u 
35 # highest feature index 
24 # number of training documents 
2 # number of support vectors plus 1 
0.059232004 # threshold b, each following line is a SV (starting with alpha*y)
1 1:0.0097400341 2:0.041375734 3:-0.04926838 4:-0.016302142 5:0.032687753 6:0.00066268706 7:0.014189508 8:-0.020931333 9:0.023777027 10:0.028256036 11:-0.0024921987 12:0.01534466 13:0.01725561 14:-0.046030242 15:-0.01239311 16:-0.030467536 17:-0.00848429 18:0.0043329811 19:-0.0028044854 20:0.020270102 21:-0.015569554 22:-0.00097487395 23:0.014867567 24:0.00020949477 25:0.0044528367 26:0.024123773 27:-0.0030829497 28:-0.03666918 29:0.019645935 30:0.0072704297 31:-0.0059672226 32:0.14065877 33:0.0044472869 #
