SVM-light Version V6.20
0 # kernel type
3 # kernel parameter -d 
1 # kernel parameter -g 
1 # kernel parameter -s 
1 # kernel parameter -r 
empty# kernel parameter -u 
35 # highest feature index 
24 # number of training documents 
2 # number of support vectors plus 1 
0.043653055 # threshold b, each following line is a SV (starting with alpha*y)
1 1:0.015242601 2:0.081521489 3:-0.043750394 4:-0.046262737 5:0.017600974 6:-0.021220144 7:-0.019899903 8:-0.019897994 9:-0.013693271 10:-0.03134184 11:-0.022135232 12:-0.019826237 13:-0.026571052 14:-0.0064888569 15:-0.002201203 16:-0.0068456517 17:-0.0057985168 18:-0.0040305662 19:-0.0055112736 20:-0.025504377 21:-0.015242124 22:-0.015105518 23:-0.01967294 24:-0.01691577 25:-0.015434991 26:0.063481562 27:0.061094977 28:0.063846439 29:0.013067584 30:0.011581144 31:0.012598481 32:-0.00093925151 33:-0.00032710287 #
