SVM-light Version V6.20
0 # kernel type
3 # kernel parameter -d 
1 # kernel parameter -g 
1 # kernel parameter -s 
1 # kernel parameter -r 
empty# kernel parameter -u 
35 # highest feature index 
40 # number of training documents 
2 # number of support vectors plus 1 
0.074630405 # threshold b, each following line is a SV (starting with alpha*y)
1 1:-0.038489208 2:0.028377857 3:-0.049906321 4:-0.019183736 5:0.056857135 6:0.024372751 7:0.037733857 8:-0.020514466 9:-0.0019601954 10:-0.014043638 11:-0.023435872 12:-0.017044077 13:-0.021011811 14:0.050468076 15:0.038675621 16:0.041137543 17:0.018404735 18:0.010079993 19:0.012540304 20:-0.03074776 21:-0.028751245 22:-0.017864278 23:-0.03081158 24:-0.029315904 25:-0.02597565 26:0.017542632 27:0.0053202226 28:0.0099682193 29:-0.0069739642 30:-0.013978649 31:-0.012447864 32:-0.0078369323 33:0.0030048087 #
